# Shape: (6, 1, 5, 5)
# C-style row major order
-0.36890802,-0.20058458,0.3210356,0.051638376,0.05976145,0.03923682,0.3096869,0.4001094,0.09001623,0.0070676263,0.39464763,0.39619216,-0.1227204,-0.32684103,-0.33007875,0.07987922,-0.050282344,-0.40076536,-0.21227296,0.019642623,-0.17480679,-0.48898518,-0.2768532,0.27658918,0.124360666,-0.07361264,-0.34352344,-0.37559116,-0.08455109,-0.036992673,0.187636,-0.040217556,-0.3364113,-0.5148938,-0.28095713,0.38730192,0.31671187,-0.040594816,0.23310183,-0.1654341,0.059251554,0.29280818,0.102581084,0.19938459,0.0026028675,-0.009753265,0.082485,0.27683973,0.054652084,0.32823056,0.048747458,0.061893877,-0.20944203,-0.3218541,0.009611158,0.18237054,-0.4613841,-0.30070305,-0.20305309,0.29156792,-0.19711673,-0.4737662,-0.29071575,0.04361664,0.41985568,-0.17165884,-0.08518438,0.07451051,0.42768246,0.28984678,-0.1208139,-0.08202872,0.13128488,0.10839163,0.21459565,-0.08114216,0.13320293,0.026032628,-0.10657641,-0.0794659,0.077753596,0.2242148,-0.120365456,-0.35567886,-0.1413679,-0.082150824,0.28341404,0.016160684,-0.028725622,-0.2101919,0.063755356,0.1755885,0.21708699,-0.17053537,-0.029993704,-0.072426535,0.18160312,0.2877649,-0.08602583,-0.020451361,-0.04599098,-0.0024244736,0.080656715,0.12235606,0.024704171,-0.35034952,0.109083,0.22730216,0.16892104,0.27979496,-0.34572265,-0.2102041,-0.19656324,-0.025875023,0.24776497,-0.322854,-0.1713526,-0.22607435,-0.20795996,-0.21307139,0.087154485,-0.21942817,-0.2946077,-0.43228206,-0.4045394,-0.084239185,-0.06952551,-0.28817996,-0.39446512,-0.17044339,0.0155083705,-0.01731511,0.23480587,0.11095901,0.22728495,0.02094569,0.30772159,0.5048678,0.53573054,0.18062547,-0.06733936,-0.108283676,-0.20703812,0.084378734,0.2188444,-0.14453185,-0.45875084,-0.61559176,-0.6161723,-0.21424095