# Shape: (16, 6, 5, 5)
# C-style row major order
0.07146808,0.076984815,0.020230608,0.06649661,-0.09175444,0.08872654,0.17085078,0.093247876,-0.08694232,-0.30657828,-0.11005186,-0.19007142,-0.16371773,-0.018145714,0.16014796,-0.27028602,-0.12438087,0.0826631,0.31673214,0.28991118,-0.17331606,0.09691553,0.16323529,0.16589145,-0.28590682,0.030590164,0.07227416,0.07219166,0.060216982,-0.053642605,0.06121767,0.11002304,0.15378152,0.06663328,0.041230068,0.03016343,0.07047147,0.2154132,0.15374874,0.14903873,0.012224187,0.004993848,-0.08539879,-0.12776113,-0.059476733,-0.10801763,-0.16796501,-0.20615925,-0.1771255,-0.04871686,0.0441791,-0.022845658,0.09212782,-0.025251023,-0.119431965,0.07499273,0.06966155,0.02954636,-0.07465197,-0.22161692,-0.13233134,-0.060547978,0.104966946,0.112207256,-0.35947362,-0.15626651,-0.18360487,-0.13778318,-0.22790569,-0.30017912,-0.16646834,-0.5907224,-0.49788797,-0.10916694,0.32957885,-0.048092272,-0.10567312,-0.09936973,-0.11733115,-0.1860946,-0.02377208,-0.04677229,0.0025989597,0.055551656,0.02737679,0.04692816,0.008197669,0.12179658,0.15502092,0.25589755,0.056171503,-0.0054367417,0.0575679,0.0070518027,0.00437077,-0.16916385,-0.03458337,-0.045051284,-0.1229613,-0.11221955,0.0002536208,-0.07614693,0.027449021,0.21158119,0.25975597,-0.39587736,-0.4097163,-0.40768424,-0.12201438,0.019391563,-0.17405649,-0.21953243,-0.53463817,-0.45297566,-0.03198306,0.05326601,-0.031644434,-0.14218049,-0.027061015,0.030299176,0.084893495,0.09298754,0.033292517,0.09682585,0.2006666,-0.16298102,-0.03850931,0.18298878,0.24907357,0.23251945,-0.19143283,-0.074061185,-0.00972409,-0.23509233,-0.0051170476,0.033852223,-0.041621123,0.117256515,0.087364025,-0.06376824,0.18359704,0.2350858,0.15302289,0.11371472,0.07451901,0.28576934,0.25587532,-0.017428892,-0.47138754,-0.27732274,0.24915718,-0.10290059,-0.5146153,-0.05321919,0.21990785,0.051281363,-0.28129157,-0.08531887,0.022554114,0.09988535,0.33401588,-0.415505,-0.1660986,0.02413231,0.19424462,-0.099670716,-0.21058092,-0.23378457,-0.13159947,0.044521786,-0.21920538,-0.034524553,-0.22831509,-0.117447115,0.00720757,0.10794972,-0.28515816,0.07138679,0.22684057,0.17795804,0.17177002,-0.13408205,0.08492103,0.12886494,0.12222717,0.037949387,-0.113642044,-0.0022137733,0.02151835,0.04290012,-0.24373472,-0.40683,-0.29355696,-0.14249556,0.078005634,-0.16075529,-0.5147741,-0.03835957,0.23048556,0.029213456,0.1348347,0.11685383,-0.119675696,0.017142404,-0.07754875,0.13313025,0.12268874,0.06690282,0.10609828,-0.08424199,0.13193677,0.0067605134,0.05761354,-0.33774626,-0.4195798,0.15232654,-0.050414156,-0.1099516,-0.4740255,-0.40419024,0.01405288,-0.19129114,-0.13287354,-0.38782495,-0.36938125,-0.16222245,-0.3272179,-0.024906542,-0.021437228,0.099263184,-0.122106425,-0.42231676,-0.021313054,0.08723231,-0.029654754,-0.30064717,-0.15383233,0.060511768,0.17457052,0.097633615,-0.52140653,0.09858002,0.090604074,0.16632238,-0.0868161,-0.12690376,0.25399023,0.14201522,0.22372063,-0.08876599,0.050800364,0.25705606,-0.08037697,-0.26922306,-0.3262633,-0.10212865,0.15045193,-0.52641,-0.43139327,-0.292313,-0.030336022,-0.04432768,-0.5492415,-0.31180847,-0.1536209,0.05452027,-0.18164374,-0.2546496,-0.069504224,-0.037910067,0.11509267,-0.09773637,-0.106281035,0.12898648,0.16484374,-0.13431114,-0.30545315,-0.22495542,0.04608183,0.19121508,0.21863489,-0.2439472,-0.47996023,0.17930381,0.42173493,0.31152582,-0.3303252,-0.24505733,0.13234173,0.25562873,0.22943038,-0.13273044,-0.094064616,0.31810668,0.40318394,-0.107362516,-0.05920989,-0.060094483,0.088897206,0.056801658,-0.17580031,-0.2694938,-0.107678875,0.2158886,0.12733942,0.16772541,-0.09684928,-0.2244104,-0.107324444,0.2790542,0.15925297,-0.011120781,-0.23332047,-0.07638741,0.15257882,0.23045366,0.22164516,0.08310937,0.03423255,0.0019145875,0.104840875,0.19190632,0.08602819,0.050781757,0.018024756,-0.11815316,-0.07361874,-0.016064217,0.035608042,-0.0053658076,-0.0212467,0.15433769,0.1634139,0.2226217,-0.1350443,-0.045617312,0.11143475,0.23413342,0.2784513,0.18958534,-0.3725444,-0.6072627,-0.33136886,0.054268405,0.12444344,-0.11690705,0.022949765,-0.1309796,-0.1977718,-0.053228833,-0.07272294,-0.08783317,-0.0872911,0.07237499,0.217137,-0.1862988,-0.06922015,-0.25508377,-0.2645289,0.23002538,-0.08180203,-0.027509138,-0.32670173,-0.3557912,0.090279475,-0.05881688,-0.021434303,-0.14312464,-0.47920367,-0.42882064,0.08188007,0.22654372,0.34991995,0.04570277,-0.2954325,0.03724105,0.04367635,0.03478131,0.11445637,-0.16639355,-0.18121539,-0.007728778,0.124710694,0.20760436,-0.14533207,-0.31689292,-0.04447633,-0.023004686,0.20177788,0.1563247,-0.12929398,-0.15664764,-0.1459045,0.020348066,0.23119538,0.13712293,-0.017591318,0.045708474,0.03721314,0.13945065,-0.019952442,-0.084870264,-0.3602403,-0.0759389,-0.14280549,0.16791493,0.11851736,-0.38491598,-0.26982555,-0.3157979,0.10948048,0.10408663,0.13401434,-0.2094972,-0.30649474,-0.112191424,-0.016411155,0.03222474,-0.08446754,-0.2166175,-0.19488373,-0.17573865,-0.16568847,-0.08795145,-0.11408022,0.06697916,0.072637044,-0.19106308,0.04444642,0.0890804,0.32589695,0.24914335,-0.0025464569,-0.14614362,0.009227999,-0.030845407,0.142932,0.27271193,0.23417105,0.1356176,-0.40170848,-0.18736783,0.049783394,0.06695038,0.044267688,-0.21385506,-0.13155973,0.0090480745,0.04855546,0.0019892505,-0.38542044,-0.11300853,-0.029733263,0.083942816,0.04699669,-0.025338698,-0.102472566,0.0180335,0.13395843,0.08058694,0.0077928393,0.08442808,0.22525632,0.21161039,0.10268116,-0.05346285,-0.33513457,-0.24083817,-0.0868774,0.012714848,0.08940415,-0.06808344,-0.014193607,0.09399034,0.026788203,0.016691277,0.05629523,0.119960204,0.13955729,0.074621096,0.05063742,0.23267144,0.118544154,0.047093656,0.059464477,-0.16881192,-0.13066207,-0.4063997,-0.40962163,-0.3524004,-0.008067219,0.08392391,0.046230413,-0.19205675,-0.35706753,-0.10796184,-0.020506458,0.1039419,0.009386499,-0.11649858,-0.068808116,-0.12551877,-0.034770973,-0.064212635,0.059118014,-0.098862104,-0.07887086,-0.054173812,-0.08273926,-0.10395788,-0.3662776,-0.47734848,-0.3971598,-0.37829587,-0.15838547,-0.15130787,0.055902176,0.12122238,0.18059383,0.2111799,0.3197397,0.22025518,0.113582894,0.04931294,-0.17096414,0.0379947,0.024158208,0.017497256,0.0071323197,0.03391757,0.07081797,-0.019825362,0.093665704,0.17877497,-0.010176808,0.031183178,-0.21112725,-0.26096818,-0.108976,-0.08636303,0.110906765,0.041710805,-0.12866195,-0.062349036,0.003254344,-0.19795255,0.11561492,0.06632086,0.07858332,0.06269349,-0.004341002,-0.2710113,-0.5032025,-0.34839848,-0.010497772,0.003356255,-0.10361361,-0.18426582,-0.27566108,0.017243896,0.09480079,0.2990844,0.15066421,-0.08024812,-0.09478168,-0.08247776,-0.06515203,-0.020116733,-0.16625558,-0.21597362,-0.030846609,-0.115058646,0.07643789,0.10001998,0.27352947,0.12108818,0.3513111,0.15424132,-0.15800102,-0.27738822,0.24394263,0.48253936,0.34358853,0.25185063,0.19504349,0.0967694,0.52332723,0.45483056,0.10345303,0.004536836,-0.45023695,-0.68749696,-0.46618274,-0.29598773,0.16391508,-0.13446024,-0.12195495,0.26022422,0.31491274,0.32101676,0.26205292,0.19485298,-0.17973192,-0.18367445,0.07835896,0.2639743,0.15389901,-0.23416397,-0.13696015,0.3101479,0.3374649,0.06696946,0.022731584,0.23963676,0.0968675,0.05176166,0.003664273,0.19020869,0.17799416,-0.06314137,-0.3885283,-0.28274617,-0.0942475,-0.16663015,0.20578673,-0.26440713,-0.503538,-0.44992638,-0.29129043,-0.16310714,0.09894047,0.012623268,0.06629953,0.055394292,-0.0014217453,0.16534807,0.27230778,0.27582648,0.097936325,-0.12688813,-0.01806331,-0.223489,-0.17076172,-0.028513007,-0.047097653,0.060339857,0.016741386,0.06828191,-0.015311672,-0.09773888,-0.30018932,-0.55428153,-0.18064845,0.07020435,0.098137476,-0.4381798,-0.08723274,0.1265013,0.10801615,-0.006448033,0.0536508,0.33053023,0.14183156,-0.22617042,-0.2568675,0.20357138,0.058466163,-0.15734728,-0.2207439,-0.050997492,-0.14842224,-0.2413211,0.00198939,0.08042997,-0.15958908,-0.051924247,-0.044397295,-0.4328707,-0.5896927,0.048061453,-0.016815975,-0.1416467,-0.3134827,-0.37009203,-0.0049506687,-0.109414086,-0.10808495,-0.08462801,-0.2901136,-0.2281282,-0.24003655,-0.23479255,-0.112938605,-0.16400574,-0.078236744,0.011707762,0.17321254,0.100228764,-0.18775976,0.031269208,-0.028411957,0.16019163,0.16261952,0.10604527,0.10188101,0.099580385,-0.025711246,-0.025263103,0.088115215,0.048391182,-0.11109581,-0.1549689,-0.07084322,-0.14617735,-0.25606835,-0.18491863,0.0920388,-0.081284136,-0.33191052,-0.22802755,-0.2212811,-0.11704143,-0.17526755,-0.33993688,-0.0031170086,-0.03488498,-0.050914954,-0.013029191,0.15009369,0.29242414,0.044852678,-0.3156782,0.101373225,0.54415953,0.5890623,0.064563714,0.10437993,0.24185747,0.30518648,0.33533484,-0.3526178,-0.09263974,0.18056595,0.15001239,0.22672781,0.14473048,-0.024449978,0.08542339,0.013347703,-0.06364973,0.16111855,-0.04426421,-0.019375892,0.33852282,0.058060385,0.1589658,0.009028726,-0.12069813,-0.080848895,0.046199247,-0.25800776,-0.3494529,-0.04111164,0.053591114,-0.15293491,-0.23562777,-0.33662605,-0.38001394,-0.2099649,-0.257779,-0.03511531,-0.07700848,-0.028879633,-0.114852056,-0.32487914,0.018451227,0.11765854,-0.11673492,-0.10758763,0.21319851,0.053577833,0.040089045,-0.055014975,-0.2666863,-0.44056517,-0.2592268,-0.25336894,-0.08682771,-0.0832653,-0.051700775,-0.09366559,-0.1746094,-0.22315355,0.107999206,0.20348942,0.2340431,0.1299578,0.10761845,-0.07355004,0.13560995,-0.13138342,-0.15791403,-0.0922338,0.15368882,0.26749605,0.06604229,0.009904108,-0.099304244,-0.062251933,-0.16848204,-0.3248738,-0.25046825,-0.18589182,-0.08233005,-0.44616073,-0.4317795,-0.2086049,-0.1707975,-0.09924249,-0.22079231,-0.1670651,-0.16060865,-0.146452,0.104262285,-0.16735055,0.1588225,0.08983544,-0.16622812,-0.09592452,0.17955393,-0.09131197,-0.055238478,0.1058184,-0.038392205,-0.07396249,-0.1496597,-0.21746996,-0.00935503,0.2875828,0.1950361,0.04901701,0.06760446,-0.044489056,0.32266372,0.2572534,0.039766535,0.13677856,0.0287553,0.12012515,0.18152606,0.08836354,-0.09132816,0.028769236,-0.18946877,-0.29352123,0.041970372,0.048990075,-0.2591746,-0.5301113,-0.272972,0.07779706,0.14627324,-0.14941788,-0.32309484,-0.20617872,-0.13285542,0.19582322,0.13841955,0.008392242,0.10417539,-0.011171816,0.06272878,0.15445665,0.10425904,0.08801624,0.04926214,0.16976255,0.19188914,0.039588384,0.058642432,0.13119893,0.09607399,0.0016242154,0.0073474157,0.2514703,-0.040706143,0.3608933,0.39491394,0.2616411,0.124140486,-0.16671516,-0.14451964,0.2943925,0.26407138,0.23615645,0.24748987,0.1611609,0.07862249,0.20613013,0.07551262,-0.266816,-0.17231713,0.14246589,0.321625,-0.12434559,0.15076599,0.08239634,-0.21511829,-0.45051157,-0.72689486,-0.12999623,-0.10626669,-0.061372276,-0.28827026,-0.3727661,-0.1486157,0.0662514,0.14068209,-0.06941035,-0.08939748,0.1817935,0.42593268,0.5045219,0.5050334,0.028409848,-0.13996786,0.058117606,-0.041927673,-0.18929163,-0.23138861,-0.1606208,0.21249895,0.33642775,0.3336747,0.061163686,0.102548674,-0.0992013,0.032244135,0.18705408,0.01687006,0.27077356,-0.071965344,-0.1542214,-0.16096887,-0.17235196,0.14137249,-0.18142137,-0.49746615,-0.60676485,-0.31805977,0.1042563,-0.04695285,-0.22347344,-0.19002001,0.051743295,0.037111737,-0.10942065,-0.24284925,-0.20084232,-0.07003104,0.011050372,-0.3653304,-0.17300396,-0.05072126,0.053792056,-0.003247366,0.15009671,0.16374855,0.2634033,0.15567018,0.13546051,0.13025525,0.15558742,0.25262272,-0.015461029,-0.32926112,-0.08030567,0.0025090917,-0.13007769,-0.047492485,-0.32466894,0.0820765,0.2404842,0.22516152,-0.057042554,-0.16634266,-0.04601745,0.103238314,0.25204057,0.020717507,-0.025079142,-0.15428194,-0.029534655,0.060019206,0.12405977,0.035848886,-0.12635496,-0.17558801,-0.15794064,-0.05209547,0.082872465,0.13449381,0.0833774,-0.12976457,0.22535984,0.17990406,0.28405315,0.27604598,0.15485834,0.29242033,0.30245456,0.34538275,0.39062464,0.13488217,0.2305158,0.08672572,0.03880677,-0.21584353,-0.32058433,-0.092860565,-0.11855288,0.0332736,-0.059262972,-0.11751736,-0.1344475,-0.07927462,0.16724914,0.2762609,0.020523008,-0.36390087,0.24469313,0.15526672,0.19542606,-0.30962175,-0.542348,0.20137388,0.15422347,-0.1752711,-0.49941042,-0.47201273,-0.00795036,-0.36189365,-0.64074826,-0.5719286,-0.56181353,-0.03767345,-0.24054015,-0.104244865,-0.3495237,-0.5030806,-0.19252263,0.006147904,-0.0490886,0.07195737,0.30131182,-0.053850852,-0.2529732,-0.09583131,-0.11790407,0.18467498,-0.24713793,-0.25920758,-0.29612842,-0.13866739,-0.1216272,-0.39781824,-0.16170841,-0.37692496,-0.48946288,-0.30537933,-0.029014405,-0.055716712,-0.13419132,0.20829439,0.41196066,0.014804252,-0.3847827,-0.31896815,-0.30556977,-0.20369881,0.28110978,0.09288603,-0.035189785,0.10380191,0.0771527,-0.043870125,0.07567646,0.21422939,0.03496809,0.22576363,-0.06024089,0.21753705,0.1937644,-0.0021600632,0.002982013,-0.083733745,0.2867579,0.23476571,-0.101398066,-0.22095577,0.16197678,0.19317353,0.30154368,0.3064237,-0.4694678,-0.08382471,-0.081716746,-0.099297434,-0.26998147,-0.10403084,-0.054112293,-0.37570643,-0.16389799,-0.2201712,0.024853578,-0.022577198,-0.2489117,-0.11661225,0.0681934,0.010983693,-0.026787395,0.19167659,0.19554588,0.20656826,-0.2309663,0.102507524,-0.07981563,-0.16734698,-0.12693983,-0.069598414,0.04482564,-0.079457566,-0.04998898,0.037892677,-0.04565726,0.09269469,0.09080261,-0.00014508677,0.03231497,0.026422746,0.02717411,0.10366758,-0.030007007,-0.08964439,-0.016399916,-0.082562685,-0.02255817,-0.07730023,-0.3175967,-0.013232259,0.14622952,0.09883502,-0.16816872,-0.27417538,-0.08434939,0.082751095,0.25716802,0.26608315,0.11560475,-0.07316608,-0.031846557,-0.0048091686,0.2261389,0.14905514,0.012069441,0.053207647,-0.20719919,-0.09919906,-0.23367317,-0.29885283,0.18239504,0.007711466,-0.13088194,-0.1599801,-0.10032805,0.13071337,-0.0054579685,-0.024461694,-0.070197955,-0.06940922,-0.22214551,0.0016835748,0.18307203,0.20552786,0.00527758,-0.022972886,-0.32822707,0.30440825,0.19945672,-0.66551363,0.13665774,-0.061363954,-0.45548725,-0.43741044,-0.2415065,0.38091257,0.14071552,0.072779015,-0.025447238,0.0145325195,-0.06330339,-0.23494764,-0.06926943,0.1367993,0.10248489,-0.23057462,-0.37349382,-0.0744415,-0.148856,-0.39672035,-0.29262578,-0.040396597,-0.06730472,-0.25791672,0.07966505,-0.25201637,0.047753926,-0.10783406,0.12276783,0.14436877,0.02839166,-0.121446475,-0.23956016,-0.08777953,0.14679475,0.18728824,0.18679431,-0.0005575712,-0.40259454,-0.4611297,-0.20374276,0.031619728,0.09261194,-0.19142613,0.09711268,-0.4787932,-0.13937916,0.16129574,-0.1365544,0.02081668,-0.5356046,-0.051335625,0.17710519,-0.07900577,-0.09750422,-0.35068056,0.14744271,0.18409021,0.25145456,-0.06927718,0.112675965,0.043346684,-0.1961925,-0.10741197,-0.08927198,0.19079028,-0.038286056,-0.5278201,0.26487327,0.053929977,0.24726535,-0.21225756,-0.33080757,0.22436659,0.037060007,0.2663853,-0.052458186,-0.051748578,0.07132139,0.1619237,-9.357096e-06,-0.15724614,-0.061042566,-0.0039460375,0.091860786,0.02484372,0.12250032,0.051947784,0.004054345,-0.3237574,-0.114674844,0.28130567,0.13182203,-0.08263206,-0.122696154,-0.030794742,0.30569202,0.09150346,-0.1811688,-0.01606834,0.0787675,0.22605456,-0.056884132,-0.2716739,-0.095874414,0.10452537,0.1949592,-0.033110507,-0.095101185,-0.12819189,-0.18290333,-0.19514507,-0.13219573,0.09517651,-0.08643592,-0.21708001,-0.32574493,0.005214864,0.18599142,-0.060610022,-0.13676737,-0.31396908,0.053060435,0.28983393,-0.005625846,-0.087790065,-0.15565412,0.16025837,0.19213794,-0.061457008,-0.007252896,0.09620782,0.19407958,-0.0042869677,-0.11395886,-0.2522675,-0.4193516,-0.55386376,-0.184585,-0.037644487,-0.20592815,-0.5320479,-0.484221,-0.11316251,-0.2394526,-0.4415663,-0.5069034,-0.22709717,0.26382044,0.028624233,-0.2669466,-0.09974228,0.18095972,0.38950557,0.17874572,0.06775158,0.13552755,0.27297637,0.027651161,-0.13150927,0.26222208,0.20895204,-0.07394919,-0.60751677,-0.42437786,0.19198439,0.21722676,-0.13380553,-0.5155264,-0.4370413,-0.019983832,-0.15073892,-0.23866801,-0.15083992,-0.011181964,-0.1667397,0.097035944,0.1301744,0.24979025,-0.014342883,0.021453414,0.09610806,0.021802625,0.1325398,-0.093336105,-0.1327775,-0.13463229,0.069771476,0.27336943,0.2268531,0.054383036,-0.0005696165,0.052931752,0.2985874,0.19153115,-0.10273402,-0.33311087,-0.46169737,-0.381694,-0.0013095693,0.08820711,-0.21159205,-0.54454666,-0.45215273,0.106942594,0.17315611,-0.23861735,-0.28202838,-0.26048043,-0.07332286,0.046248745,-0.13452947,0.047177065,0.23422953,0.011365598,-0.032304194,-0.0052700066,0.020055281,0.10204545,0.0732412,-0.06558459,-0.11002483,-0.059934754,0.043932553,-0.12377205,0.074863546,-0.2842276,-0.060618743,0.022956904,-0.24110124,-0.29063246,-0.5289696,-0.19555011,-0.090045385,-0.13134113,-0.24156043,-0.015254987,0.1622022,0.17608796,0.05862218,-0.055115066,-0.20768642,-0.1045108,0.16870683,0.20425639,0.0033922112,-0.16825575,-0.20882726,0.12249611,0.027793545,0.05368325,0.089452505,-0.11131248,-0.05095484,0.058833294,0.1084105,0.14718983,-0.043545134,-0.25447005,-0.23831259,0.15903637,0.089026585,-0.03973753,-0.40816617,-0.40721527,0.13103105,0.12743291,0.026513696,-0.69147587,-0.5716878,-0.10612978,0.040769886,-0.021748293,-0.21295926,-0.45910603,0.07161051,-0.036993034,-0.07709084,0.025139837,0.12939548,0.09720735,-0.018464247,0.111558385,0.21338637,0.16726165,0.18426502,-0.012038075,-0.21953115,-0.14314537,-0.26619694,0.15171018,0.10573778,-0.030086137,-0.41246414,-0.4088534,0.21577233,-0.18147153,-0.20527151,-0.27728587,-0.1930819,0.20780952,0.0462575,0.13405426,0.14203656,-0.086513735,0.20675217,0.030980408,0.092374235,0.109425,0.0747161,-0.06553722,0.011017112,-0.021576876,-0.1194098,-0.16947143,0.15284905,-0.22371987,-0.30852067,-0.28380537,-0.41814524,-0.21590452,-0.3581392,-0.27386987,-0.59469306,-0.5245257,-0.139623,0.059191786,0.2572543,-0.08393281,-0.019767575,-0.21516928,0.39505827,0.39685205,0.26369634,0.12310843,0.07143347,-0.08119153,-0.2718242,-0.02425158,0.043688186,0.16338263,0.35349923,0.10605831,-0.118401796,-0.02811119,-0.086946025,0.032257035,0.27575678,0.16783127,-0.03291948,0.014212129,-0.03217213,-0.023964925,-0.058986284,0.08203845,0.19859186,0.11523228,-0.10894918,-0.45621097,-0.33705106,-0.08603516,-0.22565572,0.066547625,0.17381397,-0.08529257,-0.1673904,-0.20461336,-0.23329931,-0.054069977,-0.2495972,-0.074370354,-0.20754814,-0.15184577,0.008591293,-0.011892983,0.09396284,0.057078104,0.10970854,0.00015664051,-0.010471542,0.24160719,0.113400266,0.040526383,-0.2313196,-0.07331848,0.17604162,-0.10735151,-0.19708768,0.08116735,0.030493552,0.039446037,0.081668146,0.071421444,0.20961523,0.19805117,-0.17676187,-0.011687084,0.08925627,0.16713576,0.09388866,-0.19682874,-0.18938792,0.0036071618,-0.036012772,0.099760085,-0.028505957,-0.06536521,-0.21582668,-0.30735746,-0.24450429,0.068792254,0.034941107,0.016710034,-0.20051552,-0.10612357,-0.0946064,0.20933752,0.18765819,0.038322162,-0.04680796,-0.009914309,0.12497337,-0.12725876,-0.05437822,0.00026195816,-0.27718982,-0.37155935,-0.5854138,-0.38543102,0.017981362,-0.02055621,-0.16111526,4.3576016e-05,0.15491058,0.036961008,-0.03732915,0.021920385,0.17849496,-0.0010460827,-0.0031275873,0.03747025,0.1467643,0.32446507,0.3117808,0.048254225,-0.21798828,0.1397017,0.019401673,-0.44965488,-0.06699368,-0.12903918,-0.2370776,0.0054949815,0.044343326,0.10837183,0.06773058,0.02963727,0.11877994,0.054321174,0.25581142,-0.29871088,-0.0907665,0.20550245,0.3256558,0.18544486,-0.26676348,0.0882827,0.1394598,0.27870315,0.20297444,0.09353111,-0.05816211,0.048655134,0.03702426,-0.17353335,-0.22082558,-0.01928334,0.055302884,-0.06208781,-0.080306575,-0.45897937,-0.21669567,-0.5251009,-0.7484492,-0.47946414,-0.00031478997,0.08251196,0.010315357,-0.1275486,-0.09774221,0.111033335,-0.062424045,0.016238704,-0.12491621,-0.18157716,0.15683764,0.0023583958,0.06834588,0.082879834,-0.018686462,0.09691593,-0.104562715,-0.52156866,-0.53096837,-0.64830184,0.027770746,0.11604851,0.16276808,0.07432244,-0.48283747,0.092036545,0.23466651,0.030336354,-0.114785135,0.15586217,0.24545155,0.16686419,-0.33244976,-0.17060061,0.110711865,0.41987526,-0.28840157,-0.66783655,0.0008541465,0.03301463,0.011931327,-0.8937892,-0.6783438,-0.23017596,0.021366762,-0.023650063,-0.45582137,-0.21827966,-0.040271252,-0.07865037,-0.03344712,-0.036246113,-0.066645615,-0.028122947,-0.005074075,0.031729177,-0.12111817,-0.06729117,-0.0130884,-0.021107767,-0.050219495,-0.06741007,-0.04312417,0.041785087,0.06228435,-0.17958063,0.08551379,-0.46695492,-0.43854657,-0.2638238,0.105624944,0.16971864,-0.23677167,0.16326267,-0.069698095,-0.050096307,-0.19278067,-0.26772696,-0.34999192,-0.16550836,-0.06656375,-0.35971546,-0.49309728,-0.23615368,-0.13599926,0.15406671,-0.10754018,-0.122831255,0.111720964,0.04227015,0.12966904,0.18407139,0.098466426,0.2122037,0.14084667,0.015703565,0.09779086,0.09158149,0.17957586,0.12588936,-0.7461973,-0.3651601,-0.009425785,-0.27682242,-0.33272102,0.13381784,0.020073308,0.08529671,0.2507289,0.026540607,0.099438615,0.0047983755,0.12510952,0.27698445,0.17025185,-0.1918015,-0.06378895,0.14508322,0.061399315,0.2482675,-0.13610715,-0.018285109,0.056405228,-0.107019804,0.048104636,0.015444862,0.15660255,0.27626503,0.1358518,0.27114573,0.028538516,0.09621844,0.26372394,0.16734321,0.21198191,-0.061962698,-0.031145377,0.13346583,0.22812401,0.091488965,-0.2652351,0.003255004,0.0076440633,-0.01271444,0.02135988,-0.17233004,-0.036756646,-0.04442319,-0.22653404,-0.47594625,-0.039043617,-0.21820955,-0.04360546,-0.15129167,-0.30225968,0.09902014,-0.2235213,-0.119201556,-0.08343441,-0.11563776,0.32439658,0.002547839,-0.21716315,-0.091153786,0.14313565,0.4075909,0.21600752,0.04807523,0.002497995,-0.017635645,0.24483919,0.29330102,0.30051258,0.19264202,0.40354183,-0.15920809,0.027500743,0.23290473,-0.025121704,-0.15880623,-0.1330783,-0.08848605,0.12869842,-0.08103975,-0.06487719,-0.6962147,-0.5656632,-0.2243617,-0.35054442,-0.12902515,-0.46164414,-0.13414136,-0.23250198,-0.71267974,-0.42342657,0.10455193,0.058323704,0.15383193,-0.35258245,-0.18743384,-0.14633696,0.017904108,0.16584039,-0.08034738,-0.3228528,0.1186535,-0.14897147,-0.098718695,-0.026195353,-0.30530387,0.20577867,-0.07825223,-0.35375944,-0.23789936,-0.16613285,0.0002660802,-0.101472974,-0.24406694,-0.2134946,-0.4607623,-0.002658659,-0.043863017,0.095328085,-0.026773104,-0.22195336,-0.03431775,-0.13812649,-0.30924314,-0.21460272,-0.1070547,0.05040433,0.19814904,0.033115752,-0.039594736,0.028512241,0.08180122,0.320171,0.1889896,0.18747102,0.21600722,-0.08653602,0.07187173,0.09408588,0.10923681,0.21638998,-0.10392597,-0.12259858,-0.29532218,0.00030782557,0.15880321,-0.04741207,0.07165227,0.046639513,-0.05738302,0.07924892,-0.076070696,0.2133725,0.16379723,0.1212643,0.18037479,-0.032600977,0.29793388,0.24726532,0.16042216,0.34349754,0.14257067,0.22922015,0.14242777,0.3757614,0.41632608,0.17204614,0.19235781,0.21444605,-0.029418707,0.1788631,0.021068508,0.048886947,0.123399764,0.16484106,0.0621081,0.22157227,-0.075922094,-0.023886703,-0.051763847,0.28918546,0.27146578,-0.015640985,-0.022526292,0.16885485,0.30597734,0.06974819,0.039235253,0.10871286,-0.009009982,-0.10374967,0.0933134,0.17268816,-0.045327492,-0.1767321,-0.21509928,-0.34153932,0.08013499,0.20002109,-0.07006224,0.07039849,-0.23620498,-0.19301306,0.11614739,0.06718424,-0.13117994,-0.25080967,-0.31865105,0.0360013,-0.1402727,-0.20396873,-0.1026982,-0.3298525,-0.28544024,-0.4934697,-0.29578376,-0.4309851,-0.7870913,-0.28576633,-0.054663293,-0.08953309,-0.013116534,-0.10812879,-0.026762282,-0.014479671,0.019797493,0.020116456,-0.043348476,0.036526963,0.23244998,0.10088306,0.09609417,0.2269205,0.40119848,0.18737441,-0.2174197,0.21118958,0.24932574,0.26065207,-0.565751,-0.06067746,0.0047201146,0.09295942,0.016653648,-0.075602755,0.40949145,-0.37784073,0.01714647,0.023078544,-0.09013547,0.115447775,-0.541819,-0.25297058,0.17161164,-0.12326774,-0.18151182,-0.47278342,-0.13358194,0.18403347,-0.019950021,-0.26899615,-0.71906054,-0.0561269,0.2702874,0.1253029,-0.20300604,-0.7581473,-0.021677563,0.3348794,0.23700692,-0.2626624,0.048607413,-0.14687736,-0.1958318,-0.16063637,-0.1794151,0.13512059,0.091765694,-0.61566675,-0.39323416,-0.123603955,0.0971518,-0.16594797,-0.9809199,-0.24823621,0.061860397,0.027971463,-0.16753213,-0.5644399,-0.0069596744,0.2498006,0.14108054,0.050751016,-0.35627586,-0.06774822,0.035859656,0.1239474,0.12555201,-0.14215198,-0.18062341,-0.06288958,0.19900492,0.1067711,-0.52996266,-0.055904772,0.2688741,0.16647847,0.08100062,-0.5283281,-0.08799621,0.028929066,0.15213674,0.019893354,-0.3065388,-0.15871482,0.037327453,0.1518257,-0.033068933,-0.072019234,-0.13411497,0.20674638,0.2687558,0.20032686,0.3219327,0.2864253,0.20133698,-0.22068661,0.07726809,0.25188187,0.3530434,-0.065885276,-0.20077288,0.03745579,0.01134027,-0.05775848,-0.057848793,-0.050942212,-0.1996985,-0.17689514,0.21970917,0.22385402,-0.003744397,0.1516469,0.18832392,0.21816267,0.05807378,-0.12745392,-0.0062450846,-0.0488511,-0.0074016275,-0.001794449,-0.22063516,-0.100475654,-0.4224666,-0.2869502,0.115362406,-0.28367612,-0.22688615,-0.099653594,-0.12793785,-0.33166766,0.15546213,0.11625222,0.3271032,0.18842067,-0.03696159,0.2367155,0.20444864,0.08563806,-0.09231221,-0.08692112,0.053012088,0.09459198,0.16036296,0.10991211,-0.32260236,0.07472132,0.02113658,-0.26697665,-0.25968155,-0.30046868,0.034106944,-0.27067906,-0.3148818,-0.1740976,-0.374099,-0.13755132,-0.035018567,-0.067681774,-0.18258248,-0.17720559,0.17248532,0.18688779,-0.018818932,-0.14317302,-0.22354764,-0.0816955,0.0022730369,-0.0752838,-0.029878315,-0.04372581,-0.15050833,-0.023946859,-0.16803512,-0.10074994,0.13332094,-0.08705727,0.08580589,-0.014962849,-0.16056307,0.016961886,0.09040196,0.11017571,0.004909548,-0.021965975,0.032251015,-0.08764123,-0.18909863,-0.018621553,0.10746697,-0.110845834,-0.048573755,-0.47493598,-0.47426608,-0.15030603,0.06339734,-0.09875413,-0.40584522,-0.13583542,0.0586538,0.22740178,0.13302381,-0.07651387,-0.16085194,-0.12327685,0.060997114,0.11686343,0.058037505,-0.07624686,-0.21336123,-0.012690971,-0.18246299,-0.1921789,-0.3015339,-0.27652395,0.032980014,0.14694469,-0.18431982,0.1850001,0.28408113,0.26097026,-0.05678358,-0.24796107,0.10960492,0.056734327,-0.17968138,0.047602955,0.24108492,0.39842674,0.2037858,0.05524106,0.20497526,0.37459168,0.4769923,0.0942557,-0.15611963,0.013638983,0.1258578,0.1362689,0.057857912,-0.017837172,0.069245376,-0.10973659,0.03519683,0.03607114,0.09281105,0.17608972,0.10596722,0.1491065,0.32964438,0.2647609,-0.14259371,-0.09356906,0.0063855494,-0.25466704,-0.27132666,0.13430007,-0.1328959,-0.21659116,-0.22939652,0.073377565,0.09903255,0.098509885,-0.04988377,-0.06655839,-0.11611311,-0.118039615,-0.3235464,-0.1390111,-0.30839995,-0.43771935,-0.7109691,-0.38710767,-0.29636234,-0.45788258,-0.4990977,0.09195117,0.026046582,0.09716705,0.25375947,0.23736893,0.21638513,0.14905939,0.257143,0.18765731,0.33411252,0.118895166,0.09386535,0.10606595,0.058412667,0.27804205,-0.3592242,-0.12857176,-0.016415112,-0.0069563026,0.09340055,-0.53366077,-0.38382602,-0.25242925,-0.08940293,0.06747931,-0.01140466,-0.073491044,0.10409318,0.2186067,0.027857624,0.27152708,0.21924445,0.09746825,0.021040557,-0.15088278,0.24504402,-0.006578678,-0.25660595,-0.20083138,-0.20584458,0.041807022,-0.014574927,0.0788159,-0.21783164,-0.19148295,-0.45204827,-0.49122968,-0.46076334,-0.6601372,-0.44553337,-0.4662747,-0.3063061,-0.34025127,-0.2750152,-0.07030101,-0.14152816,-0.01081138,0.010313361,0.043023705,0.11021277,0.016633902,0.078013614,0.058700986,0.039984383,0.10077602,-0.03927744,0.08129253,0.013702725,0.11187532,0.104995325,0.29373637,0.287497,0.10052314,0.21559902,0.28533375,0.16270576,0.10168375,-0.005060719,-0.009458832,0.0683062,-0.20399003,-0.22099672,-0.100359716,0.16002215,0.18647425,-0.2104553,-0.24488649,0.0063872207,0.04170241,-0.07511707,0.092878334,0.044218753,0.0025407195,0.028209448,0.16719472,0.2972995,0.33285832,0.3956414,0.07883351,0.26159272,-0.35806122,-0.6193238,-0.16925357,-0.116656624,0.083481774,0.11889743,0.19351909,0.06910185,0.23450646,0.17515554,0.08178449,0.13505596,0.06212236,-0.094343714,0.004620238