# Shape: (120,)
# C-style row major order
0.13398708,0.02236585,-0.06556624,-0.15441439,-0.059503,-0.10841172,-0.0059611453,-0.06045068,0.21719894,0.021583311,0.0046567805,0.054343514,0.08292372,0.049392868,-0.093574114,0.27478927,0.009320594,0.07042702,-0.09909246,0.23587064,-0.0842205,0.06786987,0.10357919,-0.124006346,0.056642126,-0.101736724,-0.021848055,-0.04211669,-0.23968121,-0.028942477,-0.096917756,0.009466804,-0.049464528,0.09776674,0.18919891,0.14647612,-0.122883044,-0.06770675,-0.14996673,-0.031869654,0.023226606,0.11090394,0.19416247,0.060620464,0.01791471,0.0032183407,0.07850407,-0.053473722,0.09243664,-0.1361151,0.06648572,0.17152138,-0.0715677,-0.0523288,-0.070894115,-0.07105013,-0.21742329,-0.004740837,-0.01997235,0.31764215,-0.075201474,-0.11263218,-0.08351968,0.018914223,-0.08088416,0.052346945,0.04516482,0.011907044,0.057641506,-0.09148766,-0.03499043,-0.08648116,-0.2606992,0.022699676,-0.023109037,-0.085479334,0.19920154,0.026368191,-0.06825534,0.1702116,-0.09990627,0.0008156291,-0.12863082,-0.08361177,-0.08422993,-0.0059224227,0.16748363,-0.10269482,0.025241,-0.18603337,-0.030376798,0.06660935,-0.041328557,-0.11838104,0.21686015,0.002174019,0.016051937,-0.07311866,0.07423858,0.045711704,0.07073532,0.12492802,0.087602675,0.11179761,-0.18435507,0.14703707,0.032402504,0.054234464,-0.034977112,-0.00016570483,0.107208535,-0.09669173,-0.019921703,0.10302818,-0.07348981,0.1199331,0.108388,-0.0941825,0.023506898,-0.017903723