# Shape: (120, 256)
# C-style row major order
-0.30006805,-0.36476365,-0.3470451,-0.07268707,0.057313323,0.014125707,0.04263412,0.12404349,-0.010089183,0.07132258,0.2371519,0.044194832,0.16894464,-0.092298225,-0.05546785,0.030567503,-0.22530088,0.0066875764,0.06476721,0.30939057,0.018566363,0.18298973,0.09603837,0.16235393,0.056015998,0.13341409,0.27799994,0.16911648,-0.06145586,0.1433366,0.111774586,0.04382918,0.0052144234,-0.26802012,-0.23159312,-0.5697935,-0.0227005,-0.08031138,-0.06289645,-0.25734517,0.06941938,0.14374007,0.028950782,-0.03683045,0.14556196,0.12944168,0.035420917,0.058716733,-0.38317826,-0.88476473,-0.742251,-0.24207118,-0.44133422,-0.3320919,-0.35596436,-0.27225336,0.14811519,0.1409243,0.051748097,-0.0011641084,0.21803993,0.11046991,0.12178722,-0.059154216,-0.3408506,-0.5672524,-0.16382354,0.6030558,-0.049383953,0.020290306,0.19254953,0.4593073,0.004301319,-0.027544782,0.21409303,-0.15837342,0.075254716,0.18702511,-0.2916726,-0.2955225,0.1185586,-0.366407,-0.15234129,-0.18750195,-0.051072977,-0.69680727,-0.01008598,0.15717101,-0.18014362,-0.0586906,-0.029784475,-0.079576336,0.00064902555,0.2093197,0.06594939,-0.016768107,0.12611401,0.16963589,0.1601442,-0.28599918,0.28763312,-0.18541406,-0.1187877,0.0015572153,0.12745062,-0.07346475,-0.24013108,-0.22983521,-0.038531154,0.04645687,0.102365986,-0.015841074,0.045043256,0.08652767,0.01984638,-0.08841708,-0.034084328,-0.048543017,0.30008116,-0.16636157,0.19676368,-0.101391904,-0.09811533,-0.17475893,0.034079194,-0.08988436,-0.09400404,-0.04468072,0.07816261,0.41146842,0.361624,-0.018092202,-0.035845067,0.13031077,-0.09154394,0.2063538,0.047038294,0.19931373,0.013312754,0.090322435,-0.3938989,0.098015025,-0.07436334,-0.013357251,0.0739442,-0.16748466,-0.1375257,0.27122748,0.12752518,-0.03991607,-0.14836246,-0.48532796,0.05040113,0.012109223,-0.027639939,-0.1130903,0.12419588,0.24915938,0.07085183,0.307115,-0.13541299,0.06950353,0.091803744,0.06948534,0.10660411,-0.26434204,-0.109081425,0.17782019,0.012307753,-0.1588426,-0.12096073,-0.25319654,0.05499313,-0.10819412,-0.02515607,-0.10742138,0.08435278,-0.6198509,0.21416448,0.32817277,-0.31483564,-0.15379831,-0.01625807,0.22583577,-0.051042877,0.26896402,-0.055360265,0.11817511,0.15515587,0.16475785,-0.021109562,-0.29891446,-0.1790582,-0.2695966,-0.40759113,-0.12940814,-0.41298792,-0.03361683,0.16635035,-0.12786965,0.08008243,0.2842078,-0.05266164,-0.020004597,0.11256881,0.0029258088,-0.010888726,0.006928718,-0.0026356895,0.024153553,-0.0060392907,0.28088987,0.102861986,0.18269801,-0.012229888,-0.0040261494,-0.115364045,0.118680544,0.01783544,-0.031563465,0.20167653,0.23607886,0.18420151,-0.12144807,-0.40523115,-0.07567332,0.13991483,-0.0070845243,-0.3421199,-0.15249574,-0.14046875,0.33994025,0.13834675,0.06274006,-0.047997028,0.028437935,0.10127189,0.13982627,0.1373821,-0.09506144,-0.1555758,0.03942744,0.023542875,0.10077176,0.14221627,-0.24538855,0.004580986,-0.22437826,-0.42661133,-0.14605384,-0.3184438,-0.22086352,0.03673524,0.0060344776,-0.34512895,-0.101832636,-0.0518518,-0.1396033,-0.024659446,-0.006480134,0.13444744,0.06060614,0.1916994,0.19467351,-0.012525722,0.03601185,0.08495513,-0.0725327,-0.09851845,-0.202557,-0.28296214,-0.3926017,0.20421976,0.025363514,0.15996952,-0.030524665,0.012367812,0.2874375,0.2603151,0.18999252,-0.20591418,0.11683998,0.31055185,0.47029686,-0.43864468,-0.12573949,0.20282939,0.399661,-0.020308914,0.06302312,0.028564595,-0.13840282,0.10860192,0.038187012,0.12234938,0.12856872,0.065761566,-0.21269825,0.019600334,-0.053063873,0.01798935,-0.103877105,0.12834154,0.008336453,-0.11585735,0.04144809,0.0681033,0.11968741,-0.22778577,-0.0672376,0.093840286,-0.047991008,-0.049898908,-0.12443286,0.0353954,-0.12188797,0.17068467,0.07434748,0.047135137,-0.17064314,0.19161591,0.06901055,0.06232934,0.018971274,-0.10443216,0.07015038,0.26296607,-0.17790654,-0.251252,0.103339225,-0.055680547,-0.18719104,0.024978578,0.18453299,-0.15949632,-0.022044802,-0.3399781,0.079969026,-0.039939184,-0.09640956,0.030725293,-0.059307702,-0.15019645,-0.10593853,0.04946467,0.15648232,0.14930822,-0.15238293,-0.046592806,0.08716036,0.18724,0.14510927,0.15958486,-0.02491034,0.04261949,0.08673414,0.26817027,-0.10745332,0.10288229,0.37695676,-0.14906816,-0.07524038,-0.04665287,-0.2878589,0.3165239,0.022190286,-0.122482054,-0.21292791,-0.05319497,-0.005194636,0.24489354,0.18632567,-0.14462315,-0.18676318,0.22211932,0.014338542,-0.09303386,-0.08879961,-0.29158282,-0.10326402,-0.04549928,-0.1323701,-0.40943685,-0.16272826,0.22627558,0.10126914,0.10699355,-0.0038440349,0.3247342,0.17414515,0.03021332,0.106412865,0.4294999,-0.083908096,0.002174592,0.21424168,-0.015859073,-0.06568856,0.08252375,0.09722913,0.18503268,-0.17862862,-0.2904888,-0.047287688,0.10745716,0.14427407,-0.033109486,-0.05267224,0.25402743,0.16060235,0.29626295,0.32146975,-0.18245658,0.03918294,-0.005225635,-0.08779963,0.0016732331,0.00996459,0.08611148,0.17039934,-0.18368758,-0.35502127,0.012518377,0.15174569,-0.18982752,-0.17595975,-0.18771824,-0.25197467,0.030790603,-0.19699608,-0.08605946,-0.35011408,-0.12488255,-0.08766641,0.2971043,-0.17305833,-0.03047319,0.006926945,-0.15072596,-0.15532273,-0.09932145,0.063562736,-0.22222097,-0.113343164,0.15576646,0.1351463,0.13071513,-0.0768435,-0.1451686,0.1529513,0.15847912,0.18353611,-0.07750201,0.016941518,-0.0388318,0.09424229,0.14389333,0.099767126,-0.57944965,-0.22800551,0.14369147,0.0014418007,-0.074331135,0.044360965,0.18101515,0.121613055,-0.19013745,-0.20018598,0.049609452,0.08506727,0.046735357,-0.019189073,-0.16189915,-0.30876768,0.21431024,0.008170193,0.15327974,0.096223846,0.21514033,0.07151386,0.19641405,-0.10212384,0.35578266,0.18988597,0.22261107,-0.24966606,-0.08220586,-0.32448465,0.056244384,-0.15310195,-0.055546626,-0.07260701,-0.23098487,-0.115438856,-0.09365099,0.14429715,-0.2098696,-0.05809726,-0.036532342,0.118903115,-0.39852345,-0.09752134,-0.1788747,0.2286375,-0.38701883,-0.04118513,-0.063062064,-0.33464938,-0.010750255,0.27534524,0.16533934,-0.4089784,-0.04836836,-0.05825003,0.024659067,-0.0021501833,-0.025227182,-0.029574385,-0.07035844,0.040482428,0.0022167943,-0.042645473,0.015181902,0.014733969,-0.042616144,-0.041265182,0.03345178,-0.04027687,0.031328965,0.03825916,-0.00064005953,0.03130734,-0.07043912,0.037844613,-0.0212003,0.028208826,-0.025979975,-0.03435226,-0.009484968,0.011094804,-0.064964466,0.00857688,0.04227047,0.013836377,-0.015826015,-0.036546335,-0.0013046048,0.027385915,-0.04875781,0.008720194,0.0074452483,0.026128674,-0.019892057,0.04970181,0.002698347,-0.022408124,-0.041289724,-0.019241888,0.03105792,0.017883332,-0.03043409,-0.003361057,-0.005951802,-0.024745952,-0.0081743505,-0.060399078,-0.04663853,0.043801915,0.023758722,-0.00011579369,-0.061570607,0.0508133,0.04030759,0.014383845,-0.006607567,-0.037907794,-0.030817563,-0.042270884,-0.07258056,-0.014471862,0.034696,-0.07185543,0.014272099,0.025003547,-0.042655203,-0.04111775,0.014032847,-0.06605412,-0.021813057,0.01958129,0.0027043894,0.03432095,-0.06840935,-0.060726307,-0.034913123,-0.029647792,-0.07752546,-0.07289066,1.5435218e-05,0.01223829,-0.047920458,-0.04005831,-0.016274745,-0.05718677,-0.009518567,-0.05021533,0.02635463,-0.030206578,-0.05223275,0.028152764,-0.033779383,0.0016625752,-0.03971637,-0.010783156,-0.018462595,-0.032420423,-0.07026644,-0.064997636,0.022676121,0.035341416,0.03608268,-0.010510407,0.02205985,0.04409896,-0.044112768,-0.05749825,-0.06382664,-0.044652496,0.011309004,-0.023758985,-0.06876681,0.0218977,-0.044177845,0.028370429,0.028772997,-0.040309995,0.02686552,-0.0310863,-0.01993901,-0.04282227,0.009232156,0.052919958,-0.0763452,-0.014892148,0.050994657,-0.039214984,-0.028338142,-0.006772713,-0.03729171,-0.03121109,0.0058570295,0.019950425,-0.008809335,-0.007828736,0.0012360297,-0.00932589,-0.008513851,0.019445406,-0.012000344,0.0427924,0.03824233,0.021144694,-0.044592325,-0.011211108,0.017639222,0.035603933,-0.042535957,0.035907306,-0.015039156,-0.04505542,0.03706087,-0.05214134,-0.01733955,0.0063664503,-0.042222906,-0.048196226,-0.0086527,-0.066336505,-0.02862416,0.020556375,0.031822734,-0.051896308,0.0067153187,0.0029163714,0.00833857,-0.008206179,0.0065059704,-0.06269224,-0.005801134,-0.024000404,-0.008506436,0.0358483,-0.011224339,0.023115383,0.044234052,0.016742008,0.032957494,-0.004863463,-0.024124784,-0.039929874,0.029691625,-0.023614332,-0.068139866,-0.01440973,-0.002947717,-0.010588885,-0.047134764,0.003856172,0.022057902,0.026384884,-0.01906432,0.002994788,-0.022745062,0.016784739,-0.036836866,-0.038245406,-0.04099979,-0.027425043,-0.011400572,-0.036958586,-0.06320524,-0.06476593,0.009309134,-0.019306358,0.016767,-0.05927997,-0.024747021,-0.06307923,0.01054382,-0.01637728,-0.04303775,-0.009847032,-0.030902162,-0.068538964,0.034082282,-0.0073397835,0.040469684,-0.034545448,-0.041496377,-0.0207895,-0.0010811994,0.02808989,-0.015479944,0.038968462,-0.03338156,-0.069786355,-0.053212237,-0.022220418,-0.025747817,-0.031358045,-0.031355698,0.03161871,0.034451153,0.0006547411,0.0017572711,-0.035086665,0.0122428555,-0.024736201,0.038489737,-0.067916155,-0.009058486,-0.048261866,-0.06984657,-0.06617241,-0.037134,0.029626712,-0.028363615,0.04963821,0.30621335,-0.001401146,-0.39787093,-0.40316635,-0.05454677,0.06126098,0.018135652,0.046011508,-0.23818408,-0.046746023,-0.033724267,0.025299085,0.14373617,-0.021877658,0.1056768,0.29688326,0.07467018,-0.09019647,0.009171553,0.028768314,-0.24315597,-0.05416667,0.110615075,0.073731735,-0.2892687,0.044477303,0.09650401,-0.034692224,-0.117003866,-0.22838408,0.22977877,0.38866025,0.18230447,-0.14864777,0.0073342435,-0.2532112,0.004940092,-0.07897495,-0.023215428,-0.51327676,-0.4366643,-0.15284221,-0.008435253,0.13455787,0.21055667,0.018311692,0.14951581,0.044705898,0.105480924,0.2002226,0.16154206,-0.06328604,0.20706737,-0.21379423,-0.36394626,-0.7436119,0.025218586,-0.10000543,-0.0064097513,0.00019258345,-0.022400146,0.057996042,-0.11420217,0.10654735,-0.016389536,0.25501376,-0.025114883,0.0981753,-0.15055092,0.11462905,0.18030883,0.029827094,-0.21789151,0.12888665,-0.25078076,-0.047584943,0.1507106,0.14712827,-0.17940831,0.01992778,-0.20650168,-0.033711173,-0.07130989,-0.123470426,-0.06345156,-0.08122348,-0.2288472,-0.4007474,-0.025514785,0.25934955,0.13190103,0.050855283,-0.12611602,0.060239524,-0.26815882,-0.029905993,0.25762016,-0.49652675,0.22559084,0.12844905,-0.078015275,-0.16772956,-0.00838901,-0.35642284,-0.6749055,-0.2938917,-0.072201885,-0.1360961,-0.31887686,0.21483201,-0.032564543,0.15031171,0.1897462,-0.27386788,-0.023446398,-0.114118375,-0.27650502,-0.05968035,-0.08492637,0.054462038,-0.19597496,0.07427021,-0.016179426,0.2494766,-0.42050552,0.010038814,0.07873841,-0.18708697,-0.062126845,-0.3039938,0.18576632,-0.19212876,0.111370474,0.07022895,-0.05098971,0.029782014,0.12752225,-0.12095093,-0.087359674,0.26901072,-0.056543045,-0.0147380605,-0.0895275,0.27255073,-0.006691669,-0.27847576,-0.36722142,-0.17112061,0.12474483,0.2767553,0.019115316,0.038343124,-0.07713344,-0.026130386,0.16180782,-0.29636943,-0.32536614,-0.10762903,0.046886735,0.04637021,-0.101828575,0.017758043,-0.20782042,0.13213976,-0.4164863,-0.06304927,-0.010266701,-0.08378904,-0.08047932,-0.083403036,-0.27687714,0.14190204,-0.1101678,0.11819886,0.095295236,-0.04235391,0.011104373,0.06872656,0.025806876,-0.08644084,0.18085167,-0.1457824,-0.2746595,0.057933386,-0.0015304727,-0.20728469,0.34889603,0.039819248,0.09676712,0.11734508,-0.10067639,-0.15275878,-0.16654323,0.08227262,-0.12227512,0.16641127,0.11542861,-0.48260108,-0.29180974,0.022207113,0.33403024,0.06732481,-0.11927237,0.11823074,0.13643554,-0.15451182,-0.27125874,-0.051185776,0.24987826,0.14712566,0.047940943,0.07648217,0.2690178,-0.17061041,0.27676117,0.025655175,-0.3212059,-0.11480678,-0.043714978,-0.028849559,-0.35911435,-0.49085188,0.031066176,0.28313088,0.089994766,-0.083615415,-0.022197815,0.12846859,-0.015404464,-0.04909,-0.067946404,-0.054148592,-0.03072575,0.16491908,0.12725227,0.44617876,-0.17912972,-0.05339588,0.0690136,0.32182497,0.08156185,0.30226588,0.05895135,-0.08039178,-0.24407257,0.05640584,0.08697846,0.21466483,0.10323478,-0.08409882,-0.1763455,-0.026575956,0.13073166,0.08451627,-0.10037383,-0.017883182,0.059925336,-0.12159347,-0.4244967,-0.2519976,0.08333365,0.12839848,-0.050736908,0.0787378,-0.11349159,-0.00035940364,0.06152805,0.09858167,-0.08062916,0.19281295,0.1391128,-0.110622086,-0.25777978,-0.1705177,-0.07252401,0.053873084,-0.13606463,0.011933256,0.0154248215,0.24263765,-0.12241564,0.16697393,-0.183968,-0.028059307,0.057425648,0.03194277,-0.05902844,-0.080372214,0.026725052,-0.36496016,-0.58486307,-0.25092494,-0.14770785,-0.23821655,0.058738917,0.017273847,-0.26632836,-0.07447934,-0.0431368,-0.03668968,0.0838736,0.073957495,0.08473592,0.15835267,-0.019101277,-0.33451706,-0.42921823,-0.16488355,0.12198445,0.11009458,-0.0061360155,-0.09231642,-0.0763967,0.09175651,0.047020335,-0.012117492,-0.07147114,0.02647132,0.17545044,0.025086299,-0.10668296,-0.14385964,-0.23893772,0.049809624,0.03253948,-0.03967294,0.3493817,0.0174087,-0.29413104,0.08835383,0.09877478,0.063593894,-0.06754724,0.2635715,-0.037506476,-0.17551282,-0.4803758,-0.2530335,-0.4547393,-0.08121307,-0.14465614,-0.16785152,-0.31038764,-0.11072801,-0.10947279,0.10603886,0.08951217,0.15490839,0.015591723,0.023573324,0.0962815,0.04100086,-0.19481671,0.10317419,-0.13138337,0.13774826,0.030367346,0.3456196,0.06272757,-0.042889837,0.029695744,0.008180657,0.025104256,0.088177636,-0.023159921,0.037078843,-0.022543635,-0.10865611,-0.11172011,-0.08957089,0.03466777,0.0351531,0.0042189253,-0.14035979,-0.05606075,0.04431123,0.08612231,0.23483929,0.20567004,0.22794786,0.083641246,0.016222326,-0.15205874,-0.12971725,0.17993128,0.43032593,0.27136347,-0.09249674,0.028163845,0.02372857,-0.06449844,-0.14064807,0.020218972,0.09714736,-0.0593708,-0.16044308,-0.0076422472,0.19965255,-0.16136815,-0.36774775,-0.5020728,-0.19809265,-0.036364038,0.14331506,-0.002173567,-0.0069120517,-0.014257024,-0.14644682,0.07020222,0.0025754715,0.11776946,-0.0070240335,0.0955291,-0.07787466,-0.006696208,-0.3455957,0.072833836,-0.103631385,-0.021681888,-0.08309248,-0.079595394,0.09633236,0.020608585,0.23232141,0.029273244,0.12342048,0.10384543,-0.081918575,0.102633975,0.17904216,-0.029241372,0.10760188,-0.1361966,0.10605544,0.035385583,-0.046472967,-0.014094433,0.18701746,0.24018806,0.16630334,-0.10720387,0.15478238,0.034791842,0.1262958,-0.06148278,0.19364755,0.32590318,0.14317979,0.15444164,-0.06806865,-0.107725896,0.016792372,-0.09466165,-0.28539068,0.1540033,-0.11147,-0.08049111,-0.16297151,0.057997238,0.011563126,0.012749596,0.17459601,0.18681808,-0.069901295,-0.09374485,-0.074043445,0.24975537,0.237294,0.10271592,0.07710767,0.090577066,-0.06313087,0.12937102,0.046685793,0.03927541,0.033910107,-0.09303091,0.026341535,0.054482095,-0.41172084,-0.05239753,-0.18723279,0.16527858,0.2775856,-0.2373275,-0.06667913,-0.11523443,0.078746036,-0.044166345,-0.038041312,0.15824151,-0.10681817,-0.10011055,0.047086686,-0.04466594,0.198725,0.021692555,-0.16406932,0.10727531,0.40984443,0.052616477,0.15684053,0.1140297,0.14945538,-0.18714014,0.2237313,-0.04062036,0.30162874,-0.07392256,0.22125074,0.056563947,0.19353433,-0.34500325,-0.00318825,0.27072597,-0.06947237,-0.15910871,0.075371884,0.13190925,-0.17484763,0.17618263,0.28185803,-0.05845612,-0.5261346,0.043221135,-0.00023750844,-0.21756329,0.15399875,0.12070675,0.10655892,0.05661645,-0.35968742,0.11102209,-0.026208272,-0.19456123,-0.20452738,0.08351969,-0.13889408,-0.27499592,-0.09004631,-0.0034425803,-0.087760516,-0.15597947,-0.07513651,-0.52150804,0.0045363996,-0.057668924,0.2557268,0.021162163,0.04786515,-0.0360711,-0.10907569,0.30155614,0.15332161,0.0803275,-0.1667118,0.036619756,-0.10779397,-0.06365556,0.33822793,-0.036153402,0.009543106,-0.13751827,0.04303251,-0.2212293,0.07170853,-0.04077243,-0.039583325,0.07533642,0.075766884,0.033449627,-0.37397754,0.10690375,0.1776155,-0.2515833,-0.38262996,0.13069573,0.25638023,0.300798,-0.36323425,0.12305635,-0.0299587,-0.30480593,-0.37697068,-0.06263505,-0.02368315,0.21763025,0.24496633,-0.06852706,-0.18444762,0.2002793,0.16284168,0.004484035,-0.031060876,-0.1945459,0.00048080774,0.20721838,0.12517613,-0.37967286,-0.58312464,0.03838188,0.17622545,-0.03932337,0.13878739,-0.12188118,0.0041373326,0.003941714,0.22801656,0.0546606,0.110600464,-0.11054636,0.15401702,-0.09195627,0.012451464,0.20080519,0.12482083,-0.2279944,-0.018021787,-0.048130114,-0.52044106,-0.08058404,0.18443698,-0.009731806,-0.17643018,-0.026118733,-0.22478339,0.014341987,-0.032630052,0.002142852,0.20892657,-0.12160377,0.09637613,-0.16663006,0.020580204,-0.055879854,0.039202407,-0.018490948,0.1522296,-0.21002397,0.2393927,-0.2950449,-0.3473829,-0.5257014,0.0409223,-0.025546102,-0.0679621,0.06874028,0.10937332,-0.017219448,-0.4237657,0.19874528,0.05285669,0.22989115,-0.10849151,0.20192684,0.03359303,-0.046267796,0.07228053,0.22826244,-0.38871843,-0.17848869,0.04529053,0.11342377,0.21195522,0.06851356,-0.066771224,0.052032154,-0.31051105,-0.20822796,-0.13060668,0.014291831,0.13105012,-0.05191818,-0.039388843,0.08021714,0.06630726,-0.45490694,-0.2955288,0.17967165,-0.10653951,-0.06484851,0.054937597,-0.11590683,-0.20500688,-0.0031715257,0.21254998,0.0575147,0.061482612,0.1318116,-0.054544095,0.06672365,-0.5204097,0.13172974,-0.0036522928,-0.38775796,-0.14329478,0.06165395,0.11280931,-0.085455924,-0.10806929,0.006732481,0.01622314,0.099893354,-0.23123656,-0.119368136,-0.3036651,0.12914824,0.18302602,0.2759649,0.11956999,-0.19263348,-0.06077621,0.057164665,0.24466592,-0.21439172,-0.056822382,-0.07906783,0.29747725,0.2510413,0.14539295,0.022618452,-0.10477887,-0.24576445,-0.19804114,-0.16538802,-0.35462806,0.04469336,0.0999876,-0.093146786,-0.17513123,0.051223796,-0.059402537,-0.28528538,0.05169125,-0.16862497,-0.10810915,0.4134911,0.0965944,-0.08340602,-0.25452822,0.19491874,0.21996683,0.23067676,-0.5771162,0.11573561,-0.047266126,-0.2007463,-0.2041841,0.1558075,-0.08855358,-0.01141894,0.12194794,0.017101634,0.24435239,0.08590725,-0.10317977,-0.48739418,-0.1217861,0.066469796,-0.018289907,-0.23879169,0.110689275,0.0855273,0.22061925,0.012916581,0.31063312,0.011620724,0.49408233,-0.018257862,0.010121176,-0.037810717,-0.025186896,-0.050610017,-0.048817754,-0.02252154,-0.025164314,0.040290557,0.00967257,-0.06000404,0.0009506107,-0.025955863,-0.0027597642,-0.042110555,0.047313794,0.008101022,-0.077774666,-0.00654419,0.018300803,-0.073622994,-0.047395177,0.03247931,0.010448153,0.033874325,0.013472107,-0.044682924,-0.00642655,-0.01746151,0.033031948,-0.009034751,0.017877882,0.056993566,-0.06155707,0.019773869,-0.062989235,-0.057426162,-0.05948165,-0.05865676,-0.047710914,-0.08283948,-0.012504408,-0.07246831,-0.051530164,0.040507104,0.046187636,-0.07107192,0.042578816,-0.017910426,-0.06260568,-0.006460287,0.011747257,0.009839106,0.027059413,0.019516721,-0.04947967,-0.036517512,-0.06925365,-0.03511498,0.031510465,0.03531281,0.0016409209,0.026680578,0.044782773,0.029403271,-0.016658792,0.011157865,0.010521426,0.0069633494,-0.076762706,-0.04454205,0.0023746858,0.03562941,-0.083377495,0.035986945,0.013029363,-0.0032913834,-0.04840349,-0.07364255,0.003601722,-0.036160074,-0.016102554,-0.014194103,-0.054897293,0.017446697,-0.06463934,-0.055573713,0.012880077,0.018043917,0.0028042246,-0.05586004,-0.051880542,-0.0025334724,-0.08433854,0.019329127,-0.041188538,-0.006136136,-0.02325179,-0.032672424,0.024403993,-0.028886281,-0.07979921,-0.056349516,-0.06522289,0.009037243,-0.05668761,0.01775202,-0.026475115,0.035598036,-0.065300696,-0.03436854,0.03171965,-0.028609088,-0.042855233,0.0074842256,-0.08679156,0.030313566,-0.024224639,-0.03855617,0.038200244,-0.04811721,-0.04422788,-0.029702893,-0.021486294,-0.064704835,0.031849585,-0.049095035,-0.025870292,-0.050227504,0.04337863,0.03042464,-0.07716951,-0.044298187,-0.03416072,0.03382601,-0.07404534,-0.026912386,0.03860304,0.027798962,0.032327764,0.031464793,-0.019542882,-0.039181754,0.0023362807,-0.019609204,-0.04091583,-0.0661361,-0.06233356,0.04015939,-0.036503457,-0.07318847,-0.015001462,0.025137253,-0.07971918,-0.06851585,-0.022445366,0.008286507,-0.08599453,-0.034630667,-0.013890783,-0.052854087,-0.034630306,0.014259123,-0.053691503,0.031535514,0.0044212295,-0.060688403,-0.058416925,0.029170105,0.01686607,0.0008851641,-0.079953104,-0.0052550533,-0.02053738,0.001047693,-0.015807845,-0.08240785,-0.06181745,0.040082555,-0.017017407,0.0040735556,0.015794437,-0.0355941,-0.0018332825,-0.009755271,0.01570905,0.036076486,-0.07881849,0.008591024,-0.021949466,-0.026742788,-0.08393612,-0.019800767,-0.072749086,-0.051520683,-0.016310787,-0.022733953,-0.03116438,-0.017207524,0.038198248,-0.061676644,-0.056396212,-0.07282664,-0.0022351395,-0.05137378,-0.02792063,-0.07584085,-0.04495955,0.026032027,0.024441604,0.031742066,-0.07054626,0.037776608,-0.051017918,0.040090717,-0.035510585,-0.02396722,-0.06356713,-0.048496936,0.005023401,0.028349811,-0.014377696,0.024259344,0.01900572,-0.07038537,0.023348738,0.031089447,-0.006470868,0.02130625,-0.045777295,-0.080166526,-0.009189753,0.022801114,-0.009859943,0.036960497,-0.054810915,-0.049966965,-0.044572525,-0.05555019,0.0116556045,-0.04437867,-0.009125402,0.016520698,-0.023177436,-0.00026234242,0.0006194362,-0.054211464,0.015913917,-0.049238626,0.051593203,0.015542269,-0.0021969692,-0.030324016,-0.028743,-0.038446452,0.039979327,-0.044656992,-0.031097114,-0.02963599,-0.0021901533,-0.015589692,-0.0077223266,0.029556183,-0.06349865,-0.057307333,0.025918638,0.020728353,-0.027346961,0.021811092,-0.07089351,0.02990286,-0.06561471,-0.0045667165,0.041796274,-0.022469467,-0.028179303,0.023556579,0.0247432,0.02209885,0.0038050802,-0.0036242227,-0.06528946,0.04728331,0.04396871,0.032634843,0.027692571,-0.026854202,-0.047069836,-0.026790364,0.045087583,0.040701363,-0.071673065,-0.010243647,-0.02972865,0.042697616,-0.063883945,-0.06465522,-0.07139483,-0.010369755,-0.0084638,-0.002778034,-0.06734728,0.001958462,0.008849393,0.048816938,-0.045928203,-0.023795716,-0.06988407,0.038190946,0.0013978713,-0.042209893,0.046015907,0.02331267,-0.04767575,-0.067806765,0.009441046,-0.0294046,-0.0009659741,0.022358775,0.03652223,-0.04567923,-6.8549816e-05,-0.056073964,0.014548299,-0.037831645,-0.0721971,-0.045164797,-0.050620046,-0.0056107156,0.0037409065,-0.06964607,-0.043380838,-0.033735696,-0.0024638395,0.022494925,-0.030051077,-0.052687827,0.005381894,-0.065203115,0.020904573,-0.0010023436,-0.017856741,-0.06659164,-0.0014613898,-0.07250183,0.02613536,0.011494329,-0.01682517,0.041901495,-0.048447717,0.0058256793,-0.05528285,0.020342695,-0.015518626,0.017072277,0.04116013,-0.07342495,-0.031633265,0.0029487128,-0.011867388,0.027680751,-0.014095079,-0.07293121,0.043005142,-0.044462748,-0.06821031,-0.06822263,0.0030482993,-0.06707574,0.0082263155,-0.019704249,-0.07414879,0.01155495,-0.07533389,0.0026595215,-0.062036324,0.012885368,0.018069733,0.023608083,-0.014834441,0.020080876,-0.013918518,-0.02178538,-0.058666028,-0.07374055,0.0034566093,0.0024950735,0.008462886,0.009486074,-0.006476739,0.01971766,-0.007304795,0.029211082,-0.007026672,0.009276414,0.022551885,0.016777936,-0.03883503,-0.056718852,-0.04955737,-0.027318226,-0.07107856,0.0092466995,-0.04110138,0.039156154,-0.037845157,0.0015839493,0.0022339912,-0.0452591,-0.06663518,-0.047183707,0.009736582,-0.048989996,-0.06958472,0.03668149,0.0008102745,-0.05171945,-0.06355566,-0.06708097,0.0012310403,-0.059815876,0.044134002,-0.038318545,0.006291328,-0.06609009,-0.053448934,0.042551484,-0.06131125,0.047637083,-0.026645485,-0.046272017,0.04284282,-0.032499887,-0.029462324,0.015863003,-0.002483325,0.02294597,-0.06609569,0.044000596,0.02760454,-0.053337716,-0.004675925,-0.05641286,-0.05500766,0.024957506,-0.06620516,-0.008079751,-0.042910334,-0.07173489,0.00877485,-0.03164209,-0.042418543,-0.030255312,-0.0019977496,0.04334376,-0.036358677,-0.0123489695,0.026421301,-0.014785261,-0.0019396713,-0.05560943,0.039512984,0.008102619,0.009098489,-0.054342967,-0.046734564,-0.043999024,0.0312233,0.032016553,-0.07350376,-0.029914094,0.02154627,0.0059453915,-0.008381218,-0.06484557,-0.05956002,-0.027679646,-0.06516136,-0.024961488,0.024530254,-0.03799705,-0.03272284,0.03912967,-0.020747727,-0.0234771,-0.03249765,-0.012721259,0.030155737,-0.04122251,-0.03987039,0.041644078,-0.030316966,-0.07258084,0.010624938,0.01900134,-0.05535681,-0.07300935,-0.018431604,0.018733323,-0.063910455,0.028470421,0.0036674803,0.024127746,-0.021164834,-0.061290894,-0.023009084,-0.021658313,-0.048572004,-0.05695056,-0.014991017,-0.045899335,-0.06221343,-0.10694335,-0.20067412,-0.09543114,0.040023733,-0.07213839,-0.06026167,-0.23066579,-0.23056099,-0.06774859,-0.26360872,-0.13412148,-0.19847813,-0.086471796,0.117391676,-0.04749128,-0.42606315,-0.06360477,0.07370199,0.19651498,0.2401708,-0.04191991,-0.12269258,0.04103575,-0.16119751,-0.2791971,0.04876728,0.020036813,-0.33846414,0.0639365,0.045486804,0.076631,0.13218611,-0.08880763,0.055910334,0.027407188,0.078785576,-0.05283581,0.1946214,0.07322678,-0.24930242,-0.0045654257,0.13054942,-0.02834878,-0.16402492,-0.5085754,-0.16263099,-0.52679485,-0.21089236,-0.43560538,-0.27279046,0.17347273,0.19320422,0.0628764,-0.14727278,-0.38680756,-0.13683535,0.029152144,0.08965674,-0.18560478,-0.34120247,-0.06576919,-0.34661385,-0.1402384,-0.34548205,0.042304877,0.19604106,0.3182254,-0.07427334,-0.067416504,0.14619389,0.05417597,-0.037281897,0.03016445,0.04383299,-0.21523765,-0.4751748,0.22275637,-0.21190208,0.08977295,-0.40715382,0.040925063,-0.12308106,0.16494718,0.00804273,0.06242612,0.11262603,-0.11364918,-0.16538602,-0.21039845,-0.121046305,-0.06287583,0.028017087,0.10619667,0.037903618,-0.25757375,-0.2133887,0.087856926,0.018319089,0.2050212,0.013330664,0.13656229,0.10431758,0.018703075,-0.18591748,0.09131524,-0.04551631,0.16191001,0.3402568,-0.4373045,0.20960167,0.23101592,0.0018262782,0.021149976,0.15613678,0.087607816,-0.027450839,0.032547493,-0.06756195,-0.38794014,-0.3010917,-0.0571503,-0.44592375,0.07131442,-0.21114136,0.17056759,0.012439638,-0.026022602,-0.28035057,0.18061861,-0.044581283,-0.08696573,-0.049178816,0.07652409,0.10873354,0.14912155,-0.0025573205,-0.10690206,-0.0061956877,0.08489566,0.060376372,0.07812278,-0.07369394,-0.07842442,0.24077973,-0.23060724,0.10675544,0.10604014,-0.09363533,-0.21913788,-0.13658299,-0.1215288,-0.0592134,-0.16628253,-0.01988398,-0.12340718,-0.22741735,0.045266792,0.1953817,0.011194019,-0.06152059,-0.15073225,-0.1194919,0.07655913,-0.052058198,0.1921439,0.22491153,0.13000812,-0.24991074,0.087029725,0.1916792,0.16693409,0.08120733,-0.111945756,-0.1043888,-0.16270702,-0.07121737,-0.23934531,-0.25309923,-0.2047787,-0.11267605,0.013727051,-0.30840322,0.019482858,0.04099881,-0.1839583,-0.04475801,-0.10447966,0.040671773,0.017984435,-0.06127806,-0.38869083,-0.20120558,-0.16903128,0.1254536,0.2273008,0.07406306,-0.12473937,-0.19623418,0.19603178,-0.05606047,-0.4988021,0.14250955,0.09795034,0.13072044,-0.30488068,0.3064163,-0.4369305,-0.09962349,-0.105341166,0.14698869,0.1354281,0.25551552,-0.21264626,0.18471192,0.048059765,0.08703609,0.24203952,0.19208938,0.0018149912,0.25049436,0.09589041,-0.062289104,0.13064687,0.29722905,-0.23299782,0.12761845,0.17675874,0.069333054,-0.15686703,-0.04789156,-0.03692741,-0.07170115,-0.44463527,-0.20894343,0.20665339,-0.24967097,0.15572256,0.18816753,-0.00042449078,-0.56101465,0.21174282,-0.0020626793,0.03996053,-0.15503119,0.15240836,-0.0043508695,-0.06488293,-0.08646052,-0.010129784,-0.3904807,-0.28214434,-0.066776335,-0.061686393,-0.06279586,-0.26585984,-0.3517359,-0.015393578,-0.071823105,-0.023095286,-0.06292548,-0.045483746,0.043944336,-0.062157474,0.007346502,0.027714463,-0.047864377,0.0038787525,-0.008276631,0.040403042,0.019791644,-0.0493936,-0.039073158,-0.03517788,-0.076614775,-0.07029347,-0.021994218,0.014657552,-0.06932122,-0.075937666,0.039094537,-0.009640686,-0.0696509,0.02636966,-0.06716696,-0.001265805,-0.024164291,0.028510865,-0.024163513,-0.04176163,-0.006459022,-0.06941109,-0.04856793,-0.025129143,0.037547946,-0.019964745,-0.07110193,-0.025627548,-0.012580403,-0.06091532,-0.06774582,-0.006686943,0.036863137,0.019308293,0.019446129,0.058500383,0.025198625,-0.07327881,0.038126115,0.0033280246,0.008469978,0.030632833,-0.073337615,0.011580525,0.0506174,0.03212121,0.034002427,-0.012575811,-0.048454687,-0.034218404,0.007317668,0.009132176,-0.0041685305,0.051505096,-0.060915977,-0.062353034,3.7637717e-06,-0.01970999,-0.044400215,-0.050154947,-0.060454644,-0.04402733,-0.033720113,-0.08567171,-0.04673383,-0.0050883773,0.019213254,-0.01606769,0.040141266,-0.042804305,-0.039169163,-0.02192256,-0.07714749,-0.08461679,-0.014322521,0.033785403,-0.018284285,0.008650829,-0.0078111,-0.037163902,-0.049380142,0.008476413,-0.06728061,0.021742173,-0.07446805,-0.074189946,-0.0076904753,-0.03180466,0.011316364,-0.025729582,-0.045195997,-0.04819252,-0.022916803,-0.011536521,-0.045435574,0.010965565,0.01558126,-0.06874311,0.026954656,-0.03255364,0.009679114,-0.007613047,0.0127285225,-0.023061316,-0.046354435,-0.01613529,-0.05836214,0.0070390385,-0.07015335,-0.032461878,0.04203285,0.0001676978,0.0058447155,-0.021142544,-0.05707972,0.040786106,0.04192126,-0.0014482525,-0.069077685,-0.00091191684,-0.06421475,0.0048371493,0.023359649,-0.07806503,-0.02116142,0.010126174,-0.0029730797,-0.0672707,-0.04419259,0.017252294,-0.08074422,-0.03867515,-0.01965914,-0.0388465,0.046668477,-0.025049465,-0.085383035,-0.0074696126,-0.0628053,-0.025683679,-0.05055892,-0.007235868,-0.0007244622,-0.040411532,-0.030103784,0.02010652,0.03662934,0.008821882,-0.042022113,-0.04039401,-0.04467028,0.04099361,-0.06922,0.029878156,-0.043475162,-0.028418694,-0.058140192,-0.0045546875,-0.006210193,0.01648232,-0.05599795,-0.051174633,-0.08232576,0.043197367,-0.06352515,-0.06855914,-0.06406685,-0.03131251,0.04125668,-0.06035919,-0.06423608,0.026550202,-0.07831682,-0.04498471,-0.045627434,-0.051730007,-0.002802749,-0.030263672,-0.051370133,0.044274937,0.03865369,-0.031402852,-0.0070485123,-0.007238741,0.0023602594,-0.053045742,-0.062226545,-0.024264893,-0.05292304,-0.011952065,-0.075941466,0.002449955,0.050635207,0.06303251,0.0070943837,-0.028075095,-0.052887842,0.023762122,-0.047489487,-0.005047874,-0.00328085,0.03051146,-0.012337672,0.0044446276,-0.07078116,0.050179504,-0.0029642058,0.054387268,0.03667324,-0.064261,-0.025972463,0.015413382,0.006510375,-0.060547095,0.000667476,0.024696104,-0.0011031531,0.004034091,-0.001757791,-0.0064048334,0.002199655,0.016282192,-0.034333717,-0.037676774,-0.020973437,-0.041659698,-0.011168932,-0.018146817,0.026358567,-0.044405356,-0.071426354,0.04837751,-0.046829447,0.016921824,-0.00964558,-0.029563695,-0.04532003,0.013849603,-0.06372698,-0.008968192,0.042406175,-0.00977485,-0.05969686,0.1540024,0.036294453,0.00094833015,-0.04455698,0.072946616,-0.09291729,-0.012414617,0.062101603,-0.004697963,0.2262987,0.13027509,0.10593066,-0.073859446,-0.215707,-0.096824735,-0.17682055,0.15099612,-0.19942643,0.09014149,-0.2444764,0.07683564,0.06612322,0.07054745,-0.04920865,-0.045948196,0.113536075,0.04448553,0.3656942,0.040799122,0.13731506,0.25084496,0.15204039,0.03719245,0.02578813,0.025644906,0.009869198,0.03697124,-0.026469741,0.0024424999,0.053598925,-0.22047788,0.0727861,0.17670879,0.00635469,-0.112378314,-0.058201276,-0.19804533,-0.2754682,0.2176884,0.24724913,0.19959597,-0.008836648,0.09734397,-0.05610902,0.113999054,0.14786254,-0.15554975,-0.013893751,-0.023984047,0.22902061,-0.208691,0.10881096,0.108806774,0.2870664,0.096784815,-0.040926993,-0.06644584,-0.14892003,-0.09791314,-0.080332644,-0.11509227,-0.16091754,-0.0040054005,0.033548843,0.10707662,0.17231926,-0.14183873,0.05252954,-0.37334883,-0.24066375,-0.017943626,0.11840846,0.40216154,0.03007871,0.019931043,0.1184484,-0.00086996634,0.06082078,0.2731406,-0.13755332,-0.14631996,-0.08270782,0.0966783,0.07814816,-0.032148533,0.14893834,-0.021882059,-0.041097604,-0.039034292,0.12063417,0.23181231,0.25287434,-0.08068057,-0.0037815021,0.16153044,-0.10354256,-0.011550643,-0.30365053,0.00044712055,0.084601834,-0.43118697,-0.014503096,0.09710408,0.04705173,0.13834943,0.17877758,0.14059474,-0.034986515,0.14262508,0.2268567,-0.1619202,-0.03135371,-0.092145294,0.004555341,-0.16452993,-0.41695744,-0.12046287,-0.28985173,-0.15387595,0.1742942,-0.024140708,0.082268536,-0.37421227,-0.21299954,-0.08751403,0.14425297,-0.17290242,0.08515333,-0.07292861,0.05282846,0.17284779,-0.14856476,0.005527699,0.12354398,0.1272831,-0.30521157,-0.33395255,-0.09693908,0.24053328,0.06842377,0.14234436,-0.23790419,-0.060745344,0.050548162,-0.05476667,-0.05442501,0.18876155,0.06410477,-0.10755232,-0.41517013,0.18522874,0.1201208,-0.113599144,-0.103273064,0.12600651,0.14529742,-0.031417575,0.15377423,-0.0071647386,-0.09701576,0.14475271,-0.05612967,-0.37633687,-0.3954532,-0.537855,-0.4912567,-0.07025767,0.25895506,0.07662938,-0.029688884,0.02340072,0.008550467,0.07127917,-0.0033625972,0.059247162,-0.014919638,-0.0130630005,0.36088914,-0.19732708,-0.17587942,-0.015621627,0.18424429,0.37085232,0.34568188,0.22718523,-0.086365655,-0.0959553,-0.03475758,0.08112972,0.022471923,0.1562956,-0.28499,-0.23961478,-0.113320775,0.074611805,-0.2838276,0.22650571,0.08667546,-0.30508912,-0.22255565,-0.009426846,-0.07337087,0.062354878,0.015990281,-0.13602725,-0.032630138,-0.017031912,-0.074643195,0.018502668,0.07844833,0.0029011532,0.020873789,0.0557272,-0.013362359,0.3075119,0.08663305,-0.12450322,-0.16440165,0.023248725,-0.22262095,0.010734365,0.15099615,0.16152002,0.040786598,-0.33088964,-0.08473645,-0.27339596,-0.093783624,-0.13492899,0.12987804,0.13114318,0.19717273,0.21694888,0.2977976,0.20078655,-0.021452306,-0.020899432,-0.106681496,-0.030097634,-0.04178426,0.14691657,-0.2283376,-0.27707624,-0.41763312,-0.19181962,-0.1025819,-0.016508613,0.15008363,0.049133666,-0.12572642,-0.10861423,-0.09231853,0.29493645,0.1020435,-0.12452926,-0.08497002,0.048364945,-0.05562405,-0.13438971,0.15662482,-0.0005283736,-0.19587536,0.06425721,-0.05427708,-0.068356365,-0.4897419,-0.06696506,-0.02451309,-0.056623593,-0.3032671,0.03467981,0.36732635,-0.03745644,-0.40806594,-0.17913848,-0.0367796,-0.25419334,-0.20242241,0.016757058,0.08636808,0.09252825,0.11543307,-0.10750603,-0.0665831,0.045027047,0.16112325,0.044465728,0.1597215,-0.20708719,-0.26310194,0.14743386,0.1791981,0.11726752,-0.30235633,-0.0021710088,-0.0019428037,0.07394392,0.17706314,-0.28535008,0.005474793,0.045258902,0.0055977236,-0.3903489,-0.3311699,0.033295013,-0.0638157,-0.04343624,-0.0008472904,0.09468548,0.013868117,-0.024768068,0.060777377,-0.018856306,-0.06827705,0.0645622,-0.07687999,0.16649282,0.055926472,-0.32078525,-0.23427299,0.1648543,0.3372825,-0.06240698,-0.21017991,0.05326762,0.21806203,0.052671816,-0.15727462,-0.15799367,0.24959894,0.17437883,0.056522544,-0.30102158,-0.2534448,0.075378545,0.2703274,0.02735592,0.1385853,0.09714058,0.12594867,0.037772853,-0.14254694,0.012011023,-0.122855544,-0.083728835,0.036483034,0.051368352,-0.033666953,0.22704935,0.20532607,-0.16662247,-0.22266726,-0.42054608,0.29879528,-0.5778998,0.07378737,0.4198121,0.003742457,-0.034183465,-0.17968242,-0.19603421,0.2555132,-0.10214013,0.1609461,-0.07337472,0.006295205,-0.26031488,0.06170579,-0.06557198,-0.3349691,-0.035931326,0.45695436,0.29871637,0.018496659,0.08023372,-0.22400114,-0.015945688,-0.092272475,-0.035175268,0.0379955,-0.14972956,-0.11010846,0.1738635,-0.20600209,-0.08669843,0.041086044,0.057942174,-0.17496039,0.2586217,-0.05890152,-0.13197318,-0.09841171,0.016538361,0.14637488,-0.1593764,-0.19144593,-0.048300035,0.24596849,0.11946299,0.07591048,0.17271383,0.28987357,-0.061294146,0.22005324,-0.23933284,-0.1582949,0.0174341,-0.046085667,0.030905703,0.01298952,-0.14192787,-0.19175236,0.21851271,0.21357612,-0.24515377,-0.29477996,-0.19823961,0.15216832,0.065630846,0.35788772,0.23678374,0.4526615,0.076977514,-0.012426722,0.02156182,-0.402359,-0.021692075,-0.33320984,0.0076349694,-0.21331903,-0.11318142,0.117084205,0.08235507,0.23984066,-0.054245085,0.009552945,0.008998375,0.33110884,0.088229544,-0.11962331,0.088029504,0.19859684,-0.24155085,-0.10221775,-0.21456668,-0.35919923,-0.08057657,-0.16568375,0.12056233,-0.09350936,0.0030743154,0.2100933,0.18267739,0.34771168,0.022169156,-0.06275465,-0.21172222,-0.47701734,0.01594363,-0.04313452,-0.0058864946,0.007798719,-0.1657785,0.22014493,0.013751813,-0.17427501,-0.59259033,-0.3163826,-0.11821383,-0.38446817,0.15181276,-0.032579876,0.02216003,-0.015065919,-0.0854355,-0.00404988,-0.13995972,-0.36523136,0.052548707,-0.1866885,0.048744675,-0.07294467,0.27889338,0.18385623,0.23590586,0.2608586,0.09704105,0.012230598,0.035093077,0.03271978,0.07255417,-0.12026773,0.1059403,0.028124956,-0.43335527,-0.21810551,-0.101045825,-0.039427765,-0.16392605,-0.06616809,-0.017035756,0.30818048,0.070584044,0.07326673,-0.2451171,-0.33617672,0.18330514,0.06335444,-0.07618421,-0.018388242,0.14076075,0.032759808,0.097150706,0.07768666,0.0010498974,-0.1467324,-0.122669086,-0.04193366,0.0039838064,-0.30281413,-0.25233704,0.14979741,-0.011588034,-0.17746206,-0.026415873,0.12090806,0.04370721,-0.24837226,-0.08978332,0.5168656,-0.15658729,-0.3224302,0.069730416,0.33415803,0.28160042,-0.028848479,-0.12555636,-0.092972554,0.35508707,0.013946571,-0.0083017815,-0.06441625,-0.19199418,0.0026705205,0.0052410443,0.0662727,0.110989206,-0.09182191,0.013904655,-0.033840567,0.116553254,0.18800837,0.025194474,-0.27450618,0.06895285,-0.08128822,-0.013796851,0.024777794,-0.07990576,0.028142778,0.03377864,0.117608756,0.2038133,0.044074155,-0.06489706,0.07966784,0.061719008,-0.10661148,-0.0030533404,-0.10218149,-0.08413408,0.014858373,-0.06720201,0.008942522,0.18702039,-0.030879196,0.20471618,-0.47253218,-0.19652656,0.18189812,-0.36582282,0.0012353021,-0.057369176,0.09788396,0.13242929,-0.023705766,-0.020514164,0.04092163,-0.022789316,0.022576898,-0.07723808,-0.22847581,0.029445099,-0.15082726,0.027216777,-0.1045159,0.059463844,0.11558645,0.100978695,0.045141198,0.14782006,-0.030900043,0.26253065,-0.01023597,0.011793469,-0.09150195,0.045021128,-0.014840717,0.031239577,-0.13074711,0.1450322,0.1284068,-0.31448352,-0.23371409,0.08755831,0.09764585,0.09681326,0.051583778,0.067328125,-0.078582846,0.15068743,0.059911128,-0.18873039,-0.08140203,-0.16455571,0.039538823,-0.038996506,-0.4092164,-0.22165133,-0.38048372,0.08435484,0.14690015,0.23470183,0.007576742,-0.19795914,0.08112857,-0.04346654,0.13595408,-0.04379371,0.12565789,-0.14230992,0.15196595,0.07864326,-0.4037647,-0.06809244,0.01736511,-0.029108532,-0.04368388,-0.021912515,0.19631688,0.093796216,0.03584768,-0.03084007,0.036401697,0.04560146,0.010052618,-0.032691263,-0.12524702,-0.1629483,-0.12340215,0.084017545,0.037352994,0.12066736,0.042888463,-0.12107188,-0.08794104,0.3965705,-0.017020898,0.059091147,-0.090841405,-0.03603671,0.040150933,0.009689975,-0.08945197,-0.25639716,-0.2794729,-0.31679326,-0.43769965,0.15802549,-0.06148761,0.0021150839,-0.17072797,0.055914022,0.043248825,-0.059224837,0.06393177,0.01224339,-0.01161641,-0.19186288,0.26307198,0.1433245,-0.10747038,-0.13407455,0.013015746,0.21291491,0.4025334,0.08394152,0.02295387,0.081927076,0.0075558685,-0.077488266,-0.13715975,-0.12420318,0.06983887,-0.3029216,-0.34611142,0.07116711,-0.28761792,-0.19450971,-0.13934833,-0.06456896,-0.031989075,0.044273652,0.2131129,0.20780668,-0.119714946,-0.2521544,0.19882399,0.22884215,-0.4922177,-0.1253036,0.029835936,-0.010577736,0.17685644,0.17193335,0.1482887,-0.113803856,-0.05922529,-0.25076628,-0.11829702,-0.01955932,-0.11913628,-0.13798203,-0.1454966,0.23683041,0.020265393,-0.39149266,0.17411742,0.12886468,-0.21590462,-0.38691145,-0.221031,-0.057367507,-0.05675776,-0.10650052,-0.06762646,0.16471325,-0.017435895,0.15899658,-0.33422232,-0.040070836,0.11261986,0.00047564207,-0.268865,-0.10231111,-0.24855599,-0.08260032,-0.6070381,-0.13644184,-0.40019464,-0.59863293,-0.13130492,-0.088276304,0.07375328,-0.06505682,-0.03266057,0.19537069,0.1467528,-0.14432104,-0.12831575,-0.008982039,-0.10065992,-0.11470288,-0.0043942393,-0.3226959,-0.18402594,-0.18609546,0.2377858,-0.14333063,0.006985258,-0.09139073,0.10097003,-0.06082291,0.096643694,-0.116183236,-0.054621477,-0.17698525,0.053888895,-0.019586785,-0.14640671,0.22995338,-0.24284233,-0.68511766,-0.36327332,0.03290018,-0.28447485,-0.067599274,-0.041455716,0.01822373,0.047363028,-0.024418166,0.056410477,0.088536,-0.060229193,-0.05079302,-0.0018735377,0.17221089,-0.17172952,-0.2744737,-0.21563469,0.034897216,-0.20703457,-0.09568521,-0.1352618,0.077975675,0.08308022,0.056393176,0.05634348,0.17816614,0.06380299,-0.04609276,-0.24410903,-0.29583392,-0.3338382,-0.57701415,0.1396161,-0.059213277,0.068344995,0.22120045,0.066037945,0.1763697,0.18194613,0.11596972,-0.34733838,0.15493031,0.1872122,0.13444261,-0.039468057,-0.12852538,0.061553836,-0.16227749,-0.029445749,-0.05365299,-0.19456598,-0.28019756,0.13791326,0.07721522,-0.17288281,-0.15819564,-0.00634008,-0.036071584,0.066724166,-0.019692285,-0.0015684613,-0.03323641,-0.030122884,-0.12614378,0.062504105,0.15838106,-0.1418763,0.024329605,0.10060411,-0.0407856,0.1450202,0.10752322,0.18598898,0.28255686,0.22460955,-0.05613343,-0.1538008,-0.23769371,-0.0013202593,0.101571776,-0.15890375,0.037505455,0.08587025,0.1772959,-0.056370918,0.23668778,0.028513601,-0.07253483,0.099977694,0.32173395,-0.08651583,-0.097591,-0.14063331,0.3155297,0.32366452,0.5457193,-0.019055473,0.3916705,0.1274313,-0.015254663,-0.27156612,0.20028839,0.15336087,-0.08921474,0.056802586,-0.58876145,-0.05258429,-0.11609971,-0.03022002,-0.1360192,0.014796397,-0.09565365,0.027972741,0.2301722,-0.024682805,-0.1265665,-0.34298122,0.05546239,-0.008035081,-0.1867423,-0.1278365,0.23324779,0.07405594,0.022937164,0.11562244,-0.2653174,-0.167476,-0.1983148,-0.18223797,0.09654548,0.28262836,0.05188287,-0.044214603,0.02266186,-0.003175123,0.017218102,-0.04975683,0.11514744,0.10688414,0.0007743647,0.14895168,0.14957432,-0.21302147,0.1567568,0.19137488,-0.09592011,-0.10604566,0.27326548,0.3189915,0.045736905,0.17598681,0.40103674,0.057182502,-0.30606082,-0.0062781773,0.040176205,-0.13356112,-0.14760081,-0.1195191,0.0887639,-0.00045708407,0.029607857,0.48472333,0.26909876,0.030742802,0.26360226,0.011901004,-0.049191907,0.051298805,0.18280788,-0.0853319,-0.053388968,-0.14623703,-0.27858067,-0.03448173,0.20631664,0.59905463,-0.17425561,0.22207652,-0.058007833,-0.13252492,-0.14370613,-0.043331508,0.13402799,0.14536685,0.25189778,0.20422222,0.30741763,-0.12352645,-0.19444087,-0.12054191,0.195003,0.21413106,-0.15405783,-0.16198461,-0.058212075,0.17101336,-0.048443247,-0.13251448,-0.06333322,-0.21985006,-0.13719232,-0.05993507,0.0010238274,-0.23993362,-0.1371445,-0.38553149,-0.07970951,0.16372289,0.13820681,0.12657015,0.26940244,0.36654374,0.087742716,0.09082586,0.0007829931,0.1640853,0.16270113,0.09683944,-0.035301607,0.00053782685,-0.05976284,-0.25459638,-0.09171524,0.033722665,0.20988512,-0.10128945,0.14845228,0.28212526,0.18581186,0.038598295,0.08911965,0.124501444,-0.30738923,-0.41356018,-0.30293074,0.0015071246,-0.41961566,-0.27587864,0.022868184,0.24697568,-0.17233267,0.025796797,0.27690613,0.33449605,-0.08079645,0.33957094,0.2724055,0.3995489,-0.008500977,0.19312756,0.1566459,-0.02405499,0.05268379,-0.117846064,-0.053120956,-0.3637289,0.30162743,0.25794056,0.047393125,0.38235304,-0.17736204,-0.07541192,0.14556862,0.19700526,-0.33348694,-0.11342391,0.29096276,0.05555946,-0.2666258,-0.24636598,-0.17760298,-0.32471806,0.059600048,0.02163259,-0.14184898,0.018369244,-0.04905767,-0.060820736,0.027121797,0.4314465,0.15492305,0.081789054,0.06825162,0.07295285,-0.22258355,-0.343182,-0.35396522,-0.019814663,0.032387525,0.18742137,-0.04807765,0.05610662,0.1707059,0.13728344,-0.10935541,-0.3328339,-0.16915013,-0.36304936,-0.20801489,0.072868824,0.17819527,0.039622556,-0.2869768,-0.2952441,-0.23185521,-0.07414785,-0.11646604,0.26667908,0.074672595,-0.058492016,0.113984555,-0.08980524,-0.058925483,0.026861997,0.21944483,0.17123811,-0.11590623,0.15024047,-0.10548465,-0.06827503,0.16200657,-0.03912977,-0.08755282,0.11520849,-0.0020850103,0.047862787,0.09080892,-0.1425923,0.22569023,-0.06002525,-0.030447034,-0.17339654,-0.076814674,0.37613913,0.028692847,0.01726554,0.22074096,-0.018399715,0.17975262,0.110928185,0.13151473,0.014271708,-0.023579419,0.16243404,-0.14582106,-0.4651302,-0.2520999,-0.07727626,0.08747582,0.32735232,0.2963958,0.34635705,0.22775812,-0.00802657,0.016805714,0.0745102,0.0295363,0.07959904,-0.12360234,-0.114693545,-0.2632975,0.021401856,0.05710965,-0.05238154,0.09096565,0.20172001,-0.1249148,-0.4303171,0.2520003,0.06548867,0.19467965,-0.4798092,0.13648455,0.38949993,0.026741952,0.11404229,0.19998841,-0.06181688,0.053786226,-0.24497038,0.21698458,0.1454836,-0.06311669,-0.08057455,0.04376795,0.17363939,0.10971756,0.08257636,-0.05621406,-0.367364,0.14549065,-0.23063518,-0.2749684,-0.34113026,-0.22317564,-0.028614886,-0.121333405,-0.14962673,-0.20962912,0.24560936,0.114914745,0.16768083,0.14617698,-0.14065625,-0.021285696,0.15131037,-0.0242425,0.32322657,-0.05070969,0.10590791,-0.047758352,-0.058876768,0.013109746,0.07895875,0.13229366,0.07888319,0.024884425,-0.16577582,0.092675336,0.11443811,-0.05682605,-0.14557794,-0.26441157,-0.0401026,0.19947964,-0.101298735,0.07478226,-0.06677093,-0.5711915,-0.100836076,0.15596132,0.10609124,-0.2605686,0.2652833,-0.11005541,-0.120874695,-0.039337326,0.10070714,0.117272794,0.071731254,0.122010544,0.07003243,0.18237372,-0.08085975,-0.13741463,-0.07165854,0.07438533,0.01599292,-0.19966878,-0.114866845,-0.09593108,0.22180772,0.035853602,-0.1575183,-0.1602575,0.117319256,-0.27615044,-0.031112721,-0.1536669,0.3475926,0.14607325,-0.0118883345,0.06926299,-0.0634184,0.28762445,0.26571563,0.043454148,0.404076,-0.121062,-0.19275373,0.051509313,-0.14495173,-0.04926291,0.056205157,0.30386075,-0.0010823832,-0.65570027,-0.24327682,0.13081354,0.07142475,-0.06432326,0.058508325,0.20533289,0.37746665,-0.18390107,-0.19482549,0.009334297,0.0151661765,0.025188487,0.16037524,0.0009049602,-0.19874616,-0.030397454,0.14971127,-0.078808725,-0.37383226,0.056983866,0.024442535,-0.026394926,-0.21220188,0.13220382,0.07006011,-0.09606906,-0.7411809,0.19757037,0.03905667,-0.25682217,-0.3039813,-0.21662366,0.16294338,-0.087210074,-0.14110559,0.24990544,0.2773872,0.28335172,-0.080709405,0.086094804,0.13547511,0.15679164,-0.05958829,-0.17669679,-0.12802114,-0.3461583,-0.202553,-0.14425611,-0.016608821,-0.10086092,0.06246748,-0.15384518,-0.14034322,0.12716123,0.010928369,0.045424275,0.08678778,0.16647726,0.18391053,-0.115960784,-0.2973044,0.33262655,0.3504673,-0.019284599,0.09899872,-0.07511135,0.17639492,-0.17215237,-0.21728283,-0.08409486,0.026249193,0.20884503,-0.1029736,-0.06347515,0.006137015,0.23173481,-0.02719785,0.0953788,0.07869768,0.2226476,0.23629673,-0.0576683,-0.14414373,0.18167402,-0.118380815,0.23177265,-0.17944987,-0.3123592,0.055093583,0.15703367,0.20634642,0.17255543,-0.02575936,0.20883903,0.23286892,0.009140309,-0.22563922,-0.0050421716,-0.01831162,0.058872912,0.015932728,-0.18050304,-0.062272582,0.27098435,-0.16417219,-0.23094831,0.053128384,-0.014821525,-0.4160234,0.10135968,0.13747866,-0.22372265,-0.108151674,0.04392997,0.006831053,0.14756407,0.18687828,-0.051180173,-0.20222832,0.062090952,-0.19067302,-0.15973696,-0.09136406,-0.11604604,-0.027894191,-0.058487583,0.01602727,-0.23911574,-0.14974876,-0.05962095,0.0005224968,-0.14921242,-0.032058116,-0.0727211,0.025684305,-0.358532,0.20802325,0.03216713,-0.018188251,-0.12950154,0.14211905,0.12714897,-0.029120175,0.2042754,0.3599475,-0.17072506,-0.019129636,-0.05132256,0.11875503,0.14832407,0.30478415,-0.2795147,0.06628583,0.0635522,-0.07041291,0.051552072,-0.07513484,-0.17433396,0.0002078881,-0.18253146,-0.040251188,-0.0024002742,0.13331519,0.37242487,0.20955412,0.110309355,-0.053420834,0.35513404,0.12867479,0.028201668,-0.019207995,0.013215549,-0.27550358,0.1042288,-0.06716254,-0.002744681,-0.27299237,-0.28303182,0.021978922,-0.029049823,-0.06720126,-0.020592598,-0.049513184,-0.0445608,0.0067935716,0.17203607,0.16181104,0.04993325,0.06208305,-0.071887195,-0.049242236,-0.36354473,0.04377843,-0.10013948,-0.2981704,-0.15960003,-0.14427334,-0.14371502,0.08855529,-0.65681416,-0.17597206,0.1455421,0.24145783,0.0028521589,0.23868275,0.23849572,0.1774262,0.04115984,-0.076039836,-0.322535,-0.412069,-0.3693696,-0.025078353,0.19496882,-0.19539277,0.3732879,0.20324954,0.062128477,0.05226932,0.29186982,0.06290896,-0.07015498,-0.038509957,0.10561833,0.10519729,0.087640084,-0.038892794,0.09812257,0.011817253,-0.03140216,0.104363054,0.09037953,-0.16593306,0.1793322,0.014173613,0.23990284,0.3142012,0.06471778,-0.17929235,-0.1791905,-0.3031496,-0.10939734,-0.09748163,0.03094008,-0.30074447,-0.041345652,-0.6220697,0.2341684,-0.20658109,0.16006231,-0.09557554,-0.28593418,-0.1631395,0.113290854,-0.06445463,-0.045716923,-0.10830652,0.20498095,0.1443716,-0.35529834,-0.20140277,0.047581133,0.1871382,0.038018648,0.07987164,-0.02679157,-0.036381315,-0.0031605815,-0.022974012,-0.26792493,-0.05917178,-0.25127128,-0.103624485,-0.06922332,-0.3183729,0.028493056,0.034409694,0.14112808,-0.17054175,-0.110603556,0.017843438,-0.21854573,-0.12586574,-0.15790878,-0.07384756,0.11161994,0.33167303,-0.32687494,-0.11278441,0.035836674,0.06716009,-0.3559911,-0.01376879,-0.06461756,0.03987204,0.26817313,0.020545378,0.030960059,-0.068713576,-0.17788537,0.15772276,-0.028090997,0.11746067,-0.0034916871,-0.010730562,0.09653833,0.018278172,-0.4171666,-0.052450176,0.1223936,0.09707428,0.055664375,0.04175957,-0.07980985,-0.13190867,0.13817872,0.0010709121,-0.04645095,-0.2811081,0.10586881,0.33816287,0.31905413,-0.07772795,0.056446105,0.07710876,0.07767025,-0.13359806,-0.09059004,-0.055694826,-0.20775533,0.066429876,0.17317583,-0.05608875,-0.14787038,-0.28638932,-0.0852544,-0.1788256,-0.19672354,-0.23267356,0.15769932,0.060713053,0.10409813,-0.27744982,0.07945581,3.5013574e-05,-0.03737878,0.0035424943,-0.22182396,0.026637657,0.06661382,-0.1882325,0.12128802,-0.17040248,-0.021449877,0.06639464,-0.1797378,-0.101006605,-0.022733722,-0.017096737,-0.11617039,-0.10090228,0.02948331,0.081391566,0.098813556,0.30425248,-0.07006262,-0.0027309768,0.07715963,-0.18275626,-0.14066605,-0.13126507,-0.13968867,-0.052867454,-0.07212005,-0.019776462,0.048483588,0.12265685,0.10883868,0.007900862,-0.12043123,-0.30087626,-0.28966218,-0.0816838,-0.22703375,-0.46129656,-0.5456187,0.12080882,0.11695402,-0.12061785,-0.36364767,-0.1605768,0.07416917,-0.016123967,-0.14014408,-0.27134773,-0.025217475,-0.26268858,0.07084685,0.019116867,-0.14403984,-0.017489936,0.10809232,-0.17881025,-0.03246465,-0.1229638,-0.05464751,0.0014465039,-0.06836278,0.0158946,-0.029755464,-0.25051823,-0.1226266,-0.10361192,0.054384563,0.14678918,0.04053446,-0.039675143,-0.02729257,0.06580684,-0.34879148,-0.18571705,0.27602068,-0.028409615,-0.023101816,-0.03445572,-0.02179629,-0.07654183,-0.015007344,-0.36025035,-0.4738364,-0.11828389,-0.24250105,0.079097494,-0.20678669,-0.23128323,-0.02777846,0.026361356,0.118244335,0.12281801,0.12939589,-0.21005504,-0.03402296,-0.27197236,-0.059876252,0.13881369,-0.08341022,-0.33198294,0.052274663,-0.26215443,-0.13070919,-0.13194586,0.12032066,0.019675972,-0.11281363,0.086163305,-0.0049106837,-0.123150826,0.043753233,0.026878688,0.089856334,0.20837589,-0.31618878,-0.20438568,0.07808242,-0.10489517,-0.18003453,-0.16274372,-0.008700905,-0.24402596,0.09630958,-0.101666644,-0.21583383,-0.10064264,0.04555036,0.15892167,0.018462941,0.08725945,0.11589686,0.17260379,0.19608697,-0.043749478,-0.16336012,0.014231732,0.025072232,0.13429114,0.21394764,0.041665748,-0.094230756,0.043445155,0.18008569,-0.26707417,-0.16538928,-0.06469663,-0.027098602,-0.4428092,0.093327984,0.16783294,0.065260805,-0.15792091,-0.30733848,-0.26802623,0.10194895,0.062089346,-0.016836243,-0.118285395,-0.045320455,-0.10435764,0.047893893,-0.2732542,-0.47739837,-0.3845274,-0.18822685,0.034152612,0.08694921,0.13656016,0.4383869,0.14590403,0.024592593,-0.13985266,0.09498252,-0.19147323,-0.10121389,-0.08969999,0.0014486131,0.09410912,-0.008444246,-0.029784119,0.14975223,0.07589562,0.12936826,-0.061050236,0.0028055948,0.08794061,0.11520439,-0.27624083,-0.09590905,-0.07709715,-0.12232542,-0.11828918,0.026088348,-0.03859051,-0.3458344,-0.1012846,0.0066370023,0.008969597,-0.30244756,-0.20436504,0.48003566,0.097801805,0.028644979,0.0841907,0.14109674,-0.1458645,-0.09335247,-0.00044144658,0.018034572,0.08580598,0.061894577,0.09318198,-0.50696176,-0.14588608,0.09041402,0.19975443,-0.083053574,-0.22242342,0.0961785,0.27151862,0.22236767,-0.017455367,0.029939625,-0.07548511,0.09155211,-0.15025322,-0.14923796,-0.3227283,-0.29785424,-0.043795027,0.1936123,0.6168123,-0.15270826,-0.062975086,0.0010972614,0.28539154,0.08294397,-0.20488793,-0.115993835,-0.17449538,0.06646892,-0.027543303,0.00492893,-0.30427778,-0.038779408,0.12794293,0.11791495,0.21047339,-0.041512717,-0.28289583,-0.10630266,0.31307834,0.1516769,-0.06358269,-0.052978322,0.18796307,0.26579472,-0.101243876,-0.11647016,-0.07116822,0.052685175,-0.33339587,-0.51053953,-0.3931466,0.1751132,0.05917138,-0.15141423,0.10177866,0.33830237,-0.13430966,0.0008910159,0.12383572,0.19420427,-0.11639549,0.2882555,0.13758047,-0.008152749,0.0707367,-0.3149864,-0.19591063,0.030263681,0.15887035,-0.084935576,-0.11755232,0.12704381,0.099664345,-0.045113534,-0.030524848,-0.108652115,-0.045754958,-0.10948104,0.15175596,0.07438584,0.4878606,-0.073312595,-0.19559902,-0.09883272,-0.087919794,0.031219458,-0.24327135,-0.5673295,-0.14856347,0.11338713,-0.062143892,-0.23847349,0.035050325,-0.28053617,0.10570628,0.35542753,0.05710049,-0.15368445,-0.19290194,0.21804039,-0.18731336,-0.62654275,-0.22067155,-0.117790416,-0.020069692,-0.016893754,0.10239541,0.24254635,-0.20209967,0.13207234,0.18265882,-0.046862368,-0.018117404,-0.09060544,-0.121819094,-0.0521847,0.1301005,-0.11198935,-0.019313721,0.16209991,-0.09436592,0.06835284,0.110908255,-0.037538163,-0.056739014,-0.122435406,-0.13411659,-0.10625176,-0.18831499,0.25478464,0.49128816,0.00860909,-0.09859666,0.23949125,0.30310783,0.032225672,-0.090367556,0.118325084,-0.047541115,0.07744861,0.22039884,-0.13357928,-0.14845899,-0.24027687,0.14783594,0.34005076,0.02885609,-0.17104533,-0.14087163,0.16018726,0.16739689,0.069261685,0.04133899,0.049103495,0.13315131,0.31339055,-0.15476337,-0.08948133,-0.17949343,-0.2567006,0.12909064,-0.22674343,-0.4551497,-0.6265584,0.08945494,0.02244288,-0.368476,-0.058738858,0.34032756,-0.18681414,-0.0039602416,-0.06154748,0.022787603,-0.13984235,-0.10338924,0.049187906,-0.030723475,0.43615165,0.43477783,0.13105893,0.0418927,0.019563321,0.24391471,0.11009534,-0.005934128,-0.017779527,-0.35888726,-0.14660485,0.21067467,-0.07293887,-0.27466598,-0.1988433,-0.07891105,0.2630315,0.23065858,0.08038333,-0.11342988,-0.12678826,0.065300174,0.16275129,0.09418234,-0.15005824,-0.10467885,-0.06917163,-0.17937836,-0.085725784,-0.012803471,-0.2773638,-0.10101489,-0.090294935,-0.010250136,0.1382184,-0.0066338093,-0.03830859,-0.011031061,-0.010141268,0.21662505,-0.044390548,-0.4119033,0.02297957,-0.25402498,-0.39407405,-0.36543417,-0.36586806,-0.24099688,0.16547246,0.16466266,-0.39696097,-0.09367508,0.056760654,0.15872611,0.050973523,0.14569001,-0.03347473,0.0801958,0.071303785,-0.07803815,0.11430944,0.07200554,0.034116257,-0.08875086,0.09267833,0.09588895,-0.41577515,-0.39169452,-0.08448527,-0.04900858,-0.49073818,-0.6526659,-0.22476058,-0.58945143,-0.46574083,-0.57054883,-0.43811482,-0.46255594,0.09342151,-0.10332447,-0.23835658,-0.21832332,-0.35564747,-0.04865771,-0.10670839,-0.30855596,-0.20022433,-0.30636746,-0.1193273,-0.31045708,-0.15921363,-0.17717826,-0.034331962,-0.29747328,-0.44054294,-0.38013694,-0.27313548,-0.021690525,-0.14050831,0.09138006,0.14627016,0.04234623,-0.042845797,0.13016587,0.07757335,-0.17414752,0.09181422,-0.14616935,0.2439582,0.22760174,-0.0107899625,0.03385108,0.049981706,-0.18389374,-0.29789904,-0.5561149,-0.06945958,-0.14496724,-0.26125833,-0.28263962,0.29119575,-0.20076866,-0.37037808,-0.08817611,0.1175586,0.055635363,0.13895996,0.26626018,0.18909466,0.065928616,0.1880885,0.07577272,0.07111663,0.15123771,0.1836271,-0.040932857,-0.10284182,-0.36285442,0.2560201,-0.026608827,-0.106416225,-0.16961119,-0.11578354,0.13199343,0.3126682,0.18168154,0.07384658,0.08345402,-0.29180673,-0.21742713,1.851171e-06,-0.38948983,-0.11082696,-0.27777374,0.05975241,-0.24753006,-0.33479118,-0.4182061,0.0926456,0.35376808,-0.23407228,0.116273314,-0.037917454,-0.3736354,0.29398125,0.091545746,-0.16774498,0.0030789387,0.053265125,0.16354945,-0.31215498,0.20185818,-0.11695782,-0.043600813,-0.17448696,0.23306312,0.27513206,0.26445958,-0.27249295,-0.055179853,0.26067403,0.321008,-0.046886962,0.18855174,0.13073456,-0.15262583,0.07932589,0.102342345,-0.05748926,0.22779185,-0.24289781,-0.07449481,0.16109595,0.088395126,0.062325314,0.1478112,-0.03521652,-0.032141555,0.17824744,-0.035172243,-0.10628031,-0.19253351,0.06650361,0.045550574,-0.15811767,-0.38142017,0.01374815,-0.29138464,0.023805734,0.12931368,-0.3053043,-0.2990529,0.09250117,0.20595303,-0.02418547,0.53323025,0.08655607,0.118631296,-0.23854032,0.31442985,0.18541065,0.058638528,0.15090196,0.30286166,0.35397506,-0.14031434,-0.16393568,-0.17533176,-0.34732732,-0.33086067,-0.049356114,-0.20353504,-0.11809863,-0.20765854,-0.19880049,0.15034753,0.1910364,-0.101958714,-0.5348094,-0.06615189,0.11070961,0.10284065,-0.04838733,0.043274187,0.09698937,0.17253853,0.15459532,0.051359523,-0.059410535,0.2799121,0.30019435,-0.045411017,-0.04681099,-0.18766603,-0.5018112,-0.37219334,-0.44415647,-0.07453626,-0.12407672,-0.19373398,-0.40667,-0.5268704,-0.13816364,-0.5156482,-0.08000574,-0.0030233331,-0.12858447,-0.013328745,-0.089590184,-0.14909373,-0.17533904,-0.1857916,0.2923468,0.048463553,0.068410926,0.16834666,0.13325062,-0.22410879,-0.06967531,-0.15506768,-0.31271437,-0.00015412047,-0.05912491,0.20255919,-0.11128576,-0.118616484,-0.032355946,0.047057353,0.10702715,-0.022645786,-0.33870867,-0.28800136,0.039881416,0.13430583,0.06825813,0.0837548,0.17366736,-0.0012300867,-0.06490163,-0.15043148,-0.092514664,0.08163895,0.005648401,0.17350629,0.004338979,0.019944983,0.042802636,0.103678554,-0.07142814,-0.015352503,-0.039072357,-0.008129589,-0.18582205,0.08124452,0.114685565,0.11750909,0.23064157,-0.12770587,-0.007696449,-0.112235576,0.09838389,0.054057818,-0.2551184,0.030479077,0.036663596,-0.15726408,-0.017334076,0.10990839,0.11025289,-0.21849374,-0.12724225,0.06788708,-0.055709448,-0.051343646,0.26217085,0.20076576,0.18894382,0.24714887,-0.2474082,-0.21908076,0.0009840383,0.06911794,-0.64071935,-0.18480107,-0.13406815,0.19609413,-0.10709332,0.14664991,0.19954295,0.15965661,0.1677152,0.33275414,0.07953834,0.02759917,-0.19529097,-0.10334674,-0.028556908,0.16932791,0.06312942,0.044492822,-0.010065219,-0.021832414,-0.032113507,-0.23089224,-0.4754056,0.15629262,0.2244598,-0.10507336,-0.032706846,0.09287057,0.2649593,0.030509524,-0.08238718,-0.081176914,0.11672683,-0.27643228,0.055612188,-0.025472067,0.10930608,0.23877703,0.10679326,-0.0058688675,0.25227657,-0.11008693,0.039874114,0.09211082,0.07108513,0.06418279,-0.087516405,-0.13522974,-0.029679185,-0.2002026,-0.18776873,-0.4393274,0.012553097,-0.04104225,-0.27683502,0.14972763,-0.013836039,-0.21079636,0.0051901103,-0.0826293,0.15708882,0.015314008,-0.123251095,-0.124738336,-0.13005872,0.03249213,-0.07817209,0.017339487,-0.5558003,-0.36871532,0.012813825,0.0068298522,-0.021120287,-0.20049238,-0.23733361,-0.06307264,-0.13921894,-0.07977551,-0.2371198,0.23497467,0.022593135,0.2408592,-0.21255359,0.18926504,0.0011061097,0.04066498,0.07271634,0.047302306,0.15496531,0.04175993,-0.13403389,0.14079666,0.1525698,0.08872992,-0.11273765,-0.06607054,-0.201913,-0.3015658,0.0040367893,-0.34479606,0.053500395,-0.14594078,-0.06327488,-0.11691263,-0.18988785,-0.020157972,-0.12260054,-0.01943869,-0.060915645,-7.236527e-05,0.11955315,0.2220755,0.17413351,-0.20025747,-0.17861336,-0.25628585,-0.440316,-0.52841616,-0.25093675,0.09487998,0.10185863,0.03196349,-0.010670977,-0.27870983,0.117305696,0.14560197,-0.090899,0.09433975,0.12185671,-0.24781702,0.031123169,0.18065554,-0.121916085,-0.24644426,0.07602053,0.09504304,0.090031445,-0.29075235,-0.19048986,-0.19320753,0.04828104,-0.3066297,0.024129642,-0.050159086,-0.24947877,-0.48743078,-0.021054508,0.19604485,-0.15829691,-0.31128776,-0.025485134,0.07235422,0.049830608,0.13218531,-0.09838361,-0.15559039,0.001668285,-0.037870854,0.0003395278,0.12794615,0.2734068,0.022458278,0.022964187,-0.08039114,0.192354,0.26383975,-0.040568486,-0.22734277,-0.030385245,-0.23748109,0.01687381,-0.22814709,0.07454872,0.031011144,0.21647651,0.22491004,-0.20255885,0.12594922,0.100887276,0.23474781,-0.23325352,-0.10212418,-0.049116638,0.09286019,-0.15615807,-0.038054176,-0.29661614,-0.34356436,0.1456801,-0.053085327,-0.104291916,-0.32680422,0.18759829,0.046320748,0.0016293826,-0.26521826,-0.084559746,-0.4213405,-0.47527516,-0.33997178,-0.015704194,-0.0674416,-0.0039897137,-0.04117403,-0.042532463,-0.034246225,-0.08031916,-0.0040612468,0.021033514,-0.05832116,-0.06932466,-0.018597446,0.014488254,-0.08416963,0.010015732,0.009377075,0.0030408418,-0.097416684,-0.004089813,0.004694241,-0.05590097,-0.050928436,-0.026479097,-0.03841417,0.034823343,-0.101958506,-0.061414506,-0.051197242,-0.094253436,-0.0805668,-0.0064456547,-0.038261794,0.055253603,-0.05130374,-0.026871782,0.00062468846,0.03882171,0.023395117,-0.0792366,-0.022806868,0.012369581,-0.047183774,0.013365351,-0.0027062886,-0.049134742,0.003054369,-0.098841324,-0.026811402,-0.09758706,-0.052986763,-0.039468154,-0.0036913033,0.016191138,-0.029310476,0.022678081,-0.05552657,-0.051579252,-0.024588095,-0.008161828,-0.08063393,-0.055596147,-0.07262175,-0.049375813,-0.06401477,-0.08281148,-0.028376915,0.027416132,-0.054073233,0.00085833203,0.0917209,-0.06521633,-0.002445644,-0.042529233,7.844061e-05,-0.06917229,-0.0163063,-0.06427501,-0.047781695,-0.045289766,-0.0070867445,0.008851385,-0.011883262,-0.017452363,-0.01125572,-0.039949734,-0.0732654,0.007255453,-0.06355397,0.013481721,0.027651675,-0.03287372,-0.038949925,-0.01982302,0.017757772,0.0019705615,-0.09300717,-0.014896696,-0.035075046,0.01498948,-0.0048095603,0.043125663,-0.025988454,-0.07375485,0.013426262,-0.080558755,0.06637193,0.05159962,-0.058851063,0.050105028,-0.05446295,-0.068720765,-0.09231253,-0.08593032,-0.021496296,0.010769336,-0.10285367,0.0049047247,-0.08687839,-0.03524094,-0.020304965,-0.029441832,-0.04694757,-0.027992625,0.020134768,-0.025299352,-0.025466885,0.023237316,0.033316035,0.025762301,-0.006438057,-0.041267056,0.0412761,0.08269618,0.037123423,-0.055685677,0.030822111,-0.010676946,-0.015973436,-0.073667265,-0.0051826215,-0.06853372,0.060586024,-0.031715028,0.09514225,-0.0629426,-0.05786662,0.021804793,-0.047389925,-0.08363748,-0.031066483,0.002983383,-0.05468972,-0.09051435,0.027360035,-0.07081464,0.014811812,-0.017688412,-0.04316694,-0.0045661656,-0.037216812,0.02220624,-0.0333401,0.007251285,-0.0625787,-0.026038539,-0.031113276,-0.037246287,-0.08436169,-0.04050508,-0.025489515,-0.038987737,0.027889337,-0.00022756503,-0.04328308,-0.015552927,0.0074880393,-0.08029612,-0.0009279915,-0.06883152,-0.042445924,0.03816056,-0.00737127,-0.06581293,-0.014325876,0.028679425,-0.059702877,-0.02064687,0.022669846,-0.057177667,0.0036351918,-0.040007368,-0.06379411,-0.059851345,-0.0012627906,-0.03501288,-0.05862279,0.015776651,-0.024284447,0.068162315,-0.05587253,0.014238697,-0.08929956,-0.06568309,0.010737084,0.009631834,-0.09161623,0.023543205,-0.011171631,-0.028680416,0.018662678,0.017926008,0.025990052,-0.026105724,-0.06288518,0.0054450193,-0.05672512,0.017096877,0.029664796,0.0062575084,0.08047826,-0.027692158,-0.049264852,0.024367014,-0.07958241,0.0073458115,-0.06058584,-0.07645352,0.010819945,-0.059714217,-0.089300685,-0.0679915,-0.03530646,-0.07328049,0.007789073,-0.06834623,-0.013447811,-0.027112946,-0.012298406,0.016219387,-0.0724526,-0.010242621,-0.045416936,0.01969747,-0.029039325,-0.041319292,0.0133289695,0.010632435,-0.007910931,-0.049839318,0.0021609107,0.08243263,0.033975948,-0.024953172,-0.00052810455,-0.05228187,-0.0055180853,-0.0956671,-0.25999415,-0.3212728,-0.26714748,-0.21815124,-0.026198357,-0.01642069,0.09431797,-0.0015401426,0.20659313,0.2586514,0.22204061,-0.22351818,0.040828437,0.068733715,0.030956192,-0.08287948,0.0050586807,-0.02640704,-0.087968275,-0.0990101,0.13152567,-0.16900449,-0.09781005,0.06369661,0.21357687,0.080197304,0.20889916,-0.032524202,-0.039339498,-0.15897767,0.06283524,-0.6119133,-0.7376556,-0.26552823,-0.1363821,-0.28293034,-0.22293368,-0.16745597,0.049335252,-0.07887547,-0.1099768,-0.03391823,0.10671034,0.097470164,0.12507318,0.090974234,-0.04500831,-0.20010386,-0.55608577,-0.30945235,-0.11863243,0.026440423,0.050786357,-0.10197521,-0.11594305,-0.5024533,-0.17604639,0.009250169,-0.011911568,0.10618682,0.044311564,0.18351866,0.09569543,-0.233923,-0.13998094,-0.18539762,0.05338098,0.14764473,0.15693702,0.17988303,-0.122680336,-0.12716518,0.29230148,0.4664234,-0.10135369,-0.28399992,-0.04925723,-0.059932634,-0.05471143,-0.1962194,-0.4206394,-0.20475934,0.11972638,-0.15911633,-0.3361325,-0.38196525,0.14991774,0.078097135,-0.019093491,-0.105084166,-0.054024357,0.15349233,0.11974369,0.2532255,0.014001998,0.298564,0.1855068,0.12566294,-0.18635787,0.29426655,-0.21978103,0.056595203,0.052160427,-0.39534882,-0.2404706,0.055579636,0.064910844,-0.23176622,0.11999523,-0.057292417,-0.14305536,0.4333014,0.07566633,-0.27030617,0.0757217,0.037627183,0.05501535,-0.0069507635,0.051279716,-0.17709264,-0.08002693,-0.014302437,0.018699227,0.07514153,-0.2635894,-0.17722951,-0.31014612,-0.068351574,0.16303352,0.28568447,0.0048909606,0.23490377,0.16931558,0.08565569,-0.35863486,0.16471279,0.09348784,-0.14827095,-0.15126443,0.123345695,-0.006527889,-0.31214333,-0.16678236,-0.34460038,-0.23173612,0.031031575,-0.040512927,-0.2351476,-0.25526416,-0.3195803,-0.107539125,0.08663552,-0.07743147,0.013189809,0.12745385,0.041348156,0.1438388,-0.07846562,0.047265712,0.10494736,0.070983656,0.10976232,-0.035795253,-0.032231666,-0.009052275,0.05101368,0.16994436,-0.051511552,-0.2771406,-0.10826979,0.20912424,-0.43658182,-0.055367496,0.099942066,-0.07688364,0.15177979,-0.16624324,0.19922784,-0.03381354,-0.37361673,-0.07471829,-0.08569485,-0.16684818,-0.04013404,0.0655026,-0.18803912,-0.14199358,0.12120733,-0.049594928,0.35021865,0.067905925,-0.0028324043,-0.04883473,-0.10209071,0.16039075,-0.3880078,-0.041637372,0.17758897,0.035308894,-0.4319469,0.054136105,0.049994014,-0.16626169,0.02977541,0.08832549,-0.008996225,-0.0479352,0.15234171,0.0986375,0.15065639,-0.022000214,0.43243802,0.06933927,-0.3937773,-0.40084732,0.2072981,-0.04305735,-0.091621995,-0.24333255,-0.14656477,-0.15918365,0.07784632,-0.07117119,0.4340011,0.2688851,0.17278457,0.072385244,-0.022057012,0.03315976,0.18591458,0.059763808,0.04326331,0.0029571857,0.0042508594,-0.11876572,0.2090223,0.0958308,0.07719864,0.20607021,0.009529471,0.064725704,-0.023657853,0.22421797,-0.10843774,0.1593018,0.09712975,0.2600251,-0.46409932,0.09041644,0.09077843,0.29766712,-0.47514668,-0.10969079,-0.041757386,-0.40010533,0.123977296,-0.036145277,-0.067079365,-0.028640486,-0.22035219,-0.2253823,0.07328193,0.0037289853,-0.09479904,0.1339224,0.023573542,-0.024337243,0.019003969,-0.0624425,-0.047853004,0.08142066,-0.009425959,-0.10942207,0.14008065,0.43604767,0.09529337,-0.06455036,0.21717621,-0.075020276,0.07614222,-0.3085878,-0.068068855,-0.121231206,-0.00613454,-0.053136423,0.08835482,0.12705761,0.24386878,-0.14385948,0.06344724,0.0073685036,0.14930505,0.026768401,0.025509782,0.019994553,0.03506738,0.23589712,0.053461984,-0.06211923,-0.05884281,0.019825947,0.07436166,-0.27269503,0.3657079,0.22432639,-0.11971258,-0.26445052,-0.21191859,0.022752406,-0.2176025,-0.20009352,-0.2003986,-0.17178167,0.07773283,0.32584107,0.12584287,0.1429569,0.08696639,0.0625889,0.0827107,-0.1431163,-0.05516737,-0.4665104,-0.167377,-0.011364939,-0.30556354,-0.027495733,0.19979186,0.11932928,-0.017862558,-0.23794743,0.050147813,0.010853419,0.28427842,0.26709694,0.12616988,-0.08035154,-0.068306096,0.026591346,0.38396153,0.2871423,0.15932108,0.023906166,0.026297979,0.0053690206,0.047247417,-0.17753705,-0.2902461,-0.10373003,0.0067349523,-0.05252878,0.09370819,0.15565975,-0.016494988,0.119323604,0.21508662,-0.47432408,-0.11133604,-0.035531607,-0.3079649,0.07107623,0.30724996,0.15604714,-0.07757386,0.210606,-0.03812074,-0.04044881,0.03954972,-0.09774316,0.2428965,0.16125499,-0.1469068,-0.32498604,0.18528213,0.14208362,-0.46583554,0.035214465,0.22118777,-0.123403646,0.25196558,-0.060437486,-0.07741695,-0.49954,-0.09508168,-0.22112249,0.2263487,0.1457317,-0.12628262,0.092667006,-0.12470016,0.26487726,0.14084254,0.3578575,-0.30301303,0.16938168,0.20641659,0.061766487,0.11682564,-0.049610175,-0.12677819,-0.0027354215,0.33096182,0.2605742,0.06504392,-0.067731135,0.3620897,0.15207012,0.20344363,-0.10583472,-0.064502984,0.06724212,0.0014195812,-0.14621066,-0.2788069,-0.16600913,0.20634374,0.033109564,-0.1785995,-0.21560985,-0.11737992,-0.25925618,-0.34014234,-0.06745464,-0.043379534,0.02181986,0.21017341,0.118986525,0.0015193633,0.11221369,0.24957052,-0.18712582,-0.13228093,-0.2464557,-0.12042539,-0.28462663,0.1842636,0.31320617,0.03821573,-0.029371094,-0.028879935,-0.05408413,-0.11988273,0.024700461,-0.025405074,-0.078766264,-0.033596482,0.068194136,-0.14252362,-0.20705293,-0.27376795,-0.049905807,-0.0104200635,0.3681885,0.0018985685,-0.108045824,-0.11118564,0.10210292,0.103508875,-0.36789462,-0.19625615,-0.20579632,-0.25871116,-0.07145521,-0.12594084,-0.04367946,0.06897294,0.23965688,0.20943663,0.13189003,-0.16784647,-0.0060660513,-0.07805008,-0.40471706,0.00247696,0.07842082,-0.26936966,0.12572767,0.39909804,0.126815,-0.0729081,-0.099287175,-0.35517618,-0.2415866,-0.27022904,-0.055202227,-0.08868566,-0.037936874,-0.00819339,0.19719651,-0.07532507,0.14519292,-0.12066398,-0.20889455,-0.20965856,-0.24413703,0.17499104,0.10204883,-0.21220486,-0.2234174,-0.18546908,-0.38181213,-0.10857431,-0.5378426,-0.18370837,-0.0017369814,0.17248434,-0.3622989,-0.08549003,-0.05864346,0.12239781,-0.5502202,-0.19374698,0.09425447,0.19499277,0.12940039,-0.05168677,0.09314583,0.017050376,0.037234552,0.05908889,-0.008315136,0.12227881,0.09430853,0.12922902,0.10889435,-0.11404104,-0.18533236,0.20559572,0.22348376,0.11117702,0.0064572757,0.05584504,0.07272034,-0.21452245,-0.3338821,-0.049343776,-0.081224896,-0.027882023,0.14268735,0.05916365,0.030025087,-0.09860427,0.018006574,-0.26507077,0.04521834,-0.030079018,-0.02505229,-0.09224398,-0.12543951,0.014403451,0.028801473,0.056486875,-0.14936294,-0.091816574,-0.065960966,0.060000118,0.029898431,0.010919041,-0.18140234,-0.39276126,-0.32272735,-0.014441167,0.2904211,-0.20940295,-0.046914414,0.15313764,0.13153128,-0.015252131,-0.03164679,-0.078258395,-0.2293973,0.022723496,-0.06044497,-0.021284716,-0.073797524,-0.30922076,-0.10205049,0.17202291,0.23276876,-0.15349852,-0.18690453,-0.3725564,-0.113977164,0.058774523,-0.19142546,0.026536306,0.07773548,-0.015526198,-0.090574,0.019181844,-0.07141064,-0.22390065,0.11481155,0.17991272,0.2000845,-8.736164e-05,-0.16386655,-0.03399318,0.24911664,0.00720909,-0.067712784,-0.18828645,-0.012134018,0.01875731,-0.22622246,-0.18036976,0.13272956,0.041749038,-0.033039093,-0.31283,-0.6417332,0.11461224,-0.042048067,0.15932782,0.038802598,0.019150376,0.24422748,-0.051909458,0.06574737,0.02214328,0.2356582,-0.19669405,-0.1271227,-0.088095956,-0.27788216,-0.124283455,-0.09675263,-0.05642407,0.16745132,0.05341289,0.19899258,0.08778569,0.0935772,-0.023923716,-0.17961444,0.07583445,0.2937296,-0.022154374,-0.21404478,-0.024153272,-0.07025006,-0.18530822,-0.08775526,-0.11880452,0.03381465,-0.06265199,-0.03627077,-0.36499372,-0.11843161,-0.01439182,0.17687804,0.05614803,-0.08467788,0.052531984,0.115298785,0.28087056,0.09959388,0.18641,-0.31066492,0.05105109,0.014902035,-0.17385824,-0.21014845,0.17045407,-0.017052863,0.23289655,0.13488881,0.039252747,-0.13946904,0.04237676,0.17690088,-0.116059326,0.06297815,-0.058353353,-0.21299332,0.08993637,0.037442558,0.23424542,0.13892218,-0.124712266,-0.09517684,-0.036652908,0.038953144,-0.011327829,0.17079008,0.037600655,-0.27697927,-0.14647128,-0.09850714,0.20308502,0.46281973,-0.026604509,-0.0114207715,-0.11343799,0.12264956,-0.01002578,0.012990979,-0.04570059,-0.24716014,-0.015881753,0.10344304,0.053990882,0.07993316,-0.34064186,-0.50721,0.25283986,0.12200128,-0.104992665,-0.03244739,0.058770098,-0.041305695,0.013393794,0.02441499,-0.20772606,-0.26934373,-0.05790953,0.00086895406,0.06497325,-0.032717474,-0.011474243,-0.017823545,0.023629704,-0.3219431,-0.4523152,-0.08975395,-0.15616953,0.082924806,-0.3017641,0.24094039,0.19836,-0.036019254,-0.22523001,0.289444,0.015399919,-0.042130526,-0.28511733,-0.10052961,0.0746789,0.3534478,0.010668976,0.13563345,0.09764856,0.030082421,0.075285815,0.041068092,-0.25628603,-0.3223137,-0.054168273,-0.05335465,-0.054840606,-0.15318623,-0.22056195,-0.063875794,-0.020384306,0.010943604,-0.044138823,0.22656757,0.12912293,0.4285442,0.06821253,0.16418554,-0.21677388,0.15904218,-0.16285713,-0.018837605,0.11088038,0.2268296,-0.12259532,0.03554184,0.10763727,0.12442127,-0.11693101,0.022363104,0.18352813,0.19865781,-0.030016469,-0.00873607,0.1725231,0.011555027,-0.24524081,-0.69241494,-0.5138515,-0.22851633,0.052598506,0.1294987,0.07345234,-0.025408208,0.013822797,0.18350795,-0.016885988,-0.026118375,-0.17882031,0.23832934,0.038385548,0.15424101,-0.078702115,0.13665038,0.16858025,0.15245228,-0.25497657,0.052556433,0.120791934,-0.017221672,-0.20632862,-0.00023263387,0.0400833,-0.19134213,0.11040895,0.13902098,0.079662904,0.089522384,-0.1263264,-0.09654437,0.0029219973,-0.07023987,0.0070265075,0.016395653,-0.06639177,0.085723475,-0.263317,0.11082514,0.032613847,0.0063984683,0.07564331,0.10622536,0.13666116,0.021463705,0.080159,-0.029632268,-0.025316946,0.036815528,-0.10955137,0.048929524,0.15267415,0.20682308,0.01179758,0.0040188283,0.25209528,0.15214169,-0.1331321,0.07042303,-0.13164838,0.010866769,0.120087765,-0.1981237,-0.34496385,0.2213469,-0.27484024,-0.017932849,-0.063275285,-0.036459006,-0.02409782,-0.011642308,0.17264003,-0.021614518,0.004053677,0.23480742,-0.025633963,-0.025127422,-0.19353949,0.08733464,0.2076944,0.20675595,0.18333372,0.107557565,0.027341483,-0.005380568,-0.076203465,-0.08572465,0.15333246,0.053215235,-0.16455609,-0.019005775,-0.15394853,-0.18013754,0.3164711,0.1383725,-0.6017701,0.009810061,0.26631662,0.0689197,0.06569658,-0.07827355,0.18495409,-0.040742885,0.22596593,0.044988878,0.025675802,-0.10442679,-0.18471774,-0.16881794,-0.43317524,-0.5559122,0.0031157315,0.059286907,-0.10382734,-0.097307906,0.034649044,-0.36072806,-0.06030991,-0.0049923193,0.13999537,-0.2161529,0.08617554,-0.07988798,0.1449197,-0.047054388,-0.35538855,-0.011593685,0.007052384,-0.021341803,0.117613025,0.20572758,0.038607925,0.05781402,0.24157695,0.27464065,-0.11142897,-0.095037535,0.15522847,0.09210857,0.120406985,-0.06491571,-0.18569906,-0.15720591,-0.32767424,0.01774417,-0.12572107,0.13747194,0.17059033,0.07213545,-0.20741846,-0.23410447,0.019421665,0.16783397,0.037323542,-0.14115849,-0.09319648,-0.13756827,-0.19515812,-0.75303525,-0.6740623,-0.13027485,0.024372362,-0.08868845,0.09821577,-0.045393914,-0.008773042,0.022925215,-0.112073086,-0.31398097,0.16476472,-0.12317822,0.22887972,-0.06252775,-0.17172128,-0.11251032,0.032315556,-0.0879023,0.24754278,-0.09279548,0.09482052,0.15685685,-0.15468402,-0.06555721,0.09769048,0.1789614,0.1407223,-0.08846044,-0.3181575,0.0075646057,-0.2165521,-0.345905,0.15100849,0.14813147,-0.201074,0.20514089,-0.31480813,-0.39750066,-0.050466713,-0.012107251,0.09167711,-0.16462928,-0.41908035,-0.07615074,-0.12550004,-0.124093525,0.40991366,0.32740533,0.061311368,-0.2723839,0.06739089,-0.10850059,-0.06885877,-0.06299127,-0.16067128,0.09551594,0.06792208,0.19467583,0.045313142,0.051977858,-0.07167311,-0.21166267,-0.38828868,-0.027408931,0.026812337,0.07712759,-0.05510465,-0.09190209,-0.23748991,-0.16521749,-0.1555499,0.17424932,-0.07380548,0.18112978,0.19015002,-0.0023462237,0.16126893,-0.059966214,0.00021988797,-0.48691133,-0.84544903,0.077116504,0.27973118,0.1649306,0.1168125,0.11409549,-0.2715036,0.11124911,0.14320809,-0.017875565,-0.014022185,0.1134281,0.16047822,-0.054067988,0.1371318,-0.14138825,-0.31922525,-0.44709706,-0.14208318,-0.01257218,0.20421745,0.13832407,0.054068778,0.13831256,0.030618617,-0.15105946,-0.08916224,0.05307281,-0.13686967,-0.14372298,-0.22975333,-0.24959138,-0.21921626,0.28430513,-0.041586775,0.20852157,0.16505891,0.1789196,-0.19061965,-0.22422463,0.05378368,0.1661509,-0.03091832,-0.18071903,0.019345928,-0.01415226,0.0073967604,0.05145558,-0.11525998,-0.01107739,-0.07153511,0.027533077,0.13654792,0.08989245,-0.030809773,0.09753125,-0.03971559,0.1331901,0.050750855,-0.08341262,-0.036885254,-0.15320472,0.1535778,0.10984263,0.03873906,-0.33085707,-0.06504573,0.05062959,-0.09639193,-0.15894933,-0.19094682,-0.012222209,0.10827453,-0.23343733,-0.06250771,-0.0066987346,-0.24118105,-0.13013935,0.31703827,0.092253506,0.14147258,-0.041998323,-0.29363164,-0.2043695,-0.11220985,0.108812936,-0.037813753,-0.07871056,-0.020873575,0.08529574,0.042065497,-0.017190319,-0.00043750214,-0.19769695,-0.23945816,-0.17014329,-0.28556472,-0.17167027,0.01392924,0.09931673,-0.12363085,-0.04702508,-0.17066431,-0.07334819,0.00037415902,0.06369562,-0.5243383,0.06773055,0.24071509,0.32404575,0.106832445,0.48623067,0.36187387,0.07929453,0.04973064,-0.21648528,-0.001881977,0.14498204,0.056573406,-0.106860906,-0.024026193,-0.032802045,0.07838576,0.3574318,0.038629845,0.01773019,0.18867715,0.22122204,0.081949815,-0.030154478,-0.098188095,-0.52108294,0.0012521294,0.023011748,-0.057066347,-0.049631756,-0.24393773,-0.12670806,0.34269744,-0.08993135,-0.1723058,-0.011310662,0.062781006,-0.20710568,0.039294068,0.073212795,0.085704684,0.04088676,0.255808,-0.10678922,0.10024284,0.00078189967,0.0043589775,0.012703327,0.16036795,-0.020181987,0.117240325,0.049001645,-0.2178021,-0.29655948,0.028933952,-0.021749431,0.17022318,0.10242394,0.14951721,0.120567985,-0.40020114,-0.03740435,0.07253509,-0.13972789,-0.1572762,0.07035792,0.045051772,0.1708254,0.33007312,-0.05484801,0.115806416,0.12672704,0.052662555,0.06847846,0.20089023,-0.065354906,-0.16089958,-0.022476094,0.039109446,0.06413945,-0.05987182,-0.081811845,-0.04575645,-0.37834662,-0.09494884,0.054232497,0.18153794,-0.054725125,0.08181429,-0.05644532,-0.2593715,0.04078766,-0.16117688,0.023922045,-0.066273525,0.10638499,0.1326876,0.114619814,-0.093077,-0.17679113,0.09754601,-0.2886297,-0.12991829,-0.088874884,-0.037437417,-0.027099503,-0.10552162,-0.13877349,0.03127696,-0.0069913277,-0.0019289779,-0.074808024,-0.5533643,0.120212436,0.20285276,0.043901414,-0.09945552,0.2239445,0.25116986,0.26313004,-0.085166775,-0.48452488,-0.14476758,0.19426292,0.022162743,-0.017899405,0.009286855,-0.034263488,-0.14370571,0.22115992,0.25998604,-0.23350611,-0.33055714,-0.18472224,-0.034463108,-0.59443057,0.06057688,0.13357054,-0.01789559,0.098127626,-0.005408487,0.23245856,-0.103539,0.05668774,-0.06807803,-0.10281229,0.14733988,0.2489604,0.13682084,-0.013025673,0.011843583,-0.014166473,0.05338045,0.08122323,-0.08855564,-0.12717381,0.2797187,0.07013151,-0.05748399,0.11068503,0.06758051,0.14547424,0.064059444,0.02538248,-0.09636655,-0.07198399,-0.07377326,-0.30728903,0.45874426,-0.14681679,-0.39002606,-0.3255689,0.15037826,-0.47179797,-0.40178436,-0.16363901,0.03162899,-0.40635765,-0.48031133,0.25472122,-0.03241313,-0.01582299,-0.3037634,0.2377872,0.13093516,-0.0074982904,-0.026985222,-0.0029600307,0.59215546,0.0024315661,0.077273116,-0.029397028,0.2595394,-0.08596018,-0.1726098,0.15511037,-0.13264872,-0.16786067,-0.2142726,0.022130547,0.03660326,0.27913076,-0.08269429,-0.1941078,-0.04560524,-0.0093256775,0.16384824,0.05260973,0.011760518,0.07171888,0.032355905,-0.076249525,-0.19736554,-0.03195153,-0.01997257,-0.06824398,0.09494188,-0.033569016,0.11005991,-0.03209866,-0.10393083,0.15890864,-0.0774746,-0.3249654,-0.006713899,0.20548502,0.21448177,-0.03950137,-0.03787835,0.26354772,-0.11461448,-0.1210607,0.04007287,0.3129722,0.37887198,0.1028274,-0.0029024933,-0.1517839,0.10776021,-0.024456838,0.0003876982,-0.14548717,-0.43177778,-0.19774903,-0.09086067,0.013565603,0.046432998,0.3508645,-0.038175456,-0.1151938,0.10014865,-0.36729828,0.07369781,-0.32071885,0.09518824,0.1446443,-0.023612866,-0.21378778,0.08860474,0.019166913,-0.0077723274,0.036699176,-0.41220725,-0.1378105,0.051044688,0.045927018,-0.14342593,0.23957348,0.27050582,-0.014306403,0.19906606,0.12346912,-0.15166447,-0.25474924,-0.0547043,-0.43596125,-0.22028647,-0.037368808,-0.29921272,-0.08601279,-0.15691729,-0.12666635,-0.40644646,-0.17317587,0.029822374,0.1198652,-0.5844718,0.004233086,-0.09822381,0.008215342,-0.21235994,-0.023375835,0.106258996,-0.17191353,-0.07523326,-0.20444444,-0.048374746,-0.15630344,-0.23599373,-0.24173068,-0.010711966,-0.40452498,-0.031636234,0.058999486,0.05899853,-0.22639757,0.06907875,0.07297781,-0.09718436,-0.17780925,-0.08689736,0.079182684,0.02227284,0.11108669,-0.057835024,-0.0489186,0.29046318,0.15296537,-0.035274822,0.08396492,-0.063802175,0.12468719,0.13690259,-0.0325007,-0.061728965,-0.17734618,-0.16772522,-0.48268,0.06791784,0.06554252,0.046484753,-0.19144565,0.09866657,-0.077797696,-0.32543325,-0.055887,-0.021742472,-0.027202569,-0.20267342,-0.15451139,0.086152,0.20870298,-0.09251914,-0.077426635,0.19734633,0.5154455,0.32495213,0.1462225,-0.1401038,0.104076855,0.16741236,-0.1223311,-0.06524958,-0.04173217,-0.38640752,-0.51088554,0.07419223,-0.18786144,-0.082859285,-0.11457861,0.13657619,-0.16287878,-0.16570692,-0.38545984,0.009509523,-0.33764005,-0.49105158,-0.22232214,0.3222315,-0.38279006,-0.011987927,0.14769332,0.026650295,0.052912086,-0.09504526,0.102105156,0.33564156,0.11063498,0.09785337,-0.055502597,0.3253772,-0.008852618,0.21181327,-0.16387343,0.15266925,-0.09574277,-0.21951437,-0.38375452,0.2133235,0.094637886,-0.21852812,0.097255506,-0.043388724,0.025259688,0.13867933,0.26796344,-0.23298368,0.019143566,0.12067322,-0.023249159,-0.32118362,0.087604195,0.014894769,0.07707015,-0.30742475,-0.095063604,0.0717557,-0.08854041,-0.26806828,-0.22671904,-0.15327623,-0.20920774,-0.13839282,0.07209858,0.1268643,0.3704685,-0.042204466,-0.11663853,0.16625561,0.31984967,-0.022469195,0.080395915,-0.05791585,-0.3578754,0.031003144,0.15077539,-0.009535615,-0.15277596,-0.14528883,0.19547144,0.19908048,-0.012287388,-0.27279046,0.002453282,0.14753182,-0.030675737,-0.038520847,-0.01567893,0.117041804,-0.12931247,0.008149986,-0.052983318,-0.20199054,-0.38806364,0.03246415,-0.06040874,0.022861429,-0.0028459437,-0.111526005,-0.052039724,-0.21006565,-0.031194417,0.034668934,-0.038073543,-0.058635116,-0.2844382,-0.1344065,-0.09743921,0.05730163,0.12136174,0.035624567,-0.23646475,-0.107191965,0.10459733,0.08432643,0.0603562,0.10293755,-0.24843949,-0.004236625,-0.006873211,0.1540317,0.1086594,-0.020192098,0.22859935,0.024057128,0.1911794,0.083930835,0.12192334,-0.043595593,0.32609084,0.15292607,0.033937655,-0.15495072,0.11654086,0.106987074,0.016664028,0.042324495,-0.17231344,0.1572142,0.036680948,-0.09915374,-0.1542096,0.016918445,-0.14887996,-0.041017253,-0.3716108,-0.18228891,0.17767467,-0.16607025,-0.18338889,-0.11526746,0.005714331,0.104677215,0.014798362,0.03094381,-0.13514791,-0.12481959,-0.5680426,-0.15981396,-0.03134599,0.097100876,-0.03758052,-0.18090512,-0.045339573,-0.23004878,0.19366002,-0.017150853,-0.145185,-0.39753765,-0.13949762,0.018834963,-0.07204589,-0.033002287,-0.13733178,-0.2508231,0.10979401,-0.1260446,-0.07160537,0.21548988,-0.06055131,0.07241038,-0.040399004,-0.045855135,-0.071949035,0.009974304,0.10247293,0.1460789,0.05486841,0.024898464,-0.023763815,0.22595571,-0.13270806,-0.004783331,-0.39257255,0.028338049,-0.18818861,-0.15290307,-0.345714,-0.02108957,-0.0448391,-0.26118475,-0.2085919,-0.0900915,-0.30682552,-0.26752964,-0.36109135,0.11663107,0.18680008,-0.06324112,-0.19795865,-0.09937821,0.1704481,0.28689554,0.2521488,-0.09563063,0.089636184,-0.1383137,-0.28674525,-0.22117676,-0.14276391,-0.08957402,0.061054338,0.02455759,0.0077782124,0.086850144,-0.000985684,0.19167776,0.10443918,0.05331402,0.059820924,-0.3279525,-0.20172203,-0.19908945,0.023314817,0.08911752,0.06882199,-0.15835173,0.23273216,0.07835483,-0.08458746,-0.008935748,-0.26876426,0.04857354,-0.3098327,0.058161683,-0.42723754,0.11320136,0.015812641,0.010306289,0.12323266,0.14084984,-0.19021243,-0.4311549,0.055021916,0.31950247,-0.09119219,-0.16324013,0.027527718,-0.11740056,-0.12770198,-0.14612578,0.10591835,0.027488481,0.048184216,-0.07516604,-0.108922206,0.086524256,-0.070224,-0.12102549,-0.31724012,-9.474614e-06,-0.08470346,0.082907684,-0.17244488,0.09453757,-0.10133776,-0.16618666,0.17302088,0.05664363,-0.14257558,0.15286005,-0.035524093,0.24672653,0.058711953,0.02779848,0.47744608,0.074005514,0.15565465,-0.11972203,0.12718463,-0.09729528,-0.07305042,0.20618612,0.012319505,0.03777342,-0.014149091,0.03602253,-0.019005224,-0.16266066,-0.14790109,-0.25809267,0.124296844,-0.13719606,-0.1455554,0.09001546,0.34679264,0.23764662,-0.08225637,0.018425513,0.13500044,-0.26078594,-0.3717504,-0.14319515,0.061447024,0.15024467,0.08449554,0.1681835,-0.109160595,0.21120012,0.10890132,-0.009046921,-0.09139792,0.15939815,0.114308126,0.151596,0.16917202,-0.27970037,-0.519379,-0.26548013,-0.34757853,-0.2157664,-0.010194274,-0.14043193,-0.3179858,-0.05693472,0.048693314,-0.22263925,-0.20570011,0.08633498,-0.008379563,-0.12652786,-0.044992473,-0.22046372,-0.07093124,-0.0438289,0.15363571,0.14293464,0.3069684,0.09526939,0.13833357,-0.12729584,-0.15943049,-0.21426643,-0.068102054,-0.3973872,-0.21598202,-0.009045845,0.033355255,-0.40617514,-0.26468608,-0.05816325,0.0029390638,0.17837334,0.31006172,0.4150111,0.18833333,0.073957756,0.0033350333,0.08999489,0.09013824,0.005480669,0.098237105,0.031122109,0.11715952,0.016506357,0.26122302,0.14085566,-0.11129765,-0.032753695,0.14449069,0.09085887,0.07029045,-0.07694484,0.069905534,0.2596556,0.035659473,0.11537008,0.16317117,-0.08879286,0.1140777,0.021857403,0.055508405,0.20430218,0.07923784,-0.00971848,-0.096786715,-0.0074383225,-0.119494006,-0.119034,-0.06281291,0.040475573,0.20679778,-0.06640476,-0.0688783,0.06800597,0.035522036,-0.2317823,-0.1521619,-0.094186194,-0.027672961,-0.2566388,-0.13489081,-0.09436479,0.1049483,-0.04405615,0.09196149,-0.138635,-0.020337522,-0.13438293,0.038141742,0.17411567,0.12317639,0.31416702,0.15181088,-0.05200221,0.0730864,0.120017976,0.046136227,0.06884478,-0.09226513,-0.122632295,-0.038161404,-0.039658025,-0.018796578,-0.18474984,-0.083153665,0.06339451,0.06079593,0.09033106,0.010387562,-0.022960734,-0.14234006,0.24914971,-0.042352717,0.1929606,-0.073300004,0.07408664,-0.044512175,0.04399857,-0.27232686,-0.10832129,0.106020495,0.1397667,-0.27456436,-0.024067616,-0.12820542,-0.12821682,-0.3264987,0.17787434,-0.10814995,-0.059988905,-0.35839295,0.11306865,0.021623518,-0.12635693,-0.18254489,0.030628733,-0.049991135,-0.107910305,0.0116854,-0.2742854,-0.50687397,-0.13105755,-0.123967424,-0.019047126,0.08649093,0.14113289,0.037250787,0.09178228,0.0785942,0.08107461,-0.31806162,-0.30958456,-0.39565754,0.11364016,0.025405224,0.13693102,-0.23426878,-0.19313565,-0.14104149,-0.066649415,0.19295293,0.0105782645,0.18382491,-0.08130138,0.114557825,-0.08121224,0.05567916,-0.017583694,0.100553624,0.23549442,-0.010178798,-0.11693658,0.15802577,0.084173895,0.046192992,0.4220313,-0.0036581894,0.14002907,-0.05153718,-0.31769535,-0.18472268,0.111799434,0.06943948,0.23363376,-0.14710861,-0.30912036,-0.21568327,0.113635965,-0.30404887,-0.03308275,-0.076247625,-0.58072346,0.07430993,-0.24219623,0.24157071,-0.01553619,0.17533147,-0.057542894,-0.038409445,-0.21952131,0.04559318,-0.043343067,0.009549299,0.13474698,0.17883117,0.16994043,0.21973956,-0.15877965,-0.20502572,0.06504901,0.10261214,-0.30944785,-0.086201176,0.084702216,0.07009806,-0.28944352,0.016905854,0.14414869,0.023863455,-0.27137336,-0.16547446,0.11470634,-0.15954188,-0.08817417,0.12683015,0.1486404,0.1740937,0.25096843,0.1784565,0.11139493,0.38658893,-0.18990384,-0.11139696,0.22599967,0.38737896,0.255263,0.06717835,0.18435934,0.061242174,-0.026120901,-0.034394216,0.011453756,-0.0070673525,0.012930093,-0.041288737,0.028959882,-0.047491577,0.021953095,-0.054201685,-0.07964291,0.022688877,0.005846694,-0.023014035,0.030178668,-0.079718046,-0.028968906,-0.026628332,0.025492636,-0.033443898,0.005238948,0.040404078,-0.035497114,-0.0049670967,-0.03547357,-0.06632079,-0.027537832,-0.021362526,0.04049214,-0.06525184,-0.08900207,-0.025948066,0.019516995,-0.03961522,-0.06587136,-0.05500919,0.0318045,-0.08900022,0.0134933,-0.026239779,-0.01754429,-0.032806367,0.015825048,-0.013526636,-0.02987652,-0.024228252,-0.060368218,0.008926313,0.04049522,0.004799301,-0.05428341,0.010588963,-0.06667171,0.028925749,-0.030180968,-0.02622631,-0.038550753,0.013266846,-0.091747425,-0.08610098,-0.03096494,0.008766991,-0.017605303,0.022564648,-0.026940027,0.002135038,-0.020187305,-0.00097486144,-0.027133314,0.026623515,0.06196955,0.0065372316,-0.01695727,-0.07978859,-0.00479002,-0.048945386,-0.05176895,-0.012553296,-0.06270488,-0.048002873,0.029253012,-0.06521883,-0.02944205,0.045999974,0.0048465226,0.015462663,-0.0819463,0.0071699596,-0.0027448842,0.009438824,-0.08330914,0.023372112,-0.078579165,-0.051430874,0.01120299,-0.08910094,-0.0878121,-0.005807459,0.015853114,-0.04020658,-0.01514397,0.04061135,0.016196532,-0.049961343,-0.029321298,0.031550247,-0.010573097,0.0051787756,-0.061536547,-0.008315508,-0.05441383,-0.039823793,-0.011187534,-0.067153364,-0.07295245,0.025917953,-0.005032679,0.042890362,-0.045657165,-0.0919507,-0.052723106,-0.08304454,-0.07687709,-0.014029496,0.046473436,-0.034070432,-0.03544171,-0.039820295,0.0018890426,0.0008878229,0.0045897695,-0.09155548,0.008806483,0.059444055,-0.05067899,-0.046997707,-0.062417228,0.0030618757,0.00957424,-0.025461925,-0.06398039,-0.0696057,0.0276119,0.022631856,-0.07066134,-0.0635986,-0.0396627,0.046640478,0.03895176,-0.0234324,-0.03626017,-0.029360553,-0.030576173,0.035641503,-0.067152366,-0.012270828,-0.027180392,-0.07357646,-0.050017152,0.03601778,-0.006800858,-0.022611445,-0.015838448,-0.013790274,-0.03683168,-0.015455323,0.029870192,-0.04390798,-0.010127952,0.010371422,-0.047528572,0.019628704,0.037840232,0.04295021,0.045609564,-0.016445689,-0.03555929,0.047559477,-0.039475277,-0.05231734,-0.022551158,-0.058342814,0.02596925,0.0032754585,-0.09097036,-0.0035109145,0.07318992,-0.00062151864,-0.043827243,-0.07309432,-0.012849766,-0.015814304,0.009460152,-0.009160605,-0.008648689,0.0044301813,0.027534455,0.02619182,0.045828972,-0.053766694,-0.04739645,-0.031522352,0.028052807,0.026681479,-0.061933845,-0.068291835,-0.03507845,-0.050993267,0.0086879255,-0.057820432,0.050714314,0.030018967,-0.019315349,0.061360788,0.08624815,0.060585268,-0.044093434,-0.031059207,-0.08818298,-0.053193428,-0.06471882,-0.03767832,-0.0054835556,0.037576176,-0.057598054,-0.014509471,-0.03058159,-0.060956117,-0.017323066,0.013378379,-0.058517188,0.014763519,-0.07073472,-0.08826206,-0.030289639,-0.029723149,-0.02253613,0.012100449,-0.013160294,-0.063319534,-0.071171366,-0.020887181,0.038151875,-0.058584012,-0.06213827,0.036679972,-0.004547146,0.0030440725,-0.049661368,-0.023857262,0.022129228,0.047041778,-0.062418368,-0.084154926,0.003485306,0.058937207,-0.22359118,-0.03314913,0.107674606,0.027578367,0.37826672,0.19509317,-0.101785116,-0.27196953,0.4672728,0.20920296,0.0073593687,-0.0011473182,0.015222936,-0.030892448,-0.007422258,-0.08980324,0.2683205,0.058401793,0.025743706,0.3182105,0.21415871,-0.14954843,-0.10850208,-0.0103589725,0.03099897,-0.3598908,-0.5700913,0.106940195,0.15964413,-0.23485973,-0.25003415,-0.2266898,0.080595225,0.038856246,0.011202887,-0.12054833,0.12968242,0.01776709,0.045501553,0.055176124,0.18766266,-0.06174124,-0.037716273,0.060681738,-0.03451577,0.0031053694,-0.073782094,0.014200199,-0.14564043,0.04836907,0.056432594,0.014984431,-0.19341698,-0.012590008,-0.048431646,0.04842794,0.12258959,0.09735634,0.003993897,0.041741643,0.08878844,0.14081618,0.046378892,-0.18362337,-0.31595087,-0.37632358,-0.053137444,0.20523717,0.117350444,-0.075442754,-0.24407518,-0.19037771,0.27458936,0.01183022,0.13850047,0.19857435,-0.0067695947,-0.27302742,0.19533958,0.046925105,-0.02556383,0.24809083,0.2909942,0.24448797,-0.12989023,-0.06345402,0.18221606,0.40891173,-0.117605776,-0.086989455,0.09371854,0.12222743,0.20357975,-0.09670521,0.07977568,0.087026365,-0.24686629,-0.17098899,-0.25928208,-0.44908282,-0.29902202,-0.09416549,-0.10761679,0.011087731,-0.17555308,0.11543184,0.1663775,0.08578233,0.07561976,0.07125729,0.13843147,0.12568058,-0.24830124,-0.2227317,-0.25934666,-0.14148153,0.10171375,-0.012644887,0.019150294,0.08826752,0.047028415,-0.10970762,0.044659548,0.009808068,-0.33602467,0.19590794,-0.0123965405,-0.1361683,0.17068529,0.13082343,0.07710683,0.2533053,-0.1463256,0.1737166,-0.15960704,0.37196365,-0.20829563,-0.0003238991,-0.22489871,0.30525845,-0.22216946,0.05619987,-0.22572531,0.21202289,0.2505079,0.1329898,0.20964456,-0.3403057,-0.103742264,-0.25574222,0.066416994,-0.30152923,0.12650834,-0.26496527,-0.1454189,-0.03378635,0.12155553,-0.4270677,0.20011523,-0.032576967,-0.084321976,0.12694232,-0.03285596,-0.4068591,0.19514865,0.07294754,-0.17511311,-0.13905352,0.31431666,0.032631107,0.08588971,0.040336553,-0.179919,-0.12061903,0.105438516,0.016863387,-0.13689643,0.07193177,0.14205724,0.16262497,0.1224403,0.17824644,-0.22741513,0.16866416,0.07893542,0.15510054,-0.13952024,0.14848068,0.1368073,0.12439207,-0.3265689,0.0905132,-0.09731343,-0.21670198,0.21385524,-0.022871602,-0.06360885,0.3204145,0.31107175,0.057117842,0.20100453,0.2005768,0.00850322,-0.08012387,0.20652719,-0.11087863,-0.116401635,-0.17321496,-0.14508933,-0.018149262,-0.24591804,0.26821178,-0.5057232,0.03339466,-0.4313908,0.33243585,-0.116237864,-0.096899465,-0.16609678,0.12971216,0.2961808,-0.71341366,0.099581264,0.10931862,-0.38170588,-0.05821095,-0.030880691,-0.04241019,0.012924525,0.113556765,-0.012689977,-0.030773204,0.09760699,-0.10152139,-0.1918221,-0.057639275,-0.11019542,0.03747606,-0.19030543,0.030605111,-0.17756408,0.18605217,0.19660924,0.09950672,0.17825502,0.15470028,-0.053492583,0.07521966,0.36264732,0.22580923,-0.028898695,0.1948705,-0.119345315,0.01436035,0.12316243,-0.018040285,-0.29581878,-0.29280937,-0.0067245294,0.3091046,-0.09504282,0.15004593,0.2000972,-0.15934262,0.096144035,-0.24335523,-0.2497268,-0.08781206,0.10682193,-0.04580497,-0.03506622,-0.018022142,-0.032737605,0.20642194,0.1444364,0.33241442,0.0040194867,0.04462181,0.11097393,0.121136785,-0.08122773,-0.13483365,0.12010538,-0.17268911,-0.14657962,-0.038147133,0.042831272,-0.12659013,-0.32625902,-0.17996544,0.036248308,0.068736605,-0.24468023,0.10885511,-0.0011295277,-0.08171784,0.43055344,0.0856433,0.06747467,-0.18150315,0.08209218,-0.05598367,0.08694805,0.049009796,-0.7068085,-0.6407396,-0.13973905,0.1481938,-0.33506203,-0.1298752,-0.10992647,0.36003947,0.20475127,0.19164076,0.014120333,-0.21390909,0.2296481,-0.034201358,-0.18850353,-0.27650654,-0.1174559,-0.21231683,-0.19276819,0.06652107,-0.12789072,-0.19460754,0.085137665,-0.020367714,0.0786067,-0.39244044,-0.26256427,-0.0758491,-0.025230017,0.043030545,-0.013039609,0.07630637,0.019961512,0.2195032,0.2812306,0.30826575,-0.042208366,0.17493641,-0.06429963,0.31606683,-0.11004333,0.16271107,-0.10347878,-0.066874795,-0.1211315,-0.13278441,-0.07558391,-0.34707654,0.13819954,-0.17245017,-0.08935432,0.04540495,0.07287548,0.20345688,-0.07490774,0.15286015,0.104249716,0.09746213,0.16986276,-0.13467222,0.1426129,0.13368122,0.08489242,-0.080008276,-0.17155395,0.15660957,0.102095395,-0.007386835,-0.020184085,-0.12314556,0.16994612,-0.07767227,-0.12323446,-0.09720172,-0.039832212,0.13250689,0.21962397,0.30312663,0.11109767,0.046051495,0.060917508,-0.0027130048,0.1074869,-0.102839485,0.31573775,-0.13921298,0.16706337,0.024916295,0.0902781,-0.34178472,0.35892388,0.07916262,-0.14512119,0.06484175,0.19418526,0.016929062,0.058349524,-0.00021452771,0.037382655,0.070797354,-0.06328782,0.17751169,0.01661999,-0.29853436,-0.1373518,-0.010765603,-0.05231339,-0.15545732,0.18416606,0.2188742,0.23616561,-0.17025094,-0.12074023,-0.01839286,0.14281301,0.094948426,-0.20695855,-0.26439816,-0.2790367,-0.34902406,-0.06146117,-0.08715061,-0.03418334,-0.1005858,0.1833405,0.18315145,0.16837482,-0.18150991,-0.021964626,-0.29348803,0.35192093,0.19094321,-0.110408224,-0.07891794,0.13694766,0.3035766,-0.033258338,0.27543283,0.112192534,-0.32321176,-0.20426968,0.13395597,-0.12155238,-0.3232372,-0.26593813,-0.23079409,0.29292062,0.013126979,0.044577114,0.0414628,0.27045065,0.050644297,0.09473156,0.10835031,0.18872312,0.1768204,-0.16877235,-0.21151276,0.0076056467,0.07460664,-0.2553642,-0.060289565,0.02377873,0.27416855,-0.22969125,-0.05663005,0.25392148,-0.097681485,-0.5416093,-0.08302193,0.20735943,-0.19146404,0.17302912,0.23377669,-0.042526174,-0.1886358,-0.37982425,-0.10430522,-0.0024689466,0.07836663,0.260905,0.06339938,-0.18757993,-0.25471926,-0.16512133,0.05465982,-0.1886066,0.01688445,-0.15072744,-0.07544312,-0.25499025,-0.11753544,-0.1392112,-0.07892466,0.2610887,0.12700814,0.15968858,0.11832613,-0.08466067,0.114222035,-0.07809138,-0.16858678,0.17378014,0.26433456,0.3022983,0.24077432,-0.04172899,0.3570033,0.011855043,-0.029002417,-0.05296931,-0.02372272,-0.0042652106,-0.02092822,-0.042187802,-0.028026566,0.048515137,0.011999485,-0.020472024,-0.07133247,-0.0012929998,0.041494887,-0.05009054,-0.0687943,-0.04133212,0.031770475,-0.04196833,0.00577867,-0.017178161,0.02716815,0.020939097,-0.05049925,-0.044676762,0.03965951,-0.035117403,-0.040455736,-0.06826611,-0.036266144,-0.022207651,-0.0041644825,0.009538166,-0.018331561,-0.033997804,-0.052225932,-0.034147907,-0.032681905,0.039021295,-0.030885126,-0.06310782,-0.07202561,-0.065694295,0.0083367,0.045251425,0.028017165,-0.010837803,-0.0539862,0.019173907,0.01556638,-0.060062956,-0.031538624,-0.064692356,-0.030763645,0.03026472,-0.058536988,-0.023975879,-0.060402893,0.0052057165,-0.015017318,-0.023806987,-0.08502139,-0.014142231,0.0023415934,0.030569136,0.022189226,0.016535264,0.025133854,-0.039803486,0.0013467043,0.0096812025,-0.015063108,-0.034109272,-0.057744164,-0.022239098,-0.055929244,0.028956601,0.034676515,0.04634118,0.024541069,-0.03109056,-0.0703749,0.045345753,-0.06464853,0.044338398,0.011913471,0.049947713,0.0075628166,-0.02065403,-0.039346967,-0.039728187,0.0030984138,-0.038428895,0.020677125,-0.030657295,0.038084798,-0.014908113,0.008919453,-0.0588312,0.010367519,0.045787178,-0.007145395,-0.048686028,-0.04093641,0.020724736,-0.069303416,-0.048559472,-0.028355215,0.051214244,0.016745675,0.013119862,-0.011502172,-0.0063321833,0.0014496158,-0.00472692,-0.050968636,-0.063599266,-0.022514462,0.032767467,0.028058764,-0.022196678,-0.05793767,0.00986292,0.014218726,-0.0046064258,-0.036761377,-0.05816141,-0.03746484,0.027173443,-0.022571715,0.003172707,-0.029008133,-0.0022789577,-0.06686325,0.026831172,-0.02884523,-0.034677092,-0.0516301,-0.06898036,0.019595299,-0.033341758,-0.027544951,0.043797266,0.03444312,0.020575507,-0.03712319,0.0067352685,0.04450401,-0.0079272,0.015706917,0.018678673,-0.0124469865,0.03282979,-0.014480621,0.029439429,-0.05688336,-0.04419662,-0.030797796,0.047771193,-0.015563463,0.025102641,0.052684993,0.00044793004,-0.025900485,-0.035090774,-0.043095056,-0.061796956,0.004901336,-0.05059768,-0.00755786,-0.00048471292,-0.05882388,-0.073323235,-0.03520086,-0.042517204,0.0024469828,-0.011449715,0.00456286,-0.05215296,0.0138973985,-0.0261829,-0.020028627,-0.07763582,0.022112688,0.043269787,-0.009704053,-0.05297524,-0.030835222,-0.06305815,0.039548717,-0.013127733,0.04711151,-0.03616005,0.003657711,-0.01607788,0.014504643,0.03962348,0.02191746,-0.0058584823,0.025693227,0.0004980118,-0.019245094,0.025652483,0.007658665,0.047858927,0.0032475437,-0.03816975,0.016677357,0.010722075,0.031266697,-0.082267515,-0.05063814,-0.03165175,-0.05628352,-0.050929356,0.014469713,0.0012092135,-0.034545656,-0.038170148,0.008864414,0.0029897178,-0.04786248,0.015750047,0.038937353,-0.025311224,0.0220369,-0.05384742,-0.043649126,-0.052154,-0.030034268,0.018571863,-0.0661026,0.014743833,0.015029833,-0.003907149,-0.053751886,0.020543827,-0.019310027,-0.016256036,0.064909264,-0.052732106,0.0007789476,-0.03927873,-0.028347647,0.016525557,-0.035758127,-0.010138322,