# Shape: (84, 120)
# C-style row major order
-0.13303834,-0.66185963,-0.031832203,-0.32684866,-0.08722427,-0.06468937,0.09058009,-0.061753776,0.2126088,-0.03441694,0.017689483,-0.30237028,0.27159518,-0.18733437,-0.18278691,0.22823893,-0.019811228,0.03755132,-0.16750067,-0.03939443,0.062314603,-0.114775114,-0.083934195,-0.43738806,-0.13899994,-0.26898184,0.12035665,0.059642754,-0.1474125,0.029072026,-0.23771015,0.114774205,0.06855297,-0.04029274,0.0003038916,0.0607618,-0.0057327026,0.014876432,-0.033338018,0.033664547,-0.048403434,0.14202896,-0.20828462,-0.06336333,-0.11000644,-0.07931786,-0.0034502367,0.07355997,0.2611589,0.059359506,0.15401712,-0.12299654,-0.0043065166,-0.11881619,0.042350896,0.028994842,-0.104327284,-0.053866144,0.07457173,-0.03021756,0.13950242,-0.25316522,0.2761514,-0.048066556,0.03276481,0.038110435,0.14663231,0.011694139,0.18373083,-0.2434056,-0.010328634,-0.3391851,-0.04529119,0.1233193,-0.0047519645,-0.14458893,0.07497557,-0.15765212,-0.16434272,-0.22025351,-0.03000822,0.20634966,-0.20272979,-0.025652006,-0.038901806,0.05682495,0.06423578,-0.3216306,0.24843243,0.059631143,-0.044700805,-0.22650658,0.32532007,-0.13906051,-0.07546039,-0.077097185,0.015499181,0.2538873,0.0019042593,-0.14512753,-0.041763175,0.16859627,0.042699166,-0.19936398,-0.24369387,-0.16863824,-0.078027755,-0.005355286,0.049174678,-0.09024243,-0.61546797,-0.41985,-0.0006378378,-0.2704215,0.07201057,-0.107714534,0.047732197,-0.040000454,-0.2905885,-0.33731067,-0.32387394,-0.0040474916,0.0733046,-0.3813469,0.14693661,-0.044232637,0.008958664,-0.0903454,-0.03542753,-0.05982357,0.17127669,-0.0037518567,0.0045467108,0.11036229,0.22859237,0.08793997,-0.080043696,-0.24531624,0.11274974,0.43554065,0.0052436776,-0.041301418,0.14571509,-0.056587704,0.0009501963,-0.10653906,0.08165419,-0.21041144,-0.016399676,0.08506024,0.04718465,-0.18003315,0.07571959,0.2887799,-0.06286657,0.055674654,0.018220266,0.008496027,-0.30328545,0.11994774,-0.11364149,0.52776134,0.1705893,0.026084729,-0.27682117,-0.07584452,0.064031735,0.06896485,-0.020201964,0.094483815,-0.25017706,0.0025704065,-0.030781925,0.065950505,-0.045242045,0.026021913,-0.09745009,0.04108706,-0.045417245,-0.012186276,0.22485425,-0.2537085,0.29776156,0.08662586,0.116151094,-0.07382824,0.19256473,-0.3714955,0.27088803,0.021940712,0.059041318,-0.35407132,0.15793513,0.18207711,0.0080249375,-0.16823551,-0.06542082,-0.059065398,0.0826392,-0.083586365,-0.053427316,0.06613265,0.15946907,0.1374337,-0.009921614,-0.035247475,0.1180626,-0.038003813,0.19182487,0.0057990854,0.1865592,0.026845792,-0.016565153,0.13781376,0.033275355,-0.061812714,-0.072112896,-0.028748373,0.08117148,-0.098816544,-0.09733876,0.21551353,0.055908345,-0.08783289,-0.1102921,-0.282622,-0.0049304394,0.024470681,0.045591593,0.22910398,-0.22182755,-0.28686827,0.11192878,-0.11509944,0.012668923,0.36451104,-0.22676201,-0.10060079,-0.06836328,-0.10825934,-0.42229763,0.31170863,0.040879197,0.42059365,-0.09058853,-0.0414566,-0.054265294,0.0350319,-0.18489896,-0.07761477,0.012618058,-0.06340318,0.10146962,-0.12339412,0.20650531,0.086916,-0.0020698041,-0.003046984,0.4149462,-0.071057394,0.04882507,-0.47882617,0.15489814,0.08068022,0.33718947,0.13206635,0.105269946,0.060724374,0.24272732,0.094656914,-0.07209242,-0.0024000518,-0.016648855,0.25119424,-0.14249995,0.11014566,-0.19924659,-0.024345191,0.18395965,-0.0528813,-0.14178477,-0.18173929,-0.15338084,-0.17243946,0.31329188,-0.008028288,-0.17130406,0.023665482,-0.043484453,0.118357986,-0.12448414,-0.05051216,0.03566643,0.030125197,-0.063248925,0.029868543,0.066608205,-0.06765561,-0.04235214,-0.42283055,0.3498584,-0.039039195,-0.12318412,0.07844961,0.07437748,-0.003548969,0.15871492,0.061533347,-0.08669636,0.4560984,0.08661187,0.22277604,-0.027035149,-0.18111965,0.11533604,-0.45451882,0.11311625,0.12921876,-0.049648028,-0.027281974,0.20917419,0.006414164,0.020007554,-0.118147224,0.039065495,0.021628618,0.057894476,0.13174857,0.13944918,0.0771523,-0.03693712,0.2628607,0.04643561,0.03486825,-0.35476524,0.25248948,-0.015105032,-0.14147197,-0.14450328,-0.2067173,0.004538524,0.14158992,0.0916458,-0.03948238,0.5954929,0.16068569,-0.024730457,-0.32311034,0.033688053,0.11450794,0.05639845,0.118434414,0.048932653,-0.34535143,0.081368975,-0.045208503,-0.27076706,-0.06005295,-0.3716008,0.08650739,-0.05746934,-0.041398663,0.0050214673,0.43332416,-0.019950561,0.049951788,-0.07563821,-0.055269066,0.27204552,-0.011213927,-0.08731417,0.17320304,-0.19389568,-0.06424736,-0.20187189,0.12680379,0.044033427,-0.2973308,0.18244918,-0.014196351,-0.07858784,-0.4370158,-0.11745584,-0.08409486,0.22112206,-0.10835283,-0.26485005,0.039427035,-0.1469746,0.020984612,-0.15786752,-0.0054089157,0.012176782,-0.38591602,-0.0049800063,0.13271292,0.017318424,0.04520104,0.032670315,0.0036030926,0.05270842,-0.2291059,0.130042,-0.17117727,-0.04165396,0.029375948,-0.1328447,0.044781275,0.34459227,0.1854259,0.16260558,-0.05136554,-0.052607495,0.046845105,-0.09794976,0.0935775,0.010071325,0.00334829,0.122514114,-0.08546371,-0.11445333,-0.042899214,0.3384272,0.084000185,0.20684157,0.091142684,-0.540787,0.15829553,-0.09786004,0.30109352,0.011945492,0.15394776,0.037709147,-0.028280525,0.16836183,-0.2696095,0.041373096,-0.07434107,0.065342546,0.21015625,0.012648528,0.3039888,-0.06963302,0.12009374,0.021984424,-0.07274776,0.24482602,0.08393103,0.017919987,-0.10069449,-0.059162695,-0.056239158,0.2157471,0.13012363,-0.019040652,0.0023162025,-0.070813,-0.035331905,0.40062237,-0.008211279,0.18542318,-0.48280418,-0.2689198,0.030685257,0.20386736,0.060778487,-0.30360374,0.12269672,-0.036110535,0.097942315,0.06077174,0.17397253,0.05705459,-0.0654284,-0.050521236,-0.012243361,0.09928271,0.04780238,-0.42356846,-0.06062829,-0.3709162,-0.13430679,0.008258283,-0.015603869,0.0225755,-0.32670766,-0.014762142,0.03713131,0.22847013,0.026647333,-0.022084992,-0.07866333,0.099422,0.07203278,0.086396836,0.03446034,0.04693442,0.07709239,0.5073437,0.082891956,-0.003938118,-0.47456196,0.03695605,-0.1921489,-0.17281456,0.123348534,-0.11251711,0.15150185,0.04616963,-0.08136735,-0.18559119,-0.10823864,0.07507189,0.3565929,0.16251159,0.39684772,0.100456156,-0.034313936,0.15325028,-0.022081574,0.008466776,0.06298861,0.100953944,-0.24116802,0.07371551,-0.027547078,0.13272554,-0.35633057,-0.23663433,0.14066267,-0.041086975,0.3370704,-0.05922294,-0.06261483,-0.052759144,0.012335911,0.017457852,0.069832735,0.08464035,-0.19060166,-0.12421347,-0.017657487,0.049308445,0.034110084,0.13710044,-0.25605607,0.09022597,0.35961178,0.056320038,0.0059698783,-0.030286914,0.13256015,-0.35393643,-0.13793574,0.1512779,-0.19195125,-0.020111792,0.07202389,-0.1682219,-0.0044642994,0.11527692,0.07650073,0.14214256,-0.095559604,-0.08391479,-0.015441893,0.058976434,-0.08148191,0.058343247,0.1505057,-0.06379961,-0.22887282,-0.07522614,0.055031594,-0.2899941,0.13780753,0.00643187,0.114101425,0.14665055,-0.010484934,-0.11449693,-0.27423868,-0.07252318,-0.00084823515,0.10105352,0.2815201,0.15977934,-0.29527488,-0.0073103276,0.017579202,-0.17725514,-0.12142357,-0.007906135,-0.30041695,-0.028618542,-0.14255422,0.3643941,0.034617204,-0.114861675,0.29656997,-0.07346983,-0.42495054,-0.03051286,-0.08401489,0.24124758,0.04196483,0.047718596,0.03505185,0.25002185,-0.019087976,-0.22816102,0.18491443,-0.23727623,0.20171961,0.04502383,0.1275564,0.12212861,-0.09390078,0.20392357,-0.024752256,-0.057952717,-0.11817356,-0.18941712,-0.07358309,-0.18429366,-0.063562706,-0.19879918,0.16051482,-0.2968565,0.065497145,-0.24456552,0.073652506,-0.052245382,-0.27270728,0.25736243,0.024058582,0.066720046,-0.039595377,-0.11186667,-0.13214335,0.15151773,0.12860817,0.054996133,-0.06661972,-0.08511134,0.026845375,-0.026829842,0.06852151,-0.12181243,-0.0327898,0.020243263,-0.023475254,0.04166268,-0.040521592,0.02276472,0.19197503,-0.03060579,0.08636037,-0.04888039,-0.047262464,-0.20162483,-0.029593758,0.10363618,0.09297847,0.17574938,0.19273521,0.09476314,-0.031367328,0.17007108,0.10140114,-0.020740788,0.23887785,0.033090364,0.15250371,0.11688299,-0.007794008,0.10950828,-0.20087536,-0.12542723,-0.08702922,-0.006009023,-0.06786213,0.053146,0.30401427,-0.077847876,0.0137965735,0.24294385,0.11519274,0.040885914,-0.076311156,0.07429155,-0.4413,0.12755986,0.08696851,0.06859063,-0.12862335,0.06047532,0.11692724,0.28779376,0.06508121,0.10574364,-0.22698176,-0.26036936,0.16453771,0.045318693,0.19447006,0.088693075,0.012446504,0.015710765,0.16167384,-0.05003283,-0.19390109,0.13906631,0.048478123,-0.038017977,-0.052703455,0.3557039,-0.05232202,0.09712757,0.23742044,0.16352662,0.29522306,-0.05870812,0.274681,0.104044415,0.13393597,-0.01629039,0.016095156,-0.01709626,-0.072926186,-0.20218939,0.2715975,-0.005936319,-0.10614463,-0.0008883452,-0.4546038,-0.2794551,-0.08383675,0.011373548,0.08862544,0.0075944634,0.28047472,-0.06464661,-0.014792953,0.2438535,-0.0639157,-0.079847485,0.07906473,-0.1713838,-0.028050486,-0.16999704,0.039220598,0.09722025,0.15946697,-0.083316095,0.20513827,0.19203241,0.046705958,0.085809454,0.14794208,0.0849096,-0.002317219,0.00511175,0.058874592,-0.26714045,-0.04680565,-0.124204315,-0.050808694,-0.27219754,-0.039448667,-0.35744286,0.15824974,-0.036626022,0.14643973,0.045124333,-0.3479637,-0.059466578,0.036253404,0.14324665,-0.004520116,-0.050045047,-0.3352127,0.013568152,0.03389175,-0.17823307,0.15524188,-0.2222495,-0.146332,0.12087016,-0.11019654,0.0447489,0.11295767,0.09698623,-0.032788318,-0.3238527,0.15022467,0.14609495,-0.14175105,-0.13598463,0.33767524,-0.14534466,-0.2626041,-0.29214314,-0.05842484,0.05132912,0.02447241,-0.33688542,0.10923149,-0.13463493,0.05027751,-0.14991392,0.09172753,-0.26792,0.060839947,0.06925414,-0.16899726,-0.025505735,-0.1337382,-0.16414243,-0.0034494456,-0.3221247,0.054967042,-0.23469134,0.11763694,-0.27695593,-0.16167614,-0.34515983,0.034401894,-0.0070516057,0.14270143,0.126852,0.3364074,-0.016606744,0.095084056,-0.14741531,-0.03092519,-0.09494414,0.07670338,0.021248015,0.16446249,0.055087853,0.040053852,0.0971573,0.12327179,0.044296235,-0.17542847,-0.029171122,-0.08714146,-0.21355447,-0.06330788,0.0038319249,-0.1244893,-0.022495963,0.39025137,0.36999586,-0.110448785,0.03459014,-0.092666805,-0.18468466,0.03751983,0.025021091,0.16031632,-0.022733532,-0.11387428,-0.079874635,-0.10030428,-0.19625823,0.03731459,0.19337052,0.100394435,0.009186309,-0.19839936,-0.008231455,-0.47152865,0.119600594,-0.5009156,-0.0821258,0.025251685,-0.36316714,-0.030815566,-0.051752206,0.1274609,0.18811305,-0.49298546,0.065723605,0.074572146,-0.012484413,0.040490393,0.052264336,0.28423208,-0.2799862,0.15926021,-0.04858396,0.17645979,-0.085372865,-0.0015018361,-0.123498686,-0.05353812,0.057877287,0.098736405,0.25140414,0.102257274,0.25294435,-0.19763032,0.13108732,0.11480898,0.22536995,0.05258008,0.29977572,-0.16655904,0.022396285,0.10778152,-0.16870657,-0.33295703,0.1139095,-0.112494715,0.22530393,0.077919096,0.03575902,-0.6104326,0.06888871,-0.030264694,0.042529043,0.08711671,0.0010153413,0.029256739,-0.0032394065,-0.32067758,-0.019360995,0.036426373,0.25362915,-0.06379635,-0.013309037,0.096115604,0.07793779,-0.08104151,0.05878196,-0.042988114,-0.30024916,-0.0805365,0.05922083,0.15259281,0.22130303,0.09060888,0.1547536,-0.013498399,0.121570274,-0.025254522,0.02370167,0.08447597,0.11627693,-0.004754385,0.09882396,0.047459092,0.085574344,0.078831956,0.13474332,-0.03824274,0.39311406,-0.1612211,-0.206121,-0.26557195,0.07274194,-0.19258586,0.089934655,0.14105171,0.028657852,-0.063545644,0.13569213,-0.020272804,0.08914658,0.26318035,-0.10942266,0.082227446,-0.1737215,0.020968074,0.1939724,-0.18687136,-0.29368556,0.08321365,-0.036931425,-0.044083215,-0.021881174,-0.016919803,-0.23450194,-0.065212116,-0.10127065,-0.072204836,-0.13900238,-0.019961776,-0.14449984,-0.1943174,-0.07344246,-0.27613768,0.24255908,0.119509764,0.07648075,0.054940347,0.08074432,-0.0104500605,0.05672653,0.01583664,0.2338266,0.05809576,-0.22795509,0.08787812,0.175979,0.020293342,-0.014857455,0.09646758,0.2068983,0.09406804,0.053803746,-0.06098417,-0.06399435,0.06098999,0.10736773,0.038633373,0.07613627,0.0913059,-0.19706787,0.11288577,0.08749214,0.10369762,0.13434374,0.06394194,-0.11132515,0.105626166,0.22355776,-0.069325104,0.05283791,-0.1552077,-0.01407195,0.1534592,0.15701859,0.1199316,0.13302448,-0.080520146,0.3031524,0.07238669,-0.060018897,0.12280663,0.07373752,0.4513742,-0.04934998,-0.030588636,0.15032335,0.14132912,-0.054240663,-0.04533527,0.118098415,-0.14423142,0.14159805,0.16863339,0.09212271,-0.22005704,-0.03363962,0.101330034,0.3793321,0.12676251,0.17770782,0.03260442,-0.24242055,0.12442022,-0.34592196,-0.097669594,-0.15465705,0.41276285,0.06786731,0.15999906,-0.03388437,-0.085966274,0.22771329,0.01549852,0.07599668,0.1206994,-0.013799515,-0.034008946,-0.005473001,7.6145065e-05,-0.041944947,-0.122323975,-0.083745055,-0.22908255,0.12672348,0.0067479825,0.01553198,-0.069234446,0.14709842,-0.032521367,0.06717784,-0.10347116,0.13687688,-0.042563945,0.12368083,0.052579056,-0.1229412,0.15472245,-0.14159955,-0.10617032,-0.061138667,-0.04640235,-0.25953358,0.07889155,-0.05560168,-0.1856856,0.28368214,0.08906513,-0.11984975,0.065125465,0.08084224,-0.097645,0.008537053,-0.025073538,-0.090971686,0.01377033,0.10473038,-0.033227596,0.17423494,0.06133966,0.07451475,0.051661532,-0.053191144,0.053896282,-0.09055126,-0.07328239,0.023715125,-0.08595148,-0.1326037,-0.2824539,0.1322101,-0.0356164,0.06290363,-0.018025067,0.05317895,0.0020069159,0.034487914,0.03541443,-0.08456389,-0.14883432,-0.18809302,0.04507112,-0.25423768,-0.20134473,-0.056941308,-0.053086974,-0.16517103,-0.026358856,0.11823259,-0.092698455,0.0053082076,-0.115570925,0.10757842,-0.06612194,-0.2507381,-0.099317,0.003818166,-0.0203586,-0.12861077,-0.12731056,-0.101055786,0.05575551,-0.08288947,0.047037054,0.059144523,0.07824619,-0.040870216,-0.055449504,-0.06319576,0.0507403,-0.036817506,-0.07643059,-0.014330191,0.05856899,0.048417307,-0.29261234,0.012048838,0.039771665,-0.07719254,-0.06383256,0.029050065,0.0021616935,0.16834135,0.08692996,-0.09395607,-0.04230074,0.18441173,0.15020126,0.057862867,-0.13905151,0.01507067,0.19073749,0.013120543,-0.14256947,-0.007864828,-0.12293248,-0.067148075,-0.050037913,0.066251285,-0.06616231,-0.14368501,0.15385756,0.046565723,0.25468272,-0.19733897,0.1276975,-0.032747086,0.016313229,0.056585867,-0.022980617,-0.10596878,0.081328385,-0.0482905,-0.097625725,-0.10916675,-0.068949066,0.09440203,-0.074198276,0.035346385,-0.15466347,0.00083735643,-0.2198902,-0.14661083,0.09508727,0.03550254,-0.0696848,0.13424212,0.22792774,0.09885471,-0.07010831,0.26059252,0.22379874,0.09669482,-0.09181465,-0.17135039,-0.12521036,0.013151222,0.0049478263,0.07595796,0.050509136,0.046177868,-0.090245016,-0.10148419,-0.031515557,-0.016719837,-0.09495413,-0.11170085,0.12404768,-0.017453568,0.02524391,0.05553196,-0.2761522,0.015464813,-0.024932599,0.012466492,-0.004733771,0.124126874,-0.062273573,0.14438872,-0.47274175,-0.021065056,-0.022263275,0.026755953,0.117503405,-0.062305603,0.20172197,-0.3012264,0.057711247,-0.010252531,0.3517784,-0.007646708,0.1872261,-0.027466472,0.10781408,0.21143454,-0.41827136,-0.13506049,0.10283696,0.030054208,-0.09694531,0.12853423,0.13812497,0.25387692,-0.060413565,-0.076400094,0.030643385,0.020897552,0.28992587,-0.09268669,-0.069716364,0.2081719,0.06288413,0.24821995,0.15692814,-0.08787941,0.15251909,-0.101076186,0.24547891,-0.0762074,-0.08217824,0.07700457,-0.04106592,-0.16834947,0.013017753,0.25766188,-0.16632086,-0.41407895,0.04485212,-0.04857849,0.04464189,-0.081886195,0.07786366,0.09191565,-0.012535453,0.052283306,0.02832064,0.047363892,0.043108787,-0.15117823,0.09001799,-0.013697843,-0.16582076,0.021451486,0.2931992,-0.4374467,0.11204097,-0.0029197382,-0.00026797588,0.044990923,0.030039996,0.06220149,-0.05768017,0.003461894,-0.10449993,-0.12091688,0.46810833,0.14844193,-0.11557448,-0.0753077,0.07456368,0.0017854698,-0.038751338,0.17106627,0.08929119,0.14368093,0.077376485,-0.09522291,0.036991466,-0.1603219,0.07320805,-0.28980932,0.046218894,-0.045358982,-0.45145088,-0.0051461942,0.049163062,-0.13393863,-0.05184347,-0.19040331,-0.093662366,0.20991792,-0.30654523,0.061900523,0.019216614,0.33657593,-0.061017133,-0.12531586,0.03448809,0.39056057,0.039420146,0.20386966,-0.1950625,-0.04735087,-0.05639329,-0.010083381,-0.35494646,0.036416303,0.028961752,0.24818252,0.0077134613,-0.47910377,0.088955455,0.025634019,-0.006534632,-0.0080887955,0.036329728,-0.07586678,0.3262027,-0.08554886,-0.09250333,0.004381859,0.0857347,-0.033093993,-0.067724176,0.19001967,-0.20637845,-0.23948006,-0.028278876,0.04160913,0.0062953616,0.12254515,0.21213865,-0.10586443,-0.10599842,0.12600324,-0.026668053,0.12466292,-0.042135138,0.19889429,-0.038441733,-0.21327135,-0.009027488,0.05689096,0.088147074,-0.02470509,-0.031066243,0.01716555,-0.12601914,0.13916907,0.06589179,0.20296632,-0.14317131,-0.21738416,-0.090497755,-0.2874988,0.1799324,-0.077282965,0.1101609,0.080411635,0.11856419,0.22402743,0.2470225,0.045144856,0.057892606,-0.008027504,-0.033489138,-0.01768084,-0.10298797,-0.16859154,-0.20735218,-0.11834063,-0.19476631,-0.03830147,-0.008735767,0.19716349,-0.08616101,-0.031245725,-0.09277638,0.2707883,0.05958487,-0.21693206,0.32009897,-0.095409185,0.24271671,-0.052258104,-0.09140135,0.17003325,-0.019956782,0.20264538,-0.052444402,-0.06827569,-0.62674814,-0.13418525,-0.16002582,-0.26974258,0.01912523,-0.32050508,0.01077515,-0.10882738,0.076576516,-0.07570995,0.005002722,-0.062594905,0.044392485,0.21363732,0.25238118,-0.017824663,-0.052109372,-0.08408361,0.016579371,-0.031394,0.14518678,0.05058337,0.03724264,-0.02945918,0.033260792,0.12630889,0.048283573,-0.1961737,0.007058034,-0.030316658,0.030565051,-0.03473306,-0.008121065,0.03204472,0.08187647,-0.16571169,0.08847458,0.08344567,0.11914149,-0.0021654638,0.030901536,-0.04109501,0.18862826,0.161727,-0.1439005,-0.12617198,0.025142685,0.12115458,0.034087624,-0.09321962,-0.03801537,-0.14260289,0.080151804,0.031146828,-0.015967203,-0.11809761,-0.13066712,-0.062341537,-0.014675279,0.001751988,0.09811819,0.0036110783,0.23453724,0.042603336,-0.059398804,0.16271108,0.21591511,-0.032624505,-0.0067538554,0.19247115,-0.21481149,0.12123713,0.16283529,0.240472,0.03101199,-0.00019927973,0.34295118,0.29810917,0.15244348,0.085333824,-0.53655636,-0.391707,0.19203927,0.11558714,0.16545776,0.07569457,0.18763173,0.08881243,0.00074641843,-0.060585845,-0.34364334,0.14946462,-0.1483419,0.06946589,-0.25759253,0.33222207,0.009420747,0.09398809,0.0611736,0.094200194,0.22919038,-0.028450388,0.017503677,0.22299162,0.15420681,0.050047502,0.002859221,-0.09172967,-0.05498372,0.12067676,0.06651687,0.053895567,0.22292013,0.4470027,-0.24489778,0.02334845,-0.032913722,0.109226465,-0.07692938,0.0049434216,-0.009065603,-0.35735813,-0.3168049,0.11801016,-0.3554812,-0.1161205,0.26894438,0.1552415,0.0518477,0.04684427,0.08091236,0.091387674,0.031315874,-0.25857487,-0.12362567,-0.23430133,-0.057008203,-0.2272538,0.045542073,0.009887467,0.026008824,0.2126959,-0.20984621,-0.1726829,-0.021448962,-0.2615733,0.20804022,0.26150423,0.09204014,-0.37636328,0.086133726,-0.06637972,0.008581681,-0.09025539,0.17620596,-0.2177846,0.005092399,-0.2679025,-0.28862593,0.43922627,-0.33420974,0.3929167,-0.020369329,0.07247457,0.09519541,0.2037404,-0.22361228,-0.030218696,0.28740585,-0.03199841,0.13406433,0.11180029,-0.04688952,0.257019,0.021844812,0.2782389,-0.35422492,-0.06363046,0.014531322,-0.1080974,0.016384106,0.04265766,0.13335219,-0.08464673,0.008139229,0.19631559,0.23728438,-0.14726472,-0.06743973,0.15481326,-0.31950113,0.13502415,-0.14329118,0.12853055,-0.035496116,0.032978542,0.15155007,0.18023741,-0.12666309,-0.021751419,0.19117953,0.041616857,-0.038965106,0.20479067,-0.31804904,0.048251953,0.28012508,-0.064586,-0.19666407,-0.047171015,0.024861973,0.09810346,0.056799848,0.066098675,0.1623389,0.058362927,0.041461486,0.05535562,-0.15207122,0.33598143,0.16254048,-0.05580651,0.24575026,-0.20761907,0.21016105,-0.01270817,-0.06789337,-0.17222726,-0.045761406,0.01102339,-0.20944229,0.15183392,-0.17555036,0.04847913,0.026597584,-0.057478733,0.060129255,-0.07510415,0.04300713,0.0047651124,0.31331593,0.06410698,0.06930658,0.29302055,0.04373909,0.23061067,-0.020324608,-0.03465598,-0.016636293,0.002801358,0.03304082,0.068604015,-0.20476155,-0.22096738,-0.0884669,-0.06715761,-0.033472896,0.07041099,-0.08376499,0.28951138,-0.64057297,0.006428665,0.043515883,0.110710405,0.08394702,-0.17928132,0.0327087,0.08342151,-0.08829598,0.0390839,-0.07686034,0.033282038,-0.05436176,-0.105455086,-0.32143173,0.07188808,-0.0084457025,-0.016855126,-0.276855,-0.25762758,-0.0138652725,0.026119452,-0.0021137423,-0.015568449,0.23674592,-0.5648523,-0.03466301,-0.28152454,-0.069675475,-0.066618584,0.13026497,0.20913908,-0.06259128,-0.086406074,-0.09582784,0.08781391,0.121686935,0.16009839,0.31870455,-0.052403256,-0.18320236,0.07831559,-0.38684282,0.039809182,0.065133296,-0.1468864,-0.06937649,-0.010012676,0.026831346,-0.70123506,0.07812464,0.19754842,0.1220625,0.08848742,0.028411465,0.004254059,-0.15552518,-0.28379506,0.15426578,0.09102937,0.07003659,0.23412704,0.1332875,-0.09966791,0.0546483,-0.00840268,0.30287468,0.0071266214,0.37524417,0.2735401,0.3849997,-0.374823,0.21652596,0.026736025,0.029167442,-0.18004774,-0.006378359,-0.038834516,0.043470234,0.20274635,-0.11923085,-0.022727586,-0.06552991,0.142183,-0.1026197,-0.064057425,-0.026647428,0.11132591,0.08472368,0.07562004,0.09337562,-0.31324723,0.109910816,-0.23702408,-0.43651178,-0.14791045,0.057741366,-0.31222287,-0.2677736,-0.10475441,-0.13982059,-0.15633224,0.16588743,-0.47106984,0.115805335,0.052727934,-0.047797576,0.2153749,0.07336378,0.12455031,0.17263955,-0.000467774,0.23239054,-0.09114244,0.08797714,0.24066705,-0.059392843,0.13713025,-0.048794363,0.07518347,0.3129516,-0.39519325,0.1693223,-0.045224078,0.0791588,0.17471491,0.039034035,-0.40615064,-0.085941814,0.051840276,0.051001724,0.025795989,0.0928371,0.0373004,0.35422334,0.23654634,0.03265506,0.20249945,0.113832995,0.07415262,0.12209114,-0.11419858,0.28126615,-0.13469644,-0.27249727,-0.07958466,-0.0035346686,-0.017961988,-0.08531003,0.08256355,-0.19339016,0.13852203,0.1396064,0.07553533,0.16805287,-0.31891602,0.11092685,-0.049558144,-0.034255855,0.017554378,0.042209137,-0.21013413,0.12572397,-0.09281637,-0.04582199,-0.2683859,0.17711243,-0.13267419,-0.05605866,0.2603707,0.19861984,0.047343504,0.09818093,-0.18720706,0.059806645,0.01818915,0.12144486,-0.21144336,-0.011984023,-0.2232019,0.04510009,0.104958184,0.084803075,0.10973607,-0.30100635,0.18110344,0.03861343,-0.03914536,-0.1714716,-0.5598496,-0.20602612,0.20796248,-0.22393025,0.03293594,0.054531384,-0.14355586,0.054326087,0.016257396,0.010628918,0.17902231,0.055913635,-0.07682214,-0.08590006,-0.17378189,0.31122467,-0.018351147,0.09022174,-0.04257943,-0.065521665,0.06817766,-0.13963136,-0.042965017,-0.2577516,-0.1888422,-0.18743035,0.034052968,0.1546028,-0.038222425,-0.320113,0.016789613,0.09015301,-0.19198194,0.033331707,-0.055691037,0.082231425,0.3356958,-0.0018308077,0.30369523,0.038067784,0.23984146,0.21667063,0.004220005,-0.03288398,0.04536866,-0.108961195,-0.15763633,0.060693216,0.044419944,-0.0734485,0.1028734,-0.090221025,-0.24479964,0.0761622,0.059786763,0.019283721,-0.03878017,0.23934188,-0.036062766,-0.2604694,0.13069893,-0.54871285,0.07064445,0.045658004,-0.062125094,0.23443092,0.16467977,-0.023094881,0.20215318,-0.041377462,-0.053344738,0.050805546,-0.45350993,0.0973179,-0.29148358,-0.015108152,-0.05624971,-0.13651031,-0.37944472,0.101937875,-0.025104826,-0.1840266,0.21026427,0.1931698,0.02550371,0.1572909,-0.27487582,0.09802078,0.09513817,0.2362999,0.12581898,-0.022229528,0.17424072,-0.06694559,0.12118987,-0.008765918,-0.3584167,0.06504946,-0.20253766,0.045005534,0.031671092,0.19975147,0.21094495,0.037670687,-0.342868,0.0541622,0.03194061,0.0107982,-0.36816958,0.03570743,-0.075286865,0.17883308,0.2824164,0.0012860931,-0.105591685,-0.2859437,0.31716582,0.074457295,0.016795605,0.14643529,0.017792685,0.063060194,-0.01396772,0.21280336,0.023232881,0.030511169,-0.22993514,-0.07600615,-0.18456079,-0.0004001702,0.108190686,0.18373366,-0.00042045081,0.2885449,-0.14660193,0.12439152,-0.063774675,0.016062882,-0.3130313,-0.0015456548,0.11574746,-0.37348592,0.11496974,0.08914821,0.20792577,0.100303635,0.040445644,-0.065257795,-0.08199034,0.09239224,0.058490753,-0.0037922163,0.23129019,-0.030946322,0.2804396,0.21983936,0.12677342,-0.11071356,0.09627407,0.043948527,0.1081794,0.005323026,0.040865682,-0.090051465,-0.2787939,-0.23055524,0.0046886727,0.091493145,-0.146486,-0.039638173,0.13095751,-0.35328534,-0.0333655,-0.2796138,0.202835,-0.011672997,-0.019001065,-0.05629685,0.21839812,0.2659185,-0.18972644,0.04218362,0.05668999,-0.015128437,-0.023787703,-0.065850034,-0.024438245,-0.03401657,-0.2551637,-0.028237967,0.24392213,0.05084107,0.19204266,-0.15150574,0.10504279,0.054260407,-0.083465554,0.10561485,-0.18575875,0.22464754,0.032517083,0.17124616,0.0077076787,-0.3955723,0.13213484,-0.24428032,0.050163135,0.15948555,0.042971328,-0.34774643,0.019685186,-0.09721972,-0.043076076,-0.29910463,0.13456859,0.00035234966,0.1893383,-0.15779467,0.2222405,0.08951529,-0.27058375,0.06474042,-0.0032591443,-0.1350727,-0.0715003,0.2221556,-0.038493417,-0.03166086,-0.31533244,0.0065137544,0.051307138,0.15353821,0.23833923,-0.09581815,0.31582206,0.010626831,0.051191784,0.1009561,0.008122537,0.14354861,0.19968545,0.09707933,-0.04454837,0.013618184,0.120704465,-0.008576553,-0.24928546,0.109269634,0.016687296,-0.16558826,-0.025584012,-0.040999528,0.07076482,0.009890515,-0.033343054,-0.059037235,0.03392147,-0.02275204,0.023269815,-0.06584311,-0.11102225,-0.04431782,-0.05955022,-0.018833257,-0.05618726,-0.0935098,-0.084907256,0.005734326,-0.0031207518,0.027506176,-0.07385587,0.018504303,-0.083723284,0.005165286,-0.060673572,-0.043659765,-0.074589744,0.04104466,-0.124789864,-0.026500959,-0.11776145,-0.087532416,-0.02369971,0.037677817,-0.047456313,-0.058938965,0.043524418,0.06314313,-0.046421386,0.0044011055,-0.037091725,-0.09139188,0.021300474,0.04474042,-0.0136964265,0.082052276,0.01162499,-0.07563462,0.022204725,-0.019312808,0.031854175,-0.024413513,-0.008441311,-0.06247795,-0.058305677,0.010241148,0.009247082,0.065081745,0.020818152,-0.068942204,0.022849146,-0.07997366,-0.051818527,-0.009645246,-0.14561702,-0.098796465,-0.01142259,0.016150512,-0.05972492,-0.0096030645,-0.07763225,-0.09888763,0.029729765,-0.07722017,-0.14208305,-0.009533697,0.045357767,0.020758718,-0.015415649,-0.040388547,-0.058781214,0.007868864,-0.070908986,-0.04742123,-0.05631326,0.0076319533,-0.06360948,0.020300517,-0.030396985,0.0530994,-0.06897206,-0.07600468,-0.09888863,-0.015468667,0.051301584,-0.010099384,0.086924195,0.020862287,-0.09314126,-0.10060112,-0.015890552,-0.07970152,-0.066092655,-0.044956665,-0.06803447,-0.014835685,0.049331624,-0.08542497,-0.07564291,0.028822027,-0.081004836,-0.021544494,-0.06718057,-0.017750598,-0.07426487,-0.04344316,0.028633159,-0.06142436,-0.018607683,-0.079494864,0.21848834,-0.20057301,0.021131055,-0.21749943,0.063860245,0.003440818,0.022261726,0.08687325,0.10023485,0.07527348,0.12755191,0.005796338,0.07541581,-0.17075159,-0.037546363,-0.021144554,-0.23842046,-0.46320927,0.25227103,0.08408501,-0.011277843,-0.08542741,0.37319762,-0.14781079,-0.22993721,0.09603128,0.13904129,-0.13751984,-0.15509915,0.07244049,-0.13986687,-0.09527007,0.104220755,0.10191403,0.024641762,0.11612321,-0.1255604,0.04305102,-0.1311742,0.07946813,0.18156266,-0.003947175,0.0637484,0.20445223,-0.6950614,-0.03726736,-0.06436966,-0.0026445927,0.34107396,0.30421275,-0.21726546,-0.086556226,0.05400132,-0.04099995,-0.040437385,0.11484767,0.028790649,0.084342994,0.0011832847,0.1368291,0.3771413,-0.1728707,0.15059513,0.06433192,0.2210355,-0.26385924,0.06490846,-0.641692,-0.024308763,-0.1195065,0.013580691,-0.18540494,0.1844441,0.014788684,-0.16679369,0.11082904,-0.23763882,-0.27291575,0.30924407,0.047439907,-0.17674926,0.18627635,0.06122096,0.03843751,0.14353211,0.056724414,-0.07794817,-0.14029717,-0.3310286,0.17124502,-0.113921374,-0.055678908,-0.08425541,0.09071075,0.062373362,-0.24378505,-0.015039743,0.046806455,-0.10125707,0.17387643,0.05496621,0.2531928,0.27132857,-0.050200287,-0.032168992,-0.2323271,-0.11439259,0.22255781,-0.08032051,-0.26372918,-0.048364624,-0.19538546,0.18337788,-0.005138261,0.07450315,0.3523472,-0.45573813,-0.053750347,-0.20005736,-0.091692805,0.19895671,0.046768878,0.0066765393,0.21543631,0.015780838,-0.20899132,-0.09305722,0.024683822,0.06497094,-0.02389683,-0.16183,-0.25204235,0.07840995,0.16047461,-0.031585265,0.037288778,-0.024044545,-0.2406483,-0.17649762,-0.2613629,0.0041582393,-0.38583714,0.10776702,-0.1877132,-0.020565646,0.0014866819,-0.5348636,0.06814253,-0.2253477,0.00025381206,-0.04579238,-0.09839708,-0.057722677,-0.24111545,0.10343022,0.30861178,0.23530208,0.013652459,-0.09921577,0.010231474,0.25994578,-0.027401734,-0.14987342,-0.4496809,-0.123837076,0.0077453847,0.36298454,-0.22740169,0.120264634,0.11223567,-0.04951072,0.26629823,-0.004650538,-0.025166156,0.042930603,0.060019143,0.07307289,-0.019200807,0.15215795,0.061900303,-0.03681128,0.06435523,0.22113939,0.025049148,0.15722091,-0.44195244,-0.30223548,0.0086986,0.0050243395,-0.47666222,0.028683932,0.08361298,-0.2545057,-0.22974695,-0.010762686,0.17566358,-0.06940091,0.025943758,0.19923207,-0.20068924,-0.063532524,0.07962382,0.14998156,-0.10798822,0.059378423,0.060166445,0.30677152,-0.10515282,-0.2506365,-0.030898793,-0.288591,-0.03965741,-0.22670813,-0.07137613,-0.035538714,0.15111946,-0.005319722,-0.029386101,-0.08910547,-0.011108174,0.24273661,0.024363102,-0.18368392,0.053226415,0.23420642,0.36026058,0.06458939,0.05532738,0.0065786825,0.06540634,0.07695597,0.050571058,-0.0749772,0.0061702575,0.040345367,-0.32291597,-0.01980365,0.11000621,0.06078615,-0.03115749,0.13604492,0.07676925,-0.062537,0.23527053,0.13257205,0.009794346,0.04321061,-0.05947067,-0.032608956,0.07300311,-0.21665695,-0.04909401,0.029716378,0.031514447,-0.12286003,0.02051306,0.04353591,-0.23761238,0.11224688,-0.009095097,-0.004756519,0.14257725,0.26924282,-0.31207955,-0.03912712,0.09220659,0.07507058,-0.1626085,0.10397236,0.093833916,0.08369854,0.08172544,-0.03931654,0.0060499916,-0.32955092,0.17271668,0.06864244,-0.05942545,-0.06313853,0.020501807,0.029852642,-0.24340722,0.12729819,-0.04449965,-0.027605021,0.032420054,-0.1819641,0.008366738,0.32414117,0.15576228,0.045765523,0.0344494,0.058271367,-0.053752292,0.060889896,0.17889877,0.08263897,0.034847703,0.11768818,0.038058866,0.18019308,0.18892753,0.29047504,0.08006922,0.027409133,-0.33050838,-0.25511557,0.20422213,-0.21216522,0.15331414,0.09271129,-0.148933,0.09611354,-0.09774537,-0.11579019,0.09110795,-0.27583903,-0.120764926,0.05568807,0.09629516,-0.017047554,0.026679115,-0.08341438,-0.11496969,-0.013863201,0.005376709,0.07024487,0.094033085,-0.4286653,0.14056943,-0.0938834,0.12299679,-0.0077548167,0.014683413,-0.03278424,0.2561477,-0.083807416,-0.043385293,-0.013166896,-0.0030051777,-0.091679655,-0.100482106,0.03402951,0.017231407,0.36916658,-0.0275086,0.18407682,-0.043178447,-0.015997604,-0.085650094,-0.068951085,-0.061668802,-0.09474418,-0.14618686,-0.010881082,0.17418262,-0.1621106,0.020539068,-0.12680712,-0.015633214,-0.19397558,0.04214998,0.011399014,0.37965634,-0.13163152,-0.07958959,0.06296128,-0.06695445,0.017355584,0.053268723,-0.21495785,0.12350109,-0.16196837,-0.15084851,-0.36133915,-0.16574092,0.092996925,-0.1020297,0.17365305,0.24362949,0.064850196,-0.23262723,0.09258039,0.047569923,0.05270916,0.18726134,-0.21817987,-0.14895925,0.15273692,0.0613839,-0.37929106,-0.022189716,0.08083349,0.19554745,0.11715181,0.37491998,0.2549752,-0.028644979,0.016166858,0.042936187,-0.04429341,0.048227392,0.077724785,-0.3559576,0.10840079,-0.062365808,-0.00885616,0.14424898,-0.36515155,-0.10500119,-0.4444141,-0.07223567,-0.0141988145,0.14064774,0.007445634,-0.08996414,-0.06149074,0.0068598804,0.06448903,-0.20618194,0.048642743,-0.11374129,0.13880876,0.2585221,0.19522434,-0.16494752,-0.17775032,0.12291442,0.0076833,0.18485065,-0.013579119,0.12617165,-0.106682226,-0.40037495,0.10778568,-0.27478403,-0.37100255,0.15975212,0.07895202,0.08957661,-0.049135357,0.28835315,-0.034323093,-0.00754144,-0.039652288,0.034148354,0.29560032,0.28680816,-0.13245691,0.050824612,0.09675187,0.065704934,0.07899426,0.19327804,0.011729718,0.11136914,0.026542965,-0.26727483,-0.026704205,0.048037462,-0.053699233,-0.16812307,-0.14524254,0.023642948,0.24724527,-0.09867173,-0.12891664,-0.12086957,0.013160516,0.17524469,0.019065693,0.25575283,0.09901685,-0.19927502,0.02413025,-0.09670306,-0.06087609,0.05252519,-0.24735637,0.13914952,-0.150992,-0.1924198,-0.03413535,-0.22360182,0.1249145,0.12478933,-0.02620415,-0.016831648,0.15554303,0.053956497,-0.0008910267,0.23940356,-0.11028604,0.0032591415,-0.0433137,0.018968936,0.14275317,0.09432618,-0.33700743,0.12059756,-0.03482449,0.09642896,-0.219704,0.024190992,-0.17311728,-0.15690371,-0.15333584,0.166488,-0.22491148,0.043389652,-0.14570573,-0.09599586,0.038651723,-0.06898736,0.3200946,-0.030958802,0.26152208,0.04902681,0.025075056,-0.06012111,-0.030033408,0.035196673,0.13623452,0.0098237,-0.30651996,0.09594717,0.09250928,-0.060191367,-0.038049433,0.10777799,0.07966872,0.17789578,0.003050563,-0.023236485,-0.05974973,0.13213687,0.017380983,-0.011806972,-0.03598994,0.042468484,-0.11190626,0.013798698,0.0812629,0.10432793,0.16541938,0.090140685,0.036799338,-0.3487604,0.4306895,-0.36466393,-0.013739033,-0.07634215,0.014226896,0.17750555,0.13429298,0.07626572,0.23315227,-0.09108609,0.00083109015,0.09854978,0.09460102,-0.16209848,0.051474195,0.27747405,0.004186411,-0.009095569,0.14954035,-0.0017064702,0.1353334,-0.037730854,0.17670499,-0.14616235,0.10844752,0.06550657,0.12453111,-0.42033195,0.00976113,0.20026766,0.16524372,0.07362457,0.08200612,0.10381001,-0.3946843,0.12788177,-0.31594002,-0.05652713,-0.25110272,0.095034264,-0.020414468,0.06414905,-0.24502972,-0.20378472,-0.012849796,-0.13348217,0.011666229,0.016169054,0.21154164,-0.10251855,0.1901814,0.014214174,-0.24303819,-0.21995251,-0.040457524,-0.39188766,0.017572405,0.14109543,-0.06978842,-0.024524625,0.13213788,-0.09443988,0.20490648,-0.07561179,0.032495964,0.025956256,-0.008488847,-0.18690442,-0.029945323,-0.22727656,-0.13349225,-0.0069770436,-0.033405427,0.027607014,0.1927811,0.22567987,0.051317718,-0.09679563,-0.09089677,-0.0013938644,-0.18006632,-0.043014422,0.14647992,-0.30814758,-0.031433575,0.33379406,0.041966826,-0.03859362,-0.18838592,-0.0073194806,-0.27170777,-0.05979842,-0.1786522,0.40037122,0.19635335,-0.10033979,0.074523754,0.03569109,0.19791262,0.24082375,-0.23754616,0.11594519,-0.10005288,0.2333636,-0.0055151023,0.07529419,-0.085952654,0.14550462,-0.13497695,0.09635024,0.13057926,0.43648446,0.05162457,-0.06575938,-0.31031823,0.08474702,0.09641888,-0.13781601,0.22657704,-0.16258216,0.21094552,-0.064120285,0.077375986,-0.21893305,0.09791942,0.19716547,0.06076398,0.22326802,-0.1158078,0.028798835,0.028181454,-0.25413,-0.01740696,0.014720281,-0.1653979,0.042410128,0.04521361,-0.005500743,-0.0047162813,-0.08721439,0.09197044,-0.051178034,0.2699687,0.20073734,-0.11090647,0.050718363,0.09739151,-0.017095773,0.06135035,-0.06809031,-0.016630784,0.042008724,-0.024006994,0.29109424,0.032156695,-0.03798649,-0.0642661,0.07134664,0.20287667,0.016441729,0.008062057,-0.10889018,0.004076595,-0.17341907,-0.048474837,0.124282,0.20260583,0.2558111,-0.048183937,-0.005735052,0.3626465,-0.015974043,0.12761998,0.071053386,-0.08419704,-0.3590649,0.13631889,0.10198965,-0.029041493,-0.005002055,0.13934898,0.03347564,0.1314642,0.12767981,-0.1641117,0.15092656,0.13789651,-0.25944844,-0.07463898,-0.18749253,-0.0022196143,-0.1176899,-0.0952637,0.0671369,-0.011675382,0.074144244,0.038646687,-0.09077535,-0.09507494,0.25036106,0.13527612,-0.058288757,0.18107891,0.20327993,-0.020424917,0.19709918,-0.21358973,0.08246035,0.067804374,-0.082629085,-0.106813885,-0.060573615,0.11029187,0.10276746,-0.110307135,0.12609312,-0.3489941,0.04712171,-0.05525113,0.2291349,-0.08403276,-0.15293477,-0.025432087,-0.1129366,0.10126383,0.061730288,0.014897202,0.23915815,0.06611184,-0.05988791,-0.007341689,0.11352821,0.23104447,0.046142876,-0.008153949,0.054525584,-0.16537863,0.062936425,0.06343144,-0.35733598,0.09126648,0.04395093,0.052730437,-0.25298125,0.12255654,0.036593415,-0.20230177,0.23691936,0.14287062,-0.18885201,0.0059956093,0.34735098,0.04010621,0.06436321,-0.0005726471,0.16292365,-0.011403786,-0.051781733,-0.18531969,0.04685886,-0.09801822,-0.07528541,0.14951651,0.0021455227,-0.029565997,0.12216318,0.00846003,-0.21050686,0.07171628,0.0034255541,0.01697321,0.020726692,-0.012412344,0.18948342,0.06767465,-0.08114272,-0.1818964,-0.4502759,0.30875757,0.09933049,-0.020621562,-0.15255465,0.1011543,0.079304345,0.29698253,0.00044840336,-0.06926651,-0.12981173,-0.029048387,-0.025884056,-0.031396337,-0.032751784,-0.12756129,-0.12182924,0.088669054,0.16522157,-0.18914178,-0.14130227,0.02180772,0.06551698,-0.20788482,-0.018986655,0.030943142,-0.12085422,0.11275254,-0.13255785,-0.020199042,0.47401246,0.10078449,-0.024193043,0.08065181,0.2265166,0.014988667,0.073359475,-0.106021196,0.0879041,0.29269654,-0.11421113,0.033390913,0.10370669,-0.16700904,0.07508966,-0.19240437,0.08745632,0.002303525,-0.31844518,-0.16851236,-0.12708466,-0.21755818,-0.053823903,0.03051865,-0.093367465,-0.04914345,-0.3486871,0.09934473,0.036936175,0.18984802,0.10158611,-0.13967429,0.017967705,0.07441961,-0.29681334,0.08738583,-0.046141535,-0.058423836,-0.16838506,0.026322972,-0.39938942,0.03216596,-0.017116876,-0.14019606,0.030416742,-0.016021093,-0.17835532,-0.056452274,-0.2311052,-0.20071463,0.22365747,-0.06475397,0.0028032046,0.030863287,-0.13665076,-0.061683133,0.17308253,-0.17126691,0.08126371,-0.006366305,-0.02930477,0.26434886,-0.13450883,-0.14229956,-0.04383689,-0.23489967,-0.1176731,0.021237941,-0.33123583,-0.02694316,-0.06470829,0.0013817487,0.033676345,0.29552475,0.050740704,-0.20386904,0.067703076,0.064633705,0.06561742,0.099923976,0.13309178,-0.03389941,0.16281335,0.20580445,0.08318175,0.18152092,0.01232207,0.04563396,0.0458377,-0.18319401,0.042363755,0.0014162301,-0.25646958,-0.047400594,0.43130064,-0.02742952,0.19749615,-0.13878138,0.06493289,0.029299045,0.19943698,0.037949614,0.05591879,0.16699798,-0.026688581,0.0095383,-0.13412178,-0.013916902,0.15143226,-0.17113955,0.39690158,-0.05430457,0.017503042,-0.06088393,0.09817309,0.06069703,0.007501201,0.010475487,-0.2443325,-0.25646293,0.15826108,0.25616613,-0.047999978,-0.33628973,0.08485186,0.08489249,-0.08223703,-0.14609925,0.109084636,0.1821463,0.03077583,0.12276818,0.05894024,-0.043192375,0.00059105956,-0.11305724,0.21022536,-0.06950427,-0.73076475,0.006456932,-0.2256688,-0.2308423,-0.0017725556,0.11836139,-0.101594426,0.18854351,-0.19009764,0.20554711,0.08026686,0.042690944,0.043676678,-0.13020326,0.15139857,0.22962801,0.04383079,0.17646402,-0.26232347,0.020096561,-0.07191155,0.04312312,-0.04220081,0.11944147,-0.06263685,-0.08807992,0.10291483,-0.26591367,0.14647818,-0.009507073,0.00763688,-0.22207068,-0.020883186,-0.15822506,-0.014407729,-0.24086195,0.13909137,0.050502166,0.03812415,0.06138528,0.24956536,0.20086221,-0.0082484465,0.11712315,0.015338266,0.07916146,0.04082961,-0.0065222117,-0.12758261,0.05119829,-0.006912792,-0.035092626,-0.058408305,-0.029583968,0.13452637,0.17168178,0.06000002,-0.18293141,-0.25131842,0.07308561,-0.06427177,0.08739253,0.07139896,0.091658115,0.17543669,0.07914736,0.23346369,0.19378854,-0.15843385,0.055438053,0.19157702,-0.16991626,-0.057707347,-0.14188069,0.104325116,-0.084377296,0.06316471,0.14335811,0.23821372,-0.28773108,0.15352312,0.058526736,0.012692451,0.068499096,0.033565864,-0.43541333,-0.05862859,-0.46553484,-0.19307177,0.06446116,-0.17936815,-0.079134926,-0.24469036,0.014907316,0.034861226,0.18867654,0.075967714,0.079666846,0.13141102,0.23142289,-0.24665979,0.07167116,0.40248045,-0.009236638,0.13733494,0.1472724,0.23278354,-0.015379982,-0.6813538,-0.10445088,0.08547735,0.04746762,-0.032275993,0.09825444,-0.037724473,-0.24204963,0.051312257,-0.34500948,-0.33935723,0.03589744,0.18557316,0.20189275,0.25998944,-0.25344187,-0.0846,-0.16078593,-0.0698329,-0.27827325,0.106758654,0.02609315,0.06490641,0.14145808,0.066099875,0.03149637,-0.030414563,-0.20676786,-0.08355489,0.026996236,0.15629837,0.0012857411,-0.056156505,0.045421578,-0.06908675,0.13167132,-0.014079741,0.13695823,0.14484224,-0.2565924,-0.09121821,-0.26464298,-0.09686371,0.10847281,-0.17461996,0.17687677,0.082224764,0.045051526,-0.1779325,-0.05876606,-0.17279102,-0.14779134,0.09795528,0.01373539,-0.2548252,0.03709754,0.031835955,-0.09943027,-0.15694246,-0.08536066,-0.06683775,0.021230161,0.09716079,-0.077584624,0.045220774,0.13498308,-0.091502205,0.36437327,-0.021683453,-0.070895135,-0.0012329442,0.038403768,-0.11168848,0.004340029,0.02049982,-0.034280542,0.13220873,0.15299632,0.075752914,-0.110209696,0.03945891,-0.03947214,-0.048358884,-0.13528879,0.4326942,0.19437416,-0.06227059,-0.08732023,0.051807784,0.10795432,-0.0917073,0.08093714,-0.03713648,0.025083696,0.12814987,0.054364756,0.0338898,-0.015783815,0.030795954,-0.07718965,0.06346802,0.010493783,-0.028416306,-0.04828204,0.0021245028,0.075575195,0.06192452,-0.07271739,-0.03171596,-0.07076059,0.040202167,-0.063578874,-0.07028322,-0.09835379,-0.041566614,-0.025416827,-0.17495257,-0.01986998,-0.054282542,0.0010208766,-0.011831072,0.0791122,0.02832324,0.040540487,-0.10636562,-0.01606296,-0.11470125,-0.08489428,0.061685383,-0.008306863,0.0014423609,-0.04476612,-0.12759323,-0.06811804,-0.14088568,-0.08555479,0.048855707,-0.05740186,-0.027482964,0.05287217,-0.04028481,-0.18725179,-0.07362363,-0.08218467,0.016521178,-0.18409833,-0.054709636,0.034421828,-0.10850696,-0.008324709,-0.17268714,-0.05007374,0.044148922,0.039556492,-0.15619498,0.01998922,-0.075194694,-0.070487805,-0.029631002,-0.0263067,0.06159068,-0.08544909,-0.002772354,-0.14212862,-0.12576394,-0.095298566,0.051760852,-0.06892114,0.05433067,0.025448676,0.009494404,0.019499736,-0.0973995,0.012022676,0.02287283,0.06309375,-0.00947043,0.0025343115,0.013807612,-0.064095154,0.01610754,-0.06909681,0.06968655,-0.0018824802,-0.0896916,-0.118983656,-0.072215684,-0.054390956,0.0104209045,-0.0745656,-0.08882996,-0.03703503,-0.0748493,-0.07648818,-0.092100196,0.018647378,-0.120270655,-0.043645687,-0.077533185,-0.11889849,-0.041962784,0.0254033,0.028952807,-0.10132151,0.049348775,0.023105409,0.042963393,-0.051527023,0.02464138,-0.13914384,0.04303868,-0.23423554,-0.08222529,0.033464186,-0.018318126,-0.0014159332,-0.014641266,-0.07821719,-0.17210199,0.40055507,-0.026388085,-0.019916076,-0.19859111,0.06403439,-0.09971455,0.07885593,0.06023301,0.27682665,0.06875624,0.087220475,0.17796405,0.048392206,-0.10307211,-0.17598623,-0.378301,-0.24788304,-0.019351462,0.16477174,0.09694748,-0.013921629,0.22890368,0.19268481,-0.008949106,-0.26799783,-0.020239364,-0.016216142,-0.1753452,-0.13699187,0.06553613,-0.0888693,-0.2914783,-0.05558486,0.4047741,-0.21764489,0.3493774,-0.18573876,-0.060113188,-0.020780113,-0.09878726,-0.06500177,0.21572217,0.041012265,0.18493947,-0.7211194,-0.06262953,-0.06766878,-0.20372845,-0.25115016,0.1346782,-0.2678251,0.23055917,-0.016561516,0.085653074,-0.04472096,-0.19258389,0.21763027,0.053294383,-0.0006986013,0.19609678,0.07769557,-0.25520203,-0.1411109,-0.047169976,-0.11612001,-0.13523883,-0.1896506,-0.3899151,-0.1683608,-0.03305389,0.0848596,-0.28224185,0.2618655,0.093187585,-0.21636099,0.15993287,-0.23163441,-0.13727786,0.053808585,0.31444934,-0.21537603,0.05538239,-0.13448204,0.053083617,-0.059988383,-0.051789563,-0.39350873,0.20110053,-0.46445656,0.26417556,-0.043154288,0.08134169,-0.042287666,0.107798986,-0.07873877,-0.45583826,-0.0059602135,-0.14546524,0.11164426,0.11936725,-0.47861272,0.079451226,-0.2745466,-0.04801656,-0.74825567,-0.46683687,-0.20336223,0.20599894,-0.02965093,-0.3493952,-0.30557373,-0.30748698,0.01990607,0.04338942,0.15745753,0.18240058,-0.057334114,-0.028482903,0.101719245,0.22641031,0.005274046,0.026399415,0.051086508,-0.007816664,-0.044137843,0.04874181,0.032265753,-0.029787807,-0.02525129,0.08456147,-0.12359753,-0.0002394938,-0.08415819,-0.0642198,-0.026811736,-0.050207686,0.029136736,-0.0034526498,0.084127344,-0.053239875,0.057315867,-0.05981372,-0.0147975525,-0.07020265,0.018675454,-0.03864966,-0.07374249,0.07681304,-0.062005952,-0.02399104,-0.08240539,-0.02318272,-0.022796405,0.023701476,-0.07307795,0.022852555,-0.010218959,-0.02584686,0.053754684,0.06402903,0.05256187,-0.0028329242,-0.013340695,-0.11682875,-0.0451605,0.060869135,-0.026156968,-0.123850375,-0.06579807,-0.038006485,0.020670397,-0.13141072,0.053466026,0.047600243,-0.048773363,0.05322637,-0.014588916,0.02935897,-0.08603252,-0.020577732,-0.0714095,0.04729614,0.04860162,-0.08167665,-0.098043725,-0.065264806,-0.02178167,0.033222247,-0.029694684,0.03527085,0.0048222058,-0.070694245,-0.09499556,-0.11133082,-0.090545766,0.04099586,-0.10718937,-0.060611423,0.019042818,-0.007731195,-0.06564528,0.016363308,0.0693331,-0.07223593,0.06531012,-0.07020833,-0.003319476,0.043715823,0.0195437,0.0041855383,-0.027651927,0.006823421,-0.11972062,-0.11879927,-0.13177536,-0.03246672,0.0802506,-0.07409156,-0.078076325,-0.07312179,-0.10079729,-0.056007452,-0.100569546,-0.08269179,0.045357764,-0.03566267,0.04328998,0.052066505,-0.0159569,-0.0630226,-0.052766386,-0.014825633,-0.08833572,-0.028320162,-0.05113782,-0.1092633,-0.03355426,0.03126079,-0.07741661,-0.031177443,0.49620292,0.106820464,-0.015463489,0.06464714,-0.01930589,0.040745586,-0.0027085058,0.033205364,-0.25751942,0.033801388,-0.08623997,-0.3828517,0.085384615,0.28007358,0.22021507,0.07481453,-0.002075397,0.21672162,-0.065445594,0.15194286,-0.06942621,0.12854823,0.23405607,-0.24201618,0.23588939,-0.145839,-0.114268064,-0.11451084,-0.035961885,0.03461367,0.043331005,0.19514675,-0.051004346,-0.45011935,-0.502418,-0.51285094,-0.34086627,-0.039424367,-0.3466206,-0.029234659,0.19415115,-0.38600498,0.31604624,-0.22894885,0.0913683,-0.0711763,-0.24585952,0.090502076,0.4230077,-0.17155652,-0.18558751,0.1897607,0.007590765,0.046714433,0.045851883,-0.0013650701,-0.088993564,0.039755266,-0.10452795,0.01611278,-0.10878874,0.10613095,0.3172911,-0.40506753,-0.16144085,-0.048570104,-0.10530791,0.08215988,-0.04085535,0.031851422,0.022256322,0.007821922,-0.20685956,-0.20552506,-0.14295256,-0.17622249,0.28097773,0.020104796,-0.009479914,-0.072923444,-0.3668603,-0.4141412,-0.31957954,-0.29657996,0.040304396,0.06982913,0.12622258,-0.30962566,0.015398935,-0.059244823,-0.4267541,-0.03980477,-0.15468602,-0.38848826,0.2099372,0.052515708,-0.07065297,0.05181539,-0.21605518,0.012740388,0.11511843,-0.13745569,0.06498235,0.08924198,0.12939298,-0.055488966,0.14406705,0.091648564,-0.07239252,0.18165378,0.09210203,0.1150464,-0.19471765,0.21078892,0.017451974,-0.037543815,-0.027680827,-0.042953584,0.10272007,-0.16577639,-0.054337043,-0.2151056,0.041727092,-0.008014339,0.0044689593,0.08001838,0.048253402,-0.010259035,0.38381287,0.03201901,-0.053958647,0.27431965,-0.1763278,-0.053041242,-0.16127019,0.06155041,-0.032581892,0.06625219,-0.1113255,0.24707754,0.05495318,0.036363855,-0.0012982035,0.26158425,-0.0645472,0.06347094,0.037405513,0.15377893,-0.065586,-0.052989054,-0.13059583,-0.0005703523,-0.037635412,-0.094213076,0.4464956,0.31021014,0.026985688,-0.08688699,0.05082553,0.08967211,0.094403036,-0.030029668,0.09628997,0.0057085827,-0.08641425,0.01087666,0.18021107,-0.04840165,-0.14024703,-0.22562356,0.10132861,0.026313683,-0.021438133,-0.0018063535,-0.053149354,-0.072451375,0.14877136,0.017492894,0.21169095,0.17192897,-0.39867187,0.089478545,-0.27547774,0.17258307,-0.08613185,-0.059073336,0.047737114,-0.039725702,0.12687723,-0.0784232,-0.043650072,-0.09159436,-0.121424794,0.47485316,0.057671793,-0.004876569,0.040703684,-0.05829121,0.04115247,0.34899113,0.028830709,0.08629704,0.05667114,0.27301005,-0.048789315,-0.018097883,0.03522288,0.1487549,-0.081633486,-0.05037497,-0.13612339,0.16697441,0.008471513,0.00055524905,-0.047859527,-0.08921759,0.034343284,0.2315544,0.10476804,0.034075268,0.0912345,-0.22196926,-0.06486343,0.120803684,-0.45305103,0.018364735,-0.048719376,0.15265015,-0.06556635,0.29484522,-0.01652378,-0.0073633473,0.22494139,-0.04491424,-0.029079601,-0.02238257,-0.11695095,0.03654832,0.10124864,0.08931994,0.28705528,0.15897535,-0.04786894,0.15649484,0.16848451,-0.3038203,-0.069092914,-0.041292023,-0.24174458,-0.04679783,-0.38033068,-0.006293652,-0.0058548814,0.32910377,0.09102236,0.03485278,-0.32159346,0.1582721,-0.5247577,-0.056185562,0.015580318,0.05038296,-0.17080018,-0.08035236,-0.119697414,-0.057053667,0.1941103,0.12427131,-0.05781302,-0.028265443,0.034792073,0.1273319,0.06535085,-0.17779736,0.12884907,0.03340777,0.19151294,-0.06395571,0.15188587,0.07684969,0.33070502,0.09156817,-0.17584544,0.004287668,0.20636804,0.055971455,0.37450856,-0.11094326,-0.22960187,-0.26319683,-0.018883951,0.18836078,0.021852678,0.0930267,-0.028095808,0.09188167,0.16564737,-0.018393533,-0.056196593,-0.031121248,-0.07249852,0.1532556,-0.12492872,0.022199303,-0.4112291,-0.029749459,-0.022128785,0.1218695,0.08117686,-0.13080767,0.06653151,-0.0017214523,-0.026521482,-0.19096982,-0.17379007,0.12837677,0.039219085,0.1575697,-0.013324641,-0.002109304,-0.021540437,-0.27722067,-0.013452729,-0.024739914,0.058622755,0.020404512,-0.09260001,-0.103794664,-0.4813179,-0.068914235,-0.30550396,0.1421403,-0.34162378,-0.31645507,0.1691119,-0.18010458,-0.002227066,0.06893678,-0.48817,-0.081165195,0.0055050123,0.12036505,0.42728177,0.09282391,-0.030851062,-0.10153811,-0.2758344,-0.046817742,0.01700911,0.028362831,-0.15405557,0.14942296,-0.05736975,0.12676358,-0.024411177,-0.26391792,0.16050328,-0.032858677,0.09256137,-0.04105761,0.2399173,0.3232026,0.08626665,-0.077699095,0.1151942,-0.018887078,-0.057336215,-0.004662809,-0.027166538,-0.07034525,-0.18282028,-0.0902589,-0.028799882,0.16508697,0.09873371,-0.08476698,-0.1790216,-0.04656998,0.49201098,-0.24954616,0.073718436,0.07088838,-0.2852601,-0.11460133,-0.08577577,-0.11047664,0.21605442,-0.048887953,-0.0820816,-0.045399528,0.29222265,0.24697828,-0.015336086,0.10421881,-0.09736878,-0.008080051,-0.23490424,0.06984914,0.13750054,0.024998998,0.03444593,0.018891307,-0.040948078,-0.024257895,-0.1743411,-0.097266056,-0.26186633,-0.06190542,0.04103984,-0.091084056,0.099439956,-0.19286628,-0.0038938567,-0.057040766,0.0058790757,0.035184048,-0.13111399,0.08088464,-0.018267326,-0.070320435,0.32460797,0.06726817,-0.2684048,-0.24582024,0.056492075,0.0351938,-0.07757244,-0.25444788,-0.24168307,-0.016961923,0.0072443048,0.18193181,0.0027515138,0.009450762,-0.12798813,-0.16458216,-0.06847171,-0.05658873,-0.0031444023,-0.09079007,-0.20879151,0.08076843,-0.089457914,0.061936148,0.060855687,0.06557071,0.030784925,0.059235338,-0.23622419,-0.061643127,0.0605173,0.0038017079,-0.0480181,0.036709897,0.118549824,-0.052081782,0.083729595,0.14563063,-0.45110998,-0.003448246,0.009264529,-0.17111082,0.14079872,-0.046588976,0.07416733,-0.029377684,0.00054465636,0.13709489,-0.012167304,-0.2156915,0.1708567,0.09613755,0.10976063,-0.18291807,-0.07882029,-0.19041964,0.035532475,-0.022929791,0.14074363,-0.1370346,0.08640763,-0.020678032,-0.09186994,0.14326781,0.07794986,-0.14508925,0.07713482,-0.0839848,0.16268054,-0.045894805,-0.28084096,0.21256141,-0.2947943,0.101054855,-0.16329321,-0.16489518,-0.004395773,0.12611237,0.056458805,-0.34474167,-0.04263334,-0.2005877,0.15377222,0.17310616,-0.045641646,0.2373025,-0.42924777,0.1919652,-0.019259362,-0.06934384,0.09287438,0.30425987,-0.06670321,-0.04945368,0.20268664,0.2180436,0.22960114,-0.03690839,0.34040245,0.10251973,0.15214556,-0.10402908,0.020458901,-0.15878995,0.0071149757,-0.007920652,0.066618636,-0.008766896,-0.09888003,-0.013146057,0.2372033,-0.1099944,-0.090868264,-0.004237926,0.063188724,0.05633891,-0.09360599,-0.016903345,0.30437675,-0.09485394,-0.09739442,0.36951154,-0.070889294,0.12348818,0.18894337,-0.20072573,0.089287646,0.16935696,-0.053627703,-0.04683079,-0.024325699,0.20332669,0.021428566,0.14411575,-0.02228627,0.07283322,-0.045228623,0.2138535,0.0020487942,0.34604585,0.08507719,0.21316658,0.04099437,0.15964262,-0.0569551,0.038343307,-0.10669234,0.37044242,-0.33907533,-0.02369986,0.0045894287,0.12852274,-0.09426933,0.106716774,-0.19377871,0.2089967,-0.10444608,0.24848017,-0.123202525,0.038474217,0.13962974,-0.43970287,-0.28623775,-0.073523976,0.4161405,0.29857993,-0.23636572,-0.17831454,-0.022808747,-0.22754005,-0.21737905,-0.094293855,0.12691453,-0.17090563,-0.017583817,-0.3252255,-0.038383715,0.06531998,0.023479681,0.1732334,-0.12649493,0.031450383,-0.059947006,-0.24074441,0.05686564,0.11461868,0.047767624,-0.057690576,-0.15342177,-0.0004298736,0.057686124,-0.1413305,0.00633607,0.12701732,0.19613099,0.014980137,-0.0062832753,-0.1121521,-0.3492483,-0.022287508,-0.07232568,0.29880473,-0.29201472,0.05537881,-0.20570292,-0.4876924,0.27802902,0.14150114,-0.06263493,0.046641544,0.045418303,-0.28245547,-0.07568884,-0.20375746,-0.023741331,-0.35597152,-0.20094904,0.0555553,-0.06684585,-0.04536372,-0.09327908,0.20408574,0.110002756,0.0012962584,-0.32573828,-0.04551022,-0.08994126,0.13626182,0.055499688,0.10013248,0.0022124539,0.1280588,0.0705551,0.12543097,-0.101657495,-0.055646833,-0.17202291,0.05866655,-0.13661216,-0.0035160838,0.18125468,-0.29549414,0.25746027,-0.20182762,0.013108389,0.3380782,0.1260122,-0.6407714,0.34364495,0.059736658,0.05092606,-0.06515103,-0.11626557,-0.30511573,-0.016428405,-0.16030984,0.24779528,-0.09013553,0.038060423,-0.29965323,-0.029672192,0.06301701,-0.09006433,-0.11423955,0.06161802,0.041402355,0.010199365,-0.2149279,-0.07913024,0.02267512,0.23637831,-0.25069895,0.03845904,-0.0025946,0.23887233,-0.14395666,0.07219375,0.21936132,0.08085889,-0.12798706,0.029353714,0.26271826,0.27482298,0.05881932,-0.03646569,-0.27373353,0.00058191665,0.08854745,-0.02005562,0.11104459,-0.17894743,-0.053968977,0.10433414,0.020758525,-0.007468834,0.0061733946,0.15197043,0.032847527,0.42202926,-0.28591478,-0.099651255,-0.031243226,0.068070844,-0.10740632,-0.017159695,0.033457737,-0.021576777,-0.011522473,-0.0044355644,-0.04755562,-0.029933212,0.058219913,-0.16049387,0.1513856,0.21233884,-0.31786713,0.23670696,-0.21758547,-0.3022362,0.1192622,-0.07122585,-0.041732747,0.070410684,-0.12602773,-0.29794267,0.045358207,-0.16689833,-0.10434697,0.15959124,-0.042784307,0.00049154606,-0.120648704,-0.03720148,-0.45727694,0.071722426,-0.30672973,0.2077106,0.07935584,-0.26446763,-0.041737717,-0.037196644,0.10775122,0.27589074,-0.3978546,-0.2546496,-0.062103447,0.041569795,0.12923938,0.14663985,0.3208513,-0.1794435,0.049282577,-0.09630067,0.06234945,0.058372553,0.16085973,-0.19773556,-0.0026995044,0.008115053,-0.09965529,0.17648318,-0.10874242,0.29705083,0.09293595,0.15659449,-0.030542,0.082226045,-0.05357404,0.26972693,-0.21213815,-0.036641166,-0.030906271,-0.0100023635,-0.2724254,0.18651773,0.041481514,-0.042172767,-0.0036831025,0.24607109,-0.4918723,0.21204148,0.13362212,0.08199869,0.13616867,0.06833907,0.029415352,0.0006106577,-0.15262327,0.07155284,-0.0048880754,0.2999687,0.021583585,0.18242481,0.17960247,0.0043093115,-0.0073081227,-0.055622812,-0.16482808,-0.017922895,0.039121404,0.0025880632,0.13277896,-0.18484099,-0.3208544,-0.18668678,-0.08613262,0.2737096,0.03231063,0.008110554,0.0099202385,-0.0057412237,-0.03141222,0.21208414,0.022879219,0.08336472,0.13169633,-0.08393659,0.08735495,0.3263469,-0.4441007,0.017577747,-0.10714545,0.049218077,0.029569717,-0.11226009,-0.09076429,0.08173595,0.027910149,-0.011507889,-0.030595979,-0.09383899,-0.040281847,-0.0013933962,-0.10315338,-0.024893207,-0.0526583,-0.056316752,0.03644525,-0.082320884,0.036235865,-0.018839123,-0.07310492,-0.056964166,-0.036309645,-0.095029235,-0.100487866,0.026843023,-0.031593286,-0.02894569,-0.01669277,-0.07031596,-0.0033821545,0.059926067,-0.033994894,-0.0070748213,0.023784347,0.020861631,0.060842462,-0.012730373,0.065226585,-0.08857045,-0.008259762,-0.051103853,-0.053454053,0.07047298,-0.045580264,-0.101732835,-0.08526351,-0.09120801,0.030781824,-0.037695017,0.037953846,-0.066304825,0.0821219,-0.014173067,-0.0703515,0.028881181,0.0034543588,-0.046798833,-0.048987065,-0.015716987,0.00027940358,0.009169115,0.022027064,-0.10995681,0.0029123237,-0.08194116,0.04866641,-0.0011590534,0.008242649,-0.06672962,-0.021620197,-0.02129296,-0.008120122,-0.11261148,-0.10142227,-0.019392744,-0.08890406,-0.06029725,-0.05902078,-0.06744956,-0.084027834,-0.060538866,-0.009179138,0.0049329326,-0.012225751,-0.031832904,0.016041853,-0.021374488,0.017478481,-0.06366345,-0.036789484,-0.030537626,0.0017020787,-0.05538852,-0.016590886,-0.06924995,-0.1046906,-0.018576173,-0.05438428,-0.050835524,0.013446383,-0.021948023,-0.06369453,-0.012315688,-0.08099468,-0.036612112,-0.10051404,-0.04546684,-0.029765766,0.009939887,0.0708826,-0.04219511,-0.09582899,0.06047707,-0.07746339,-0.008322562,-0.019319804,-0.027820257,-0.060366362,0.07660333,-0.04516838,0.06039377,0.012501214,-0.07633366,0.010093086,0.025967995,-0.054285765,-0.0076983767,0.014798119,0.03612168,-0.009695063,-0.10408034,-0.07851143,0.022666663,-0.0032538502,0.042263456,-0.022910967,-0.03774008,-0.008257626,-0.024189413,-0.026613872,-0.08433436,-0.034989197,-0.075536355,0.032045275,-0.064651884,-0.085061535,-0.033130813,-0.06878928,-0.019651875,-0.056444347,-0.0797805,-0.040380422,-0.0011118915,-0.04955452,0.021480799,0.034945358,-0.06498765,-0.080199495,0.013668087,0.019945567,-0.0100062825,-0.042318765,-0.11037981,-0.0648493,-0.0011455091,-0.097254366,-0.020724552,0.019699832,0.006162155,-0.07180761,-0.052364986,0.0008129689,-0.0012073878,0.038784303,0.028964672,-0.076708496,-0.014506402,0.0311043,-0.06613729,-0.12295425,0.0034516586,0.010815811,0.022802735,-0.08644981,-0.024693623,-0.03231859,-0.04091827,0.04629712,-0.0051187915,-0.0316887,-0.06226049,-0.0699642,-0.09230994,-0.052971084,-0.06364867,0.035487063,0.0068551814,-0.014933799,-0.061154433,-0.015162843,-0.10521149,-0.07664066,0.027794551,0.015861437,-0.09905227,-0.02383842,-0.07529465,0.02662324,0.036973614,0.05064795,0.026490448,-0.0076613966,-0.0632436,0.0009814927,0.00081493484,0.004392148,-0.088055424,-0.033008013,0.055180795,-0.05776218,0.058815997,-0.10165708,-0.004169736,-0.09116537,-0.028536461,-0.051705707,0.05225003,-0.06870357,-0.082987994,-0.038160928,-0.09256435,0.065043546,-0.06065401,-0.095476486,0.054526016,0.07345973,-0.10212488,0.034751195,-0.085516594,-0.0059049353,-0.088922665,0.026206985,0.028068136,0.023462912,0.075440906,-0.048609246,-0.049463652,0.0044390084,0.021600237,0.017838212,0.026625825,0.0132209705,0.047125734,-0.0068449574,-0.08458963,-0.08987542,0.05056119,0.013985049,0.0023212968,0.047613364,-0.0966031,-0.099652134,-0.07450319,-0.08525798,-0.0861415,0.005011235,-0.0039348644,-0.055170123,-0.0750795,0.06124485,-0.06811276,-0.07011678,-0.00027624745,0.056140542,-0.08330342,-0.08028366,-0.036567695,-0.04513888,0.020291407,-0.019593643,-0.09557168,-0.10558173,0.039023038,0.055492423,0.0610198,0.011528151,-0.014431212,-0.050946407,-0.035394378,-0.012950446,-0.0118076755,-0.05450737,0.06503232,-0.07072589,-0.009080993,-0.04692527,-0.02246475,-0.10474422,-0.084362574,-0.1501242,-0.09312772,0.037558127,-0.0813166,0.028050104,-0.08406957,-0.052637726,-0.10183892,0.01308453,0.058672234,-0.08650704,-0.023515848,0.017341252,0.016820153,-0.07332311,0.042972293,-0.09330738,0.021076648,-0.03973622,-0.12806012,0.07456483,-0.11514562,-0.13454856,0.010413396,0.024431728,-0.01766064,-0.056774598,-0.0696199,-0.023185087,-0.10818909,0.05682034,0.021586383,-0.11020791,-0.078670755,-0.04515507,-0.022298379,-0.012170535,0.030495105,-0.023388118,-0.005536646,-0.092565216,-0.0021086354,-0.083904244,0.014597031,-0.06109151,-0.052581254,-0.09054979,-0.04568614,-0.09663974,-0.026949007,-0.0036907496,-0.020365817,0.010707873,-0.07480248,0.058341518,-0.01765027,0.025005823,-0.022677047,-0.023075625,-0.13192184,-0.083609745,-0.07018679,-0.07016121,-0.004177069,-0.012066626,-0.07843232,0.050438087,0.042734746,0.053799458,-0.07613906,-0.0005322963,0.028930455,-0.056302417,0.066668235,0.003364203,0.0495724,0.008235137,-0.02853234,0.032391764,0.033037372,-0.058644887,-0.12912121,-0.08412598,-0.07324673,-0.124643855,-0.057908677,-0.10353453,0.0033365346,0.04644275,0.044027954,-0.10930639,-0.032853767,0.052937597,-0.0052870596,-0.08871887,-0.0230608,-0.01587376,-0.098775856,-0.04431299,-0.06458588,-0.024399178,0.06493429,-0.060930286,-0.047488756,0.035378803,-0.03196172,-0.07136699,-0.00710209,-0.1019961,-0.07370657,-0.06139716,-0.0015512675,-0.03834436,-0.079971634,0.03971787,0.0032398321,-0.0030189592,-0.0613465,0.029198438,0.023511797,-0.115845576,-0.05211381,-0.035595506,-0.07300172,-0.015993953,-0.11622385,-0.033887807,-0.059350044,-0.09473722,0.03046253,-0.111925475,0.065679334,-0.029751806,-0.017524976,0.011225674,-0.044698503,0.009363036,-0.14520898,-0.14619967,0.032925002,-0.012163442,-0.05570653,-0.05137024,0.05271713,-0.08357869,-0.020455735,0.0031516438,-0.035698283,-0.061631273,0.018789103,0.007902362,-0.025460523,0.02418196,0.028044438,0.003699536,-0.019066857,0.033809967,-0.07853316,-0.11761731,-0.11940372,-0.0309558,-0.07320656,-0.06326921,-0.04512866,0.029024953,-0.07872964,-0.035455056,-0.0074548987,0.047701392,0.037947953,-0.1360826,0.05823188,-0.02208584,0.03324786,-0.06269811,0.028471196,-0.043606408,-0.12160661,-0.099456325,-0.00047727115,-0.20022996,-0.06877164,-0.019658934,-0.020243328,-0.041581,-0.05936628,-0.10322833,0.14332345,0.08540888,-0.1972358,-0.16754913,-0.14243771,0.28993976,-0.20518114,0.06738621,-0.0025124,0.27362016,-0.43211934,-0.40176198,-0.06529674,-0.039953344,0.080978364,0.048464466,-0.30598184,0.16258581,-0.18521516,0.14117964,-0.018883096,-0.09651221,-0.019155672,0.023004211,0.069383316,-0.006306665,0.36434266,0.10299561,0.41197038,0.04378299,0.062342297,0.01748004,0.17968117,0.10155525,0.11652242,-0.25305274,-0.12925003,-0.042480867,0.24930549,0.067763045,-0.19533731,0.042125553,0.22539486,0.024326755,-0.025346521,0.0066947625,-0.06201493,0.29879755,0.078882724,0.07663973,0.40508077,0.3648298,-0.32425177,0.24611123,-0.12114287,0.1277309,-0.0062377183,-0.057500027,-0.023945807,0.089461304,0.12691496,-0.40206054,-0.084151104,0.08827121,-0.1530309,0.11321898,-0.026996614,-0.011791929,0.048828557,0.074010275,0.20048742,-0.06757194,-0.005136061,-0.15608335,-0.058414195,0.10538379,0.023155218,-0.011335756,0.18221036,0.016126446,-0.10607789,-0.09425523,-0.10909053,0.18172204,0.029558424,-0.09909108,0.10156705,-0.06805691,0.03453041,0.046394017,-0.29125357,-0.12045109,0.09165303,-0.20673281,-0.14580517,0.0075969277,-0.0890169,0.13712262,-0.123362385,-0.0049031405,-0.003154988,-0.09074037,0.13697058,0.11490995,0.072062254,0.20250544,0.04781103,-0.22326346,0.018844148,-0.0045526247,0.41314763,-0.02047366,-0.2003918,0.055702705,-0.03175715,0.05437919,0.0028254895,-0.15703341,0.06540476,-0.07888266,-0.061634395,-0.0317183,0.02124472,0.22053736,-0.12721325,-0.29258722,-0.03061878,-0.1167915,-0.19140539,-0.061953474,-0.026258107,-0.09574971,0.0092651425,-0.068806246,0.10291914,-0.18040103,-0.073632255,0.23895061,-0.011344599,-0.16176629,0.18603653,-0.07727166,-0.057751816,-0.19428793,-0.07660831,-0.1631635,-0.14684388,-0.021371502,0.23222534,0.06226409,-0.026112035,0.002490967,0.046497777,-0.0786216,-0.43389347,0.04291484,0.032344695,-0.0644016,0.26278386,-0.4029282,-0.28369537,0.1357409,-0.14810415,-0.04277853,-0.035183705,0.01633116,-0.07417813,0.040130995,0.14552473,-0.029952478,-0.13546671,-0.12799115,-0.052312374,-0.12484355,0.21816447,0.15370786,0.062092353,-0.2181799,-0.0024120137,0.13996936,-0.083572954,-0.08155404,-0.021544043,-0.17553832,0.0406897,0.011615923,-0.026364328,0.094275385,-0.1278539,-0.090623856,0.052587867,-0.19546047,0.16615044,-0.02186266,0.02824795,0.06769045,0.047568474,0.058352806,-0.24672075,-0.100690596,0.1212875,0.07401457,0.018911593,-0.09796027,-0.041101776,-0.12377301,-0.06473894,-0.07829578,0.05883414,-0.015196142,0.031784005,0.020483177,0.04281162,-0.009358983,-0.19622184,0.06630617,0.19333287,-0.13099849,-0.066335246,0.026641227,0.05315034,0.11194886,-0.2944186,-0.037160546,0.122548774,-0.005248193,0.0063738134,-0.12290138,-0.2952056,-0.018529654,-0.08494765,-0.3182525,0.17666215,0.04434119,-0.045237593,0.1212939,0.19251728,-0.15879929,0.07551851,0.090071216,-0.12521082,0.05187828,0.11593072,-0.25797468,0.009346853,0.037514787,0.17974094,0.18985337,-0.11239406,0.038891293,-0.04144645,0.1330894,-0.028467882,0.0046618013,0.23626341,0.1256313,0.05609239,0.19860327,0.14250651,-0.24995597,0.22283249,0.018798305,0.04131159,-0.33368266,0.04852054,0.222324,-0.23296134,-0.060541864,-0.03908416,-0.070874855,-0.27194336,0.055576403,-0.12163853,0.041888304,0.011336363,-0.19345847,0.10275347,0.020371785,0.19947512,-0.14685406,-0.34655598,0.06025609,-0.3484637,0.37324747,0.023257177,0.029788595,0.0050161164,-0.1600153,0.04118043,0.087535925,0.29096097,0.23145027,0.039775435,0.090952806,-0.23599596,-0.17579444,0.08610097,-0.012698982,0.17410253,0.035148125,0.13721651,-0.038481135,-0.08420846,-0.08960863,-0.08996072,-0.15513676,-0.056707125,-0.10055154,-0.115263715,0.22137263,0.0341351,-0.13339259,0.118796386,0.13225135,-0.12384655,-0.19959866,-0.033120975,-0.007315938,-0.012639085,0.007956286,0.086134255,-0.05279028,-0.15862,0.1514286,-0.1699101,0.0031240385,0.14307919,-0.0016378423,0.030030642,-0.2303222,-0.122598074,-0.2371321,-0.041249022,0.18340302,0.16266194,0.0155897625,-0.061276987,0.16204973,0.07165173,-0.11024427,-0.053772468,-0.025455507,0.05364033,0.019549716,0.20440531,0.06352403,0.101475,0.2048226,-0.13179326,0.030499285,0.26059756,0.18502842,-0.22198983,-0.062101908,0.016652148,-0.07373263,-0.010015975,0.15071404,0.0040262556,-0.019607125,-0.28148013,-0.0012014062,0.22964273,-0.0070771235,0.03520321,-0.05070733,-0.42022106,0.0007361928,0.09640454,-0.30931374,-0.22513112,0.11590002,-0.0341474,0.113284245,0.20603405,0.060727924,0.11100526,0.06313262,0.073255286,-0.2939983,-0.01527519,0.038813964,-0.08936527,-0.049634658,-0.03645093,-0.2745748,-0.10487386,0.051188283,-0.10173999,-0.007515118,-0.29431802,-0.074198216,0.17710885,0.13316202,0.08927701,-0.058146805,-0.19103223,0.048500955,-0.047001906,0.28489304,0.18298319,0.11895993,0.09860836,-0.22240302,-0.06429785,0.043727446,0.041710697,0.08679831,-0.02054463,-0.013739201,0.1474999,0.07567888,0.040418085,0.045792263,0.092079066,0.08569587,-0.003896841,0.1892967,-0.011374157,0.010550649,-0.18736781,-0.14298643,-0.059047747,-0.23478542,0.16404514,0.18990615,0.14025113,0.1985379,0.073078565,-0.06696839,0.09751822,-0.08054791,0.0901611,0.18994321,-0.14548337,0.041662037,0.040528674,0.023728073,0.0056116288,-0.037741784,0.12991261,-0.03044955,0.06983697,-0.011859811,0.16709518,0.026857693,0.13839626,-0.059568543,-0.06627848,-0.08769362,0.17452438,-0.039446425,0.13472642,0.11642798,-0.05006548,-0.012593193,-0.16961275,-0.45474982,-0.10827961,0.31083587,0.06670827,0.19210228,0.1173032,0.28674012,0.05000281,-0.02916688,0.13610414,0.43389365,-0.13752191,0.060678687,-0.1974337,-0.13001306,-0.09632327,-0.24993868,0.063822985,0.19304013,-0.0034025146,-0.00021624714,0.04070619,0.05228805,-0.5190561,-0.06160342,-0.05831161,0.037812598,-0.16476369,0.14262466,-0.09346372,-0.30749854,-0.09790772,0.09038769,0.028968478,-0.39876047,-0.01961909,-0.14931786,0.059413675,-0.0008467803,-0.54243684,0.0818673,-0.30543008,-0.12390437,0.20392638,0.042049717,0.30118895,0.17356054,0.0010833957,0.039361425,0.041195046,0.067470744,0.20916145,-0.01925765,0.14524472,-0.002139218,0.06446199,0.12889749,-0.31174222,-0.01680461,-0.13226022,0.05551036,0.13418858,0.10173509,0.058911636,0.06071548,0.15895309,-0.15018702,0.011956377,0.09963044,0.018285817,0.07443315,0.080477685,-0.046599157,0.20776616,-0.1780081,0.21497896,0.32054627,0.06874607,0.04679629,-0.032743957,-0.14406972,-0.03339716,0.0056087873,-0.09827724,-0.103072576,0.024784619,-0.0081514865,-0.038722005,-0.17147942,-0.06780769,-0.15210798,-0.22585262,0.23796651,0.22410096,-0.38116908,-0.05333683,0.26785177,0.22808793,0.05335083,0.10462948,-0.051250756,-0.18534312,0.1993549,-0.41514754,-0.03407965,0.03713938,0.20775716,0.015940057,0.071553655,-0.20637427,-0.19673337,-0.053980708,0.23261525,-0.40854007,0.13814469,0.1324662,-0.06250895,0.17513283,0.096499324,-0.026370954,-0.03685999,-0.091444954,0.10867545,-0.06895591,-0.060722526,-0.1456705,-0.09835131,0.102910966,-0.08471729,-0.081874676,-0.17021751,0.08138753,0.027743677,0.086429216,0.066462554,0.14790386,0.25374255,0.0126473345,-0.10279609,0.14176136,-0.327987,-0.083150715,0.0060573216,0.14791171,-0.0073829666,-0.30576652,0.09836881,-0.12821117,0.2605654,0.178797,0.06509697,-0.20815317,0.24544662,0.1414946,-0.014857554,0.0074313288,-0.03274379,-0.50089985,0.008082738,-0.15746646,-0.28194538,-0.10097628,-0.07799098,-0.054806605,-0.019348728,-0.073476695,-0.21126905,0.0108673815,0.34921792,-0.3168557,0.24555337,-0.16078933,-0.066725045,-0.0027700542,0.14349937,-0.07994967,0.0076205106,-0.10605858,0.066691555,0.10006123,0.087882,-0.24858771,-0.13399094,-0.11842394,-0.19638872,-0.14934821,0.008180227,-0.052079134,-0.018072883,0.044020586,-0.10668367,0.049342655,0.03270076,0.068865485,0.031936202,0.034476884,0.1458911,-0.20942165,-0.23352797,-0.027944004,0.036366597,-0.13039456,-0.05952461,0.03564788,-0.22556987,-0.005426498,-0.010699432,-0.08394639,0.10026877,-0.2666645,0.11691032,0.11140001,-0.13693163,-0.45407954,-0.123446085,-0.107059434,-0.41687763,0.014125578,-0.085777216,0.07994942,0.008345728,-0.13060382,-0.051614016,-0.06168403,-0.041997876,-0.055849064,-0.063683994,0.0121501,-0.16450356,-0.043108318,-0.30691594,-0.07510204,-0.23418866,0.004303294,-0.10258182,-0.32779923,0.071382865,-0.053155687,-0.10309474,-0.095924616,-0.011811319,0.0944011,-0.033005584,-0.05596132,0.15449446,-0.12388505,-0.36848724,-0.17113279,0.1367067,0.12765229,-0.34972042,0.21911871,0.06472415,-0.3350042,-0.2933579,0.025321621,-0.06450293,0.0013189093,-0.02285188,-0.09454983,0.096500225,0.004862122,-0.057938877,-0.13276343,-0.030975597,-0.23432611,-0.1430199,-0.1855111,0.08150126,0.057009693,0.022881342,0.008819236,-0.20915486,0.21148,-0.17421062,-0.06568436,-0.09445842,-0.17821106,-0.005422739,0.016689379,0.1081808,-0.074288525,-0.09247346,-0.053514525,-0.010456185,-0.23273821,-0.038405247,-0.044800244,-0.18193316,0.16040476,0.07616125,-0.101883225,0.030203618,0.01348745,0.028703151,-0.11250179,-0.11234254,0.10564002,-0.038595114,-0.10527382,0.015800739,-0.15950438,-0.055246446,0.061922528,0.016632892,-0.21511422,-0.02643749,-0.025534146,0.19399828,-0.08763559,-0.04891043,-0.23083572,-0.025000306,-0.04579501,0.054410767,-0.0359712,-0.14933415,0.082234345,-0.022253113,-0.04391109,-0.055530634,-0.12763608,-0.22623454,0.00071038253,-0.0006476372,0.028845213,0.016263653,-0.080527455,-0.25346714,0.11876308,-0.073459774,0.0007959327,-0.21827315,-0.086919025,0.01309855,-0.09772577,-0.21025531,-0.039157983,-0.0717616,0.027828574,-0.08962775,-0.1264497,-0.057903994,-0.1555357,0.1071926,-0.059597526,-0.20378819,0.16405983,-0.204556,0.03836961,-0.035557233,0.046180487,-0.05650354,0.12933576,-0.012803001,-0.032812357,-0.120390475,-0.006908476,-0.03428535,-0.023863256,-0.26178852,0.12662682,-0.09454466,0.07682143,-0.019946272,0.0012755664,0.007679402,0.022266548,0.0054836706,0.055595737,0.15143204,0.03169313,-0.025828762,0.013283039,0.08882304,-0.0037203503,0.24584542,0.006890638,0.043805424,-0.10170644,0.018697875,-0.040802274,0.02005711,-0.104867116,-0.04077972,0.015379893,0.24595344,-0.015619989,-0.30843687,-0.1915909,-0.3330612,-0.14241657,-0.06345933,0.046924107,-0.033573255,-0.0943549,0.062009465,0.053486213,0.12400155,0.07942168,0.13564686,0.11626036,0.021406567,0.23051581,0.04193237,0.27770832,0.116230264,-0.03939193,0.013081122,-0.1573116,0.08953531,-0.0057257134,0.08016199,0.13280919,0.02509372,0.044715606,0.17817801,-0.30525777,0.018793253,-0.20892549,-0.011220696,-0.089535475,0.19656809,0.16171668,-0.32427916,0.012557917,-0.22222243,0.090561,0.048246983,-0.052084047,-0.009314835,0.036041956,0.06491041,0.03873649,0.06878836,0.10350602,0.18811737,-0.2785033,-0.026573474,-0.3559417,0.0705305,-0.017344141,-0.19353385,-0.031194592,0.12778848,-0.074287,-0.12033268,0.051966526,0.034205798,0.0060823215,0.11928157,-0.15955947,0.094700426,-0.045050126,0.27124235,0.06887739,0.12564647,0.13411546,0.048560876,-0.06285968,0.059830777,-0.2958186,0.088613324,-0.10746419,0.04634162,0.09782621,0.07737064,-0.36635706,0.13857937,-0.123723425,0.10426533,-0.027429633,0.13243836,-0.120084256,0.03740103,-0.13634224,-0.12003523,-0.019480163,0.09274301,0.10087305,-0.27976522,0.015628677,-0.041747693,-0.036613517,-0.067462794,0.014783595,-0.04376211,-0.12072329,-0.08620524,0.11554784,-0.4050787,-0.15802449,0.010202164,-0.009040301,-0.016610075,0.32916728,-0.020203818,0.061598357,-0.06951275,-0.057483796,0.3322706,0.023244465,-0.051264226,0.016084542,0.012773552,-0.028916221,0.005541667,0.13826913,0.1219002,-0.017325925,0.36511362,0.022049585,-0.12321051,-0.21433981,0.09050857,0.012524018,-0.17012398,0.315963,-0.2377851,0.107775785,-0.14773785,-0.07683837,-0.08368202,-0.22591448,0.022366686,-0.002589796,0.16562188,-0.06558404,-0.22757655,-0.04424753,-0.13468553,-0.3920588,-0.0141295465,-0.07836639,-0.087133184,0.24288218,-0.086586,0.18185548,0.13375127,-0.03765799,-0.06442263,-0.081823826,0.26571447,0.20639941,-0.193139,0.18155047,-0.038266666,0.005828837,0.06458668,-0.045743372,0.12907779,-0.2210582,0.068085425,-0.042413026,0.19765331,-0.128291,-0.01553276,-0.09190955,-0.007425331,-0.028284851,-0.13582604,-0.35974902,0.13169804,-0.0340181,-0.048201073,-0.030783158,0.009297893,0.10187606,0.20070006,-0.10869776,-0.061342172,-0.23542984,-0.043064777,0.1232984,-0.023302617,-0.27770406,0.17731708,-0.25071672,-0.042511173,0.029429726,-0.019557405,0.06450762,0.14459535,0.017740138,-0.0045918985,-0.048499044,0.039308432,0.10878878,0.055965543,0.30435023,0.011358993,-0.022931516,-0.28304553,0.15676287,0.09562571,0.27740547,0.011860688,0.00073024945,0.016154153,-0.21753696,0.13753855,0.026405098,0.2824935,-0.04637191,0.04829199,0.35976115,0.23284702,-0.17830777,0.32247266,-0.08623837,0.31643,-0.25361484,0.034492392,-0.21587722,-0.14230537,0.25210357,0.051684953,0.00080906064,0.19669962,-0.027999677,0.12839156,-0.051332876,0.06983518,0.3204955,-0.020795638,-0.023363452,0.15291758,-0.11911988,0.20494738,-0.29003456,0.17860287,0.1639859,0.38024038,0.15617596,0.013598555,0.0035341901,0.021935198,-0.34605697,0.13309543,0.10231253,-0.067946285,0.095810145,0.28013638,-0.022199137,-0.0033484467,-0.07393124,0.32924,0.079735756,-0.3489813,-0.13227078,-0.13836038,0.029202662,0.014962816,0.06175496,-0.014138688,0.10688235,0.0244765,0.08267477,0.19180062,0.009621896,-0.09972892,-0.10193332,0.078880414,-0.0661181,-0.5261426,0.023022681,-0.22342747,0.03471369,-0.11137484,0.02543803,0.055916015,0.14002176,0.00020511108,0.0553082,0.2419335,-0.017968832,0.010189883,-0.36462995,-0.06337211,-0.14773718,0.32101655,0.15132746,-0.09617984,-0.010720271,-0.05906656,0.03117263,0.27847543,-0.0060238214,0.48544073,0.063205905,0.098466665,0.19008826,-0.021150162,-0.033965427,0.2598499,-0.046564575,-0.24257503,-0.02807729,0.08880813,0.018799122,-0.03406098,-0.11952187,0.26562995,0.007988223,0.16396098,-0.048969653,0.02214368,-0.03690561,-0.19977777,0.023176556,0.1787805,0.09238493,0.2866532,0.054091822,0.023334585,-0.025792018,-0.2734213,-0.15632322,0.27660668,-0.011487932,-0.16381893,-0.054378867,-0.22544391,-0.017393706,-0.040870883,0.038388517,0.12786427,0.05261975,0.15299176,-0.03815062,-0.29052675,0.29979622,0.043362733,0.013630213,0.09144316,-0.09387902,-0.039181743,-0.0053317896,-0.040675048,-0.06632785,-0.17022383,0.07018272,0.01754941,0.014306256,0.030980112,-0.079714,-0.12350297,-0.07795503,-0.004789056,-0.0815538,-0.048483483,-0.07308609,-0.06199643,-0.049140185,-0.00058917154,-0.00096086087,-0.11995355,-0.15192303,-0.0793307,-0.08479642,0.08512836,-0.02285973,-0.03978719,-0.007019128,0.064944886,-0.06523581,-0.13294001,0.0010729809,-0.053342808,-0.07593662,-0.08867111,0.014237691,-0.022894455,-0.11941275,0.022326168,-0.01263435,-0.10446296,0.120818496,-0.16871838,-0.075822294,0.087304,-0.14703314,-0.11561147,-0.02477047,-0.0718497,-0.040467024,-0.051871035,0.07955604,0.15792081,0.012244534,-0.12940341,-0.026072074,-0.031304993,-0.06680796,-0.0418189,0.074050106,-0.13201404,0.05478421,-0.19033039,-0.0860395,-0.103125826,0.03727711,-0.13466172,0.06466485,-0.06028798,0.001975491,-0.22631255,-0.13363428,-0.06840934,0.044218916,-0.06996354,0.0602578,0.040557787,-0.058350652,-0.064369254,0.017561635,0.040257424,-0.13386226,-0.058343302,0.08920088,-0.085814506,-0.013531125,-0.041218285,-0.04748544,-0.06275159,-0.03594781,-0.08623859,0.014375099,-0.06970458,0.01144557,-0.03898642,0.03883193,0.016416654,0.1049762,-0.07502272,-0.14077516,0.0062214406,0.033308197,-0.07147973,-0.13978274,-0.14136937,-0.10756581,0.10525131,0.058952082,-0.1655466,-0.055292632,-0.017249646,-0.041485805,0.002934721,-0.07162459,0.035149414,-0.14527445,-0.044332527,-0.11587478,-0.12559064,-0.05575302,0.06632453,-0.03182383,-0.0031354045,-0.032537974,0.24826263,0.04212976,-0.045790337,-0.076305546,0.0053953854,-0.029490037,-0.046497285,-0.10508985,0.21896854,-0.36301434,-0.33806074,0.1152898,0.107500754,-0.06875282,-0.2142474,0.0058702407,0.04265239,0.14782025,0.11068163,-0.24401717,0.25318068,0.020039536,0.006325864,0.23036243,0.00439359,0.13008374,0.32972005,-0.06147821,-0.45356634,0.0633313,0.07187201,0.2952737,0.09188158,0.17239866,-0.042393506,0.20147382,-0.18310997,-0.38292167,-0.020528795,0.07542255,-0.08657258,0.031932447,0.25432572,0.24771471,0.005227271,0.3757433,-0.33986822,0.05675621,-0.015802497,-0.11317229,0.029208818,0.13810153,-0.02740409,0.25419828,-0.37112373,-0.39888957,0.38131967,-0.23561247,0.28343278,-0.10205014,-0.21970981,-0.38833508,-0.027425675,-0.37549108,-0.14410993,-0.03695246,0.089039944,0.26892838,0.09215747,0.100254074,0.31564528,-0.13857004,0.12242929,0.24563599,-0.11714293,0.058801733,0.06392078,0.12057969,0.08484863,0.015091615,-0.057074796,-0.33699793,0.11084304,-0.25634915,0.061629884,-0.33810708,-0.026303329,0.03980811,0.056793313,-0.28994012,0.0799933,-0.0568701,-0.05035252,-0.439027,0.21361853,-0.053308703,-0.2492115,0.2260055,0.010107714,0.25618035,-0.19114253,-0.04196609,0.14580898,0.08522021,-0.018247848,0.07358765,0.122749925,0.09968021,-0.20543349,-0.043295868,-0.19995609,-0.1836035,0.060487147,-0.03837474,0.08401765,0.011231676,0.3378776,-0.015188735,0.14991619,-0.18475989,-0.10898069,-0.07017862,-0.0043378053,-0.013955222,0.062267743,0.21126756,-0.24426171,0.22046354,-0.1155527,0.16240664,0.15969174,0.0587751,-0.14514492,0.28672895,0.110822335,-0.011026801,0.010668397,0.27867967,-0.051344484,0.10381527,0.23609895,0.37216526,-0.27464423,0.37259015,0.02041734,0.3325006,0.09288393,0.016412111,0.1785631,-0.3237714,-0.045607403,-0.0816516,0.032105137,-0.08489046,0.007363508,0.06086887,-0.009593034,-0.024857052,-0.118940055,0.16890307,0.03464651,-0.13114572,0.064075194,0.047382437,-0.122673936,-0.082580104,0.14699665,-0.028997105,-0.03472748,-0.08537929,-0.10290273,0.18620662,0.0072286013,0.28163627,-0.04896942,0.086021245,0.087807156,0.1628464,0.10501368,-0.13672355,-0.055362277,-0.1558555,0.14074895,-0.38163036,0.3223879,-0.058940023,0.08601102,0.10693478,-0.17976621,0.12146675,-0.20607288,-0.2648214,0.14588615,0.10407776,-0.003992581,0.06597134,0.07306325,0.045380864,-0.32969868,-0.020484732,-0.118855916,0.15487921,-0.11038268,-0.046880536,0.039074738,-0.081619926,0.22103989,0.096042685,0.08580403,0.014956331,0.21994749,-0.044185527,-0.4285275,-0.1627298,-0.12482234,-0.042638958,0.074937284,0.24250776,0.028244844,0.3076078,-0.042057876,0.23128681,0.09649257,0.07728508,-0.008820885,0.16052029,0.20070001,-0.18806799,0.009652493,0.08845983,0.075811625,-0.11961843,0.03903191,-0.18658489,0.06956818,-0.43204013,0.18187821,0.056094088,0.3125099,0.013770043,-0.15967162,-0.023198593,-0.09661418,-0.02369505,-0.07689537,0.14439343,0.20060493,-0.008408767,-0.114936166,-0.0048016324,0.05598218,-0.015664222,-0.10067193,0.057355877,0.31284532,-0.06219641,-0.033354145,-0.059751023,0.1484523,0.28328753,0.11994802,-0.080311984,0.19646451,-0.13449693,-0.078832135,-0.36781666,-0.28974214,0.028544568,0.10773934,-0.0286837,0.35445288,0.26038384,-0.070073634,-0.10859119,0.03675185,-0.12626106,-0.1409483,-0.076886,-0.09919519,0.12356276,-0.062443692,0.06588775,-0.06033487,-0.4528935,-0.05031742,-0.13549705,0.12591112,0.047749516,0.0011716147,0.09107296,-0.20117077,0.08208706,0.072992444,0.08787136,-0.054154724,-0.27278396,-0.21061106,-0.02793761,-0.05505973,0.12810336,0.15665416,-0.08019957,-0.0276151,0.025635535,0.09313925,0.06280134,0.07186337,0.002915876,-0.023326278,-0.014010861,-0.19207893,0.09368524,0.20782077,0.033995632,0.2511879,-0.040968765,0.11870682,0.03502927,0.10256324,-0.09378614,0.09646948,0.11534364,0.1948047,0.24647371,0.04688893,-0.37120226,0.18206342,-0.029780006,0.07792522,-0.18537095,0.0030243841,0.08806753,-0.24362572,-0.05180901,0.107191026,-0.11025357,-0.13992247,-0.23462255,0.071863055,-0.19115119,0.26641858,-0.009034003,-0.17879885,0.07369576,0.19701743,-0.0009234845,0.3495508,0.03841035,-0.28342932,0.12603807,-0.09717715,-0.06438622,-0.011391961,-0.09915034,-0.022452723,-0.09380901,-0.07306788,-0.0639729,0.014323938,-0.11927215,-0.04471253,-0.048017416,-0.010864314,0.060368787,0.032536276,-0.11293469,-0.028498236,-0.0681738,-0.04881399,0.0338729,-0.004770109,0.009672782,-0.01652271,0.073019765,-0.022749059,-0.02192528,-0.08904985,0.0033233578,-0.044037126,0.050450712,-0.11266285,0.047141213,0.048861347,0.0035029845,0.03828157,-0.0028418025,-0.033561923,-0.05941435,-0.003218933,-0.0951437,-0.020179154,-1.2425112e-05,-0.06825141,0.030943986,-0.0146816615,-0.020459842,-0.03747903,-0.020256765,0.0058049615,-0.07348112,-0.05759048,-0.11271491,-0.032517087,0.04572623,-0.02319855,-0.06115156,0.012589068,-0.025911815,-0.023339333,-0.0865074,0.0058086556,-0.09655713,0.04206969,-0.091775686,-0.06601712,0.01889088,-0.10131467,-0.0142291235,-0.061663497,0.030971762,-0.030407066,-0.03419828,-0.11548632,0.029291712,-0.018502645,0.0668693,0.06591499,-0.021947589,0.045687325,-0.09681381,-0.087802134,0.014252453,-0.12634462,-0.040115144,0.040058248,0.0068847854,-0.055032037,-0.052048586,0.027513457,-0.031271342,0.024314025,-0.062896535,-0.07889256,-0.09651348,-0.07701351,-0.086111605,-0.07861549,0.018521544,-0.010504704,0.030729827,-0.07389131,-0.06378277,-0.058190413,0.046196736,0.014001258,-0.105201215,-0.090580374,0.034716517,-0.008948984,-0.02588991,-0.06941423,-0.07396112,-0.062511355,0.030176327,0.027118439,0.0043892874,-0.067127824,0.04691248,0.063846834,-0.08796615,-0.016567811,-0.021201264,0.057997815,0.040672883,-0.06699979,-0.2922386,0.16075756,-0.006541623,0.22925316,-0.35954466,0.047180057,-0.008937405,-0.022996742,-0.38212287,-0.081018105,0.056496352,-0.20212798,0.1336481,-0.31485963,0.16222589,0.12923409,0.12959473,-0.07032953,-0.14221221,0.2286753,0.10702827,0.008689464,0.18039393,0.23789153,0.15398817,0.26057622,0.12228092,0.0007755366,0.18555701,-0.06539306,-0.10274296,-0.029083744,0.091606125,-0.19288944,-0.22452734,0.02539707,-0.07519692,-0.030580943,-0.22290958,0.06335161,0.10551593,-0.25170127,0.057918195,-0.08451902,0.2214637,-0.07286817,-0.044946954,-0.07838986,0.19082116,0.07581456,-0.07910711,-0.009613218,-0.004550768,0.0025644372,0.043151602,-0.35824674,-0.010211729,0.08433904,0.05468789,-0.25993237,-0.13190497,0.066873506,0.009704107,-0.159628,-0.010898178,0.20169455,-0.027796943,0.15096281,-0.27582395,0.24976316,-0.0005623881,0.19015947,-0.08487339,-0.29903144,0.0036125146,-0.3817728,-0.085281596,0.18774182,0.22536771,-0.08034106,0.106959604,0.15647012,-0.008200442,-0.18198782,0.0127105815,0.020044705,-0.039574098,-0.08359026,0.22735971,-0.053940985,-0.34345302,0.18124627,0.20316404,-0.010983646,-0.026692608,0.19793141,0.01421785,-0.29042548,-0.021363705,0.016911266,0.022642886,0.05134634,0.006444885,-0.11111176,-0.14913578,0.039813276,0.008920033,0.09586116,0.0473156,0.30199772,0.25461027,0.28171107,-0.12645476,-0.03573026,-0.024120282,0.16286817,-0.10235202,-0.0017811685,-0.07522394,-0.08852546,-0.13405046,-0.008573099,0.07825627,-0.030603167,-0.13385491,-0.030237898,0.018761305,0.073928334,0.008173001,0.062284965,0.011250661,-0.030668952,-0.007823437,-0.008126012,0.06321149,-0.055883754,-0.14958134,-0.12138554,-0.048470248,-0.104922466,-0.065883525,4.5218752e-05,0.035425864,-0.08874841,-0.08028771,-0.12440009,-0.06757118,-0.050004415,0.0027821297,-0.048378732,-0.033805385,-0.043355353,-0.092642635,-0.035246447,0.01932507,0.011681682,0.04473201,-0.010097592,0.023507552,-0.052540146,0.0019669703,0.0053965333,-0.12713262,-0.13316672,-0.009944764,0.02599045,0.014888363,-0.16375902,0.021272017,-0.00732436,-0.07621277,-0.0062878197,0.08523062,0.022864845,-0.043679275,-0.18642938,-0.037117627,-0.015978048,-0.11622831,-0.028162563,0.046387333,0.024723902,0.0037051968,0.039368153,-0.0799011,-0.02154833,-0.022830972,-0.12316736,-0.015964601,-0.022733957,0.022530183,-0.09639366,-0.010170124,-0.022626469,-0.031665817,-0.13100271,-0.07955561,-0.13986932,-0.020738611,0.02908611,-0.0859322,0.008124647,-0.04253649,-0.07640987,0.03552926,0.038391612,-0.12536122,-0.011033847,0.05422604,-0.0018453608,-0.15635978,0.014450396,-0.15327893,-0.1365685,-0.074337505,-0.11435332,0.010615238,-0.031099964,-0.0008630227,0.016474718,-0.027898472,-0.007188275,-0.12576802,-0.023175497,-0.062008504,0.01074943,0.093186475,-0.0070348354,0.041528057,-0.13714053,-0.056404047,-0.07796437,-0.13611102,-0.079129755,0.08910961,-0.08324112,-0.15055443,0.025334293,-0.106270425,-0.055576667,0.18654682,0.18794997,-0.0842373,-0.20638093,0.15981023,-0.24615331,0.01353171,0.020686192,0.037144884,-0.004108035,-0.2548448,-0.011710882,-0.10233266,0.058990795,0.29553863,-0.1798179,-0.117213085,0.08242017,0.35443065,-0.15678896,-0.074905165,-0.19255155,-0.13380489,0.1567985,0.040788636,-0.15987074,-0.035921525,-0.39628085,-0.022785965,-0.042205106,0.1539912,0.07049077,0.08011885,0.17195877,-0.1921466,-0.16077827,-0.35180947,-0.044176985,0.038122047,0.109721676,0.2759175,0.06047296,-0.4234256,-0.19326484,0.14058192,0.013993695,-0.2403095,-0.007357755,0.089475006,-0.24302976,0.23189098,0.28171828,-0.049938124,0.08727279,-0.033941526,-0.1601216,0.075094216,0.04031784,-0.06841242,-0.23500396,-0.13742371,-0.04528455,0.29951164,0.023975559,-0.39122006,-0.17471373,-0.21220993,0.100166366,0.03972902,0.08868927,-0.059614096,-0.13280204,-0.1406683,-0.04707148,0.051865734,-0.37792853,-0.09105047,-0.020267418,-0.2707544,-0.11147389,0.044704087,-0.068574496,-0.08619278,-0.18376184,-0.04591438,-0.06422087,-0.32913077,-0.040031824,-0.1987946,-0.034603927,-0.28751957,-0.20294428,-0.13437898,-0.009816113,-0.13382387,-0.22580373,-0.056362864,0.1584936,0.17061923,-0.14789376,-0.13049631,-0.1528725,-0.04727792,0.116066664,-0.22420011,-0.26671684,0.38332656,0.14253205,-0.031203885,-0.020733131,-0.13619265,-0.1570141,-0.23251949,-0.023258086,0.028139804,-0.17103,-0.031474903,-0.05821582,-0.31839755,0.2523688,-0.356967,-0.257076,0.026781483,-0.4665234,-0.056083493,-0.1550335,-0.059528235,0.06919601,0.10216771,-0.079733364,0.021924587,-0.13070574,-0.02012643,-0.1896704,-0.40838385,0.14768808,0.19616929,0.28388438,0.12614547,-0.051360384,-0.028771644,-0.47314918,-0.0005555972,0.16709036,-0.47197676,0.25063866,-0.016483743,0.28422266,-0.18450612,-0.028682128,0.04344787,0.16739212,0.0554333,0.05699131,0.37282082,0.2849489,0.086483754,0.016825154,0.124778315,0.006784308,0.1396454,0.022567991,-0.120782636,-0.1393191,0.35696498,-0.085265845,0.13237838,0.08188974,-0.12227299,0.004745854,0.3538587,-0.14160196,-0.039529886,0.078108326,0.035672016,0.14188115,0.024032146,0.08211126,0.35173783,-0.16041087,-0.3354672,0.12695812,-0.33603302,0.07698522,0.065798536,-0.21200266,-0.09023152,0.085782245,-0.103201054,0.04858199,-0.013910962,0.001527722,-0.23787974,0.1281354,0.11301418,-0.09008495,0.04548088,0.19780393,0.049328007,-0.111057825,-0.019727007,0.013149196,-0.06403848,-0.17896833,0.0280039,0.039809223,0.10523728,0.009041614,0.097520605,0.080477834,0.032763455,0.14324889,0.22266006,-0.07293965,-0.20431826,0.11783716,-0.03445248,0.15582791,-0.17437525,0.061584435,-0.11563266,-0.10133834,0.13824101,0.07536127,-0.08563158,0.106745124,-0.009222605,-0.07973789,0.03500023,-0.020757908,-0.07078889,0.030624334,0.19992337,-0.14494616,-0.055698473,-0.045311593,0.124316774,-0.025794823,-0.13903657,0.06472307,0.082662925,-0.08518452,0.09864724,-0.31173316,0.16953821,0.048047658,-0.082738854,0.0912382,0.13012736,0.010249753,0.029849093,0.23054314,0.009567945,0.085101634,-0.036626514,0.26379102,-0.020283919,0.1601336,-0.49706835,0.10973495,-0.0075079105,0.09543957,0.011443339,0.07026409,-0.09606406,0.05097837,-0.06870224,0.19746089,-0.5373527,-0.06732549,-0.33300358,0.07551345,-0.025326593,0.23670393,0.12966578,0.045632172,-0.09125426,0.01448249,0.0020351477,0.039910946,0.04081633,0.27796277,0.049549013,0.18797806,0.07980171,0.025926327,0.34708,0.19852525,-0.08657745,-0.15746225,0.078231566,0.25486994,-0.03999202,0.081145845,0.08773578,0.12223802,0.10456865,0.079154596,0.20567282,0.39798093,-0.41281012,0.019766977,-0.42688757,0.17389466,-0.23622504,-0.0863204,0.12481902,0.07275982,-0.08049588,-0.41521198,-0.027130641,-0.26141864,0.02112223,0.11090805,-0.0925826,0.15256256,0.066482514,-0.10808394,-0.16098414,-0.06520376,-0.35786763,-0.13608111,-0.43787673,0.05302286,-0.0296671,0.011122095,-0.0154601205,-0.1812118,-0.04571727,-0.0077630742,-0.19623211,0.2996487,-0.13558659,-0.42450595,0.14202164,0.033290304,-0.027280983,0.115871556,0.053293016,0.16997689,-0.07900812,0.11656713,0.20467822,-0.06040051,-0.29331914,0.056448717,-0.016282976,0.07747098,-0.08739985,-0.094479315,0.014914149,-0.10193508,0.16421808,0.062148873,0.04712227,0.037158724,0.15129279,-0.03257669,0.09230125,0.17376189,0.25579542,0.021487817,-0.016482776,0.0950252,0.15050566,-0.073265456,-0.06460247,0.08390536,0.008762051,0.04441759,-0.02648149,-0.15598279,0.12681292,0.28187817,0.26902005,0.14522944,-0.13728152,0.340566,0.011280434,-0.22926965,-0.037887927,-0.06270224,-0.12825784,0.059783615,0.083431795,-0.10124556,0.0859348,0.0011835461,0.08835202,-0.062010325,0.20797974,0.190177,0.050628368,0.32963365,-0.36595356,-0.22551523,-0.106820896,0.07221096,-0.07656689,0.022823157,0.11519053,0.25188157,0.010194722,-0.046552766,0.08062707,0.0016376505,0.22774117,0.20894031,-0.0972716,-0.118509024,-0.20366147,0.10011572,0.013077673,0.038770158,0.07305027,0.17152737,-0.16423276,-0.057923235,-0.01395293,-0.007680161,0.40216222,-0.12991314,-0.24289808,0.06543644,0.023398785,-0.17907877,0.29020855,0.01690236,-0.11280162,0.12378062,-0.08188277,0.27612305,-0.26055884,-0.2065009,0.09734947,0.071484566,0.013854611,0.012992266,-0.09441205,0.082245275,-0.18049392,-0.1304088,-0.13464884,-0.21996911,0.05233852,0.003849638,0.10210907,-0.031142216,0.047335967,0.03051654,0.041491736,0.21321093,-0.073157445,-0.16186023,0.0668743,0.22578363,-0.01828978,0.020160627,-0.17064117,-0.086821854,0.10275991,0.26539525,0.17304958,-0.058882125,0.38177997,0.11756579,0.41386408,-0.22288753,-0.024192296,-0.21093586,0.043919615,0.076561116,0.16933544,0.19817713,0.0022039188,-0.3224689,0.18037073,0.025108095,0.26085237,-0.049925547,-0.02393955,-0.19797185,-0.09124251,-0.27393186,0.052549444,-0.14169759,0.07194535,0.04537914,-0.06147299,-0.077073604,0.10975685,0.049975604,-0.1575614,-0.24456221,0.0029759083,0.5351478,0.10619094,0.10630207,-0.32047865,0.1122338,0.039489157,-0.13242584,0.06771755,-0.23762117,-0.066238925,-0.09070677,0.3088898,0.20000292,0.017791497,0.046952564,-0.30981603,0.08670529,0.024896411,-0.23579909,0.007159734,-0.03500755,-0.22440581,0.08410987,-0.0100894645,-0.110797375,-0.024837796,-0.123020284,0.026068786,-0.0034143357,0.27555707,0.08947888,0.039261043,0.06038336,-0.09922631,-0.46943954,0.23051384,-0.1500072,-0.02848639,-0.20383938,0.014682886,0.06476662,0.117365696,-0.007374528,0.09017148,0.33627993,-0.3557656,0.10292979,-0.27789897,0.06447904,-0.21181312,0.26461494,0.13110404,-0.076650865,-0.023447629,-0.10752856,-0.04646353,-0.035987847,-0.13448603,0.00388789,-0.06400578,-0.21512857,0.10183048,0.0803835,0.008313569,-0.009481855,-0.17245896,-0.07163871,-0.013485146,0.0055660647,0.06133902,0.020046936,0.071754895,0.0089182975,0.013183166,-0.012039377,-0.22099751,-0.15993759,0.049233582,-0.30993795,0.054021236,-0.0048669,0.08556813,0.11013025,-0.26265842,-0.09328971,0.028834661,-0.13483524,-0.021427331,0.123289,-0.18049039,0.20468675,0.07359604,-0.029007075,-0.01657922,0.06560489,0.021342762,-0.00014228,0.13609885,-0.03440141,0.0322947,-0.07930084,0.1547845,0.02026152,-0.21468721,-0.12688047,0.020444484,-0.089233376,0.044714876,-0.014102762,0.017619353,0.008561897,0.021924758,0.03394012,-0.062709324,0.023774592,0.014795957,-0.120094135,-0.07443291,-0.038987543,-0.06365865,-0.030393481,0.016372299,-0.028485024,0.049700215,-0.021275597,-0.07607404,-0.0028588541,0.007493249,-0.06282948,0.046982072,-0.05162355,-0.08618346,-0.10274891,-0.087271415,0.013045958,-0.026267515,0.076979384,-0.05649947,-0.0024214985,0.068628065,-0.046517897,0.023662854,-0.05335692,-0.00031647025,0.028725818,0.08866011,0.0024422493,-0.07933149,-0.08423977,0.0064859167,0.07733157,-0.02327495,-0.09720775,-0.03477735,0.034378763,-0.060972665,-0.042649288,-0.052157007,-0.0589629,-0.06135569,0.034581065,-0.096852,0.008638476,-0.063709006,-0.012679208,-0.06634106,0.011531754,0.0042108693,-0.096802026,-0.0068437885,-0.030210657,-0.067161575,0.06833236,-0.060216956,-0.047368526,0.049303774,-0.08438856,0.032727063,-0.0746877,-0.08984517,-0.031818204,-0.13306727,-0.014098394,-0.08540493,-0.08856565,-0.06212301,-0.11478403,-0.025679857,0.0002561738,-0.05639139,0.04611537,0.011319063,0.007961849,-0.074324094,0.05458036,-0.008753203,0.0009364304,-0.034292918,-0.015624556,0.019943893,-0.010062017,0.006953406,0.026615115,0.02159452,-0.015116376,-0.087797314,0.032202177,-0.03346186,-0.12207847,-0.080159694,0.026023116,-0.06295513,-0.048288163,0.08853539,0.006803827,0.009200236,-0.07140363,-0.14402336,-0.023452733,0.037000276,-0.06342683,-0.049378876,0.09078236,-0.11010699,-0.05821423,-0.09195709,0.1909155,-0.023160629,0.15926205,0.24016571,-0.09158817,0.002034728,-0.028970033,0.011793441,0.04585363,-0.058581628,0.13736215,-0.44240162,0.058538254,0.42246747,-0.29341176,-0.20203166,-0.1075776,-0.027114084,0.086132504,0.010637826,0.30389494,0.123390816,0.08239297,0.10921314,0.040124014,-0.27885905,-0.10605342,-0.24856412,-0.06557114,-0.17041564,-0.34243327,-0.009917455,0.19969326,0.07801202,0.06719745,0.02895241,0.046357423,0.09585183,-0.023045113,-0.020645054,-0.2109421,0.06983273,0.0854864,-0.39481178,0.034945853,-0.26146224,-0.3649642,-0.26027346,0.027576854,-0.19084388,0.26470098,0.073477596,-0.055940337,0.05341743,-0.3555185,-0.08539625,-0.10669399,-0.05292039,-0.10627536,-0.078101985,-0.17069544,0.080535375,-0.27737212,0.2090074,0.08637928,-0.06143931,-0.19648351,0.242981,-0.027174983,-0.026272073,0.030942535,0.21801451,-0.06431424,-0.093655184,0.17487992,0.14767854,-0.039847296,-0.06517999,0.033099256,-0.12885536,-0.15087824,-0.33157328,-0.0067891167,-0.09206632,-0.019540502,-0.13964516,0.07238418,0.13785519,0.013875163,-0.15064654,-0.07918188,-0.24520183,0.073732644,0.06423608,-0.4204887,-0.03833202,-0.18709269,0.09272818,0.11909152,-0.54875785,0.19644405,-0.13736682,0.09404828,0.104265384,0.025485018,-0.24488126,0.03694159,0.07872624,0.07912353,-0.35885897,0.23349619,-0.27651015,-0.017649215,0.006261604,-0.29933098,0.1258691,0.0151106,0.15531634,0.10882835,0.07696671,0.31806004,-0.055675652,0.3358153,0.13089035,-0.25539386,0.066937774,0.04679664,0.05400135,-0.059020907,-0.36670837,0.16329701,0.12104492,0.062328476,-0.040364802,-0.22180158,-0.2549834,0.06527268,-0.118993856,-0.013891075,0.07483475,0.21655403,-0.013487662,0.07782726,0.11027098,-0.03585868,0.03325065,0.107436515,-0.034495484,-0.013251611,0.24325307,0.068559825,0.014517282,0.06396337,-0.32573742,-0.008027087,0.22501317,-0.06087762,-0.1410939,-0.046613377,0.025731625,0.09718958,-0.18565597,0.190169,-0.1958298,-0.098262325,0.108490266,-0.19364335,0.031584095,-0.11438481,-0.15304132,0.2557828,-0.0062754657,-0.08490691,0.05643043,-0.20755629,0.07330071,0.018545398,-0.075945385,-0.14515686,0.13710468,-0.18733051,0.1238212,-0.008518816,-0.10513766,-0.005220707,-0.22377916,0.020855702,0.1209186,-0.04374903,-0.01738374,0.245815,0.056572977,-0.0467113,-0.38426074,0.0873752,0.09729495,0.17947038,-0.13671462,0.20967169,0.023614457,-0.061621808,-0.08165611,-0.073873125,-0.0023732134,-0.022390297,-0.26685217,0.030690653,-0.3117823,0.01280543,-0.20053169,0.09017077,-0.17683454,-0.017164672,0.16015169,0.1437627,0.09429484,-0.050552096,-0.045134135,0.2025611,-0.37875018,0.1627871,-0.027673747,0.15354791,0.20121068,0.047932792,-0.14621207,-0.21513355,-0.06767775,0.07944155,-0.3082323,-0.008896965,-0.053414997,-0.07833314,0.038706806,-0.10359446,0.118361264,0.02293237,0.17778958,-0.025569415,-0.20162565,0.034040123,0.009140137,-0.09742885,0.128224,-0.08873466,0.06795466,0.084372856,0.22960635,-0.08725226,0.16255997,0.06160245,0.17519134,-0.17792831,0.009430094,0.035736807,-0.012042914,-0.1523302,0.7914852,0.034070026,-0.03841244,-0.28195685,-0.15993404,-0.044246525,0.1507569,-0.072004266,0.3918747,0.17487614,-0.009299463,0.040467612,-0.10079598,0.18075107,-0.008100856,0.49058703,-0.2645824,0.26227614,-0.26088294,-0.0472189,-0.139599,0.08006926,0.056961298,0.2788462,-0.019455379,0.115985505,0.06766438,-0.02710074,-0.03801385,0.09759647,-0.28184795,-0.22444572,-0.1636621,-0.14067543,0.0814085,-0.034562163,0.025757136,0.115061395,0.19827822,0.0023923353,0.069621734,-0.13176207,0.23195957,-0.17740905,-0.08415458,0.1616161,-0.14261314,-0.12958783,-0.06298358,-0.047844734,-0.06361647,0.3762842,-0.07327323,-0.16745646,0.120199665,0.25286853,0.07141647,-0.14661802,0.06977055,0.03249157,-0.037730265,0.23549041,0.11260286,0.038890928,0.27171975,-0.19561133,-0.03767055,-0.05234861,0.023522457,0.20429978,0.06905385,0.10520549,0.07738209,0.16543438,0.16507421,0.20900118,-0.16103141,0.1921358,-0.099988684,0.05872791,0.07100102,-0.309692,-0.014232486,0.14038384,-0.037746336,-0.24335442,0.2670989,-0.19064252,0.038477693,-0.107164636,-0.0615048,-0.10348775,-0.0144348545,0.12949176,0.06933445,-0.24189524,0.049119417,0.121974565,-0.048318185,-0.102243595,-0.30038938,-0.011095525,-0.34019393,-0.29522136,-0.047088668,-0.07935539,0.009609462,-0.13781591,-0.09257041,-0.050428,-0.09120915,0.06072028,0.16345936,-0.11400918,0.16470599,-0.018465014,-0.002077581,0.2441137,0.063643195,-0.14834772,-0.10868622,0.11229539,-0.077840686,-0.16845563,0.050939526,-0.07035406,-0.08809799,-0.111468926,0.082524635,0.024810797,0.053545218,0.025059527,0.09291245,-0.12524638,0.0315339,0.23803966,-0.07465191,-0.060150474,-0.14747837,-0.030739678,-0.0043941187,-0.014743371,-0.00898708,0.14003398,0.13518395,-0.100603625,0.006436449,0.075392865,0.17114016,0.0903145,0.017917963,-0.030236637,0.0724156,0.13908467,-0.04118999,-0.013753845,0.01886598,0.14297694,-0.11216383,-0.022925947,0.12562658,0.030202027,-0.082126305,0.02171642,0.2356447,0.015739169,-0.020699563,-0.033101175,-0.02551065,-0.01803729,0.23128515,0.09231163,0.0555464,-0.20148675,-0.18768947,0.06751794,0.13369624,-0.06869606,-0.048811547,0.13075167,0.0753832,-0.2628638,0.021208135,0.09910333,0.22614855,0.16538979,-0.11988887,0.080283076,0.22812034,-0.08125691,0.04304029,0.042309176,0.15884414,-0.17535159,0.2851536,0.12295111,0.049984764,0.037493702,-0.08825984,0.14351822,0.26595953,-0.009342408,0.19025491,0.18015672,-0.047245573,-0.1007728,-0.24310176,0.008354272,-0.16088335,0.18876871,0.0718555,0.030113248,-0.027700989,-0.32436788,0.024666812,-0.019371273,0.08575012,0.22825637,0.010885191,0.01812997,-0.073026225,-0.03028268,0.5500409,0.16098933,0.010746237,0.084093004,0.21908925,-0.33718425,-0.05613626,0.08306729,0.13708039,-0.049955823,-0.27427512,0.011706718,-0.027323887,0.24078377,0.18609013,0.1503452,-0.14923768,0.22715756,0.24819966,0.17836483,0.04940832,0.10822135,-0.21050699,-0.2391882,0.21059857,-0.33662057,-0.2710557,-0.028948586,-0.3422895,-0.050785363,-0.4297926,0.22249572,0.03619541,0.08167941,0.18967341,-0.040776923,-0.011933693,-0.08471474,0.20542479,0.09182776,0.23586501,-0.032578956,-0.01996949,0.08879849,0.1287183,-0.02012535,-0.029146627,-0.036792494,0.24701577,-0.24698322,0.19851495,0.25800943,