# Shape: (10, 84)
# C-style row major order
-0.16620852,0.13168766,-0.47451285,-0.10202487,0.04664051,-0.39039102,0.16193448,-0.34340847,0.12093216,-0.08556293,-0.53725797,-0.27962855,-0.02015186,0.092692405,0.017860003,0.24292144,0.1256613,-0.28859696,-0.06763277,0.3049812,-0.10400353,0.15873505,-0.015886957,-0.020838141,0.14477612,0.16179764,-0.44045332,-0.09507954,-0.058880452,-0.054146655,0.32208484,0.061903078,-0.24344969,0.12484364,-0.15347801,-0.26075974,-0.50009125,-0.3986386,-0.09449028,-0.07674226,0.056201264,-0.04913963,0.043682113,-0.28819188,0.13130276,0.0005836411,0.1681663,-0.08193782,-0.2916455,0.00504601,0.1786506,0.07844702,-0.23245169,-0.10307815,0.09640919,-0.049490996,-0.115261704,-0.024776801,-0.35089797,-0.028299572,-0.098396204,-0.25478366,0.043644287,-0.23113176,-0.3009153,0.027657172,0.042587787,-0.0030669416,0.14618523,0.046502057,-0.21405771,0.013741685,-0.09441108,0.0019400435,-0.047691915,0.0047342493,0.13485715,0.18176414,-0.08692698,0.2025216,-0.0918534,-0.036116354,-0.041125897,-0.166707,-0.28742352,-0.029296901,0.23382773,0.092494704,0.07075269,0.062540464,-0.17603587,-0.036078926,-0.2844842,-0.46432,0.15730517,-0.21635574,0.098497376,0.1962824,-0.48941413,-0.32796368,-0.6384357,0.061167598,-0.011431837,0.1882675,0.07263513,0.046474088,0.061206456,-0.043280855,-0.24417333,0.003513888,-0.34438634,-0.20044273,-0.30507627,-0.020841496,-0.24661395,-0.08992149,-0.022607287,-0.15630226,-0.30445415,0.18330874,0.095350295,0.056326713,-0.16018845,-0.15542026,0.09501842,-0.05717061,-0.010335471,-0.33493826,-0.16797651,-0.4717209,-0.5586592,0.24243222,0.098585084,0.10279962,0.093167864,-0.022082403,0.047188487,-0.05635914,-0.24819744,-0.031913426,-0.27356246,0.061025426,-0.33360687,-0.1678107,0.26381543,-0.44208667,-0.20581038,0.18138687,-0.5718757,0.021887824,-0.50712264,0.028506877,0.15235995,0.020675646,0.16691305,0.044675022,-0.07991282,0.07997339,0.161397,0.04619067,0.038897023,-0.2778292,0.1535781,0.24256824,0.021402014,-0.38182196,-0.13109261,-0.15299833,0.16593839,0.2084147,-0.15318547,-0.048503898,-0.17292045,0.07691551,-0.20086811,0.23427266,0.13477193,-0.44857502,0.07067417,-0.24025652,-0.015514991,0.26975217,-0.1544556,-0.11200603,0.08481158,0.026839511,-0.047814265,-0.028903935,-0.34596458,-0.15779887,-0.10976869,0.169615,0.091182105,0.024773104,-0.11028239,0.15300748,-0.03419628,-0.09049691,-0.39259505,-0.08818378,0.06187759,-0.0711832,-0.15779363,-0.040723566,-0.57075745,0.3357483,0.24251948,-0.0884922,-0.09172187,-0.105576545,-0.08154896,-0.001641702,-0.06536189,-0.007587382,0.07047874,0.100241646,-0.19771086,0.013206849,0.059224,-0.060635876,-0.2330326,0.046513457,-0.10698307,-0.21798143,-0.25649735,-0.07024597,0.007785728,0.05707925,-0.0898558,-0.20865951,-0.2833324,-0.10936243,-0.19041927,-0.033813477,0.15645899,-0.36608884,-0.011013064,0.1602298,-0.12070594,0.1048594,0.29492894,-0.3456253,-0.022230424,-0.07301318,0.15110566,0.033101425,-0.17651199,-0.1877749,0.079121895,0.10959336,-0.019792045,-0.33417553,-0.26405832,-0.065449804,0.018446758,0.12758048,0.21673886,0.11057569,-0.25155768,0.052088883,0.13795938,-0.18990916,0.075,0.101489805,0.15657483,-0.32296753,-0.29477847,0.089791484,-0.28916055,-0.097739086,-0.003499928,-0.2280546,0.31230754,0.07624598,0.21803513,0.11412625,-0.05498234,-0.03228158,-0.5370306,-0.08557665,0.017380305,0.030193424,-0.454619,-0.10772458,-0.17938414,0.07030437,0.06627848,0.0037322089,0.17257932,-0.31575054,0.10540153,0.04610581,-0.062664546,0.042773835,0.01200683,0.13192652,0.12990794,0.037563,-0.07041145,0.14096186,-0.08067709,0.09688627,0.0550394,-0.31253666,-0.5563364,0.008887544,0.13521293,-0.10353332,0.0757491,-0.06900253,0.089976996,0.081793815,0.3623958,0.06097783,-0.34129435,-0.56890815,-0.12326372,-0.07483539,-0.06579419,-0.010304465,-0.18611483,0.08672114,-0.42732927,-0.42079502,-0.09478351,-0.4818695,-0.51571906,-0.06383749,0.13401292,-0.14720035,0.096114546,-0.48760277,0.08241009,-0.11122549,0.04659644,-0.080033846,-0.42134514,-0.20216799,-0.03093108,-0.14106703,-0.101013854,-0.51916426,0.010841888,0.15001221,-0.21595138,-0.008819049,-0.10840496,0.1297457,-0.57136893,-0.09319453,0.18276906,-0.4665359,-0.0071845674,0.20829055,-0.031175239,0.14425017,0.22306411,0.05245499,-0.53032535,-0.41827324,0.12579878,-0.49603117,0.076249786,0.09043341,-0.06752199,-0.13283157,-0.101566605,0.02654021,0.33451945,-0.24770866,0.13157699,0.056748927,-0.26492608,-0.007725178,0.079186775,-0.0083316285,-0.048266623,-0.04011943,-0.016567968,0.061141837,0.07559671,0.09165944,0.02067699,-0.30736575,-0.25321814,-0.15528527,-0.13219635,0.2275802,0.025611494,-0.04843391,0.10130381,0.019315396,-0.52499956,-0.11035555,0.12126766,-0.09703878,0.19520555,-0.122722186,0.120255984,0.15042524,0.052275702,-0.044230375,-0.024624772,0.06168747,-0.54615676,-0.06489014,0.18522473,0.16649084,-0.2563806,0.09075486,0.13916461,-0.08332516,-0.14564441,-0.42719996,-0.26298806,0.054823276,0.06383147,0.012015517,-0.10351481,-0.102674685,-0.23692961,-0.27879387,0.016202746,-0.35839605,-0.028613573,-0.06904526,-0.12548095,-0.11345853,-0.0018775376,0.10452361,0.04971669,-0.3329693,0.031057976,-0.60503083,-0.06932328,0.19087939,0.16600117,-0.35880917,0.036720917,-0.44562665,-0.1359867,-0.073956594,0.19049127,-0.011007873,0.12024334,0.07935866,-0.069352224,0.04186105,-0.279497,0.053061776,-0.42999598,0.09103645,-0.29892787,0.11695917,0.17545605,0.012722055,0.1991002,0.15627591,-0.30079815,-0.053330757,-0.004109667,-0.0060382485,-0.08070304,0.121664666,-0.14836776,0.108900346,-0.103956595,0.13847628,-0.18367998,-0.15540309,0.18025717,-0.20189145,0.16209136,0.031792864,0.22305767,0.00026609475,-0.032734312,-0.10354207,-0.09177097,-0.08990048,-0.22396405,0.10158416,0.044987205,0.09748876,0.11349651,0.0017358079,-0.38513425,0.052038394,0.08790168,-0.024183387,-0.061055005,0.1273564,-0.12100836,0.07487826,-0.4100848,0.045746922,-0.2961322,-0.040931515,0.16597028,-0.18802243,-0.001108265,-0.01770223,0.042960733,-0.19803402,-0.2855291,-0.28464824,-0.005698262,-0.4100917,-0.19366002,0.07312359,0.22393316,-0.02458712,0.026778214,-0.16399258,-0.3144167,-0.30418828,-0.09085438,-0.010633894,0.086357884,-0.02356966,-0.0055183936,-0.1336537,0.019176358,-0.27224666,-0.00093276415,-0.21714011,-0.3430963,0.16184637,-0.03367507,0.01724238,0.0768115,-0.03945737,-0.147661,-0.0595693,-0.013487874,-0.04058228,-0.058808688,0.16211513,0.12342338,-0.05453854,-0.055727575,0.13534883,-0.22448659,-0.08813237,-0.062471088,-0.122801274,0.05566955,0.05555148,-0.05048258,-0.06577717,-0.250531,-0.4870309,0.28930035,0.029522048,0.0711407,-0.28332838,0.071989246,0.017784491,-0.4412839,-0.47935462,0.13208471,0.04261253,-0.15831828,-0.048209354,-0.15646432,-0.45478424,0.12986487,0.06004171,-0.08450566,-0.009735346,0.24216647,0.16546063,-0.10718769,-0.581726,0.18744002,-0.07171587,-0.11292497,0.08484742,-0.42605832,-0.02200029,0.10389955,-0.27383825,0.2183632,-0.0059868386,0.12028358,-0.30147818,-0.041915804,-0.19105384,-0.24027665,0.14164814,0.294882,-0.06534844,0.19515756,-0.0045299786,-0.12269692,0.12304495,-0.344476,-0.097073704,0.071812876,-0.018620303,-0.11879726,-0.009149095,-0.1507483,0.04491064,-0.09144643,0.14663915,-0.08655771,-0.39053476,-0.21021086,0.04171171,0.11884547,-0.16147134,-0.007074878,-0.26529172,0.038510732,-0.41098136,0.14329492,-0.1994939,-0.29318705,-0.04911414,-0.44742155,-0.3449219,-0.08546316,-0.3744797,-0.066246204,-0.24127373,-0.026657593,0.06697175,-0.00087572506,-0.008887602,0.005323528,-0.58944476,-0.04310428,0.15419884,-0.047417402,-0.14845511,-0.27130067,-0.049529776,0.091871865,-0.2841831,-0.28326818,-0.0838922,-0.35425436,0.1746124,0.15104036,-0.058410723,0.20811363,0.007818991,-0.1441391,-0.060009204,-0.13654861,0.14422336,-0.011683981,-0.114273,-0.35559267,0.11627984,0.17770995,0.102495715,-0.37700102,0.1833235,-0.23325512,-0.24395138,0.18218245,0.06424997,-0.043393068,0.09376451,-0.51907086,-0.03293997,0.09849203,0.0642183,0.082334235,0.07043812,0.12787464,0.05960429,-0.5011572,-0.0068624816,0.14502007,0.14671384,-0.22767948,-0.3256102,0.19796371,-0.03432988,-0.08354363,0.090685144,0.11248378,-0.31529602,-0.3635944,-0.20038383,-0.1736064,-0.2666917,-0.047838908,-0.12227341,-0.013023606,-0.34353483,-0.15365568,0.15771134,0.0010183504,-0.105139315,0.11922334,0.1463561,0.29104704,-0.13361752,-0.46071473,0.027231308,-0.43247613,0.14944957,-0.070623085,-0.22610353,-0.032054,-0.21183468,-0.27528998,-0.03490026,0.08020347,0.0023660557,-0.020082716,0.20943454,-0.28335568,-0.18630359,0.020008365,-0.33838674,-0.1556939,0.08000321,-0.26591066,0.18881261,0.13383572,-0.10794923,-0.44687134,-0.409399,0.023218965,0.04284854,-0.085661344,-0.16612765,-0.19892757,0.17690983,0.16113432,-0.020810043,0.16789725,-0.09648025,-0.17879796,-0.36719203,-0.0036979946,0.12989676,0.13823949,0.14963743,-0.013099418,0.13299882,0.11665847,-0.000814717,-0.09615316,-0.1880065,-0.07919949,0.17209397,-0.15717413,-0.19327258,-0.060421918,-0.09631114,0.35470355,-0.28830844,0.07433466,0.19342849,-0.3875843,-0.17002779,0.186541,-0.27125418,-0.013246565,-0.0832643,0.11293369,0.20192322,-0.34643742,0.0048484695,0.26941127,-0.30351007,0.09216558,0.12319312,0.002597037,-0.08092105,-0.21063973,0.034887403,0.060392704,-0.30099577,-0.34666076,-0.09671251,0.11181293,0.21823898,-0.090784624,0.0948512,0.12869123,0.0036760694,0.05437243,-0.0072649145,-0.32947004,0.06474369,0.024723884,-0.1698942,-0.2855622,-0.06744234,-0.017071402,0.034494426,0.0032400156,-0.15975963,-0.32812285,-0.013290814,0.075807385,0.13904801,-0.52084124,0.0072615715,0.086315304,0.15885226,0.055343315,-0.06577206,0.16815276,0.12365127,0.03627753,-0.0066441763,0.19571115,-0.05629828,-0.21344551,0.021461792,-0.45649743,-0.15608662,0.09645299,-0.0038348439,0.047190245,0.020595027,0.0019625572,0.07619176,-0.31141663,-0.2734899,-0.1526849,0.06452695,0.16293447,-0.13937137,-0.33369648,-0.063719176,-0.34981564,-0.04467688,-0.4778828,-0.06463798,-0.056737643,-0.21074706