# Shape: (16, 6, 5, 5)
# 
-3.249593e-01
2.256300e-02
-1.290445e-01
-1.454110e-01
1.489174e-01
-3.010949e-01
-5.325329e-01
-1.941081e-01
2.333528e-02
9.441148e-02
1.842186e-01
-2.872654e-01
-8.477184e-01
-5.773435e-01
-4.272278e-01
2.276188e-01
2.696808e-01
4.327037e-01
3.175703e-01
-4.284502e-02
8.263168e-02
1.274676e-01
4.230437e-01
1.752765e-01
2.325167e-01
-1.409489e-01
-1.524599e-01
-5.788128e-02
-1.313218e-02
9.883363e-02
4.197637e-02
4.287186e-01
3.486876e-01
2.057337e-01
2.538190e-01
-4.210113e-01
-5.778893e-01
-1.379321e-01
1.720278e-01
9.942500e-02
-1.571026e-01
-3.489667e-01
-6.531474e-01
-6.668602e-01
-3.085145e-01
9.016953e-02
1.734512e-01
1.869832e-01
1.737247e-01
7.641309e-02
-2.477472e-01
9.627034e-02
1.991856e-01
1.894628e-01
4.726375e-02
-1.003606e-01
-9.998450e-02
-9.103675e-02
1.319756e-02
3.475524e-02
-1.099284e-01
-3.788840e-01
-5.075306e-01
-4.370436e-01
-2.140746e-01
-1.075226e-01
-2.246500e-01
-2.237202e-01
4.776888e-02
-9.352727e-02
2.227191e-01
5.761979e-02
2.885481e-01
3.224734e-01
2.392799e-01
1.754472e-02
7.632954e-02
-2.388901e-02
-3.972991e-02
-1.357090e-01
-3.254866e-01
3.551396e-01
3.239957e-01
1.739856e-01
1.090247e-02
-7.297108e-01
-6.207733e-01
-9.765722e-02
3.289014e-01
-7.237361e-02
-3.832240e-02
7.772210e-02
-1.772741e-01
-3.535521e-01
-3.732165e-01
5.551416e-02
5.464965e-02
2.274779e-01
2.830208e-01
1.334284e-01
1.522570e-01
3.293687e-01
2.268271e-01
2.180940e-01
2.952340e-01
-8.662584e-02
-2.352639e-01
-1.867066e-01
-4.729407e-02
-3.279186e-02
-6.433480e-01
-6.485376e-01
-6.629029e-01
-4.196065e-01
-3.958102e-01
-2.396928e-02
3.768253e-02
-3.700683e-02
-2.039135e-01
-8.978813e-02
4.424442e-01
2.452343e-01
2.331610e-02
1.026581e-01
-9.684783e-02
7.997762e-02
1.185369e-01
1.989346e-01
1.050263e-01
-4.030149e-02
1.236385e-01
1.346455e-01
9.372717e-02
4.744867e-03
-8.668966e-02
4.332821e-02
1.149051e-01
3.280407e-02
1.290290e-02
1.554235e-01
-9.133670e-02
1.011597e-02
-4.644438e-02
1.530415e-01
2.108735e-01
-2.649876e-01
-1.360800e-01
-2.030693e-01
-2.714755e-02
1.049097e-01
-1.066972e-01
-3.879470e-02
7.537165e-02
1.089282e-01
7.714348e-02
-1.222400e-01
-2.827725e-02
1.338622e-01
1.777861e-01
1.736235e-01
-1.177955e-01
-1.437915e-02
1.588349e-01
1.120852e-01
-1.280112e-02
-1.573718e-01
-6.553502e-02
5.753620e-02
2.230050e-01
1.165922e-01
-3.348412e-01
-4.144578e-02
2.496354e-02
-6.160439e-02
3.760308e-02
-4.087401e-02
1.093765e-02
-1.443911e-02
-4.406520e-04
-1.879920e-01
-9.844152e-02
-6.443170e-02
3.632934e-01
-8.645767e-02
-1.962119e-01
-1.027609e-01
-4.477819e-02
-2.457206e-01
-4.227843e-02
-8.314221e-02
8.782056e-02
1.927303e-01
9.821668e-02
8.339755e-02
6.665635e-02
1.361576e-01
1.101367e-01
1.199248e-01
1.515851e-01
-1.103735e-01
1.166311e-01
1.232206e-01
-7.905094e-02
-1.807398e-02
1.175653e-01
-6.310942e-02
1.759961e-01
-1.177747e-01
-3.959355e-02
1.414422e-01
-1.898554e-01
1.114704e-01
-3.753211e-01
-1.147751e-01
1.857821e-01
-3.201729e-01
-1.318927e-01
-2.945705e-01
-1.388440e-01
6.488056e-02
-2.273785e-01
-1.382540e-01
-9.648231e-03
-5.762117e-02
-2.626908e-01
1.329831e-01
-2.465264e-02
-3.470999e-01
-6.227350e-02
-2.348214e-01
-6.463350e-02
-1.538521e-01
-1.281908e-01
1.173393e-01
-1.824116e-01
3.072350e-01
1.424202e-01
-1.325859e-01
-1.246541e-01
-2.601689e-01
3.205798e-01
2.474985e-01
7.855123e-02
-1.035201e-01
-1.711107e-01
7.341748e-02
1.084725e-01
4.074440e-02
-3.387789e-02
-1.702306e-01
-7.062727e-02
2.074653e-01
-5.257572e-03
-1.578197e-01
-1.042924e-01
1.658228e-01
2.713376e-01
5.926843e-03
-2.069672e-02
-6.359351e-02
2.731455e-01
2.958820e-01
8.971552e-03
-5.167507e-02
-9.747411e-02
7.734015e-02
7.868256e-02
-2.722901e-01
-3.342276e-01
-4.816912e-01
-1.990594e-01
-1.442939e-01
-7.595692e-01
-6.878353e-01
-5.445396e-01
2.519898e-01
1.446553e-01
-6.041602e-02
-2.137349e-01
-7.906921e-03
4.237427e-01
9.246006e-02
-3.932145e-01
-3.887213e-01
-1.157071e-01
2.538552e-01
-1.686026e-01
-5.592896e-01
-4.848701e-01
-3.674984e-02
-1.952280e-01
-6.429334e-01
-5.904546e-01
-2.736215e-01
1.172318e-01
-2.630446e-02
-2.406951e-01
-1.933862e-01
2.118257e-01
2.716400e-01
-1.219011e-01
-1.750366e-01
-2.761783e-04
-1.307619e-01
-1.975924e-01
-1.072183e-01
-1.502531e-01
-1.755337e-01
-7.229825e-01
-3.801187e-01
-1.687871e-02
-7.296252e-03
-2.567182e-01
-2.737491e-01
1.003213e-01
-3.157349e-02
-3.743261e-01
-3.870806e-01
-5.034810e-03
1.080692e-01
-2.236242e-01
-2.052788e-02
1.706268e-01
1.094026e-01
-5.399678e-02
1.380214e-01
1.971551e-01
1.582677e-01
1.368585e-01
-1.345434e-02
-1.371459e-01
6.994589e-04
3.626508e-02
-7.051011e-02
-1.617260e-01
-5.418807e-01
3.055741e-01
-2.499076e-02
-3.635254e-01
-2.051127e-01
-2.255725e-01
1.257291e-01
-5.453724e-01
-1.569844e-01
7.798752e-03
-2.101218e-01
-3.709321e-01
-5.147287e-01
-1.711090e-01
-1.684421e-01
-1.169802e-01
-1.757347e-01
-3.188117e-02
-1.244881e-01
2.570702e-01
-2.181619e-01
-6.420908e-02
1.361845e-01
9.451281e-03
-2.370536e-02
-2.092885e-01
3.259020e-01
1.869186e-01
-1.767603e-01
-1.343147e-01
7.737515e-02
3.213683e-01
-8.063818e-02
-2.430593e-01
2.504577e-01
2.230685e-01
4.182686e-02
-7.195761e-01
-3.452625e-02
1.360616e-01
2.385769e-01
1.778661e-01
1.345484e-01
-3.307557e-02
-1.890170e-01
2.674120e-01
1.317663e-01
-1.434160e-01
1.038518e-01
-3.282977e-01
-3.564967e-02
-2.959749e-02
-2.149552e-01
6.223099e-02
-5.962126e-01
-4.383309e-01
-3.702404e-01
-5.556622e-01
-6.912447e-02
-5.907184e-01
-3.392819e-01
-3.209642e-01
-3.125794e-01
-1.625061e-01
-3.633466e-01
-3.930092e-01
-4.063300e-02
8.346888e-02
4.535574e-02
-1.296769e-01
-5.782539e-01
8.344938e-02
-4.981713e-02
-3.455858e-02
4.887396e-03
-9.610194e-02
2.352027e-01
-4.817623e-02
-1.339207e-02
1.355703e-01
2.301990e-01
-2.744315e-02
-1.141248e-01
6.807718e-02
1.435371e-01
2.577060e-01
1.507815e-01
4.534123e-02
2.494354e-01
1.272601e-01
-1.951938e-02
-8.329061e-02
1.482604e-01
-2.681130e-02
8.005389e-02
3.297770e-02
-2.102793e-01
1.169790e-01
2.950004e-02
1.721984e-01
-1.657131e-02
-8.916277e-03
2.976680e-01
1.471597e-01
1.791551e-01
-1.010007e-02
2.306803e-01
1.588677e-01
-3.092657e-03
9.860736e-02
1.741993e-01
9.048492e-02
-1.579997e-01
-4.086225e-02
1.105282e-01
-3.830488e-02
-5.265975e-02
7.181651e-02
5.011230e-02
7.279179e-02
4.049767e-02
-8.580775e-02
-1.333320e-01
-9.339537e-02
-6.622171e-02
7.823896e-02
2.313709e-01
6.101903e-01
2.245927e-01
1.688974e-01
-4.466279e-02
1.023269e-01
-2.140066e-02
5.548108e-02
2.158740e-01
-1.453186e-01
-5.419732e-03
1.745961e-01
-1.143040e-01
-1.775513e-01
-3.423679e-01
-1.437665e-01
-1.607750e-01
7.899925e-02
5.522308e-02
-1.812466e-01
-2.086422e-01
-4.216662e-01
-3.941093e-01
-2.937712e-01
1.145219e-01
2.734075e-01
2.088499e-01
1.328850e-01
4.027614e-02
-1.290709e-02
1.203354e-01
2.612658e-01
2.070687e-01
1.710423e-01
-1.551062e-01
-5.912038e-01
-3.498977e-01
-2.461248e-01
-1.224481e-01
1.528833e-01
3.537666e-01
1.495453e-01
8.179919e-02
7.375310e-02
-1.871448e-02
3.727404e-03
-1.670887e-01
-1.009674e-01
-1.497309e-01
-2.551798e-01
-4.076978e-01
-4.599501e-01
-1.991787e-01
1.261159e-02
1.495677e-01
1.296841e-01
-1.791712e-02
-7.839668e-03
2.314505e-02
1.500640e-01
1.581986e-01
-1.214311e-01
-1.321775e-01
-9.614876e-02
-8.971299e-02
-5.176183e-01
-2.584356e-01
8.252975e-02
7.068055e-02
2.806089e-02
-5.643974e-02
-1.647681e-01
-4.000452e-01
-3.592046e-01
-6.964369e-03
2.976439e-01
2.495278e-01
1.545334e-01
-3.824825e-01
-2.480367e-01
-5.331345e-02
2.200991e-01
2.097333e-01
-3.884318e-02
1.305162e-01
-4.386098e-01
-3.168352e-01
-4.227607e-01
-2.264090e-01
2.285972e-01
1.316320e-01
-1.448033e-01
2.242641e-01
9.683530e-03
1.418243e-01
-3.652666e-02
-1.633548e-01
1.461886e-02
1.262377e-01
2.660919e-01
-1.693759e-01
2.135075e-02
7.905344e-03
1.727358e-01
-7.850366e-02
-3.040993e-01
-2.596570e-01
-1.234324e-01
-1.466896e-01
6.898931e-02
-1.278230e-02
8.127035e-02
3.797881e-02
1.655828e-01
8.425461e-02
2.908628e-01
1.734899e-01
1.041512e-01
1.265058e-01
2.806898e-02
-1.179402e-01
-3.901384e-01
-1.937521e-01
8.667965e-02
-3.389093e-01
-6.764419e-01
-1.054798e+00
-2.868864e-01
-1.691427e-01
1.241550e-01
-8.911508e-02
-9.044336e-02
-6.497826e-02
-1.176768e-02
2.878353e-01
2.939946e-01
2.890204e-01
2.336636e-02
5.116088e-02
-1.912456e-01
-4.443149e-02
1.008162e-01
1.515420e-01
-2.369415e-02
-1.058896e-01
-1.382012e-01
1.570066e-01
3.555449e-02
-1.492585e-01
-4.476671e-01
-3.506009e-01
-3.940434e-01
5.385359e-02
1.292908e-01
-1.512473e-01
-5.355325e-01
-5.721553e-02
3.193106e-01
1.745808e-01
-2.984491e-01
-3.627004e-01
1.820250e-01
1.795412e-01
4.298967e-02
-3.456438e-01
-8.563685e-02
5.582665e-03
9.846505e-02
5.648186e-02
-9.755874e-02
-1.688459e-01
-3.994700e-02
1.773265e-01
2.651048e-01
-1.581486e-01
-8.362039e-02
-9.414808e-02
-2.431730e-01
2.762328e-01
-5.404150e-02
1.598737e-01
-4.617273e-02
-1.012824e-01
3.461565e-01
1.260096e-02
1.430624e-01
9.062624e-02
-6.838957e-02
-8.398661e-02
-3.645730e-01
-1.997731e-01
2.101272e-02
-1.497224e-01
1.656956e-01
-5.013924e-01
1.502968e-01
2.112660e-01
4.566767e-02
-5.174984e-02
-1.636938e-01
2.604139e-01
3.142683e-01
-4.951506e-02
-1.530704e-01
2.224063e-01
1.838109e-01
1.366580e-01
-1.843161e-01
-7.997131e-02
-8.377717e-02
-1.423507e-03
-4.665988e-02
1.868193e-01
-5.068654e-02
-1.497065e-01
1.478736e-01
-4.961981e-01
-2.461217e-01
-1.131120e-01
-5.386046e-02
2.966525e-01
-6.343774e-01
-1.187103e-01
2.642083e-01
1.437576e-02
9.656120e-02
-4.409294e-01
-1.855131e-01
2.330057e-01
-1.001121e-01
1.398581e-01
-5.322097e-02
-1.361995e-01
1.621207e-01
8.717716e-02
2.990849e-01
1.832122e-02
-1.602317e-01
-8.316044e-02
-1.693295e-01
4.498271e-02
2.429705e-01
3.173695e-03
-2.119907e-01
-2.415343e-01
1.894404e-01
2.719995e-01
-5.059531e-01
-2.236529e-01
-7.883056e-02
2.418884e-01
9.833033e-02
-1.133270e+00
-1.624989e-02
7.640999e-02
2.681927e-01
-2.055513e-01
-5.789218e-01
-2.069945e-02
1.625707e-01
2.472361e-01
-1.907404e-01
-4.157118e-01
-6.019991e-01
-1.245848e-02
-2.174030e-03
-3.383024e-01
-3.932879e-01
-3.043482e-01
7.431696e-02
-7.821469e-02
5.076318e-05
-1.100174e-01
-1.793670e-01
1.035713e-01
-4.163235e-01
1.187981e-01
-1.413956e-01
-3.382018e-01
1.001011e-01
-4.387110e-01
-6.230091e-02
-3.517219e-01
-1.809435e-01
-1.094260e-01
-5.310657e-01
-2.373428e-01
-3.589314e-02
2.232773e-01
-3.749743e-01
6.816614e-02
-6.184662e-02
-6.204943e-02
-1.714615e-02
1.068071e-02
-3.226978e-01
-4.643979e-01
-5.145660e-02
6.331971e-02
2.240672e-01
2.879043e-03
-4.151458e-01
-1.663688e-01
4.334709e-02
2.511720e-02
1.900495e-01
6.331792e-02
-3.136219e-01
-3.564857e-01
-6.423666e-02
1.915542e-01
3.045310e-01
5.912117e-02
-2.461597e-01
-1.792948e-01
-1.751262e-01
-3.886111e-03
-2.045439e-02
-1.981488e-01
-4.308139e-01
1.882726e-01
9.979198e-02
-1.311314e-01
-1.103107e-01
-2.987198e-01
-1.057892e-01
-2.983152e-01
5.110012e-04
-1.197433e-01
2.164114e-01
-3.319869e-01
-4.749671e-01
1.289880e-02
-7.887583e-02
5.964258e-02
1.014592e-01
1.166230e-01
2.013054e-02
-4.292520e-02
1.282129e-01
1.064782e-01
1.947555e-02
5.906781e-03
2.725482e-01
2.389117e-01
1.234582e-01
-7.934428e-02
-3.209580e-01
3.598948e-01
7.987010e-02
1.414956e-04
-4.524916e-01
-2.362801e-01
3.272872e-01
-1.487913e-01
-1.711048e-01
-3.773130e-01
1.537850e-01
2.247188e-01
-5.278530e-01
-2.251295e-01
1.276597e-01
-6.643816e-02
-4.017551e-03
2.632008e-01
-2.684635e-01
-2.693410e-01
-1.699654e-02
6.030833e-02
-5.076797e-01
-2.032748e-01
4.634712e-02
1.678691e-01
3.131104e-01
-1.692054e-01
-4.012769e-01
-2.663293e-01
3.719118e-01
1.080342e-01
2.896892e-01
8.249262e-02
-9.052725e-01
-4.619780e-01
-2.415541e-01
2.843200e-01
3.010314e-01
-2.405337e-01
-4.416689e-01
-2.728417e-01
-2.210277e-01
4.737661e-01
1.721963e-01
-1.146347e-01
-2.671148e-01
5.987614e-03
2.335272e-01
-4.709776e-01
4.335560e-02
-6.359693e-02
6.136577e-02
-2.605084e-01
-3.595801e-01
2.370905e-02
1.195786e-01
-1.741980e-01
-3.486867e-01
-1.087556e-01
2.389096e-01
2.770201e-01
-1.649855e-02
-5.135599e-02
-6.351059e-02
1.872722e-01
2.004669e-01
1.102647e-01
2.085173e-01
1.990977e-01
7.269348e-02
-3.375102e-02
-7.792608e-02
1.870620e-01
7.451067e-02
-1.802660e-01
-3.705349e-01
-7.015742e-02
-2.413657e-02
6.595192e-03
-3.053370e-01
4.204079e-02
-1.643466e-01
-2.317075e-01
-9.417728e-02
8.190052e-02
2.871927e-01
-2.660875e-01
-5.006070e-01
-2.219493e-01
2.600417e-01
-6.965476e-02
3.482966e-01
2.315839e-02
-3.178330e-01
-8.195193e-01
-3.773819e-01
2.240220e-01
3.193047e-01
3.072160e-01
7.774413e-02
-4.489067e-01
7.289556e-02
1.345890e-01
2.045823e-01
2.637713e-01
2.496399e-02
1.039946e-01
-2.398034e-01
-2.495227e-01
5.048807e-02
1.664346e-01
1.250557e-02
-3.072668e-01
-5.519307e-01
-2.660062e-01
6.870191e-02
4.277441e-03
-1.161438e-01
-2.861070e-01
-1.215045e-01
2.369054e-01
1.324443e-01
-1.195575e-02
-4.350458e-01
-1.014201e+00
9.281760e-02
-6.896758e-02
-2.092336e-01
-4.177066e-01
-5.464479e-01
-8.234086e-01
-1.339868e-01
-1.734343e-02
-1.307608e-02
-4.318532e-02
-1.514600e-01
3.355421e-01
4.124281e-01
2.894445e-01
2.194278e-01
1.028536e-01
1.172087e-01
1.439640e-01
-3.960796e-02
-3.288536e-01
-2.471323e-02
-1.885812e-01
-1.508408e-01
5.516288e-03
-1.438666e-03
1.119008e-01
-4.682799e-01
-2.902874e-01
1.748450e-01
3.496699e-01
2.912978e-01
-4.532763e-01
-2.275145e-02
2.259959e-01
3.342701e-01
2.091151e-01
1.307423e-01
-4.140564e-02
-1.825263e-01
-1.003398e-01
4.126435e-02
-1.660464e-01
2.616759e-02
-2.710056e-01
1.636164e-02
2.501989e-01
1.456941e-01
3.116567e-01
4.463328e-01
-1.271803e-01
7.576195e-02
-1.714913e-01
1.859907e-02
8.917376e-02
-6.742521e-02
-4.033350e-01
-2.846746e-01
-2.313089e-01
-1.618109e-01
3.521618e-02
1.307455e-01
3.454715e-02
-1.169150e-01
9.819758e-02
1.592604e-01
2.258683e-01
8.068997e-03
-4.577686e-01
-7.914200e-01
-4.463791e-01
1.252844e-01
-1.523309e-01
-2.672814e-01
-3.453481e-01
-3.167518e-01
-5.425561e-02
1.101666e-03
2.334440e-01
3.825549e-01
-1.197962e-01
-2.145581e-02
1.687017e-01
3.248399e-01
2.514924e-01
2.512536e-01
-4.132457e-02
-5.193405e-02
2.246657e-02
7.844532e-02
-3.512708e-02
4.007228e-02
-3.107328e-01
-1.528528e-01
9.724438e-02
-2.450740e-02
1.009054e-01
-5.446329e-01
-5.539004e-01
-6.240832e-02
-5.648732e-02
5.965758e-02
-3.342444e-01
-4.235980e-01
1.000598e-01
9.099512e-03
7.164994e-02
-1.072686e-01
-4.445318e-02
1.538820e-01
-9.551216e-02
3.857253e-03
-1.115330e-01
2.733780e-01
-2.427792e-02
-1.362144e-01
-1.974060e-01
-1.701867e-01
-5.762389e-02
-4.742986e-02
1.138792e-01
2.650681e-02
-4.959854e-02
4.750355e-02
6.136186e-02
-1.932924e-02
-4.287156e-01
-9.983805e-02
-2.959536e-01
-4.154316e-02
2.872302e-01
6.537808e-02
1.404497e-01
-1.285914e-01
-4.054188e-01
1.699602e-01
1.857429e-01
9.330612e-02
1.085143e-01
-2.707211e-01
-2.451516e-01
2.074145e-02
-1.809962e-01
-3.232670e-01
-3.836495e-01
-2.633853e-02
2.245634e-01
2.896042e-02
5.343833e-03
-1.240382e-01
-3.065478e-01
-1.811905e-01
8.286930e-02
8.613244e-02
7.079979e-02
-3.508720e-02
-3.759137e-01
-7.069404e-02
-2.916262e-01
-2.186536e-02
1.235134e-01
-3.040158e-01
-1.245654e-01
1.449573e-02
9.907702e-02
1.030654e-01
-4.436171e-02
-1.000786e-01
-1.218223e-02
3.422941e-02
-1.790611e-01
-3.709376e-01
-1.250696e-01
-5.717527e-01
5.896734e-02
3.635033e-01
-2.328657e-01
-1.859998e-01
-5.106686e-01
1.525969e-02
3.289893e-01
3.371382e-02
-4.329440e-01
-3.746125e-01
-1.371702e-01
3.596066e-01
2.074664e-01
-2.838539e-01
-2.371576e-01
-7.738955e-02
6.930594e-02
-7.930654e-02
-1.561984e-01
-1.557247e-01
-2.840165e-01
-5.678542e-01
2.201422e-01
-3.924248e-01
1.301084e-01
3.095867e-01
-1.931396e-01
1.992076e-01
-3.231612e-01
1.228195e-02
4.140747e-01
1.000799e+00
-4.852989e-01
-1.294424e-02
-4.210900e-01
8.129531e-02
3.899003e-01
-2.893214e-01
-1.525574e-01
-2.205123e-01
-2.200362e-01
-3.928142e-02
8.005978e-02
3.551413e-02
2.193628e-02
-2.292600e-03
-2.915725e-01
-1.080021e-01
1.978215e-01
1.053228e-01
-1.889371e-01
-2.149765e-01
-2.977599e-01
4.165218e-02
-1.992071e-02
6.403273e-02
-6.606340e-02
-3.822807e-01
8.247677e-03
8.420122e-02
1.355508e-01
1.942361e-01
-3.226790e-01
5.428713e-02
2.561699e-02
1.281205e-01
3.806592e-01
-1.528943e-01
1.444697e-01
-1.456362e-02
2.496498e-01
-1.194557e-01
-3.819431e-02
-8.695856e-02
-1.202559e-01
-2.716916e-01
-1.402670e-01
3.604445e-01
5.238960e-02
-2.853389e-02
-5.030183e-01
-1.801850e-01
1.396874e-01
1.463792e-01
2.442128e-01
-3.821719e-01
-1.983975e-01
1.349327e-01
-5.959771e-02
5.001057e-02
-3.932521e-01
-2.490473e-02
1.775665e-01
4.132102e-01
2.818229e-02
-2.570087e-01
-3.824091e-01
-2.741359e-01
1.307388e-01
-1.537280e-01
-4.002067e-01
-3.647618e-01
4.559831e-03
-1.173514e-01
-2.288201e-01
-1.838519e-01
6.720942e-02
9.976934e-02
-5.437913e-01
-2.873622e-01
-3.223369e-01
1.311430e-02
-8.178920e-02
-7.186148e-02
2.398210e-01
1.352508e-01
1.415798e-02
-6.533659e-02
-2.240424e-01
-1.934349e-01
-3.705946e-01
-1.929539e-01
-9.949023e-02
8.498991e-02
-9.276757e-02
-3.640090e-01
-2.552962e-01
-2.543820e-01
3.778358e-01
2.572097e-02
-2.896246e-01
-3.015926e-01
-4.587801e-02
2.742727e-01
-1.519746e-01
-2.150053e-01
-1.450037e-01
8.178500e-02
-1.887219e-01
-4.191515e-01
-9.840146e-02
-2.728800e-02
1.221016e-01
3.479747e-01
4.849640e-02
1.008667e-01
-4.741817e-02
3.637468e-02
4.086310e-01
2.693738e-01
1.719428e-01
-1.328728e-01
2.955516e-02
2.729581e-01
2.112506e-01
6.961861e-02
-4.568839e-01
2.095000e-01
9.830572e-02
4.649934e-02
-2.607985e-01
3.217612e-02
1.959459e-01
-8.396156e-02
-2.554359e-01
-1.037086e-01
2.370737e-01
3.568589e-01
5.025110e-02
1.802201e-02
-5.053837e-01
-5.416258e-02
2.690677e-01
6.473320e-02
8.453896e-02
-3.069758e-01
-2.838857e-02
8.084505e-02
-1.088859e-01
2.269625e-02
6.534144e-02
-2.118367e-01
2.639529e-02
-6.321771e-01
-4.997982e-01
-3.452272e-02
-4.407657e-01
-2.537645e-01
-4.035516e-01
-5.290238e-02
-1.887890e-01
-2.548909e-01
1.752551e-01
1.884401e-01
-8.920840e-02
-6.450184e-01
-3.365008e-01
-1.868977e-02
4.830768e-03
-2.593240e-02
-4.331594e-01
6.888552e-02
2.158660e-01
1.964509e-01
-8.430344e-02
-5.007756e-02
9.293146e-03
1.895973e-01
-6.041478e-02
-2.168154e-01
-2.367238e-03
1.554564e-01
2.338189e-01
-8.731985e-02
4.400980e-02
2.206301e-01
2.468204e-01
6.162154e-02
-1.219004e-01
2.019418e-02
-2.738153e-02
5.959896e-02
-2.582716e-01
-1.388601e-01
3.926957e-02
2.820625e-02
2.943411e-03
-1.056854e-01
-5.338521e-02
1.717230e-01
7.573723e-02
-2.211115e-03
-1.375914e-01
9.456510e-02
8.976829e-02
-4.737765e-02
-9.098069e-02
-6.159239e-02
-4.016127e-02
-1.161265e-01
-1.914865e-01
-1.447323e-01
-7.251935e-02
-3.860806e-02
-1.201004e-01
4.957301e-02
1.226381e-01
2.475319e-01
7.506344e-02
-2.807291e-02
-5.607873e-02
-1.971310e-01
-2.462927e-01
1.546158e-01
-2.483048e-02
-1.341127e-01
-5.012274e-01
-3.750762e-01
4.487745e-02
-2.825540e-01
-6.218824e-01
-8.507369e-01
-5.018745e-01
3.753345e-03
-5.621001e-01
-6.673759e-01
-1.236427e-01
1.210655e-02
2.282422e-01
2.043519e-01
1.003619e-01
-2.009991e-02
-1.630429e-01
1.928910e-01
-6.560054e-02
2.859749e-02
-3.243637e-02
-3.148363e-03
1.700164e-01
-7.573955e-03
4.383432e-03
1.938313e-01
-5.218282e-02
-7.011279e-02
-1.498824e-01
8.644452e-03
2.296577e-02
4.848900e-02
-3.202311e-01
-2.922474e-01
-1.931653e-01
-2.361429e-01
2.347658e-02
-4.318761e-02
-5.669829e-02
-2.687089e-01
1.925458e-01
2.550692e-01
-2.203794e-02
-1.114311e-01
3.043922e-03
3.422356e-01
3.881218e-01
9.102792e-02
-5.195219e-02
8.264975e-02
3.593784e-01
2.403939e-01
7.546046e-02
-3.163485e-01
4.068733e-02
1.579712e-01
1.792445e-01
3.570950e-03
-1.817235e-01
-3.431081e-01
-1.283579e-01
1.095420e-01
1.041658e-01
-7.128502e-02
9.473471e-02
-1.945409e-01
-3.589671e-01
1.740396e-01
-1.826192e-01
3.064333e-02
-2.414064e-01
-1.539045e-01
2.719370e-01
-2.931260e-01
-9.624581e-02
-9.096905e-02
6.853347e-02
-2.662273e-01
-4.998006e-01
-3.548644e-02
1.179275e-01
2.523091e-01
-6.263051e-01
-7.118978e-01
-3.185810e-02
1.797151e-01
6.936886e-02
1.548865e-01
-2.003691e-01
-1.191860e-01
7.895447e-02
1.459085e-01
-4.194748e-02
-1.845372e-02
1.156115e-01
1.938145e-01
1.517364e-01
7.248829e-02
-1.015628e-01
2.888480e-01
7.593899e-02
7.014056e-02
1.211783e-01
-3.587523e-01
4.897089e-02
-2.910604e-01
9.219154e-02
-8.066804e-02
-3.516147e-01
-7.323372e-02
-3.790733e-01
4.462244e-02
-6.056020e-02
-5.352093e-02
1.267664e-01
1.169505e-01
2.958365e-01
-5.497918e-02
9.627421e-02
8.903668e-02
8.641756e-02
2.857506e-01
-1.536567e-02
8.875920e-02
8.858005e-02
7.844688e-02
4.116451e-01
2.175515e-01
9.479154e-02
5.180595e-02
-9.033895e-03
8.986763e-02
-1.285079e-02
-1.300890e-01
-2.589950e-02
-2.622644e-01
-1.851164e-01
3.469706e-01
1.378337e-01
-3.117416e-02
5.733003e-02
2.193815e-01
5.023127e-02
-5.309661e-03
-5.833486e-02
1.511728e-01
3.902817e-01
-3.434139e-01
-2.926630e-01
-8.760371e-03
-2.119373e-02
-3.089614e-01
-4.161995e-01
-8.554975e-01
-1.104171e+00
-2.967951e-02
-1.293787e-01
-3.874721e-01
-4.577894e-01
-6.816162e-01
-5.448512e-02
2.305022e-01
2.806192e-02
-2.373774e-01
-5.565339e-01
-4.153450e-01
-5.463770e-02
2.091747e-01
3.231116e-01
2.224400e-01
1.855821e-01
-1.959653e-02
-6.848808e-02
-4.418623e-02
-4.458303e-02
4.635092e-02
1.190642e-01
-4.603205e-02
-1.114995e-02
2.047343e-01
1.441173e-01
-2.783647e-01
5.341090e-02
-1.732057e-01
-3.008717e-02
3.075403e-01
1.063300e-01
-7.703882e-02
-9.333697e-02
-1.508587e-01
-2.953975e-02
1.394150e-01
-8.008789e-02
-1.902982e-01
-1.889783e-02
3.305509e-02
-7.126574e-02
1.980978e-01
-2.722304e-02
-5.333275e-02
2.480194e-01
-2.030488e-01
2.461605e-01
1.005033e-01
-3.792083e-02
-1.621711e-02
-3.038923e-01
1.170873e-01
6.751562e-01
1.605222e-01
-1.918722e-01
-3.793117e-01
-6.047325e-03
4.421582e-03
-2.384100e-01
-8.893540e-01
-3.149047e-01
2.993230e-01
2.804496e-01
3.121420e-01
-3.444009e-01
-3.662037e-01
-2.224450e-01
3.596092e-02
2.618563e-01
-1.551670e-01
-2.073728e-01
-1.223153e-01
-3.088559e-01
2.628338e-01
3.202367e-01
-3.970317e-01
7.954784e-02
2.057940e-02
-2.910592e-01
4.343319e-01
1.937815e-01
5.343589e-02
-3.376542e-03
-4.918062e-02
-1.292182e-01
1.641888e-01
2.633947e-02
-2.130483e-01
-1.307801e-01
-1.907519e-02
3.410051e-01
2.417392e-02
-1.550736e-01
-7.172451e-02
-1.111372e-01
-1.430709e-01
2.457501e-01
-1.327097e-01
1.901215e-02
-1.822086e-01
-4.676059e-01
8.996798e-02
-9.411833e-02
-9.012818e-02
-5.669562e-02
-3.637317e-01
-3.031451e-01
-1.801335e-01
4.897583e-02
-2.009104e-01
-3.682951e-01
-3.384854e-01
-1.710908e-01
-1.851021e-02
-3.367912e-01
-5.521219e-01
1.146944e-01
-7.317903e-02
-7.519911e-02
-2.582667e-01
-1.039653e-01
3.513464e-01
9.059454e-02
-1.565993e-01
-1.327235e-01
-2.564758e-02
1.928212e-01
2.063355e-01
-1.738019e-01
-8.290008e-02
-8.225820e-02
-2.488689e-01
-5.516415e-02
3.083229e-02
-1.691538e-02
-5.120492e-02
1.380827e-02
1.992586e-02
1.994163e-02
9.859193e-02
3.304708e-03
1.968698e-01
1.384016e-01
-2.260239e-02
5.052678e-02
6.512953e-02
2.985923e-01
8.740845e-02
-1.630666e-01
-1.351834e-01
-1.801563e-01
-1.444516e-01
-9.254012e-02
-2.192063e-01
-2.923962e-01
-8.946853e-02
-2.191989e-01
1.096940e-01
1.899034e-02
-1.235439e-01
-2.477252e-01
2.295750e-01
3.073995e-01
-1.215996e-01
-1.695770e-01
4.093251e-03
5.158788e-02
-2.827119e-03
-8.206809e-02
-7.695834e-02
-1.344304e-01
1.379148e-01
-1.322597e-01
1.389191e-01
5.082858e-02
1.995778e-02
-2.460618e-01
-8.048715e-02
2.857264e-01
-2.416446e-02
-4.186324e-02
-3.374571e-01
-5.450736e-01
6.647012e-02
1.434895e-01
8.764081e-02
-4.772822e-01
-1.169963e+00
-4.222517e-01
2.380303e-01
2.398559e-01
-7.261093e-01
-1.653569e+00
-1.178274e-01
4.006878e-01
1.599033e-01
-9.524789e-01
-8.501636e-01
2.313417e-01
2.335488e-01
-2.322835e-04
-9.202137e-01
-1.013372e-01
3.979757e-01
4.081571e-02
2.716911e-02
-6.504754e-02
2.711647e-01
1.756001e-01
1.561648e-01
1.950298e-01
1.965090e-01
2.661341e-01
4.208684e-02
2.957588e-02
6.484308e-02
-6.436826e-02
9.833759e-04
-2.953917e-01
-3.194186e-01
-2.810325e-01
1.025152e-01
6.497104e-02
-2.638443e-01
-2.852658e-03
1.012894e-01
-3.907422e-02
-4.022220e-02
1.236975e-01
2.707423e-01
2.607931e-01
1.950216e-01
3.419965e-01
-1.824248e-02
-6.204775e-02
-1.370078e-01
-1.411227e-01
4.034884e-02
1.055279e-01
1.177931e-01
-1.058309e-01
-1.561671e-01
-8.703808e-02
2.478817e-01
2.406681e-01
-4.636474e-01
-8.121781e-02
6.925326e-02
2.277167e-01
-2.265739e-01
-2.584355e-01
1.398599e-01
1.568443e-01
-3.018845e-01
-3.856839e-01
9.899075e-02
-1.331936e-01
-1.278072e-01
-3.838404e-01
-6.608038e-02
-8.616464e-02
-3.713621e-01
-5.028691e-01
-4.163199e-01
-2.453177e-01
-2.214357e-01
-4.984345e-01
-3.348220e-01
-6.414288e-01
-1.730076e-01
-3.564044e-02
-1.688518e-01
-2.473917e-01
-5.286061e-01
1.886573e-01
3.237474e-02
1.433055e-03
-7.238112e-01
-9.093670e-02
-9.339699e-03
-1.386286e-01
-2.480096e-02
1.189283e-01
5.297704e-02
8.359540e-02
2.110083e-01
-3.651316e-01
-2.566502e-01
7.605935e-02
2.252773e-01
3.302117e-02
-6.927847e-02
1.252250e-01
2.511576e-01
-4.391254e-01
-9.629825e-01
1.172885e-01
-3.441061e-02
-3.084100e-01
-4.564100e-01
-2.234234e-01
-5.188576e-01
-5.899071e-01
-2.935274e-01
-5.999709e-02
8.096631e-02
-8.948965e-03
1.646306e-01
2.006684e-01
1.885547e-01
-7.870840e-02
-1.564262e-01
-3.075590e-01
-2.997562e-01
4.087179e-03
1.984178e-01
-4.927184e-01
-2.037867e-01
1.957370e-01
2.040277e-01
-2.240590e-01
4.872863e-02
2.578092e-01
1.316877e-01
-4.460374e-01
-1.631836e-01
9.877525e-02
-7.976446e-02
-2.588873e-01
4.689193e-03
1.803384e-01
-3.774139e-02
-5.157073e-01
-2.190658e-01
-4.542665e-01
1.208719e-01
-9.286858e-02
-2.367027e-01
-3.879217e-02
-7.372823e-02
2.416191e-01
-4.734446e-01
-9.244242e-02
1.091217e-01
2.287484e-01
-4.105853e-02
-4.146320e-01
-8.613081e-02
7.566678e-02
4.496125e-02
-8.899871e-02
-1.229426e-01
-9.436882e-02
-7.513791e-02
1.953881e-02
-1.170598e-01
-9.282811e-03
2.610933e-01
2.996162e-01
1.378338e-01
-4.476631e-02
-4.281326e-02
1.757706e-01
1.858173e-02
-1.305745e-01
1.098921e-01
-1.485318e-01
1.318054e-01
1.012988e-02
-2.194968e-04
-5.713299e-02
-2.894931e-03
1.939530e-01
5.711944e-02
-2.521417e-01
-2.636642e-01
1.183558e-01
3.448029e-02
5.816525e-02
-6.385191e-02
-2.621707e-02
6.110278e-02
-2.419481e-01
-8.098480e-02
-3.254047e-03
-7.638115e-02
-2.018402e-01
-8.213792e-02
1.613219e-01
2.452563e-01
-3.476943e-01
-8.823294e-02
2.413755e-01
1.940701e-01
-4.255816e-01
-2.182366e-01
-4.335373e-02
-2.346048e-01
-7.135327e-01
1.939484e-02
2.430182e-01
-5.221974e-01
-3.638769e-01
-2.396928e-01
2.406108e-01
6.930692e-02
-1.255804e-01
-4.880452e-01
-3.511147e-01
-4.211356e-01
-3.723029e-01
2.719104e-01
-1.633821e-01
-5.010481e-01
-2.159992e-01
-5.292320e-02
-3.246232e-02
-2.787260e-01
-2.043921e-01
1.662934e-01
2.506295e-01
-9.858142e-02
-6.012178e-02
1.865043e-01
3.375501e-01
1.475530e-01
3.399097e-02
1.683506e-01
1.299170e-01
2.123506e-01
2.664591e-01
-3.450046e-01
3.687463e-02
-7.524807e-02
-4.682241e-01
-2.176083e-01
-3.502108e-01
-3.772761e-02
2.747258e-02
-2.416255e-01
-2.963306e-01
-5.550945e-01
-1.264672e-01
1.142419e-02
-1.969268e-01
1.729811e-02
-4.460860e-01
-1.338569e-01
1.450545e-01
8.694161e-02
1.980090e-04
5.664167e-02
1.464494e-01
2.664916e-01
5.996773e-02
-1.340224e-01
-1.998048e-01
-4.301166e-01
-6.051677e-01
-2.943446e-01
-5.945143e-02
-9.615567e-02
-1.890320e-01
-3.966196e-01
-3.785664e-01
-4.867042e-02
-8.390903e-03
-5.142295e-02
-3.750972e-01
-2.857306e-01
-1.240387e-01
-1.454310e-01
2.756080e-02
-9.731924e-01
-2.842984e-01
-1.572652e-02
-1.122081e-02
1.375304e-01
1.159510e-01
3.162680e-01
-1.566642e-02
-2.064143e-01
1.501883e-01
1.077429e-01
-1.951986e-01
-2.178503e-02
7.668366e-02
1.908192e-01
2.230739e-01
-2.126232e-01
2.071142e-01
4.634627e-02
2.681869e-01
4.854355e-01
-3.615195e-01
2.850872e-01
-1.078810e-02
7.129279e-02
1.124991e-02
-2.739638e-01
2.950332e-01
-7.084664e-01
-1.099985e-01
-2.539801e-02
5.408489e-02
1.632386e-01
-7.623333e-02
-2.377562e-01
-4.194090e-01
1.603431e-01
-2.659483e-02
6.584742e-02
-1.550558e-02
-1.976725e-01
1.418827e-01
-9.449082e-02
1.805176e-01
1.195353e-01
-3.706210e-01
7.754158e-02
-2.044573e-01
8.676839e-02
2.066682e-01
-5.629544e-01
-4.776041e-01
-4.206768e-02
9.155852e-02
3.653320e-01
1.113532e-02
-2.322545e-02
-6.945382e-02
1.298393e-01
-1.149051e-01
-1.858725e-01
-2.550267e-01
-2.653173e-02
-1.346614e-02
4.981391e-02
-1.411984e-01
3.610656e-03
2.243331e-02
-1.638122e-01
2.069151e-01
-2.021462e-01
1.197961e-01
1.276530e-01
-1.043835e-01
1.993233e-01
-1.172474e-01
1.918664e-01
-3.861150e-02
-2.371025e-02
1.620533e-01
-2.480160e-01
-1.395552e-01
-5.810269e-01
1.448501e-01
1.199156e-01
1.589412e-02
-1.108843e-01
-2.765282e-01
7.320608e-03
-2.266627e-01
1.826075e-01
-7.487582e-02
-2.738692e-01
1.109372e-01
-9.972884e-02
2.545901e-01
-1.276128e-01
-3.789677e-01
-1.129658e-01
-3.795443e-01
1.130147e-01
-4.660055e-01
-2.449120e-01
-4.028490e-01
-4.203784e-01
-2.424893e-01
-3.490045e-01
-2.179965e-01
-6.813259e-02
1.334246e-01
2.873726e-01
3.376294e-01
1.538437e-01
3.245881e-02
1.423291e-01
1.270247e-01
1.024708e-02
1.287369e-01
-8.312696e-02
-1.803558e-01
-4.693168e-02
7.328586e-02
-8.119961e-02
-3.098013e-01
-2.030635e-01
-1.222358e-01
-1.119536e-01
-2.943555e-02
1.892706e-01
2.587604e-01
2.302541e-02
-6.348835e-02
-1.777765e-01
-3.244184e-01
-4.785066e-01
-3.858839e-01
-2.927038e-01
-1.193850e-01
-1.626902e-01
1.045040e-01
2.222293e-01
1.036521e-01
1.166642e-01
1.735739e-01
2.149900e-01
1.550286e-01
6.115977e-02
-1.321957e-02
9.182619e-05
-1.394072e-01
-4.358643e-01
-3.446160e-01
-2.137394e-01
-3.248309e-01
-2.751562e-02
4.100920e-03
8.973435e-02
-1.085716e-01
3.542989e-02
-1.988079e-01
-1.569259e-02
-9.990126e-02
5.930826e-04
-2.340287e-01
-6.952824e-02
1.420565e-01
1.539250e-01
1.126901e-02
1.448962e-01
3.435031e-01
1.063761e-02
-2.047801e-01
-1.942201e-01
-1.609958e-01
4.874197e-02
-1.676442e-01
-3.360500e-01
-2.653788e-01
-9.610274e-02
-8.257242e-02
-2.837615e-01
1.391530e-02
-6.268947e-02
-2.435878e-01
-3.538460e-01
-5.311343e-01
-3.100884e-01
-2.382226e-01
2.769335e-02
-2.068695e-01
8.084395e-02
1.204260e-01
1.555712e-01
1.699982e-01
3.044084e-01
2.369695e-01
6.889468e-02
8.645028e-02
2.962713e-01
2.996025e-01
-1.868349e-01
-2.615426e-01
-2.106874e-01
1.379406e-01
-6.647866e-02
-6.652106e-02
-3.813877e-01
-9.799028e-02
-7.671711e-02
1.040669e-02
3.298425e-02
1.186942e-02
9.281905e-02
1.552512e-02
1.720001e-01
-8.925778e-02
-2.042535e-01
-2.489479e-01
7.901171e-02
-2.538231e-01
-7.823825e-01
-6.048877e-01
-2.113290e-01
-2.950398e-01
-3.665998e-01
-2.448162e-01
-2.031407e-01
-3.144916e-01
-3.751224e-02
8.552915e-02
-1.101427e-01
-2.656555e-01
-4.679771e-01
9.289026e-02
-4.448356e-01
-3.415399e-01
-1.921238e-01
-1.864865e-01
3.026033e-02
-4.934332e-01
-2.096764e-01
-1.732611e-01
6.109311e-02
-2.312957e-01
-4.054467e-02
1.086494e-01
7.787310e-02
-1.377554e-01
4.643260e-02
1.437872e-01
1.381437e-01
4.996612e-02
2.855257e-02
-3.601794e-01
7.247429e-02
1.652634e-01
-5.665476e-02
1.044602e+00
-9.586924e-03
3.807371e-02
-1.220959e-01
-1.587059e-02
6.653872e-02
1.525306e-01
-3.665349e-01
-4.305315e-01
-5.278277e-02
-2.893419e-02
1.416984e-02
1.917234e-01
2.230887e-01
2.360427e-01
-1.577280e-01
2.780419e-01
1.125641e-01
-1.309625e-01
-5.077275e-02
1.872038e-01
-6.179244e-02
-1.840806e-01
1.697352e-01
2.112780e-01
1.264931e-03
6.588393e-02
9.925435e-02
1.174424e-01
-1.475356e-02
-3.237825e-01
2.082336e-01
5.678991e-02
-1.752630e-01
-1.482223e-01
2.409734e-01
-2.515718e-01
-5.997826e-01
7.325902e-02
4.333825e-01
1.302763e-01
-4.403464e-01
3.537798e-03
1.509582e-01
1.022596e-01
-1.752140e-01
1.247075e-02
-5.520323e-02
-2.409380e-01
6.150852e-02
2.371806e-01
1.487814e-01
1.139491e-01
-2.201896e-01
-1.478171e-01
-3.851935e-03
-7.592038e-02
-2.920495e-01
-2.833414e-01
-1.376325e-01
1.379164e-01
-1.806380e-01
-3.283333e-01
1.496322e-01
2.208093e-01
1.688726e-01
-4.519562e-01
1.435836e-01
2.726600e-01
-1.342054e-01
-3.523136e-02
7.442569e-03
2.934581e-01
-2.622770e-02
-2.034563e-01
1.114920e-01
3.314709e-02
1.713014e-01
2.366938e-01
2.234764e-01
-7.958398e-02
8.157202e-01
2.939531e-01
-1.053143e-01
-4.153850e-01
-2.049726e-01
-1.988922e-01
-3.964928e-01
-4.975583e-01
-7.722326e-02
1.794559e-01
-1.867779e-01
-3.287982e-01
1.165987e-01
1.553009e-01
-5.169127e-02
-1.709599e-01
1.577563e-02
-1.316821e-01
-1.308094e-01
7.309859e-02
5.617144e-02
3.095352e-01
-1.676201e-01
-3.750085e-02
1.085328e-01
-2.336402e-01
-4.409464e-01
8.124571e-02
3.853459e-01
-1.823006e-03
-3.670170e-01
2.782904e-01
4.206110e-01
5.405819e-02
-5.362807e-01
1.756989e-01
2.566520e-01
-2.475892e-01
-4.768364e-01
-3.390723e-01
2.219987e-01
-2.527404e-01
-4.455887e-01
-7.756219e-02
-4.928199e-01
-7.015885e-02
-2.353808e-01
-4.524191e-02
-6.781181e-02
-1.027101e-01
-1.707426e-01
-5.172766e-02
-1.910021e-01
1.198092e-01
-1.422802e-01
9.471912e-02
-2.779151e-01
5.277728e-02
-3.667752e-02
-1.543174e-02
-3.111338e-02
-4.462509e-01
-7.586864e-02
-1.444390e-01
-3.191478e-01
-2.374374e-01
1.395766e-01
-8.095182e-02
-1.844214e-01
1.221330e-01
