# Shape: (6, 1, 5, 5)
# 
-6.451955e-02
-4.032643e-01
-7.145886e-01
-7.413262e-01
-3.791863e-01
1.589133e-01
1.566741e-01
1.408449e-01
-1.080717e-01
7.612086e-02
3.089237e-01
3.842694e-01
3.201513e-01
1.204643e+00
4.395413e-02
-5.310831e-02
2.496648e-02
1.542627e-01
-4.106208e-02
-9.544127e-02
2.810818e-02
-2.422707e-01
-1.486390e-01
6.824784e-03
1.432672e-02
-3.101982e-01
-1.405824e-01
6.546188e-02
-3.216339e-02
1.073192e-01
-5.802657e-02
2.669645e-01
8.863823e-01
1.877208e-01
7.785639e-02
6.069151e-02
1.033384e-01
2.216816e-01
3.690764e-03
1.492152e-01
-2.646718e-01
-2.002973e-01
-3.606727e-01
-2.134954e-01
4.295129e-02
-1.812922e-01
-2.500937e-01
-1.088233e-01
-2.182311e-01
-1.785521e-01
-4.172485e-02
1.865003e-01
7.505905e-02
7.530945e-02
5.792591e-03
-9.486811e-03
2.829116e-01
1.260589e-01
-1.516304e-01
-1.530400e-01
4.687126e-02
4.181753e-01
2.697521e-01
-8.796220e-01
-4.843200e-02
-1.632657e-03
2.839630e-01
1.018091e-01
-5.168257e-01
-2.544497e-01
1.401297e-02
1.937825e-01
2.122603e-01
-2.567336e-01
-1.299431e-01
-2.279917e-01
1.520647e-01
2.742781e-01
8.075126e-03
-5.153534e-01
-7.214640e-02
2.731851e-01
3.733723e-01
4.211841e-01
-8.167905e-02
-4.642401e-01
-1.000922e-01
1.398865e-02
1.260159e+00
6.344353e-04
-3.411402e-01
-3.950610e-01
-5.480215e-01
2.641112e-01
-8.507440e-02
1.518486e-01
-2.929056e-01
-6.082621e-01
1.437146e-01
2.419985e-01
-1.006254e-01
-2.628869e-01
-2.460295e-01
3.169594e-01
3.190698e-02
-1.766335e-01
-1.756673e-01
1.305201e-01
3.901666e-01
1.080247e-01
-9.759532e-01
-1.710055e-01
3.883969e-01
2.312602e-01
1.837281e-01
-2.422861e-01
2.164442e-01
3.977103e-01
3.431996e-01
-5.255751e-02
-1.577793e-01
2.678529e-01
1.216131e-01
-1.419101e-01
-1.781199e-01
7.083157e-02
2.389745e-01
-3.330806e-02
1.209111e-01
-9.527700e-01
1.322269e-01
1.369764e-01
-2.789691e-01
-3.139789e-01
-1.005399e-01
2.085647e-01
-1.383629e-01
-3.222796e-01
-2.891010e-01
3.172447e-02
1.750635e-01
-2.418866e-01
-2.524336e-01
-9.722266e-02
1.021066e-01
1.515940e-01
-2.388822e-01
-3.782611e-01
-2.336378e-01
3.638967e-01
