# Shape: (120,)
# 
3.834056e-02
-7.513583e-02
-1.065326e-01
6.041204e-03
-2.061226e-01
4.516768e-03
2.733315e-04
-1.853588e-01
-1.679124e-01
1.972510e-02
1.717495e-01
-2.742505e-02
1.525500e-02
1.463521e-01
-8.554578e-02
-1.166142e-01
-4.330790e-02
1.463084e-02
-1.465528e-01
3.673854e-02
2.185560e-01
-8.316121e-02
-9.367320e-02
-5.231354e-02
-5.457783e-02
-7.017744e-02
-3.424071e-02
1.059524e-01
-1.180190e-01
-7.351913e-02
-7.161739e-02
-4.270525e-02
-5.711328e-02
-5.155062e-02
-3.319530e-02
-8.944593e-02
-1.000551e-01
-1.277000e-01
2.898968e-01
-1.097185e-01
1.996251e-01
-9.210584e-02
-4.044510e-02
-8.831351e-02
7.294288e-02
9.384441e-02
-8.255576e-02
-1.001240e-01
9.012581e-02
-5.038706e-02
5.901313e-02
6.127273e-03
3.229641e-02
1.247691e-01
-5.854730e-02
8.777886e-02
-8.428941e-02
-1.315313e-01
-5.551183e-02
2.913808e-02
-7.670455e-02
4.565635e-02
2.283470e-02
-2.568116e-01
-3.514158e-02
-3.143404e-01
2.010766e-01
-1.088538e-01
-7.964578e-02
8.569256e-02
1.947435e-02
-1.911369e-01
-2.256189e-01
3.077246e-03
-9.385353e-03
2.940300e-02
-1.982712e-01
-5.068329e-03
-2.963221e-02
2.511327e-02
2.808380e-02
2.402089e-02
3.098470e-02
-5.913459e-02
-1.219698e-01
6.379639e-02
1.719410e-02
-5.340847e-02
-1.703605e-01
6.458352e-02
-1.948219e-01
8.956524e-02
4.571709e-02
-6.060007e-02
1.464158e-01
-4.076520e-02
-2.229620e-01
-5.837871e-02
-9.154206e-02
-2.569161e-01
2.021555e-02
-2.249382e-01
-9.468248e-02
1.657049e-01
-7.358225e-02
2.063057e-02
-5.918177e-03
-9.317236e-02
3.287699e-02
-7.131741e-02
-5.401741e-02
4.045182e-02
5.849468e-03
-1.139722e-01
-1.374616e-01
-1.720216e-02
1.672811e-02
-1.330968e-01
1.439281e-01
-2.181983e-01
