# Shape: (84, 120)
# 
1.116432e-03
3.945854e-02
2.615633e-02
2.088321e-03
8.625221e-03
-8.180277e-02
-7.784421e-02
-1.214628e-01
-6.365937e-02
-7.178295e-02
-5.442796e-02
-1.210132e-02
-3.008580e-02
-3.986965e-03
-4.083111e-02
-4.002095e-02
5.117346e-02
1.431739e-02
5.709454e-02
-7.150963e-03
-7.628859e-02
-1.025400e-01
-5.539502e-02
-8.963184e-02
-1.018480e-01
2.435873e-02
-9.827854e-02
-7.652587e-02
9.027211e-02
3.185126e-02
-1.035896e-01
-1.178998e-02
1.995827e-03
-6.260271e-02
-3.010664e-02
5.871603e-02
-9.061247e-02
-1.047592e-01
-9.375044e-02
-8.355450e-02
-1.065793e-01
2.933592e-02
-2.551191e-02
-4.205995e-02
-6.597846e-02
-1.235204e-01
-5.139827e-02
-8.561800e-02
-1.237730e-02
5.816632e-02
2.040067e-02
-4.963035e-02
-4.519906e-02
-7.536004e-02
4.735328e-02
-6.349038e-02
-5.578030e-02
3.596685e-02
-6.341129e-02
-2.531083e-02
-6.346606e-02
-9.510455e-02
1.673496e-02
-3.100577e-02
8.892866e-02
-3.398556e-03
-6.249509e-02
-7.018596e-03
-1.167057e-02
4.699508e-02
-5.915851e-02
-7.650072e-02
-1.046225e-01
2.646955e-02
2.361842e-02
4.546145e-02
-8.505864e-02
-6.627107e-02
3.450012e-02
-1.335308e-01
-4.716649e-02
4.674018e-02
9.207822e-03
2.072786e-02
-2.223438e-02
-5.989172e-02
-7.804042e-02
1.727457e-02
-6.915936e-03
-2.927403e-02
-8.182657e-02
3.036446e-02
-2.653144e-02
6.670518e-03
-1.146888e-01
-4.543409e-02
4.472458e-02
-4.579564e-03
-8.642137e-02
7.626222e-03
-6.396309e-02
6.318546e-02
5.962194e-02
-1.107362e-01
-7.775237e-02
-1.250213e-02
-1.509209e-02
3.433873e-02
-9.777164e-02
3.251141e-02
5.333742e-02
4.108237e-02
5.375553e-02
3.090647e-02
-1.886543e-02
-7.228864e-02
-7.175333e-03
-4.760249e-02
5.845962e-02
-5.524634e-02
-1.665817e-02
-9.968451e-02
-2.951199e-01
-2.126852e-02
2.477570e-01
1.612253e-01
2.350419e-01
-2.629497e-01
-2.459642e-01
-1.113823e-01
1.294725e-01
-1.685810e-01
-3.029915e-01
1.546619e-02
-3.336895e-02
-5.831882e-03
-7.080403e-03
-2.926882e-01
5.184285e-02
4.559914e-02
-1.420768e-01
-3.203166e-01
-3.518754e-02
-2.327275e-01
-4.584220e-03
2.677580e-01
7.449466e-02
-5.383749e-02
-8.371736e-03
-9.734402e-03
-1.833360e-01
-1.707208e-01
-2.269782e-01
3.474066e-03
4.301504e-02
5.073122e-02
3.281223e-02
1.002938e-01
1.281352e-01
-7.270510e-03
-6.598955e-02
-3.538388e-01
-7.142413e-02
6.535290e-02
2.322797e-01
4.978557e-02
1.799457e-02
-1.427116e-01
5.634540e-02
5.632785e-02
-4.096175e-01
-2.248198e-02
2.205381e-03
1.836541e-01
-2.035094e-02
2.103444e-01
6.120108e-02
6.680568e-02
-1.229629e-01
4.907653e-02
5.926083e-02
-2.396594e-01
-3.659848e-01
-2.802221e-01
-3.479619e-03
-2.319550e-02
2.606824e-01
-7.990962e-02
5.988539e-02
2.643174e-01
-1.567182e-02
2.657326e-01
3.618892e-01
-7.887470e-01
-1.272448e-01
1.005462e-01
2.614101e-01
4.880331e-03
-8.412943e-02
-2.757573e-01
-2.054630e-01
1.041081e-01
1.001638e-01
-1.549716e-01
-4.735981e-01
-3.108578e-02
-3.161606e-02
2.548569e-01
4.112368e-01
-2.196421e-01
-1.587410e-01
2.371083e-02
-3.231606e-02
-1.956100e-02
9.926723e-02
-2.395657e-01
3.171130e-01
-8.313380e-02
7.303949e-02
-4.331784e-02
-4.974478e-02
-2.146638e-01
1.151777e-01
2.018328e-01
4.963957e-02
2.030262e-02
2.457786e-01
-3.230539e-02
-5.151514e-02
6.232554e-02
9.224425e-02
5.540185e-03
8.479166e-02
-1.742681e-01
3.258581e-01
-1.186933e-01
-6.528750e-02
-6.581203e-01
-2.993316e-01
-2.297583e-01
3.688554e-01
1.413621e-01
2.595126e-01
2.539676e-02
1.589937e-01
8.411095e-02
3.132045e-01
-1.664753e-01
1.311760e-01
6.395871e-03
-4.650717e-01
3.128488e-01
2.882078e-02
-7.477174e-01
-6.089251e-02
1.411873e-01
-3.732183e-04
-4.850358e-01
-3.279600e-01
-2.941976e-02
-3.897177e-01
2.576549e-02
-4.184954e-01
-6.582299e-01
3.010858e-02
1.950957e-01
-3.841406e-01
3.203967e-02
1.697959e-01
3.429795e-02
-8.068350e-02
-1.587889e-01
-2.354865e-01
-4.142389e-02
-1.344533e-01
3.313187e-01
-1.154828e-01
-1.763226e-01
-2.031663e-01
1.369497e-01
-1.601713e-01
-1.638851e-01
1.342532e-01
-2.629261e-01
2.407995e-01
-2.707655e-01
-2.190069e-01
2.535990e-01
-3.361836e-01
-5.675378e-02
-1.742752e-01
-6.626479e-02
1.553330e-02
-2.791481e-01
-4.263788e-02
3.174338e-02
2.485235e-01
3.000385e-01
-1.704776e-01
6.618454e-02
7.502294e-02
-1.537879e-02
-2.713613e-01
-9.635232e-02
-5.150294e-02
-8.444960e-02
4.374818e-01
9.994274e-02
1.795210e-01
5.459323e-02
1.640045e-01
-2.852975e-01
-1.151095e-01
3.100265e-02
6.498414e-02
7.558721e-02
2.781542e-01
2.173654e-01
-1.060089e-02
-4.310816e-01
-3.496491e-01
9.462749e-03
-2.408008e-01
3.082354e-01
1.229016e-01
6.582436e-02
-3.467106e-02
1.068610e-01
2.673206e-01
-6.243479e-01
-2.542593e-01
-3.742726e-01
-3.569838e-02
1.053686e-01
-7.789872e-01
9.884834e-02
1.207190e-01
-5.594874e-02
5.950531e-03
-6.516510e-02
-1.086378e-02
-3.287182e-01
5.557654e-02
-7.350087e-02
8.549719e-02
-1.279927e-02
-1.933860e-01
4.090309e-02
6.715143e-02
4.673981e-02
-1.175750e-02
-2.254329e-02
-1.023624e-01
1.555130e-02
-2.168956e-01
1.076250e-01
3.323484e-03
3.146195e-01
-4.455220e-01
-4.488454e-01
2.513039e-01
-2.269851e-01
3.156313e-02
-2.685813e-02
1.516242e-01
-1.619064e-01
-2.239079e-02
2.268460e-01
-8.908869e-03
-1.049730e-02
-3.130591e-01
1.690836e-01
3.403211e-02
3.223562e-01
-4.048872e-02
-7.116676e-02
-4.156317e-02
-7.827413e-02
-4.811678e-02
2.907537e-01
-3.840519e-01
-3.049764e-02
1.466554e-01
1.084940e-01
-2.297809e-01
2.796613e-02
3.817723e-02
-9.451616e-02
-7.447404e-02
-5.547538e-02
-2.706008e-01
2.626484e-01
4.922845e-02
-9.934169e-02
4.676954e-02
-1.751924e-01
3.957479e-01
1.921775e-01
-1.090264e-02
-4.294659e-02
-1.443088e-01
1.888825e-02
1.253370e-01
2.887835e-01
-1.905116e-01
1.932528e-01
1.399117e-01
-1.358716e-01
-2.172428e-01
3.122463e-02
-6.916416e-02
-2.735158e-02
6.255005e-02
-4.296041e-01
5.904932e-02
8.856852e-02
1.616256e-02
1.020674e-02
8.526877e-02
-6.035499e-03
-6.418601e-02
-2.903725e-01
-1.396927e-01
-8.677434e-02
2.485114e-02
1.572890e-01
-1.970891e-01
6.778505e-02
8.801505e-03
6.442891e-02
1.129739e-01
-7.615326e-02
-2.682672e-02
-1.951136e-01
-1.690112e-02
-2.087047e-02
1.853264e-01
-8.125467e-02
-7.042190e-03
-1.354724e-01
-1.707624e-01
-7.688084e-02
-1.951579e-01
2.619190e-02
-2.733237e-01
-1.331238e-01
-6.626284e-02
1.004593e-01
-2.652362e-02
-4.565157e-01
7.519494e-01
-2.541294e-01
-5.828034e-03
-1.566368e-01
-2.198274e-01
-1.702497e-02
1.475248e-01
-3.992476e-02
2.065714e-01
1.102418e-01
-1.158294e-02
1.716881e-02
5.585834e-02
-2.633901e-01
1.169163e-02
1.427379e-02
2.286014e-01
3.796744e-02
-7.388071e-02
8.163062e-02
1.827528e-01
-6.338140e-02
-4.419042e-02
5.135654e-02
1.589352e-02
3.490820e-02
2.676909e-02
3.275074e-02
-3.571613e-02
-5.925884e-03
3.969044e-02
9.308659e-02
1.774309e-01
1.137230e-02
-1.522281e-01
2.012482e-01
-2.429856e-01
-2.254152e-01
4.934427e-03
-1.282848e-01
2.071392e-01
-1.472014e-01
8.143781e-03
2.623400e-01
1.869387e-01
1.583200e-01
-1.360534e-03
2.805597e-01
-2.180090e-01
3.621957e-01
1.963455e-01
1.642476e-01
-8.380207e-02
-1.223236e-01
2.873015e-01
1.515094e-01
5.834404e-02
4.211167e-01
2.826877e-01
-8.401959e-02
1.386475e-01
-8.089998e-02
6.137957e-02
2.971686e-02
-1.171745e-01
1.719215e-01
-4.248331e-01
3.716575e-02
3.934704e-01
-1.577057e-01
1.800116e-01
-4.530626e-02
-9.260500e-02
-2.036368e-01
2.924227e-02
3.384806e-02
1.543486e-01
-8.067309e-02
-1.145292e-01
-7.384509e-02
-4.604010e-02
-1.050522e-02
3.027262e-02
2.974961e-01
-3.280317e-02
1.424521e-01
-3.398036e-01
-2.623845e-01
-1.638131e-01
-5.523129e-02
4.079128e-02
1.123282e-01
-4.042370e-01
-2.314727e-01
2.100767e-02
-3.991533e-02
7.690422e-02
1.902997e-02
8.769839e-02
-1.994164e-02
3.877061e-01
-2.814798e-03
-2.887753e-01
3.124135e-03
-1.388198e-01
2.079843e-03
-9.981523e-02
-1.112009e-01
2.705022e-02
-9.458407e-02
2.704935e-02
1.355770e-01
-1.931008e-01
2.168263e-01
6.465683e-02
1.044792e-01
5.189618e-02
2.752078e-01
-4.661489e-01
-1.610959e-01
9.415159e-02
1.932546e-01
1.763820e-02
-2.223514e-01
1.519987e-01
1.290682e-01
-3.208530e-01
1.935171e-02
-5.990639e-01
-3.850363e-01
8.795013e-02
-2.634621e-01
-4.749949e-02
4.998726e-02
9.634637e-02
-3.615043e-02
7.253183e-02
-1.040513e-02
1.377750e-01
-1.156636e-02
1.287625e-01
2.676249e-02
-2.038329e-01
6.820657e-02
-4.495325e-01
-2.894545e-01
5.286191e-02
-1.255779e-01
1.974827e-01
-1.509609e-01
2.960507e-01
1.292014e-01
-2.351655e-01
-1.394198e-04
4.171771e-02
-1.730243e-01
-6.921308e-03
-2.081009e-01
-6.872271e-02
-6.789142e-02
2.295702e-01
-2.199092e-01
1.469076e-02
-3.915915e-01
-9.456705e-02
-2.483765e-01
-5.065776e-02
-5.710277e-02
-2.408002e-01
1.554321e-01
6.819309e-02
1.453964e-01
3.245630e-02
-2.143124e-01
-2.758866e-01
-2.866728e-01
-2.882801e-01
-1.135514e-01
-2.198410e-02
2.242015e-02
-2.305165e-01
-2.387840e-01
5.756218e-02
4.513859e-02
-2.223937e-02
2.290932e-01
-2.154763e-02
-1.592328e-01
1.839641e-01
4.911957e-02
-2.962412e-02
-1.257548e-01
2.040716e-01
-2.103010e-01
-1.453661e-01
-1.155090e-01
5.890650e-02
-1.941409e-01
-5.112486e-02
-5.364810e-02
-7.522076e-02
1.055655e-01
5.159863e-02
-2.962564e-01
-6.070768e-02
-3.550157e-02
-7.061276e-02
-7.406632e-02
2.960145e-02
8.247326e-02
9.449477e-02
-5.999845e-02
3.316745e-01
-4.865033e-02
4.261825e-02
-3.271896e-01
2.290720e-01
-1.001517e-01
-9.975521e-02
-7.755168e-03
-4.015447e-01
-3.741108e-01
-1.523708e-01
9.858389e-02
1.179352e-01
-2.690919e-02
-2.100037e-02
-1.886352e-02
9.639530e-02
6.170249e-02
-1.302910e-01
-1.428190e-01
9.707046e-02
3.023981e-01
-2.561939e-01
6.468887e-02
7.294188e-02
-4.025229e-01
1.354655e-01
-2.552633e-01
-3.126343e-01
2.293354e-02
-4.955903e-02
8.837640e-02
-3.133567e-02
2.788886e-01
-1.819985e-01
6.915779e-02
1.506831e-01
-2.346115e-01
2.679139e-02
9.653397e-02
3.382903e-02
-2.962357e-03
-3.645186e-02
-1.471409e-03
3.061768e-02
-2.053755e-01
6.322069e-02
1.884473e-02
-1.293273e-01
-3.426395e-03
3.512790e-02
-7.410821e-02
1.155834e-01
2.194454e-01
-6.905986e-02
-1.561881e-01
1.950323e-01
-1.977448e-01
3.036798e-03
-1.421125e-01
1.447735e-01
6.956358e-02
-1.253752e-01
2.219712e-01
-5.925931e-03
1.668806e-02
5.785693e-01
-1.061050e-01
-2.057300e-01
9.809231e-02
3.517505e-02
4.960198e-02
-2.841346e-01
2.539489e-02
1.160924e-01
-1.644279e-01
2.687560e-01
-1.904151e-01
-3.483113e-01
2.130142e-01
5.219075e-02
2.415924e-01
-3.200991e-01
5.873213e-02
1.152613e-01
1.483144e-01
1.988268e-02
-8.146891e-02
1.849188e-01
1.130618e-01
-5.362577e-02
-6.829467e-02
1.447626e-01
2.748697e-01
6.224360e-02
1.929918e-01
-3.769130e-01
-2.908973e-02
1.879543e-01
1.802962e-01
2.554843e-01
2.080861e-02
-1.606303e-01
-3.427128e-02
-4.195431e-02
-3.637353e-03
4.820309e-02
6.712840e-02
2.788813e-01
5.253056e-02
3.510272e-03
1.958400e-01
-4.446708e-02
-6.192183e-01
-1.868344e-01
-4.595065e-01
8.377612e-02
3.658306e-03
-6.225844e-02
-1.303550e-02
-2.996385e-01
2.610330e-01
8.300378e-02
-2.336301e-01
-3.270324e-01
1.274140e-02
-3.769428e-01
-1.459167e-01
2.237897e-01
1.032977e-01
2.243447e-01
-1.603012e-01
-1.187102e-01
4.056883e-02
2.203106e-01
1.655011e-01
-6.395789e-02
2.544666e-02
-4.006107e-01
7.325524e-02
-3.704207e-01
1.014603e-01
1.699008e-01
-5.012121e-01
3.320252e-02
-6.267026e-01
-3.245750e-01
5.154314e-03
1.333564e-01
-3.122669e-02
-4.235146e-02
-1.167888e-01
1.102272e-01
-1.323172e-01
-2.691429e-01
-1.605570e-02
-2.621374e-01
1.878655e-02
1.720954e-02
1.308023e-01
-1.417071e-01
-2.859589e-01
6.176117e-02
-8.383530e-02
1.469155e-01
2.759710e-01
4.266738e-02
1.351158e-02
1.686940e-01
-4.611653e-02
-4.610071e-01
1.023490e-01
-3.669703e-01
2.591403e-01
-1.563040e-02
7.698547e-02
-3.615260e-01
2.982436e-01
3.701254e-01
-3.045161e-02
1.919717e-01
7.539675e-02
-5.362506e-02
-1.113055e-01
2.691527e-01
-1.864562e-03
8.488103e-02
3.026725e-02
3.170908e-01
-2.532214e-01
-3.963113e-02
-4.118085e-01
-2.112935e-01
-8.997438e-02
-3.892209e-02
-4.286936e-01
1.103509e-01
-2.843193e-01
9.889679e-02
-2.802341e-01
3.526004e-02
-1.849954e-01
1.698000e-02
-1.571333e-01
-2.303620e-01
-2.927524e-02
8.823952e-01
6.434820e-02
-5.453560e-02
-6.296524e-02
-9.064076e-02
-9.518220e-03
-1.062049e-01
3.268048e-01
-1.447959e-01
-2.177190e-01
-8.582057e-02
-2.048746e-01
5.949807e-02
4.765525e-02
-8.599750e-02
-5.589364e-02
-9.029104e-02
-4.086747e-01
-1.185292e-01
3.256151e-01
-2.220415e-01
-1.593208e-03
-3.659086e-01
4.309781e-03
5.110510e-02
1.881377e-01
7.341371e-02
-1.539172e-01
-7.954068e-02
-1.103218e-01
2.521053e-01
-8.266873e-02
7.018920e-02
-1.332774e-01
6.929710e-02
-9.613243e-02
-8.809368e-02
-1.034097e-01
7.727642e-02
9.359596e-02
1.141804e-01
-1.546469e-01
-1.343025e-01
-9.296168e-02
-1.203309e-01
-2.451293e-01
1.957821e-01
-1.626651e-02
-1.983287e-01
1.748451e-02
4.680106e-02
4.299910e-02
-7.935492e-02
-9.902735e-02
2.071514e-01
1.112951e-01
2.024918e-01
-1.236212e-01
5.096873e-02
-3.107067e-01
3.520775e-01
7.339328e-02
-1.784075e-01
2.242522e-02
-5.944490e-02
1.223439e-02
2.497852e-02
-1.042805e-03
-1.131220e-01
-1.129538e-01
-2.633374e-01
-5.453163e-02
-6.728412e-02
4.177603e-01
-5.706979e-02
7.557178e-02
4.631050e-02
-7.806116e-02
3.543641e-02
1.627101e-01
-3.923482e-02
8.892721e-02
-2.398306e-01
-6.704608e-02
-6.145341e-02
-1.085980e-01
-2.298215e-01
-3.569609e-01
8.652412e-02
2.141942e-02
2.471867e-02
9.526306e-02
-1.336863e-02
-4.753111e-01
1.188845e-01
7.118917e-02
-8.372192e-02
-2.072759e-01
-2.335142e-01
4.853353e-02
-2.149821e-01
-1.109982e-01
3.814549e-01
2.182844e-01
1.320754e-01
-5.335434e-02
-3.782471e-02
-6.225646e-02
-4.062676e-02
1.003961e-01
1.037718e-01
4.804152e-01
-1.107427e-02
-1.018698e-02
-3.301110e-01
2.035271e-01
1.189534e-01
-2.105540e-01
-4.281666e-01
3.598632e-01
-2.849225e-02
-7.284534e-03
1.843552e-01
3.171282e-01
4.028798e-01
-6.546492e-02
-2.364817e-01
2.450058e-01
-1.821465e-01
-8.048483e-03
-3.012296e-01
-1.770163e-01
-9.603263e-02
3.044373e-02
-2.336598e-01
1.682310e-01
-3.525459e-02
2.145701e-01
-2.640860e-02
-2.310524e-01
-8.322754e-02
-5.328476e-02
-1.998311e-01
6.055681e-02
-1.449678e-02
4.299217e-02
3.970107e-03
1.461875e-01
2.472082e-03
1.793660e-01
1.137780e-01
5.539103e-02
-8.098338e-02
-9.611321e-02
-1.214826e-01
-5.999156e-02
6.953610e-03
-6.785305e-02
9.612327e-02
-4.556288e-02
-6.984101e-01
1.553330e-02
1.635629e-01
-1.286168e-01
-1.957352e-01
-3.110246e-01
-9.652711e-03
6.390821e-02
5.597650e-02
3.314139e-01
-6.383158e-03
2.193047e-01
-6.529427e-02
3.838764e-02
7.585441e-02
7.446757e-02
-2.310265e-01
-3.394512e-01
4.154187e-02
-1.989970e-01
1.205263e-01
-8.821827e-02
-1.116815e-02
-4.372233e-01
5.875492e-02
-5.627635e-01
-1.121613e-01
-1.891971e-01
-9.122605e-02
-2.540478e-02
6.522148e-02
-2.196513e-01
5.740298e-02
-7.339553e-03
1.120030e-02
2.175678e-01
6.822152e-02
5.166886e-02
4.174795e-01
2.283949e-01
2.372276e-01
5.370124e-02
2.792599e-01
4.326083e-02
1.140014e-01
7.561740e-02
1.074235e-01
6.116722e-02
-2.568926e-02
1.914172e-01
-1.027464e-01
5.289293e-02
-6.247203e-02
1.497838e-01
-1.863409e-01
2.059637e-02
4.507436e-01
4.725363e-03
-1.091737e-01
-9.929612e-02
-5.676649e-02
-9.755198e-02
-1.406314e-01
-2.644552e-01
1.675771e-01
3.556980e-01
2.189972e-01
1.161597e-02
-8.207451e-02
1.606442e-01
-1.111453e-01
4.550030e-02
-1.684123e-01
-1.972339e-01
2.379777e-01
2.024342e-01
-3.575690e-01
2.422270e-01
-1.210846e-01
-3.771220e-01
-1.223405e-02
3.347881e-03
2.358966e-02
-4.826206e-02
-9.855008e-03
-7.467017e-02
-5.764874e-03
-4.253443e-01
1.515215e-01
2.316964e-01
8.415169e-02
-1.034858e-01
4.061685e-02
5.078699e-02
1.268264e-02
8.488943e-02
7.272850e-02
-6.670420e-02
6.077366e-02
2.626177e-01
-2.104062e-01
-2.120702e-02
-1.481991e-01
2.849166e-02
-6.143803e-04
-6.022376e-02
-8.092368e-02
-1.810036e-01
-1.119883e-01
7.139646e-02
-3.967799e-02
6.833382e-02
4.288309e-02
-3.025444e-01
2.216253e-02
-8.794186e-02
7.554784e-02
1.474526e-01
-4.928630e-02
8.065212e-02
5.725623e-02
-8.881705e-02
-1.461485e-01
-3.041469e-01
4.672104e-02
-3.403257e-01
-3.032113e-02
-6.677291e-02
1.049184e-01
-5.523052e-02
4.199183e-02
-3.435978e-01
1.198073e-01
7.440607e-02
-3.015702e-01
-1.248340e-02
-1.253917e-01
-2.814739e-01
8.527578e-02
-3.810186e-01
-3.488670e-02
-3.085849e-01
6.909420e-01
-1.387592e-01
3.484675e-02
-1.965862e-02
-3.650298e-01
-2.013596e-01
1.356988e-01
5.970642e-02
2.722375e-01
3.104874e-01
-7.286725e-02
-3.547963e-02
-2.956422e-02
-2.287938e-01
-7.842055e-02
9.441555e-03
-3.241527e-01
4.001257e-02
-2.256864e-01
6.979690e-02
-5.742364e-02
4.528871e-02
-3.268054e-01
-4.079226e-02
3.001260e-01
-3.043951e-01
-9.941976e-03
4.333523e-02
-1.219187e-01
-2.498302e-01
1.608870e-01
-2.051049e-01
3.429025e-02
2.053576e-02
1.651229e-02
-2.256070e-02
-2.604611e-02
-2.772015e-02
-2.802680e-01
7.296662e-02
1.993851e-01
5.794187e-02
2.146886e-01
-1.041969e-01
-1.150521e-01
-1.861526e-01
-9.933274e-02
1.032027e-01
-3.954003e-03
2.623949e-01
5.898967e-02
-2.832577e-04
-2.287713e-01
-6.427632e-02
5.285689e-02
-2.934180e-01
3.226861e-02
-1.043420e-01
1.295912e-01
1.108283e-01
-8.004787e-02
1.295082e-01
-4.281874e-02
-6.632663e-02
-7.338235e-01
2.082902e-02
-2.810608e-02
-3.525268e-01
-1.381892e-01
-8.070630e-02
3.532504e-02
2.273625e-01
2.421475e-01
1.936784e-01
-5.543807e-02
5.821765e-02
1.431441e-02
-4.685872e-02
-6.023698e-02
-3.207314e-02
-2.526283e-01
-1.279809e-02
-7.481287e-02
-4.132275e-02
-8.111205e-02
-3.641409e-02
-2.823922e-01
-2.267285e-01
-1.189249e-01
-4.151221e-02
6.168451e-03
5.077223e-02
-2.699890e-01
-2.603954e-01
-1.375770e-02
-9.459157e-02
1.461828e-01
-1.481637e-02
-3.717712e-01
5.720134e-02
9.224200e-02
-1.909058e-01
-3.329012e-01
8.147322e-02
-2.786146e-02
-3.197581e-02
-1.186601e-01
3.851568e-01
-6.594970e-02
2.162697e-01
2.644084e-01
-6.798349e-02
1.740067e-01
2.428990e-01
-2.924437e-02
-7.477348e-02
-1.431412e-03
-3.110893e-01
-3.354901e-02
2.487541e-01
-1.886763e-01
-3.100936e-01
5.599594e-02
-6.582132e-01
9.047280e-01
1.322721e-01
-1.026985e-01
-3.282509e-02
-4.787916e-01
-2.354887e-01
-9.324674e-02
2.210193e-01
7.626454e-02
9.670857e-02
-4.719725e-02
6.942500e-02
2.616552e-01
-3.190949e-01
5.143638e-02
-3.533176e-02
-2.491812e-01
8.823982e-02
1.800861e-01
1.719929e-02
-3.231794e-01
7.326455e-02
-2.066314e-03
1.723633e-01
7.275147e-02
1.305195e-01
1.065136e-01
-1.936057e-01
-1.324605e-01
-2.747780e-02
-7.620686e-02
-3.653216e-02
-2.634155e-01
-2.682361e-01
-2.062836e-01
3.820699e-01
1.626451e-01
-1.759052e-01
-2.510354e-01
1.160369e-03
3.033600e-01
2.234643e-01
3.747143e-02
-7.744601e-02
-1.617699e-01
-1.579828e-01
2.055139e-01
2.154584e-01
-1.846544e-01
6.974411e-02
1.850364e-01
1.149636e-01
-8.463661e-03
-2.112620e-01
3.405777e-02
-4.286805e-02
-4.571257e-01
-1.463602e-01
-2.052958e-01
-8.576588e-02
-1.575716e-01
-1.023883e-01
-1.273279e-01
-1.752344e-01
-9.073810e-02
3.113887e-01
-1.056988e-01
-5.899706e-02
1.145417e-01
2.541761e-01
2.943122e-01
3.188923e-02
7.203076e-03
9.734521e-02
1.468710e-01
-1.067359e-02
-2.288224e-01
3.654820e-02
-4.872833e-02
1.565317e-01
-8.061293e-02
2.345202e-01
-7.272523e-02
7.122529e-02
-5.437073e-02
-2.760259e-02
5.049656e-02
-2.426421e-01
-1.238360e-01
-5.925987e-02
-5.424426e-02
1.645042e-01
-2.044848e-02
6.549894e-02
-2.694918e-01
-5.199667e-02
-2.986283e-01
9.897114e-02
2.659073e-01
-4.925740e-01
-4.763971e-02
-7.891319e-02
2.768468e-01
2.243321e-02
5.752409e-02
3.725979e-01
-7.010430e-03
-4.983464e-02
1.364831e-01
-6.460000e-02
-1.181375e-01
-1.535564e-01
1.787817e-02
1.189287e-01
1.363743e-01
-2.217158e-02
5.245996e-02
-1.366265e-01
-2.678581e-02
1.611936e-01
2.573140e-02
-1.485198e-01
8.230134e-02
-7.511024e-02
9.754252e-02
1.646370e-01
-4.826044e-02
1.438464e-01
2.952309e-01
-1.241756e-01
-8.939996e-03
-8.251160e-02
1.202975e-01
-4.980055e-01
-7.837546e-02
-4.296273e-02
-8.809771e-02
8.485819e-02
-1.016424e-01
-2.781272e-02
-1.154128e-01
1.942043e-01
-2.940138e-02
-2.901053e-01
3.391528e-01
-3.889812e-02
2.458595e-01
-5.115913e-01
-3.345656e-02
-5.337810e-02
-1.885143e-01
-7.311857e-02
-1.153315e-01
7.409184e-02
-2.561683e-01
-1.688210e-01
-4.963636e-01
-3.180620e-01
5.026781e-03
8.493807e-02
-4.403144e-01
-3.138954e-01
5.481552e-02
-7.783759e-02
1.644442e-01
-2.842823e-01
1.677160e-01
3.855349e-02
2.406140e-01
-1.616340e-01
1.598002e-01
4.309020e-02
2.317527e-01
-2.792732e-01
2.206580e-01
-9.607527e-02
-2.496896e-01
-4.564587e-01
7.963033e-02
2.271744e-02
-3.101370e-01
-1.667617e-01
2.388279e-01
1.779578e-01
1.389363e-01
4.106392e-01
-2.566791e-01
1.907702e-01
-1.041046e-02
-1.682653e-01
-1.870109e-01
-2.780127e-01
-1.083100e-01
2.189204e-01
1.023010e-02
-3.971788e-02
1.965682e-01
2.227392e-02
9.030890e-02
-7.248028e-02
6.396820e-02
3.259488e-03
2.849621e-01
-1.898813e-03
2.135057e-01
-7.068417e-02
-3.921850e-02
1.874685e-01
3.403672e-01
8.302153e-02
3.459684e-03
3.389950e-02
-5.373193e-02
6.364359e-02
1.022315e-02
1.932232e-01
-5.992053e-01
8.116987e-02
1.973675e-01
2.092961e-01
-7.634209e-02
1.128868e-02
1.458076e-01
-7.634737e-01
1.946295e-02
1.711689e-01
-1.322653e-01
-2.879177e-02
3.344019e-01
-2.113742e-02
7.688194e-03
-3.356751e-02
3.781081e-02
-1.862648e-01
1.523281e-01
5.444090e-01
-5.436646e-01
6.841712e-02
-4.995500e-02
3.350237e-01
1.819366e-01
5.467030e-02
1.897124e-01
-5.489751e-02
-1.426641e-01
2.159362e-01
2.159629e-02
1.269867e-01
2.005503e-02
1.802942e-01
5.986454e-02
7.947482e-02
1.985707e-02
-3.869464e-01
-1.464461e-01
-4.930272e-03
-5.206310e-01
6.184319e-02
1.533393e-01
1.254807e-01
6.616388e-02
1.277567e-01
-1.592684e-03
-4.544132e-02
-7.275579e-02
1.099430e-01
2.469025e-01
-6.892460e-01
-1.542080e-01
5.886146e-02
-2.869344e-01
1.501667e-01
-6.003937e-02
-2.254079e-01
-4.867830e-02
-3.737052e-01
5.537930e-02
1.420984e-01
-1.651475e-01
4.170481e-02
-8.542850e-03
9.664548e-02
6.807695e-02
-2.241373e-01
-1.805438e-01
-2.137478e-01
-2.315712e-02
4.098115e-02
2.251262e-01
5.801798e-02
-1.158157e-01
3.082664e-02
-2.694026e-01
2.836463e-02
1.713045e-01
8.748674e-02
-1.439797e-01
1.676492e-01
-1.964535e-01
-7.785148e-02
-2.249898e-01
4.853648e-01
2.606443e-02
1.260222e-01
1.949687e-01
2.427234e-01
-1.369342e-01
-1.378580e-01
-5.660303e-02
2.206933e-01
1.393062e-02
2.970356e-01
1.597078e-01
1.536944e-01
-4.866188e-01
7.353085e-02
8.647420e-02
-7.136508e-02
-3.941499e-02
7.475718e-02
-2.075995e-02
2.384127e-01
8.434504e-02
2.421933e-01
2.259021e-01
-5.993548e-02
1.502853e-03
-1.320760e-01
-2.467933e-01
1.208097e-01
-9.325129e-04
1.236093e-01
-1.473874e-01
-4.899970e-02
-4.954616e-01
1.829451e-01
8.561558e-02
-1.405145e-01
-3.889811e-02
-1.182139e-01
4.652916e-02
-2.813424e-02
1.813478e-01
-1.694510e-01
2.927137e-02
-1.582291e-01
-2.014785e-01
9.332887e-03
1.951966e-02
2.334983e-01
-5.768571e-02
-2.138578e-01
6.480458e-02
1.178208e-01
-1.138965e-01
-1.262761e-01
-2.403171e-02
1.468834e-01
5.236255e-02
-1.931203e-01
-1.091388e-01
-4.443842e-01
-3.680162e-02
-5.900197e-02
-4.335770e-01
-7.709941e-02
-1.840116e-02
9.221780e-02
-5.940017e-02
1.643407e-01
1.626896e-01
-1.855888e-02
5.175273e-01
3.768072e-01
9.191220e-02
1.015038e-01
1.023407e-01
-7.036316e-02
-3.257066e-01
8.556075e-03
-9.144876e-02
2.885420e-01
-4.970672e-02
-4.606066e-01
-1.965033e-01
1.071853e-01
-7.495233e-02
-3.740458e-02
2.446614e-01
-4.289184e-02
8.530538e-02
1.567333e-01
2.013779e-01
1.697051e-02
-5.119967e-03
-2.532983e-01
-1.371212e-01
2.510282e-01
2.264668e-01
-3.877580e-01
-1.384235e-01
-2.690340e-01
5.080541e-02
-4.984544e-01
-2.333021e-01
1.258652e-01
-2.571498e-01
-9.416378e-02
5.810484e-02
5.835492e-02
-3.071048e-02
2.620026e-02
1.372347e-01
2.792483e-01
3.951304e-02
-8.528043e-02
4.378520e-01
1.206729e-02
4.455594e-02
-2.398743e-02
1.222213e-03
1.319737e-01
-1.441012e-01
1.635999e-01
-3.162621e-01
-2.613902e-01
2.355237e-02
1.026978e-01
-7.586146e-03
-1.603503e-01
7.193354e-02
-2.370362e-01
-2.508672e-01
-7.416980e-02
-1.840250e-01
9.195136e-02
-5.629682e-02
3.645777e-02
1.004988e-01
-2.589238e-02
-6.040344e-02
7.466746e-03
2.059800e-01
2.420723e-01
8.972017e-02
-1.108710e-02
-6.375293e-02
-2.010317e-01
-3.227140e-01
2.926351e-01
-2.786266e-02
-3.451646e-01
-1.618636e-01
4.597258e-02
1.788910e-01
1.893294e-01
6.648377e-01
-1.971394e-01
-7.112953e-01
-2.475703e-01
1.833049e-01
-2.839031e-03
1.227876e-02
1.428255e-01
8.693433e-03
-4.224614e-01
-3.374264e-01
-6.428213e-02
-2.862335e-01
3.619561e-01
-4.406893e-02
9.472355e-02
-3.066368e-02
-3.067731e-02
-1.477023e-01
-3.605841e-02
1.817633e-01
-3.538779e-01
-5.899623e-02
-1.198162e-01
-1.024147e-01
8.062147e-03
-8.784246e-02
-3.552295e-02
1.769982e-01
6.765220e-02
-3.115072e-02
-3.015466e-01
-2.375531e-02
1.314906e-01
-2.866435e-03
-4.581466e-03
1.386675e-02
2.940249e-01
6.947995e-02
1.683113e-02
2.559416e-01
7.028611e-02
-6.339531e-04
1.103258e-01
1.098529e-01
-4.410114e-01
-8.289745e-02
-2.015170e-01
-4.598102e-01
9.938771e-02
-2.666903e-02
-9.330630e-02
-3.247137e-02
-5.498058e-02
1.419636e-01
-1.152138e-01
-3.291931e-01
8.579234e-02
-1.283301e-01
8.304416e-04
1.455382e-03
-1.806047e-01
1.896622e-02
2.181401e-01
1.836893e-01
1.988740e-01
6.284370e-02
3.092971e-01
-1.682268e-01
8.984151e-02
5.905260e-01
2.352085e-01
-3.317494e-01
1.468490e-01
2.938964e-02
-5.552726e-02
-1.014728e-02
-1.257098e-01
1.497492e-01
3.514969e-02
-4.045057e-01
1.873598e-01
3.189531e-01
-9.172266e-02
5.574076e-02
-3.094587e-02
1.027226e-01
-1.059157e-01
3.165787e-02
-3.715315e-02
-2.436369e-01
9.003641e-02
1.354836e-01
1.027634e-01
1.126225e-01
-2.567908e-02
1.787660e-01
-8.879537e-02
5.663554e-02
3.707694e-02
6.388086e-02
-3.749751e-02
4.590875e-02
-1.293042e-01
5.617012e-02
1.855782e-01
9.185980e-02
1.088675e-01
1.528299e-01
1.301264e-02
7.920657e-02
-2.156056e-01
1.887054e-01
3.327649e-01
3.100693e-02
5.872861e-01
-2.304117e-02
-4.314159e-02
-6.789911e-02
-2.021966e-01
-1.292209e-01
3.149652e-03
-9.567119e-02
-1.771585e-01
9.787234e-02
-1.150461e-01
-7.242396e-02
-2.460031e-01
-6.329755e-02
2.282045e-01
1.954429e-01
-1.072873e-01
1.494942e-01
-2.338233e-01
2.783588e-01
-1.569782e-01
-2.039533e-02
5.627514e-02
-9.322934e-03
-1.576777e-01
3.031122e-01
9.188052e-02
-2.302066e-02
2.576108e-02
-1.160870e-01
-8.847711e-02
-5.426729e-03
7.837123e-02
3.666848e-01
8.003061e-02
3.261122e-02
4.130183e-01
3.962083e-02
-5.861023e-02
-8.169129e-02
7.183816e-02
-3.032053e-01
6.427984e-02
-5.591501e-02
4.868876e-02
-1.971363e-01
5.012202e-02
1.125654e-01
-1.609140e-02
1.780575e-01
2.009675e-01
9.421706e-02
2.825297e-01
2.453242e-01
-2.721322e-01
7.725210e-02
-1.724570e-01
-1.538552e-01
3.477967e-02
-9.530929e-03
-8.467998e-02
-6.336406e-02
-2.005084e-01
2.057220e-01
-9.672874e-02
-2.014919e-01
-2.814085e-01
-2.988025e-01
-1.614714e-01
4.028263e-01
2.220169e-01
-1.721707e-02
-1.266168e-01
1.197266e-01
-1.539783e-01
1.049373e-01
1.075121e-01
-1.377565e-01
1.887852e-01
-5.003960e-02
-6.547244e-02
-2.023206e-01
-2.602838e-01
9.016613e-02
7.988870e-02
-2.034328e-02
-1.564804e-01
-4.344883e-01
6.406419e-02
-4.368364e-01
9.126046e-02
1.887576e-02
8.626348e-02
-1.442606e-01
1.262935e-01
-8.551564e-02
-3.650110e-01
1.255366e-01
6.332570e-02
1.877383e-01
1.973820e-01
1.305765e-01
4.359138e-01
-1.538743e-01
1.999155e-02
1.285724e-01
-9.251960e-03
-4.957648e-02
-2.926518e-01
5.039356e-02
-2.499616e-02
1.305141e-01
5.150839e-02
-9.786192e-03
4.613928e-02
2.682439e-02
-1.876720e-01
-4.211054e-01
3.769612e-02
2.300068e-02
7.422227e-03
-1.546555e-01
-1.044432e-01
-1.013346e-01
-2.424324e-01
-1.668859e-01
1.142758e-01
8.487971e-02
-5.874316e-02
4.652862e-02
3.669859e-02
5.833120e-02
-2.529585e-01
-4.564486e-03
2.231387e-01
-3.025489e-01
1.143289e-01
7.124577e-02
2.943926e-02
-1.437209e-01
-1.733493e-01
-2.749333e-02
-8.080366e-03
-1.103564e-02
8.886632e-02
-5.218391e-02
3.346611e-01
6.818701e-02
8.125017e-02
-1.902672e-01
-7.244468e-02
-1.203360e-01
-1.078657e-01
-1.679231e-02
8.319730e-02
9.652644e-02
5.947099e-01
5.641684e-02
-1.302474e-01
-4.725073e-03
4.475740e-03
-5.652337e-02
2.915604e-02
-1.323758e-01
8.425924e-03
-3.091267e-02
6.886538e-02
-3.143856e-01
-3.768975e-03
3.263710e-01
1.194812e-01
-4.372438e-02
-3.950907e-01
-2.365895e-01
8.890939e-02
4.350131e-01
-9.520308e-02
-1.181020e-01
1.055634e-01
1.736493e-01
3.369058e-01
1.948146e-01
-1.843162e-01
1.484737e-01
6.863461e-02
8.985227e-02
7.259567e-02
-2.793352e-01
2.472125e-01
1.693356e-01
-5.559338e-03
1.036126e-01
-3.533370e-01
1.312666e-01
-7.903107e-02
-1.237099e-01
6.183740e-02
2.596059e-01
1.275780e-01
-2.051326e-01
-7.834576e-03
3.295223e-01
3.941202e-02
3.698010e-02
-9.576163e-02
-4.298808e-02
-2.997135e-02
-3.619013e-01
-8.400252e-03
6.409340e-02
4.938485e-01
9.620047e-02
1.510384e-01
-1.048643e-01
2.773852e-01
3.191065e-01
-2.429954e-01
2.999365e-01
1.086405e-01
2.924599e-01
2.276211e-01
4.696810e-02
4.507111e-02
-1.048919e-01
5.908693e-02
-1.618975e-01
-4.358209e-02
2.983557e-02
1.981628e-01
-1.433383e-02
1.239362e-01
1.451193e-01
2.231164e-02
-2.302385e-02
-2.342902e-02
4.412778e-02
-8.895526e-02
-2.056500e-01
-8.924815e-02
-5.285881e-02
2.738563e-01
-2.873818e-01
-4.417473e-03
-7.092723e-02
2.203678e-01
-1.816667e-01
-5.502367e-02
1.769284e-01
-2.719730e-01
-2.046490e-02
4.965661e-02
2.949636e-01
-1.422196e-01
-5.080517e-02
-3.649781e-01
-7.177412e-02
-9.046778e-02
-5.009722e-02
3.697132e-01
-2.832794e-01
-2.711939e-01
3.713989e-02
1.878334e-01
2.679642e-01
3.648513e-02
4.042142e-02
-6.793875e-02
-7.190416e-03
8.464932e-04
9.107171e-02
-1.043767e-02
-5.804375e-02
6.998886e-02
6.541122e-02
2.478194e-01
3.903862e-03
-1.006171e-01
4.132535e-03
1.563258e-01
-2.237916e-02
-5.150163e-02
2.094453e-01
1.747740e-01
3.171500e-01
5.465128e-02
2.505110e-01
-8.164194e-02
-2.504028e-02
-7.954591e-03
-3.445869e-02
-3.708934e-02
3.830005e-02
-6.379007e-01
3.587644e-02
-3.718938e-02
-3.503707e-02
2.327402e-01
1.673333e-01
-3.844839e-02
-1.872892e-01
2.104977e-01
-4.277209e-03
1.409809e-01
-1.307506e-01
3.227197e-01
-1.870539e-01
7.210135e-02
2.156409e-01
-7.183185e-01
-8.649994e-02
-1.617645e-01
3.240512e-02
-3.703220e-01
-1.128519e-01
-1.368706e-01
-1.621301e-02
-1.685841e-01
-9.056871e-02
-1.454578e-01
3.020639e-01
-1.846125e-01
-2.334505e-02
9.003881e-03
2.125794e-01
4.346649e-02
5.332003e-01
1.853401e-01
1.482484e-01
5.345856e-02
-1.477571e-01
2.254706e-01
1.359984e-02
6.568678e-02
-1.549063e-01
8.309390e-02
7.311743e-02
2.617668e-01
1.110482e-01
4.549153e-02
-2.045954e-01
-1.682243e-01
-1.136107e-01
1.259145e-01
-3.745344e-01
2.864125e-03
1.284069e-01
3.118439e-02
-6.553851e-02
1.831061e-01
-5.137689e-02
-1.090134e-02
1.631421e-01
1.019248e-01
2.341618e-01
-7.730611e-02
-2.499073e-02
-4.300079e-02
-2.602093e-01
6.066127e-01
5.743752e-02
-1.924872e-01
5.050405e-02
7.068813e-03
8.962341e-02
-2.253507e-01
2.202630e-01
-3.081659e-01
-3.649464e-01
1.055912e-01
1.627849e-01
2.587336e-02
-8.896909e-01
-1.104873e-01
-4.553916e-02
3.112876e-02
-5.658525e-01
-6.744877e-02
7.259687e-02
4.422556e-02
4.402459e-01
3.212882e-02
-2.919425e-02
1.827893e-01
4.236411e-02
4.757159e-02
-1.801952e-01
-4.703974e-01
-1.974277e-02
1.768523e-01
-7.608759e-02
2.973093e-01
6.064817e-02
-1.158417e-01
-3.833129e-01
3.218740e-01
-3.869463e-02
2.248506e-01
-5.804031e-03
2.268360e-01
3.264678e-02
-2.944756e-02
1.427436e-01
-4.294699e-02
-6.038474e-02
4.757968e-02
-1.896328e-01
1.022369e-01
2.168493e-02
1.117061e-01
-1.003188e-01
-3.235919e-01
-5.832717e-03
1.487655e-01
-2.670677e-01
1.722815e-01
-3.737827e-01
1.744956e-03
-8.516898e-02
2.309665e-02
4.410785e-01
7.389987e-02
1.013538e-01
1.291995e-01
2.251641e-02
-9.447471e-02
-1.426932e-01
-4.699003e-03
-1.473459e-01
-1.990555e-01
6.396469e-03
2.264050e-01
-1.398472e-02
-1.611518e-01
2.098607e-01
-2.043623e-01
-8.825708e-02
-3.339197e-01
-7.085157e-02
-2.289046e-01
2.772909e-01
-5.252218e-02
-7.023565e-02
-3.724349e-01
-3.745352e-02
-9.422053e-02
6.689201e-02
2.403766e-01
-7.803705e-02
3.740223e-02
-2.402999e-01
1.575236e-01
2.417507e-01
7.944874e-02
1.913664e-01
-7.206269e-02
-5.563002e-01
1.709744e-02
8.683264e-02
-1.871876e-01
-5.706628e-01
6.447452e-02
6.459123e-02
9.920996e-02
-4.166041e-01
8.682881e-02
7.819361e-02
6.042120e-02
-3.020515e-02
-1.212308e-03
8.902830e-02
-4.658569e-01
1.280987e-01
2.696577e-02
8.051203e-02
3.974132e-02
4.306862e-02
-1.158577e-01
-2.679963e-01
4.582187e-02
-6.341153e-03
6.483131e-01
-5.555118e-02
-1.052923e-01
8.139819e-02
-3.057580e-01
6.889941e-02
-4.182011e-01
1.161747e-01
3.089352e-01
1.045280e-01
-5.219670e-03
8.223228e-02
-1.694274e-01
4.201951e-02
1.055961e-01
-8.267239e-02
-1.686421e-02
-2.223977e-01
-3.296238e-01
-4.895500e-02
9.955894e-02
-2.923628e-02
1.547726e-01
-3.094594e-01
-2.301785e-01
2.979358e-01
-6.226744e-02
-4.336542e-02
-3.156117e-01
-3.680220e-01
-2.120069e-01
1.711721e-01
5.255766e-02
-3.109179e-01
1.471039e-01
6.918903e-03
4.007628e-01
2.196661e-01
-5.085601e-01
-2.138601e-02
-2.553473e-02
-3.330445e-01
8.204387e-02
-3.550400e-02
-1.084958e-03
-3.111738e-01
-1.777074e-02
-8.946981e-02
3.203889e-02
-1.471899e-01
3.093935e-02
-1.166928e-02
-1.623442e-01
-2.445583e-02
1.868503e-01
-1.881786e-01
-1.944569e-01
-2.320245e-01
-7.600896e-02
-3.874230e-02
-3.705795e-01
-3.305489e-01
-2.924913e-01
-4.624924e-02
-6.280210e-02
-4.555535e-02
-1.900748e-02
-1.541618e-01
-7.916506e-02
4.304136e-03
5.312061e-04
-9.054452e-02
1.526766e-01
-9.150416e-02
-1.456811e-01
6.748012e-02
2.775546e-01
-1.784606e-01
-1.063352e-01
1.712013e-01
-9.580269e-02
-1.637937e-01
-6.614673e-02
2.672843e-01
7.359930e-02
-8.068123e-02
-3.817147e-02
2.398737e-01
1.532907e-02
-5.684764e-01
4.539993e-01
2.909157e-01
-2.375731e-02
-6.234546e-03
2.002320e-01
-2.899417e-01
9.763068e-02
1.489259e-01
3.169319e-01
6.587982e-02
1.183084e-01
1.835637e-01
-7.608916e-02
-4.504391e-01
-2.452939e-02
-3.101907e-01
-3.623009e-02
3.643557e-02
-8.351757e-02
-8.118200e-02
3.927113e-03
-1.871342e-02
1.238687e-02
2.220619e-01
-3.036325e-02
1.772319e-02
-4.343534e-01
2.191615e-01
-9.392294e-02
-3.739138e-02
3.044674e-01
-2.682946e-01
-3.689856e-02
-1.889173e-01
6.513016e-03
-2.770884e-01
-9.551877e-02
-1.156538e-01
2.192774e-03
2.454165e-01
-3.673328e-02
2.244298e-01
-2.989215e-01
-7.144847e-02
4.986773e-01
-3.398536e-01
-1.890241e-01
2.773933e-02
-3.565951e-02
-2.391238e-01
-2.323898e-01
7.896122e-02
-4.493573e-02
-7.400263e-02
2.264799e-01
-1.576802e-01
-7.312679e-02
-4.250209e-02
1.589213e-01
-7.599276e-02
-1.730053e-02
7.260690e-01
-6.326567e-02
-5.783811e-01
3.770711e-01
-2.486504e-02
3.188119e-01
1.645368e-01
-4.833380e-02
6.159658e-02
-2.869315e-02
-2.049228e-02
-4.656792e-02
-3.555260e-01
4.673770e-03
-3.683360e-01
4.039442e-02
6.141252e-02
2.400884e-02
-1.046671e-01
4.038591e-01
-7.518315e-02
-2.629547e-01
-1.205985e-01
2.534284e-02
-4.410631e-01
-2.567406e-01
4.338828e-02
1.107967e-01
1.136583e-01
-1.099886e-02
-5.373065e-02
1.442406e-01
-1.359345e-01
-1.806904e-01
-1.816861e-02
1.044001e+00
2.372144e-02
-2.450843e-01
1.596166e-01
-4.349178e-01
7.313500e-02
-1.859023e-01
-7.092947e-03
2.016104e-01
-5.091648e-02
-3.829773e-01
7.880302e-02
1.829800e-02
1.850961e-01
7.962871e-02
-2.447618e-01
5.488719e-02
-9.578139e-02
6.260160e-02
1.705994e-01
3.564056e-02
1.132894e-01
7.826743e-02
1.842571e-01
1.801687e-01
-4.891197e-02
3.348539e-02
1.104296e-01
3.809070e-01
-3.271870e-01
1.408784e-01
-7.141304e-01
-1.231443e-01
8.125123e-02
-1.016954e-01
2.918088e-01
-8.022740e-03
-4.913951e-01
2.128734e-02
-2.324615e-01
-9.747904e-02
2.465643e-02
-2.738183e-01
-7.135216e-02
4.399540e-02
7.998136e-02
1.980285e-01
1.640943e-01
-4.634786e-03
-8.676526e-02
-5.922426e-01
4.651687e-01
-5.640388e-01
8.712510e-02
-2.866860e-01
-4.903166e-02
1.151049e-01
3.418649e-02
2.091713e-01
1.587631e-01
2.930742e-01
1.733784e-02
-7.272168e-01
6.539850e-02
-3.866698e-03
-5.096834e-02
4.353093e-02
-1.017580e-02
-5.395880e-02
-1.375647e-01
3.346555e-02
1.523404e-01
4.327949e-02
-1.631207e-01
-7.828722e-02
3.888837e-02
6.521117e-03
2.293214e-01
1.348579e-01
-1.538172e-01
2.738477e-01
7.273851e-02
-5.523388e-02
-3.385708e-01
-3.512008e-01
1.680566e-01
-1.471793e-01
7.912546e-02
-3.706184e-01
4.652515e-02
1.152377e-01
9.494491e-02
-1.653021e-02
6.378677e-02
-1.305300e-02
2.535985e-01
9.406174e-02
6.134196e-02
4.539059e-04
-1.350632e-01
-1.026231e-01
-1.303345e-01
1.506733e-01
3.822128e-01
-8.440150e-02
3.208181e-02
2.740818e-01
-2.776537e-01
-1.436977e-01
1.378612e-01
-3.344108e-01
3.625819e-02
7.494725e-03
-1.666992e-01
9.166521e-02
-3.898531e-01
-2.372801e-01
2.026620e-01
-6.780158e-01
1.840413e-02
-1.020779e-01
1.342989e-01
1.218906e-02
-8.627332e-02
-1.073605e-01
2.186735e-02
3.579872e-02
-2.126999e-01
-5.784544e-02
-7.905847e-02
3.192144e-02
1.021278e-01
2.936035e-01
-2.479034e-01
1.745221e-01
3.478554e-02
2.679055e-01
2.065984e-01
-2.184275e-02
1.788437e-01
1.535041e-01
-6.659094e-02
-5.300941e-02
1.961275e-01
4.287179e-01
5.021530e-02
-8.735523e-02
-3.274855e-01
-5.429150e-01
-2.473494e-01
2.572148e-01
-2.189895e-01
2.054806e-02
4.412055e-02
1.305588e-01
2.482948e-01
7.557307e-02
-2.159531e-01
5.568677e-02
1.163258e-01
-1.751913e-02
-1.344566e-02
-1.741465e-02
5.520659e-02
1.917483e-02
2.064127e-01
1.214330e-01
4.109518e-02
-1.473056e-02
7.301028e-02
-3.738169e-01
1.801817e-01
2.100519e-01
9.884864e-02
6.974669e-02
-4.409880e-01
6.642595e-02
-2.816784e-01
9.383208e-03
-3.575552e-01
1.082948e-01
-1.260748e-01
1.935792e-02
7.999482e-03
3.225180e-02
4.117533e-02
-2.867188e-02
5.568468e-02
2.406868e-01
2.402665e-01
-8.830167e-02
-7.284972e-02
1.205909e-01
-3.743221e-01
2.021537e-01
-4.942797e-02
-4.773084e-01
-1.026103e-01
-1.381059e-01
-7.368264e-02
2.097449e-01
7.613781e-02
2.099407e-01
4.798001e-02
-1.010222e-01
1.010696e-02
-3.753220e-03
1.947084e-01
-2.947063e-01
1.160721e-03
-2.445197e-02
-5.452492e-02
-2.566046e-01
-1.947990e-02
-3.996027e-02
2.020782e-01
2.601086e-01
1.032351e-02
-4.051604e-02
2.925083e-01
6.126495e-02
-1.605451e-01
8.577973e-02
-9.162190e-02
1.866161e-01
-3.867476e-02
-5.141360e-01
-2.959363e-01
2.600900e-01
7.945477e-02
-4.842452e-01
-2.173238e-01
-7.293096e-03
2.219510e-01
2.129514e-01
-1.788035e-01
-2.807888e-01
1.284412e-01
-1.242990e-01
2.157148e-01
-1.703572e-01
-5.336013e-01
1.365985e-01
2.036356e-01
1.951639e-01
8.326601e-02
2.574372e-02
-2.692612e-01
-2.614873e-02
1.031360e-01
-1.344439e-01
-2.668890e-02
-4.041125e-02
-3.742919e-02
4.311721e-01
-4.048920e-01
-1.919608e-01
-9.225071e-02
-7.641482e-02
-2.987993e-01
9.280655e-02
-1.783493e-01
4.599952e-02
-3.682453e-01
-2.311418e-01
2.194259e-01
-1.014669e-02
2.830191e-01
2.104152e-01
-2.051147e-02
-4.099110e-01
1.113421e-01
1.961219e-01
2.309240e-01
1.584543e-01
1.408183e-01
-1.108511e-01
3.871365e-02
-6.097142e-02
-3.664480e-01
8.640407e-02
-4.765138e-02
9.214515e-02
5.424116e-02
2.183577e-01
1.788585e-01
1.989101e-01
-6.878431e-02
2.117984e-02
-2.482862e-02
-4.049197e-01
-3.713185e-01
-6.201421e-01
6.853392e-02
3.024837e-01
-8.548456e-02
2.214464e-02
-1.016248e-01
-7.895410e-02
9.972017e-02
-1.899524e-01
1.026715e-01
-3.712368e-01
-9.765457e-02
5.132753e-02
3.093230e-01
4.710620e-02
9.043993e-02
-3.841851e-02
-2.769345e-01
4.484722e-02
4.265060e-02
-1.059342e-02
-2.772915e-01
-2.038755e-02
1.287897e-02
2.274919e-01
-3.547612e-01
-2.549281e-01
1.282549e-02
1.663458e-01
-3.226317e-02
-1.223409e-01
-4.487031e-02
-2.558565e-01
2.581655e-01
-7.884318e-02
-1.386027e-01
-7.659538e-02
-5.401663e-03
9.424333e-03
1.876505e-02
3.084834e-01
3.832483e-02
-4.698307e-02
2.364807e-01
-2.766380e-02
-4.583307e-02
-2.612965e-02
-2.362973e-01
-4.396610e-02
-2.323575e-01
1.934125e-02
1.107688e-01
1.564291e-01
-3.657312e-02
-3.747229e-01
2.908276e-01
-2.957376e-01
1.909852e-01
-1.662435e-01
-1.713514e-01
-6.511928e-02
-2.157743e-01
6.713334e-02
-3.060607e-01
-2.053154e-01
-5.328019e-02
-2.957776e-01
1.770581e-01
-1.527408e-01
-2.013080e-01
1.784428e-01
-1.152832e-01
4.052400e-02
-1.871083e-02
9.834755e-02
1.052686e-01
8.057179e-02
7.465244e-02
-9.275984e-02
-7.554097e-02
7.326966e-02
-2.817073e-01
1.312119e-01
5.690775e-02
7.570755e-02
1.305375e-01
5.113746e-02
-3.829727e-01
-6.111147e-01
-4.813137e-01
-2.416901e-02
-2.007025e-01
-7.893676e-02
-1.170854e-01
2.083333e-01
2.827898e-01
2.270220e-02
8.264154e-02
-1.616929e-01
2.929547e-02
-5.287812e-01
-7.869893e-02
-3.285744e-02
7.371459e-02
-3.503059e-01
1.773031e-01
2.492123e-02
-1.498382e-02
2.534034e-02
-2.749810e-02
2.704896e-01
1.867441e-03
-1.228565e-01
-2.134295e-01
-5.327610e-02
-9.937287e-02
6.196811e-02
-7.533631e-02
-2.587268e-01
1.998981e-01
-1.178404e-02
-1.703317e-02
-1.007403e-01
2.757506e-03
-1.242897e-01
-9.346427e-02
-1.410569e-01
-3.330422e-01
-7.201061e-01
-2.285863e-02
2.439858e-01
-7.021587e-02
8.751404e-02
2.894206e-01
1.177991e-01
-2.146631e-02
3.729865e-02
2.621313e-02
5.868807e-03
1.981517e-01
3.049488e-03
-4.007811e-01
2.683254e-01
-1.862123e-02
-3.408158e-01
-1.390557e-01
-1.365174e-01
2.923490e-01
2.089346e-02
3.498650e-02
1.176691e-01
4.404404e-02
2.807404e-01
-6.705017e-02
-5.060245e-02
-1.472698e-01
2.145308e-01
1.123127e-01
-3.676160e-02
-5.729005e-02
1.291678e-01
8.035103e-02
7.114179e-02
1.292766e-01
1.972316e-02
8.058257e-02
1.168185e-01
-1.453487e-02
-6.287222e-02
6.058093e-02
6.303691e-03
-2.871425e-01
3.561338e-01
2.199360e-02
-4.411457e-01
1.046112e-01
-2.088232e-01
-4.241266e-01
-2.264643e-02
9.122705e-03
9.036962e-02
2.500240e-01
8.714949e-02
-1.011909e-01
1.540994e-01
-2.389179e-01
-3.911473e-01
-3.048210e-01
-1.532247e-01
-1.074951e-01
2.441135e-01
1.126375e-01
-8.472968e-02
8.943234e-02
3.578828e-02
5.711023e-01
2.534597e-02
6.236994e-02
-6.293058e-02
2.082361e-01
-3.062919e-01
-1.550900e-01
4.170571e-02
7.937165e-02
-1.590120e-02
-1.347115e-03
1.733619e-02
-2.803181e-01
1.591799e-02
1.535189e-01
1.058015e-02
3.440672e-01
-2.131808e-01
3.269984e-01
1.664016e-02
-6.944214e-02
-1.184262e-01
-7.527973e-02
1.885327e-01
-2.132287e-01
-2.040474e-01
3.224076e-02
-2.628272e-01
8.435613e-03
-4.247917e-01
2.130682e-01
-5.212554e-02
2.543657e-01
-4.577881e-02
7.117995e-02
-1.633454e-01
-2.855740e-02
-4.799469e-01
9.410055e-02
1.976223e-02
5.242954e-02
3.269855e-02
3.927412e-02
-2.909269e-01
2.393796e-01
-6.277088e-02
1.001787e-01
-3.864548e-01
-3.729393e-02
2.923989e-02
4.532736e-01
2.662240e-01
-5.339260e-01
1.037427e-01
2.092773e-01
1.384417e-01
1.072712e-01
-5.026874e-02
-3.142840e-01
-2.837895e-01
-7.204606e-02
1.412885e-01
1.428429e-01
-9.044322e-02
1.334160e-01
-5.078467e-01
-2.222099e-01
3.104306e-01
2.422736e-02
-6.241397e-01
2.599985e-01
1.941597e-01
-4.041885e-01
2.136905e-01
3.965849e-02
5.766370e-02
-2.662252e-01
-1.456958e-01
2.494638e-01
-5.825080e-02
5.100138e-01
-2.190042e-01
3.382707e-02
-4.937876e-02
-6.351775e-03
-3.367742e-01
6.147768e-03
-5.920629e-02
-4.499658e-02
1.303659e-01
-3.123212e-01
-6.683528e-05
1.818030e-01
-4.205446e-02
-1.420025e-02
2.483083e-01
5.478538e-01
3.790735e-01
-5.764473e-02
-2.601140e-01
-3.439406e-01
-1.065682e-01
-1.612495e-01
-2.589545e-01
1.581386e-01
-6.314627e-02
2.147103e-01
-6.356919e-03
1.386328e-02
2.149520e-02
-1.261317e-01
-1.969011e-01
-3.021001e-01
2.712020e-01
6.693032e-02
-2.565858e-01
1.665864e-01
-3.762677e-02
-8.318064e-02
-5.102787e-01
-7.018753e-02
5.276152e-02
-1.322069e-01
-2.502798e-01
2.223746e-01
-3.372632e-01
3.473062e-01
1.115374e-01
-1.265825e-01
-2.137890e-02
4.533722e-02
3.786625e-02
2.193754e-01
2.393257e-01
2.002950e-01
-7.140225e-02
-4.606715e-01
3.046333e-01
-7.920697e-02
1.343727e-01
1.117397e-01
1.451824e-01
-3.985020e-01
-8.786542e-02
1.180919e-01
-1.284125e-01
-1.924662e-01
-4.793133e-02
2.593632e-01
4.082740e-01
-6.326723e-01
6.043392e-02
-4.914024e-01
9.362149e-02
-2.139381e-02
4.818404e-02
-6.770632e-02
2.133235e-02
7.349173e-01
4.427347e-01
3.246162e-01
-2.702000e-02
-3.545419e-02
-5.256453e-01
1.072943e-03
-2.394895e-01
-6.361295e-02
1.621681e-01
-3.533221e-03
9.941088e-02
3.657596e-01
1.839650e-01
1.680247e-01
-1.991114e-01
-3.684408e-01
-1.392888e-01
6.049151e-02
9.117383e-02
5.657063e-02
2.821987e-02
-7.744392e-02
2.351920e-02
-6.079544e-01
1.136456e-01
1.441012e-01
5.102844e-02
-6.866724e-03
-9.978872e-02
1.007322e-02
5.121821e-01
1.644718e-01
-6.816958e-02
2.145565e-01
-6.164840e-03
-3.845870e-04
2.290161e-01
-1.695415e-01
-1.817683e-01
4.446274e-01
4.423264e-02
-3.428227e-01
3.498638e-01
1.862596e-02
3.994218e-01
2.430637e-02
1.775375e-01
-7.753886e-03
-5.716935e-03
2.476217e-01
9.189356e-02
-1.316933e-01
-6.090159e-02
-3.100582e-01
3.226515e-02
-1.374413e-01
3.689408e-02
-5.545115e-02
-2.122615e-01
2.141744e-02
-7.018241e-02
-2.140559e-01
4.765526e-02
3.417597e-01
1.964441e-01
-1.010868e-01
-6.695014e-02
3.488903e-01
-1.921807e-01
-1.389455e-01
2.885339e-02
-2.039591e-01
-4.809796e-02
1.009531e-01
1.263415e-01
-4.364394e-02
2.399142e-01
1.443933e-01
2.951991e-01
1.687945e-03
2.151372e-01
6.480351e-02
-4.798092e-02
2.524829e-02
3.485579e-01
-1.998704e-01
2.621497e-01
-1.388747e-02
-1.014802e-02
-1.397153e-02
-2.413080e-01
-3.129580e-01
-5.127758e-02
-4.914811e-01
-1.150865e-01
-2.491949e-01
-3.128986e-02
2.852506e-02
3.100982e-01
-2.317977e-01
-1.629971e-01
-1.681121e-01
-5.236965e-02
9.529053e-02
-2.379294e-01
2.726596e-01
1.764210e-01
2.240764e-01
6.694680e-01
-1.072210e-01
-3.458977e-02
1.182690e-01
-3.462071e-02
9.560652e-02
1.924283e-02
-1.281752e-01
-4.646414e-02
5.074736e-02
-2.126973e-01
-2.128585e-01
-2.314339e-01
-2.922119e-01
-7.814280e-02
6.701346e-02
-3.700708e-01
1.424260e-01
2.877499e-02
-4.290921e-02
2.365161e-01
1.783178e-01
5.855159e-02
-3.442217e-01
-1.051591e-01
-2.049853e-01
-8.101012e-02
-2.284542e-01
-1.009914e-01
1.442437e-01
8.518558e-03
8.078302e-02
4.044856e-01
4.289344e-02
1.132453e-01
3.860703e-01
8.168401e-03
-2.403834e-03
1.691527e-01
-4.866521e-02
1.546219e-01
7.128093e-02
-1.257331e-01
-1.024439e-01
-3.742095e-01
2.584804e-01
6.724150e-02
-5.122082e-02
1.616048e-01
-1.148914e-01
1.189688e-05
-3.024272e-01
-9.613092e-03
2.844389e-01
-1.957087e-02
-1.034698e-03
-6.547202e-02
7.910027e-02
-2.938537e-01
-8.441932e-03
-1.569057e-02
5.675166e-02
-5.496406e-02
-8.407557e-02
9.817309e-02
6.451010e-02
1.107547e-02
-2.733831e-01
-5.869421e-02
1.489548e-01
3.368041e-01
-7.394886e-04
-2.473433e-01
9.141196e-03
3.666191e-01
-4.065980e-01
2.734509e-01
1.086630e-01
6.827568e-02
4.303308e-02
8.202939e-02
1.056637e-01
-3.851410e-02
-1.905887e-01
-2.967669e-01
-3.000341e-01
1.880369e-01
8.500357e-02
7.302866e-02
-1.084199e-01
-1.229308e-01
3.050512e-02
1.786424e-03
1.004324e-01
-3.605194e-01
-3.843228e-01
1.702849e-01
1.753109e-01
-6.006964e-02
-7.778122e-02
1.886961e-01
-1.599712e-02
-1.535938e-01
1.760415e-01
-2.472399e-02
-9.724342e-03
-1.464628e-01
-1.353803e-01
-6.002456e-02
3.726208e-03
-1.670171e-01
-2.227452e-02
1.553804e-01
4.793398e-02
-1.221117e-01
-1.470400e-01
3.741757e-02
-3.132709e-01
-1.743183e-01
-3.001004e-01
-1.289850e-01
-2.046599e-01
1.756096e-02
1.309200e-01
-6.619798e-02
-2.135067e-01
1.095303e-02
2.969640e-02
-5.410459e-03
1.855176e-02
1.492104e-01
1.848282e-01
-1.970602e-01
-1.952507e-01
-4.483765e-02
1.880931e-02
9.296902e-02
-5.614282e-02
-5.871087e-02
-3.104916e-02
-2.039604e-01
1.767502e-01
3.497775e-02
1.457261e-01
-2.230268e-01
-2.884195e-02
-2.194789e-01
-1.582650e-01
-1.047464e-01
-1.792460e-03
3.584633e-02
-1.924062e-01
8.203387e-02
6.549522e-02
-1.224209e-01
9.296904e-02
9.531041e-02
-5.043566e-01
-3.335238e-02
6.428190e-02
6.984342e-01
-4.040546e-02
1.656546e-01
1.487149e-02
2.423545e-01
-2.223816e-01
-2.459269e-01
-2.503290e-02
-1.090153e-01
8.215582e-02
3.422349e-02
-2.712022e-01
-8.074420e-02
1.167953e-03
7.542212e-02
1.009440e-01
5.087018e-02
5.557735e-02
-2.846213e-01
9.914440e-02
1.096341e-01
-1.092000e-02
-1.556766e-01
-9.233686e-02
1.652103e-02
1.105872e-01
-6.709092e-02
-1.497952e-01
-1.597306e-01
-2.148306e-01
1.058846e-01
-1.093230e-03
-1.129611e-01
-2.460760e-01
2.500626e-01
1.452805e-01
1.180315e-01
-1.627054e-02
-4.309586e-02
2.717851e-02
3.979330e-02
-2.900654e-02
-1.667684e-01
8.613101e-02
-1.980818e-03
8.281892e-02
-3.759699e-03
-4.842035e-02
8.081868e-02
-2.445675e-01
-2.585102e-01
-3.287359e-02
-1.411868e-01
4.605781e-02
7.741664e-02
-2.635351e-02
-3.125576e-01
3.112590e-01
-9.499445e-02
-1.198099e-01
-1.982241e-01
3.204425e-02
1.176772e-01
4.864044e-02
-1.054167e-02
2.714523e-01
-1.525898e-01
6.898578e-02
3.025300e-02
-2.231834e-01
1.316435e-01
6.810629e-02
-3.195813e-02
2.752332e-01
-1.618684e-01
2.280906e-01
-3.966377e-01
2.046399e-02
-2.515994e-01
-1.227017e-01
3.699582e-02
-1.734981e-01
-5.836462e-02
-1.090771e-01
-6.920078e-02
5.141473e-02
3.649386e-02
-5.953744e-02
6.215541e-02
-9.307344e-02
-1.603389e-01
-7.847459e-02
-5.553048e-02
1.322829e-01
8.362559e-03
-3.823507e-02
-2.278167e-01
-2.224766e-01
9.503809e-02
7.795785e-02
-2.730149e-01
2.667763e-02
-2.398590e-02
-3.330710e-01
2.143358e-01
-1.815684e-01
-4.066987e-02
-4.570795e-01
-9.984361e-02
-7.175425e-02
4.962999e-02
-1.535659e-01
2.895111e-01
-8.412691e-03
-4.047064e-01
-1.355223e-01
3.344285e-02
1.844809e-04
-6.941628e-02
-4.861033e-01
1.788949e-02
6.210239e-02
-1.729562e-01
-1.917940e-01
2.838190e-01
-2.033523e-02
-1.364510e-01
1.973529e-02
-9.468858e-02
-1.207372e-01
4.540464e-01
-6.934094e-02
-1.455048e-02
-1.222855e-01
-3.195333e-01
-3.477075e-02
1.994973e-01
8.607876e-02
2.218888e-01
5.296185e-02
2.533086e-02
5.546003e-01
1.245662e-01
-4.873240e-03
8.716257e-02
2.046925e-01
4.574862e-02
-8.362111e-02
-6.417719e-02
-1.462797e-01
-3.766820e-01
-5.614336e-03
-6.621296e-01
-1.978136e-01
8.897102e-02
2.370733e-01
2.587162e-01
-3.510560e-02
1.638920e-02
1.977919e-01
2.171524e-01
1.980921e-01
-6.121954e-01
-1.472832e-01
3.899657e-01
8.493338e-02
-1.881898e-01
-8.171403e-02
2.098771e-02
6.627022e-02
-8.536042e-02
-9.351881e-04
-1.119825e-01
9.370225e-02
1.501577e-01
2.247531e-01
3.984585e-02
-1.991104e-02
-2.453534e-01
1.410034e-02
-2.977117e-01
2.068880e-01
-1.021004e-01
2.686870e-01
8.784782e-02
-1.468444e-01
-1.490877e-01
-2.682135e-01
6.730568e-02
-9.420606e-02
-2.353912e-01
-2.877472e-01
-1.297756e-01
7.843515e-02
2.293211e-01
2.433655e-01
-5.579166e-01
3.457585e-01
-5.770042e-03
2.470185e-01
6.536981e-02
-3.105504e-02
2.950618e-01
1.009544e-01
-1.108587e-02
-3.039186e-01
-3.810227e-02
2.443316e-04
1.052581e-01
2.217672e-02
-3.668700e-02
-1.111789e-01
-1.396776e-01
-1.538812e-01
4.141541e-02
-2.558277e-02
6.986642e-02
-5.279399e-02
-2.216703e-01
2.630406e-02
2.427500e-02
2.827026e-01
-9.194089e-02
4.068303e-02
1.813643e-01
-4.646280e-01
-1.286596e-01
3.229342e-02
-3.114536e-01
-7.696769e-02
6.556330e-02
1.568112e-01
8.492682e-02
5.772067e-02
-4.089410e-02
1.155731e-01
5.053988e-02
2.264340e-02
1.337247e-01
-2.142255e-01
-9.722257e-02
5.507818e-02
-1.190797e-01
5.171409e-01
1.367589e-01
1.613850e-01
8.146655e-02
-6.551737e-02
-8.225705e-02
2.423200e-01
1.517742e-01
-1.287722e-01
-5.089369e-03
1.313245e-01
-4.616182e-01
3.629512e-02
-3.171117e-01
1.297925e-01
1.288066e-01
2.943758e-02
-4.095918e-02
-7.146376e-03
-8.031356e-01
6.903027e-02
-7.783128e-02
6.355354e-02
4.073887e-02
2.390430e-01
-2.450546e-02
-1.842295e-01
-2.698469e-01
-3.696290e-02
-3.013670e-01
3.406401e-01
-2.452597e-02
1.701096e-01
-2.462324e-01
1.687558e-01
-7.228171e-03
2.375556e-02
-1.975005e-01
-3.082209e-01
1.256227e-01
-4.233080e-02
2.768579e-01
3.502190e-01
3.205521e-01
-9.524885e-02
1.587194e-01
-2.103519e-01
-3.443296e-02
-1.323563e-02
-7.179880e-03
-4.609767e-02
2.523293e-01
-1.355255e-01
6.264762e-02
-2.734677e-01
2.701524e-01
6.797188e-02
-2.008689e-01
4.757050e-02
3.397331e-01
6.996150e-02
-2.983225e-02
1.376295e-01
2.651666e-01
1.597729e-01
-4.045929e-02
1.080341e-01
3.425780e-02
-6.153749e-02
6.971125e-02
-3.198586e-01
-3.093397e-01
-2.455138e-01
4.048461e-02
-3.244781e-01
2.011732e-01
9.371633e-02
1.722584e-01
6.933553e-02
-3.549778e-01
-1.481291e-01
-1.372645e-02
-4.027304e-02
4.133835e-03
8.481114e-02
-3.789941e-01
2.140801e-02
1.576024e-01
-4.957618e-02
-7.432290e-02
-2.572434e-01
1.950434e-02
-6.798313e-02
2.182036e-01
8.038307e-03
-2.034142e-01
-8.775094e-02
6.437533e-02
-1.772310e-01
1.813617e-02
-6.953760e-01
-4.727600e-02
2.093530e-01
3.825764e-01
-1.922417e-01
-2.460649e-01
1.228234e-01
-4.448914e-02
-1.821745e-01
7.498759e-02
-8.742020e-02
3.943845e-02
2.225785e-01
8.127642e-02
-3.185373e-01
1.280548e-02
4.689995e-02
-3.788276e-01
-1.089963e-02
-3.151920e-01
-1.599236e-01
-4.293323e-01
-5.068024e-02
-4.312742e-01
-3.441910e-02
-4.209841e-01
-1.436845e-01
-2.182192e-02
-2.669562e-01
-4.442039e-02
1.729397e-02
-2.190545e-01
5.708145e-02
-2.684221e-02
5.184678e-03
-1.599717e-01
8.547261e-02
-2.409274e-02
3.245096e-01
1.279614e-01
1.192768e-01
4.738522e-02
5.468704e-02
-2.510857e-02
7.167842e-02
-2.060612e-01
-2.399092e-02
9.815915e-02
5.520657e-02
5.158314e-02
-4.183098e-01
3.228325e-01
1.253577e-01
-3.531509e-01
-3.390226e-01
-8.487578e-02
5.551316e-02
-1.106967e-01
-3.523564e-01
1.569899e-01
-5.873883e-02
6.290389e-02
2.947708e-02
-1.401622e-01
5.480938e-02
-4.260335e-02
1.229804e-01
1.060227e-01
-7.476444e-02
9.977771e-02
-1.009488e-01
8.582079e-02
1.609680e-01
-3.055499e-02
-3.256625e-01
1.053464e-01
7.681769e-02
-9.765790e-02
-2.201540e-01
1.017915e-02
-9.364530e-02
-3.048513e-02
-3.948773e-01
1.406039e-01
7.194427e-02
1.783658e-04
-8.072156e-02
-5.523638e-01
1.161253e-01
-2.142864e-01
-9.494291e-02
2.251350e-01
-2.452457e-01
4.223131e-02
-1.374205e-01
1.099069e-01
-1.219322e-01
2.211666e-01
4.949588e-02
-5.788732e-02
1.089835e-01
-3.527307e-02
-1.629710e-01
-8.092055e-02
-1.806714e-02
1.239753e-01
7.459208e-04
-6.461148e-02
-1.106417e-01
-7.236301e-02
-1.083641e-01
-4.402656e-02
1.113043e-02
4.720105e-02
-6.412067e-02
1.217494e-02
2.629616e-02
-8.813577e-02
-1.794702e-01
1.940412e-02
-5.822501e-01
-6.609066e-01
-8.984155e-02
1.514193e-01
3.265086e-01
-2.186739e-01
-9.960743e-02
4.302412e-03
9.318080e-02
1.347346e-01
-3.122449e-02
2.634852e-01
-8.051484e-02
-5.108841e-03
-2.245934e-01
-2.805895e-01
-1.981983e-01
-2.879575e-01
-6.481875e-02
-4.387624e-02
3.456115e-01
-5.538840e-01
-5.109517e-02
-1.900237e-01
6.384268e-02
1.337138e-01
2.794175e-01
-2.172192e-01
-6.357713e-02
-1.526592e-01
2.199933e-01
3.805906e-01
5.599296e-02
-4.734614e-02
-3.798622e-03
-3.221152e-01
3.272893e-03
-8.877774e-02
-1.392647e-01
-3.107867e-01
-6.581999e-02
-1.284030e-02
-2.869398e-01
-1.056041e-01
1.193711e-01
-9.035858e-02
1.202502e-01
5.259263e-02
-6.186545e-02
2.481209e-01
8.834069e-02
-2.230121e-01
-1.619514e-01
2.583725e-01
-1.276859e-01
5.580795e-02
5.325355e-01
-1.541704e-01
-7.969691e-02
-7.536028e-02
-2.906073e-02
4.006625e-02
2.176579e-01
5.949642e-03
-3.937803e-01
-3.403080e-01
-5.061864e-02
-5.821231e-02
-6.493532e-02
2.021665e-01
-6.587178e-02
-3.508460e-01
-2.594330e-01
-3.417907e-01
-3.382082e-01
-1.517900e-01
-1.523526e-01
-3.887224e-01
-8.595331e-02
-1.993395e-01
-3.224063e-01
1.311904e-02
7.962862e-02
5.090250e-02
1.345101e-01
4.050884e-02
5.722960e-02
-1.818042e-01
-1.659809e-01
2.675018e-01
3.924318e-02
-5.677216e-01
-1.930064e-01
1.850141e-01
5.478486e-02
-6.735218e-02
-2.787718e-01
-4.197039e-01
1.602962e-01
2.387772e-01
-2.141158e-01
-4.287013e-02
2.018212e-01
-7.540673e-03
-2.041723e-02
-2.569745e-01
-3.211893e-02
-5.097272e-01
-2.476109e-01
-1.316704e-01
-2.165511e-01
-6.938128e-02
2.515944e-02
-1.050326e-01
-2.220800e-01
2.210517e-01
3.835379e-02
-6.611700e-02
1.309363e-01
-2.283885e-03
1.011072e-01
-1.651403e-01
1.757097e-01
-2.200186e-01
-1.055068e-01
-2.430931e-02
4.897665e-02
-8.926184e-02
-3.905661e-01
-1.060880e-01
-5.129920e-04
-2.652692e-01
-7.673574e-02
-1.244859e-01
-1.189913e-01
1.488948e-01
1.621856e-02
1.477557e-01
1.993470e-02
-1.612154e-01
-1.155914e-01
-3.701920e-01
4.617254e-01
-1.555810e-01
7.302637e-02
-1.886710e-01
-3.287600e-01
-6.102208e-02
-2.205164e-01
7.291622e-03
9.135427e-02
7.652319e-02
-7.474659e-02
4.502732e-01
2.037099e-01
-5.568626e-01
5.943078e-02
2.073647e-02
-4.078350e-01
9.231319e-02
2.448987e-01
8.308292e-02
6.114483e-03
5.257580e-02
1.169161e-01
1.546690e-01
-3.635117e-03
2.859728e-02
1.087820e-02
3.790009e-02
-5.414704e-03
-1.681325e-01
1.362696e-01
1.238905e-01
-7.745304e-02
4.843475e-02
-1.959313e-01
-3.277587e-01
9.728812e-02
6.827180e-02
1.100180e-01
-1.215670e-01
-1.470792e-01
-1.045452e-01
-1.004085e-01
4.243470e-02
3.116513e-01
5.251740e-01
-5.901929e-02
-1.394579e-01
3.904158e-02
-2.971369e-01
1.001895e-01
1.165173e-01
-2.807791e-02
2.489667e-01
1.243572e-02
2.958498e-01
-2.569260e-01
-3.950979e-01
8.594048e-02
1.183030e-01
-2.872098e-01
6.003734e-02
-2.563894e-01
1.071038e-02
-1.899454e-02
9.750708e-03
4.628902e-01
4.560136e-02
2.564874e-01
6.483977e-02
1.700377e-01
3.447750e-01
2.068697e-01
-2.227369e-02
-1.652211e-01
2.520582e-01
8.099736e-02
6.844869e-02
-3.636857e-01
2.544424e-04
4.253737e-01
-9.244715e-02
-3.195609e-02
-3.055077e-01
-1.774547e-02
4.942125e-02
3.223107e-01
6.026275e-03
-1.306202e-01
9.839529e-02
6.661975e-02
1.323285e-03
8.011305e-02
9.279062e-02
6.376275e-02
2.495910e-01
-4.893255e-02
-1.389475e-02
-9.459922e-02
-2.922608e-01
1.261484e-01
2.667874e-02
2.356997e-01
2.159904e-01
-6.852490e-02
-5.563781e-02
7.201887e-02
-1.633210e-01
-3.145220e-02
5.847759e-02
-1.374651e-01
-1.051100e-01
-5.796807e-04
-2.586486e-01
1.621126e-01
3.031602e-01
-3.354871e-02
1.804921e-01
-1.582000e-01
-2.481351e-01
4.536926e-01
1.814550e-01
-7.468226e-04
1.591634e-01
-1.425179e-02
-7.001808e-02
9.134104e-02
5.727762e-02
-1.024840e-02
2.836486e-01
-6.501153e-02
8.065433e-02
-7.689681e-03
-2.774490e-02
6.763114e-03
-1.063638e-01
-4.118788e-01
8.779506e-02
-9.332142e-02
-3.582285e-02
-7.501762e-02
5.720361e-03
-2.347611e-01
-1.325744e-02
1.746878e-01
7.395521e-02
-7.684576e-02
1.870649e-01
2.087595e-01
-6.564148e-01
-6.359532e-01
1.194797e-01
1.995865e-01
4.199391e-02
-1.444107e-01
1.909259e-01
-1.349683e-01
2.898615e-01
-5.749827e-02
-1.074724e-01
-1.690585e-01
-3.425551e-01
-2.376094e-02
8.837189e-02
1.342382e-02
5.749222e-02
-4.600021e-03
1.320637e-01
2.920851e-01
1.758941e-01
-1.618305e-01
-1.414557e-01
1.306988e-01
-2.089654e-01
3.503579e-01
-3.697760e-02
-1.314961e-01
5.724296e-02
-1.358771e-01
3.605199e-02
-2.840466e-01
8.242816e-02
1.311711e-01
5.298519e-02
2.436685e-01
-2.657261e-01
-3.473775e-02
-6.480049e-02
-1.920974e-01
1.732419e-01
-1.303016e-01
-2.303159e-02
-4.179863e-01
-2.716831e-01
-1.215516e-01
-1.835780e-01
8.239107e-02
-3.849924e-01
1.274678e-01
-9.150845e-02
7.690901e-03
-2.722551e-02
-5.616226e-02
2.035598e-02
6.928947e-03
-3.492898e-01
-3.304789e-01
7.336888e-02
1.398427e-02
-1.667085e-02
2.355151e-02
2.985466e-01
2.357009e-01
-1.088519e-01
1.297627e-02
-3.084520e-01
-2.645532e-01
3.599868e-02
2.562388e-01
-1.845937e-02
9.352983e-02
2.284159e-01
1.539543e-01
1.936624e-01
-1.403527e-01
1.694365e-03
-3.026575e-01
-4.766696e-01
-7.436728e-02
-5.401750e-02
1.611477e-01
-7.242994e-02
-2.785471e-02
-3.991639e-01
-3.147651e-01
2.078827e-01
-5.251120e-02
2.106099e-01
1.440177e-01
1.154403e-01
1.013494e-02
9.994247e-02
1.296625e-03
2.240640e-02
5.809496e-03
-1.884928e-02
-2.849387e-02
5.933969e-02
4.675135e-02
-2.363807e-01
7.081614e-02
-4.864534e-01
4.717873e-02
-3.750440e-01
1.046746e-01
2.419342e-02
-3.473335e-01
1.405864e-01
1.055853e-02
-9.243980e-02
-3.863336e-02
2.110814e-02
2.881792e-02
-8.537125e-02
-3.834434e-04
-4.383816e-02
6.031518e-02
1.272151e-01
-2.842464e-01
3.339751e-02
9.364760e-03
2.200593e-01
-7.792623e-02
6.930936e-02
2.309095e-01
-1.410909e-01
7.153219e-02
3.152907e-01
-1.539353e-01
1.511005e-01
-2.068209e-01
-1.500022e-01
-3.500159e-01
-6.728412e-02
7.830692e-04
2.318406e-02
1.102615e-02
-1.922303e-01
2.158748e-01
-4.748322e-01
-2.173225e-02
2.002519e-02
-1.393373e-01
9.625047e-02
-8.675443e-02
7.190365e-02
1.349539e-01
-8.136301e-01
-1.085412e-02
4.699693e-02
-3.297111e-01
9.608831e-02
-1.234612e-02
-6.272950e-02
2.120516e-01
-1.271282e-01
3.809818e-01
1.029672e-01
3.467615e-02
2.323675e-01
8.248096e-02
2.282347e-01
-3.555093e-02
-2.265734e-01
-9.935111e-02
8.436827e-02
-5.753356e-03
2.531988e-01
8.638678e-02
8.101969e-02
4.107888e-02
1.536437e-02
-3.024010e-02
2.051916e-02
-6.698429e-02
-1.388776e-02
3.784517e-01
2.991826e-01
-4.329908e-02
-6.031266e-02
-2.719956e-02
1.585440e-01
3.241804e-01
2.993915e-01
-4.063090e-02
1.984750e-01
-5.650256e-02
-8.344050e-02
1.021491e-01
-1.242444e-01
-3.552448e-02
1.252767e-01
3.967684e-01
3.270577e-02
7.252222e-02
-3.206045e-02
1.236089e-01
-4.525806e-01
8.221489e-02
1.820877e-01
5.889629e-02
-7.027660e-02
5.860210e-02
-1.523965e-01
3.203781e-01
9.707406e-02
9.510390e-02
1.757261e-01
2.845910e-01
2.498668e-01
7.035172e-02
1.613054e-01
6.013418e-02
2.425595e-01
1.434555e-01
1.917647e-01
1.622678e-01
-1.734182e-03
4.487742e-01
2.093224e-01
1.528974e-02
4.865878e-01
1.980335e-01
1.377310e-02
-7.235748e-02
1.276236e-02
-2.345073e-01
-2.668956e-01
-3.285953e-01
1.344265e-02
-2.374584e-01
8.932157e-02
4.186907e-02
-1.911995e-01
4.640093e-01
-2.320639e-01
-7.198961e-05
2.891364e-01
2.020231e-01
-3.324358e-01
1.451068e-01
2.447726e-01
-7.393384e-02
-6.834596e-02
1.328196e-01
8.390921e-02
2.623546e-01
-4.052195e-01
8.962424e-02
9.447694e-02
2.310528e-01
9.718923e-02
-1.731757e-01
1.144576e-01
6.880432e-02
-1.028020e-01
-6.786598e-02
-2.726673e-01
1.885807e-01
3.368882e-02
-2.213507e-01
-3.161315e-02
-2.605939e-02
1.454183e-01
-2.086363e-01
1.483070e-02
1.771095e-01
-2.524179e-02
-3.328720e-02
1.806377e-02
-1.536881e-01
-1.150688e-01
-4.190784e-01
-6.827676e-02
-7.794832e-02
-5.425724e-02
-1.258504e-01
3.264937e-01
2.086535e-03
6.677772e-02
1.776925e-01
-7.742582e-01
8.063567e-02
1.797814e-01
2.985252e-01
2.531951e-02
-5.122214e-02
8.181845e-02
2.040365e-01
3.993734e-02
-1.029965e-01
-1.125527e-01
-5.146440e-02
1.312534e-01
1.031321e-02
9.124988e-03
-9.911291e-02
-2.424297e-01
-2.997691e-01
-3.844605e-02
1.053990e-02
-1.570292e-01
-2.776021e-01
-1.681260e-01
-1.514519e-02
1.379625e-01
2.597058e-01
-1.294662e-01
-1.448303e-01
1.113264e-01
-1.569270e-01
-1.041177e-01
1.391428e-01
-1.980272e-01
-1.909129e-02
-9.734693e-03
1.488530e-01
-2.153432e-01
-6.421535e-02
-2.350175e-01
1.321845e-01
9.248235e-02
1.173744e-01
2.539155e-01
-2.513902e-01
-1.029385e-01
4.323975e-02
1.365828e-01
4.213570e-01
-2.817473e-01
1.803594e-01
5.874293e-02
-3.448834e-02
-2.717544e-01
1.234478e-01
7.070103e-02
-3.696498e-01
7.215014e-02
1.927356e-01
9.869794e-02
-1.278135e-02
-3.563994e-01
-7.047989e-02
-4.609161e-03
-6.479222e-02
5.874353e-02
-4.325606e-01
-2.689999e-01
1.916423e-01
-1.923304e-02
1.618304e-02
2.044549e-02
2.331290e-01
-1.119799e-01
3.659328e-02
-9.232611e-02
3.232838e-03
-5.379606e-01
7.398704e-02
8.865140e-02
3.225344e-01
-5.491879e-02
6.951346e-02
-2.594750e-02
-3.212487e-01
2.909356e-01
-2.837482e-02
-2.406966e-01
3.289819e-01
-3.470165e-01
-1.062784e-01
5.315153e-02
-1.242256e-01
1.671247e-01
1.646977e-02
1.833010e-02
8.180436e-02
5.690241e-02
2.086546e-02
-2.641955e-01
-1.335555e-01
2.735951e-01
3.310570e-02
2.032524e-01
-1.747390e-01
-1.177911e-01
-2.517062e-03
4.042313e-02
2.661336e-01
3.521815e-02
8.207559e-02
5.541221e-02
-3.758291e-01
7.715469e-02
-3.160242e-01
1.837687e-01
-2.713968e-01
1.988331e-01
2.753477e-01
-1.190982e-01
9.363914e-02
-2.123788e-01
6.829585e-02
7.798298e-02
-5.065174e-02
2.202294e-01
1.397043e-01
3.117563e-01
-2.339277e-01
1.382116e-03
2.515772e-01
1.291679e-02
-1.083238e-02
1.202662e-01
-2.886778e-02
-2.001601e-01
-2.979071e-01
-1.273006e-01
-5.189604e-02
8.085535e-02
-2.900901e-02
9.158676e-02
-1.068430e-01
9.713802e-02
-1.794740e-02
1.758903e-01
-3.537064e-01
-4.650091e-02
-3.540453e-01
-2.005030e-01
4.905584e-02
1.891963e-02
-2.635601e-01
5.048463e-02
1.318303e-01
-2.567559e-02
-2.461668e-01
-1.686820e-01
7.339088e-02
5.179751e-02
-3.266246e-01
1.082821e-02
-1.305206e-01
7.477772e-02
3.449917e-01
-5.146101e-01
-6.077075e-02
3.449199e-01
-3.180750e-01
-1.043320e-01
3.218297e-01
1.346833e-01
-1.764594e-02
-2.266978e-01
1.546573e-01
-2.839792e-01
-5.359051e-01
3.042103e-03
-3.999354e-01
1.979830e-01
3.126782e-02
2.786198e-01
1.490607e-02
1.055241e-01
-3.141608e-02
-6.970582e-02
1.357811e-01
1.965719e-01
7.218438e-02
-6.720635e-02
9.354548e-02
8.509535e-03
-3.454387e-01
7.695843e-02
-3.733828e-01
2.525137e-01
7.470927e-03
-5.819927e-01
3.417900e-01
1.986581e-01
2.408432e-01
-1.713063e-01
-1.679301e-01
9.795991e-02
6.706009e-02
2.272462e-01
-3.619569e-01
2.856470e-02
-3.137891e-01
1.401919e-01
4.662050e-02
1.520501e-02
2.234155e-01
1.519803e-01
1.173101e-01
3.723527e-01
7.901420e-02
1.880819e-01
-7.603003e-02
5.255776e-02
-2.727166e-02
1.973756e-01
-2.150417e-01
2.994967e-01
-6.674597e-02
2.218776e-01
-1.694680e-01
1.130174e-01
-1.842747e-01
1.087063e-01
-3.420849e-01
1.477677e-01
-1.545640e-01
3.031266e-02
-1.582927e-01
-2.396752e-02
-2.226780e-01
-2.698097e-01
-8.995767e-02
1.211716e-02
9.564628e-02
-2.394127e-01
2.649839e-02
1.476640e-01
1.538573e-01
1.862035e-01
6.804185e-02
-1.361282e-01
2.251006e-01
-1.761717e-02
2.913719e-02
4.541662e-02
-1.989511e-02
3.434081e-01
3.594334e-02
7.056015e-02
-4.986452e-01
-1.685121e-01
-1.034820e-01
7.156260e-02
1.762864e-03
-6.765880e-02
3.455134e-01
1.545308e-02
1.097745e-02
3.414941e-01
-1.354460e-01
-2.905194e-02
-4.623438e-01
-3.790200e-01
-1.457362e-02
-1.180146e-01
-3.373319e-01
-3.887049e-01
-1.442579e-01
8.415525e-02
-2.045809e-02
3.659014e-01
-7.353400e-02
2.927031e-01
1.103459e+00
1.282910e-01
-2.016311e-01
-1.928074e-01
-1.062048e-01
-2.525253e-01
-1.030354e-03
-8.291043e-02
-2.673996e-02
-3.263213e-01
3.560538e-01
-3.745522e-01
-4.792545e-02
1.546067e-01
1.827191e-01
-4.785783e-02
-2.221890e-01
1.096370e-01
1.255022e-01
9.210129e-02
4.404175e-02
-3.996823e-01
4.396335e-02
-1.965768e-01
-6.885239e-02
8.387986e-02
-1.259535e-01
-1.866542e-01
-9.945375e-02
-1.521901e-02
8.323312e-03
3.340391e-02
-8.417247e-02
7.085345e-02
-2.867764e-01
3.611718e-01
9.137416e-02
6.131993e-02
2.589652e-01
2.580673e-01
4.310040e-03
2.705566e-01
-1.360961e-01
6.394976e-02
2.048683e-01
6.272094e-02
2.768581e-01
-5.549109e-02
1.057679e-02
1.119870e-01
8.723966e-02
-1.787910e-02
5.828532e-02
-2.605193e-01
-4.409257e-02
1.244233e-02
4.631678e-02
-6.599308e-01
2.612686e-01
-4.793841e-01
-7.888142e-02
2.228056e-01
-6.932910e-02
-3.296262e-02
2.015920e-02
-1.261097e-01
1.299458e-01
-4.829540e-01
3.432393e-01
5.470720e-02
3.631010e-01
-3.186728e-02
1.243800e-01
8.256082e-03
-7.718172e-02
-1.121508e-01
2.205247e-01
1.954573e-01
-2.984618e-01
-1.333902e-01
3.286231e-02
7.033748e-02
3.292425e-01
-1.037270e-01
-1.649418e-01
-8.243039e-02
2.925452e-02
1.186355e-01
-1.862059e-01
-1.763639e-02
-1.001179e-01
8.976778e-02
1.854889e-02
-4.856730e-01
6.429588e-02
-2.703962e-01
-3.041833e-02
1.163298e-01
-2.149041e-01
8.326684e-02
-5.449825e-02
-9.571083e-02
-2.083088e-01
2.789540e-01
4.873771e-03
2.686970e-01
-2.774040e-02
1.471976e-02
1.675682e-01
-1.711224e-01
-1.964265e-01
-4.712680e-01
-4.082668e-02
5.283454e-02
-4.140894e-02
-7.292039e-03
3.503229e-02
-1.726005e-01
-9.896272e-02
-1.325373e-01
1.055398e-01
9.642809e-02
-3.549393e-01
-1.038271e-01
1.398723e-01
-1.162833e-01
3.543597e-03
-5.792087e-03
-2.183984e-01
5.492070e-02
3.469897e-01
-3.973599e-01
-9.125207e-02
1.056753e-02
-2.135230e-01
2.050900e-01
1.124393e-02
4.636081e-02
1.014033e-01
7.186405e-01
4.334399e-02
2.700487e-01
4.996945e-02
-1.384227e-01
5.520332e-02
5.444010e-02
-1.531631e-01
-1.187176e-01
4.216998e-02
3.133414e-02
-7.002404e-02
-5.958730e-02
5.106671e-02
2.431979e-02
3.510432e-02
-3.846824e-01
-3.704050e-02
-6.574047e-02
1.613976e-01
-1.773834e-02
1.635374e-01
-4.217130e-02
4.656010e-02
-5.087030e-02
1.526004e-01
1.862062e-01
-9.931695e-02
-8.960335e-02
1.475528e-02
-1.207823e-01
1.706914e-01
-8.489057e-02
-1.089574e-02
7.503963e-02
1.236001e-01
-8.501272e-02
-3.778880e-02
1.167814e-01
-1.202028e-01
-4.440751e-02
3.588023e-02
-3.811181e-01
1.656990e-01
-1.589708e-01
-3.625373e-01
3.015484e-02
-4.150580e-01
-7.831802e-02
-2.846680e-01
3.597486e-02
6.163659e-02
-1.267145e-01
-2.435835e-01
-3.195670e-02
-1.455635e-01
-8.207285e-02
-1.139878e-01
2.539567e-01
3.677438e-01
-1.474084e-01
6.531248e-02
-4.212617e-01
8.257703e-02
-3.499791e-02
-6.374072e-02
1.041553e-02
7.155016e-03
-1.511509e-01
-4.553394e-02
2.409875e-02
9.102358e-03
-4.241256e-02
-8.275250e-02
-7.878681e-02
-7.149767e-02
1.852361e-01
-8.081996e-02
-1.532659e-01
-1.943008e-02
2.181853e-02
-8.202153e-02
-1.085244e-01
3.843756e-02
6.393554e-02
-7.554685e-02
2.237833e-01
2.195353e-01
6.377156e-02
1.288251e-01
-1.269386e-01
1.468479e-01
-1.593260e-01
8.475756e-02
4.531046e-03
9.906117e-02
-5.932575e-02
-4.767993e-02
5.077697e-02
2.208790e-02
-6.914227e-02
-6.690676e-02
1.171780e-01
-3.067573e-02
2.379668e-01
-3.632095e-01
5.056973e-01
3.911084e-02
-2.968775e-02
-5.737726e-03
1.390179e-01
4.002174e-02
-1.753882e-01
-9.109876e-02
-2.822357e-01
1.079998e-01
-6.273255e-02
-2.182101e-01
7.477130e-02
-9.808984e-02
-3.090076e-01
-8.989073e-02
-3.893938e-01
1.616248e-01
4.650167e-03
6.081691e-02
7.056775e-02
-8.435769e-02
-4.307109e-01
3.928677e-02
-7.501792e-02
-6.092926e-02
-5.685141e-02
4.611038e-02
1.815797e-01
-3.044406e-01
-2.771963e-01
-8.092799e-02
1.124283e-01
4.199422e-02
-2.732984e-01
2.285020e-02
-4.893169e-02
1.156441e-02
5.951196e-02
-2.003331e-02
4.559026e-02
-2.384827e-02
-3.606155e-02
-2.775066e-03
-4.099065e-05
-1.961767e-02
-6.885836e-02
-6.015269e-02
1.810317e-02
-5.174150e-02
-7.884216e-02
4.491264e-02
-8.572455e-02
-7.607435e-02
5.600717e-03
-9.143559e-02
-2.293446e-03
-8.507841e-02
-9.695962e-02
-5.516121e-02
1.026911e-02
-2.680961e-02
-7.507950e-02
-7.306369e-02
2.920801e-03
-1.277634e-01
-9.741710e-03
-7.077778e-02
3.213920e-02
2.853716e-02
7.943992e-02
-4.815022e-02
-1.765509e-02
-2.624602e-02
7.659563e-03
-4.180276e-04
-8.771489e-02
9.499894e-03
-8.470275e-03
-3.974394e-02
-5.869646e-02
-7.294616e-02
-1.441234e-02
-9.472634e-02
8.903337e-02
-8.592471e-02
-3.506920e-03
3.290933e-02
-2.698189e-02
-7.830310e-02
-5.720172e-02
-7.916310e-02
-3.533409e-02
-4.026440e-02
-7.885291e-02
-1.220392e-02
-1.040784e-01
-7.775991e-02
8.341027e-02
2.065725e-02
-2.523359e-02
-2.426033e-02
-3.351289e-02
4.004272e-04
-7.128162e-02
1.374617e-02
-3.147892e-02
-1.064022e-01
-2.431867e-03
-2.753323e-04
-4.471530e-02
-2.550966e-02
1.084646e-02
7.115906e-02
3.373300e-02
2.600389e-02
-4.394086e-02
-1.146732e-02
7.924286e-03
8.743897e-03
-1.075597e-01
-6.550481e-02
-5.358443e-02
-1.381524e-02
-8.589420e-02
1.131489e-02
7.257211e-02
-2.090387e-02
-4.301612e-02
-3.472935e-02
-1.087499e-01
-1.152983e-02
-1.130556e-02
-1.019314e-01
-4.282710e-02
-2.638713e-02
-8.430306e-02
8.784932e-02
-7.060791e-02
-8.549458e-02
-9.462862e-03
-8.029656e-03
-7.060874e-02
-1.255333e-01
-7.678322e-02
-8.463677e-02
-3.198995e-02
-7.219153e-02
2.990919e-02
-9.748785e-02
6.675736e-03
8.006184e-02
-9.020258e-02
-2.081301e-02
-5.330199e-02
-4.522449e-02
-3.371090e-02
-1.279062e-01
-5.535779e-02
8.224016e-02
-4.915180e-02
-4.718358e-02
-9.961957e-02
-9.492341e-02
-2.033711e-02
-1.735326e-03
1.133424e-02
-6.740303e-03
4.176005e-03
-5.457844e-02
1.897076e-02
-3.697029e-02
-8.408173e-02
8.289765e-02
4.851882e-03
-9.755096e-02
-1.146643e-01
-6.852096e-02
-1.082408e-01
-2.757482e-02
1.485568e-02
-2.831933e-02
-8.426552e-02
3.888877e-03
-8.713917e-02
-1.183101e-01
-1.503431e-02
-4.956824e-02
8.735836e-02
-1.982573e-02
-1.895911e-02
-9.290993e-02
5.457802e-02
-1.199502e-01
2.984790e-03
-5.703750e-02
3.228655e-02
-8.706336e-02
-7.685113e-02
-9.350207e-02
-7.065485e-02
-8.132813e-03
-3.600286e-02
-1.142780e-01
-3.728278e-02
-9.875511e-02
-7.196382e-02
-7.372528e-02
1.348895e-02
8.674695e-02
-1.089610e-02
-1.070042e-01
3.107087e-03
-1.529777e-01
8.507066e-03
-5.991059e-02
-1.000704e-01
-1.217686e-02
2.720836e-02
8.890988e-03
-1.668650e-02
-5.896171e-02
-5.408931e-02
-1.021660e-01
-7.401066e-02
-4.780722e-03
-6.136311e-02
4.634071e-02
-6.741332e-03
6.629281e-02
3.603631e-02
-8.094468e-02
5.912926e-02
-2.076820e-03
4.644565e-02
-1.887638e-02
4.188494e-02
-7.215390e-02
-1.129671e-01
-1.823352e-02
-8.466940e-02
-8.525191e-02
1.223514e-02
5.521725e-02
-9.391310e-02
-2.545826e-02
-7.534838e-02
4.944856e-02
-3.832232e-03
-2.902702e-02
-2.810847e-03
9.154750e-03
9.717479e-02
7.207147e-03
-1.315510e-02
7.246957e-03
5.968368e-02
-1.033199e-02
-9.928841e-02
-5.372028e-02
-9.161467e-03
-5.096412e-02
-4.098895e-02
-7.549317e-03
2.059312e-02
-6.956888e-02
-7.988886e-02
-5.011564e-02
4.441391e-02
5.335665e-03
-1.492321e-02
-5.987584e-02
-7.881156e-02
7.898547e-02
-3.524431e-02
-3.534682e-01
7.450525e-02
-1.218719e-01
-8.966091e-02
2.309766e-02
5.054339e-02
-2.361040e-01
1.085494e-01
1.344047e-01
-5.275059e-03
3.431801e-02
-1.769187e-01
-4.527551e-03
-2.012067e-01
1.611938e-01
6.627066e-02
-1.900558e-02
2.055871e-02
-1.257611e-01
1.491827e-01
1.853274e-01
8.868624e-02
-7.118533e-02
9.936321e-02
-1.977209e-01
-8.959032e-03
-7.254897e-02
1.119356e-01
-8.955554e-02
-6.157732e-02
8.512893e-02
4.668105e-02
2.220276e-01
6.652367e-02
-2.264479e-01
1.435297e-01
-4.470875e-01
2.141332e-01
-1.208763e-01
-2.235321e-01
4.384841e-02
5.323664e-02
-2.161993e-01
8.695105e-02
-1.685629e-01
1.217420e-01
7.399339e-02
4.439550e-01
-1.750004e-01
-8.035876e-02
-3.094010e-01
-3.394319e-02
2.099245e-02
-5.661779e-02
-7.290638e-02
1.271173e-01
-1.288361e-01
-1.820899e-01
2.380408e-02
9.863636e-03
2.367488e-02
-2.740237e-01
6.123963e-02
6.444354e-02
8.572273e-02
-1.870685e-01
-9.742902e-02
-2.964956e-02
-2.790123e-01
-2.244738e-01
-1.070731e-01
-2.703568e-01
-8.162092e-02
1.634780e-02
9.144983e-02
2.637694e-02
-9.442195e-02
1.286084e-01
3.976820e-02
1.127238e-01
-3.836392e-01
1.183772e-02
2.892972e-03
5.718207e-02
-1.257242e-01
-3.176488e-01
1.598968e-02
-1.691012e-02
-2.898398e-01
-5.306589e-01
-3.504791e-02
-3.261612e-01
4.630749e-02
-9.945954e-02
-1.808938e-03
7.993419e-02
-2.070505e-01
7.107348e-02
6.375422e-04
7.267237e-02
8.271415e-02
3.304228e-01
-6.892721e-02
-2.028733e-01
-2.162557e-03
4.060993e-02
3.661243e-03
-9.016869e-02
2.117520e-01
-6.990389e-02
-7.303930e-02
-5.318916e-02
-1.292093e-02
-6.446621e-03
-3.929836e-01
-1.159723e-02
-4.469026e-02
4.797874e-02
-4.272477e-02
3.046570e-02
2.684918e-01
9.848370e-02
-1.170614e-01
7.224318e-02
1.095837e-01
4.642125e-02
-2.149421e-01
-3.192523e-01
-1.811399e-02
7.020631e-02
-4.369978e-01
-3.673825e-02
2.523047e-01
1.466447e-01
-4.519319e-02
-1.683354e-01
7.241832e-02
-1.154896e-01
1.548463e-01
3.982198e-01
1.334014e-01
-3.079196e-01
3.359267e-01
-2.060018e-01
-3.672906e-01
-6.102019e-03
-5.428033e-01
8.902243e-02
1.872029e-01
4.450145e-02
-4.478703e-01
-3.714188e-01
-2.609529e-01
4.044496e-03
-1.494282e-01
-8.771072e-02
1.349029e-01
-2.591461e-01
2.869267e-01
-1.297238e-01
3.517046e-02
-1.754743e-01
3.243646e-01
-4.383809e-01
-3.238870e-03
8.526376e-02
-7.454922e-02
6.854565e-02
-2.322147e-01
7.888947e-02
3.787617e-01
-1.278711e-02
8.362462e-02
-2.257963e-05
-4.352348e-03
-1.252775e-01
-1.277183e-01
-9.825507e-02
-1.090585e-01
-6.368926e-02
-4.947038e-02
-2.401628e-01
-2.611054e-02
-2.731292e-01
4.204171e-03
-3.162328e-02
-2.817731e-01
-1.305960e-01
-3.341821e-01
-5.479534e-03
-3.537674e-01
-6.036304e-02
-1.972141e-02
5.589546e-02
-1.487530e-01
-4.558260e-02
4.829915e-02
-8.220908e-02
6.032292e-02
1.262172e-01
2.160577e-01
2.833992e-02
1.027031e-01
2.723099e-02
7.428887e-02
8.039182e-02
7.362294e-03
-2.926088e-01
1.257706e-01
1.114193e-01
4.459268e-02
-8.626033e-02
1.434367e-02
-7.004710e-02
-1.380588e-01
3.287513e-01
1.827960e-02
9.758412e-02
-1.541949e-01
-2.484184e-01
4.451596e-02
-1.860154e-02
-1.265386e-02
-7.600011e-02
2.193887e-02
-4.715952e-02
-7.768437e-02
7.539970e-02
-5.146891e-04
4.636461e-02
7.599948e-02
-1.303218e-02
-2.143283e-02
1.007743e-01
-2.167310e-01
1.386302e-01
-8.535612e-02
-1.764555e-01
5.791519e-02
-3.779519e-02
-1.520244e-01
-2.031722e-01
-1.240061e-01
-3.018186e-03
8.476084e-02
4.129770e-02
-2.260638e-01
8.134914e-02
-2.589826e-01
-1.955463e-01
-2.239416e-01
2.427835e-01
2.085514e-01
-8.117536e-02
-2.220148e-01
6.818722e-02
5.363879e-02
4.229021e-02
-1.172883e-01
1.336834e-01
1.095323e-01
1.273747e-01
-3.012254e-02
-5.088559e-02
-2.086983e-01
-2.156334e-01
-6.691878e-02
2.003419e-01
-5.514159e-02
3.278050e-02
-3.433278e-02
-1.388251e-01
6.027298e-02
-2.028846e-02
9.081617e-02
1.533875e-01
-3.983368e-01
-2.701546e-02
-8.592743e-02
-7.023706e-02
-1.510733e-01
1.555526e-01
-1.215054e-01
-5.262072e-03
-1.318118e-01
1.572312e-01
-4.497134e-02
-2.296839e-02
-1.794722e-01
-1.206602e-02
-1.904821e-01
2.855923e-02
8.382618e-02
-2.063862e-02
4.442922e-02
7.814240e-02
-4.363667e-01
-2.284887e-01
-1.016574e-01
-7.942513e-02
3.318560e-02
-6.974890e-03
6.043731e-02
1.564793e-01
5.707394e-02
-7.480703e-02
-3.083320e-01
5.338000e-02
9.392694e-02
-1.125170e-01
1.100860e-01
-2.807369e-01
-2.217741e-01
-1.875549e-01
1.650062e-01
2.354177e-02
1.986723e-01
1.802213e-01
4.199628e-02
8.106873e-02
-3.090807e-01
4.206770e-02
-9.324353e-02
-2.083098e-01
1.525999e-01
-3.371321e-01
1.795179e-02
1.065423e-01
-1.601614e-01
-1.925993e-01
1.037984e-01
-8.091203e-02
-2.383722e-02
-2.923287e-01
-7.641519e-02
-9.477863e-02
-2.709764e-01
8.988430e-02
1.530209e-02
5.045555e-02
2.994275e-02
2.287815e-02
1.446992e-02
-3.871837e-02
4.434698e-02
-5.984253e-02
8.485521e-03
-1.749626e-01
1.430648e-01
1.619898e-02
-2.717915e-02
-8.060061e-03
3.448239e-02
-1.096285e-01
-4.939127e-02
-5.125552e-02
1.778156e-02
9.964322e-03
-2.976143e-02
-4.234343e-02
8.545586e-02
5.509013e-01
6.447791e-03
-8.262219e-02
-1.730921e-01
9.908750e-02
1.382938e-01
3.583330e-02
-8.357345e-03
3.203883e-01
-1.431505e-01
3.724041e-02
1.360905e-01
-7.789706e-02
1.743859e-01
8.552891e-02
3.933963e-02
-4.498476e-01
2.005696e-01
6.444373e-02
-3.590887e-02
-1.777364e-01
1.960423e-01
-1.463275e-01
-5.864133e-02
-1.567012e-01
-1.380353e-01
-2.466211e-01
1.990136e-01
8.169938e-03
1.437491e-01
2.165893e-01
-2.352802e-01
-2.100245e-02
-2.511074e-01
1.975173e-01
1.845426e-01
-1.422653e-01
3.295213e-01
2.369067e-01
2.735561e-01
1.307133e-01
2.180654e-01
-2.597509e-01
-2.456708e-01
-1.373069e-02
-1.626009e-01
2.124124e-01
-2.393413e-01
5.799057e-02
-1.352714e-01
1.045494e-01
-1.428476e-02
-1.233851e-01
-2.288052e-02
-1.152895e-01
8.858282e-02
2.752722e-01
1.264162e-02
-9.567277e-02
-5.758622e-02
1.164861e-02
-3.839602e-01
-2.633276e-01
-6.381758e-02
3.599326e-01
1.112060e-01
1.915748e-02
2.545971e-01
-2.173963e-01
-1.992689e-01
-3.087147e-01
-2.605827e-01
-1.294769e-02
2.238789e-01
-2.877413e-02
-1.354386e-01
-5.345134e-01
3.771846e-02
7.073249e-02
-2.509518e-01
-1.188856e-01
1.412587e-01
-1.252687e-01
1.226859e-01
5.419517e-02
6.016062e-02
1.886455e-01
-8.447769e-02
-8.493527e-04
2.235950e-01
-1.382011e-02
5.304202e-02
-6.762587e-02
-6.004690e-02
2.439100e-02
2.860835e-01
8.857331e-02
-2.747785e-01
1.791883e-01
-1.064336e-01
1.146914e-01
8.053322e-02
6.170927e-02
8.749153e-03
-2.655071e-02
5.443165e-02
-2.244293e-02
2.022016e-01
8.181303e-02
-1.761920e-01
-1.264247e-02
-3.312669e-01
4.384669e-02
9.125853e-02
-3.951091e-01
-9.203336e-02
-1.889915e-01
2.615448e-01
-9.214695e-03
2.496727e-01
3.498241e-01
2.593088e-01
4.234407e-02
-2.264811e-02
9.900643e-01
3.228233e-01
-1.457332e-01
-3.262034e-01
-9.358193e-02
1.792338e-01
-1.113522e-01
1.783118e-01
2.162917e-01
-4.052446e-02
-1.957880e-02
-1.271590e-01
-2.443715e-01
2.861317e-01
8.121382e-02
6.191051e-03
1.520723e-01
1.908597e-02
-1.392531e-01
-3.235063e-01
-6.249097e-02
3.927824e-01
1.225153e-01
8.255735e-02
4.169425e-02
-9.150020e-02
-2.658282e-01
-2.681709e-01
4.118648e-03
-1.080706e-01
-1.874784e-01
-2.475942e-02
1.363989e-01
1.562471e-01
-8.439767e-02
4.418244e-01
-1.853371e-01
2.559799e-01
-2.055424e-02
3.478092e-03
-1.272042e-01
-2.539240e-01
4.814901e-02
3.765715e-01
-4.710681e-02
-1.761480e-01
-2.417487e-02
9.146120e-02
2.670820e-01
4.757103e-02
-7.761269e-02
-4.859849e-02
-4.936200e-01
-1.476479e-01
9.863437e-02
1.061175e-01
9.239989e-02
-3.198096e-01
5.246456e-02
-6.339148e-03
-1.098110e-01
-7.694610e-02
2.565901e-02
2.188403e-01
-1.188793e-01
-1.042047e-01
-1.752707e-01
1.046029e-01
-5.945218e-02
-7.073182e-02
-4.937956e-02
1.379670e-01
2.131631e-01
5.252096e-02
-4.881600e-02
-4.580914e-01
9.353676e-02
2.229419e-02
4.152514e-01
3.855018e-02
-2.170784e-01
-3.913930e-02
-2.360505e-01
5.839353e-02
1.406144e-01
1.339419e-01
-2.279548e-02
4.970453e-02
-2.468381e-01
3.087000e-01
2.499403e-01
-3.130818e-01
-4.419141e-02
2.769426e-03
-3.880013e-01
1.351210e-02
-3.333579e-01
6.881601e-03
-7.908320e-03
5.731145e-02
1.207097e-02
-1.352192e-01
-1.753084e-02
1.988430e-01
-4.129719e-02
1.677636e-01
7.286284e-02
-2.539278e-01
1.284793e-01
-2.723370e-01
-2.491575e-01
4.807738e-02
-1.417644e-01
1.306292e-01
2.327286e-01
2.199632e-01
1.104854e-01
-1.663346e-01
8.397196e-02
-5.076063e-02
-3.801893e-01
1.438362e-01
1.069176e-01
3.208674e-02
2.268639e-01
8.265789e-02
2.088818e-02
-4.967081e-02
-2.363710e-01
-7.508259e-02
4.988091e-02
-7.586154e-04
1.358831e-01
1.734932e-01
-4.129266e-01
-2.558762e-01
-1.537526e-01
-1.279334e-01
-1.945066e-01
3.584791e-01
-2.818215e-01
-6.877289e-02
6.844609e-03
4.409912e-01
9.803353e-02
-2.818270e-02
-9.215282e-03
-3.765094e-02
7.183773e-02
7.840611e-03
1.557890e-01
1.908560e-01
1.729936e-01
5.817463e-02
9.289907e-02
-1.233129e-01
1.229647e-02
1.205303e-01
3.949802e-01
-3.381553e-01
-4.170663e-01
-1.340265e-01
3.324055e-01
-1.596657e-01
4.863431e-02
2.800309e-01
-3.068068e-02
-1.596026e-03
-1.317384e-01
-6.993963e-02
-1.930402e-01
-2.307281e-02
1.064190e-01
-3.205013e-01
-6.592036e-02
4.244943e-02
-1.869060e-02
-1.606350e-02
1.122485e-01
6.906911e-02
-9.048601e-02
1.468325e-01
-3.944923e-02
-1.214769e-01
-3.116485e-01
1.567947e-01
-2.829187e-02
-3.634124e-01
1.339635e-01
3.733664e-02
5.679467e-03
-5.294377e-01
-4.576904e-01
-6.436852e-02
2.015161e-02
-1.632287e-01
-2.770851e-02
-4.064722e-01
1.566878e-01
-2.380932e-01
-3.373120e-01
-4.152659e-02
-1.963682e-01
-2.382787e-01
3.726498e-02
1.707051e-01
-5.325066e-01
4.316870e-02
7.663462e-02
3.430843e-02
1.182734e-01
7.829516e-02
7.423857e-02
-2.281910e-01
8.442797e-02
-5.232682e-02
6.102393e-01
8.609263e-02
-1.605836e-02
-4.956395e-03
-4.660295e-02
-1.473278e-01
-6.712405e-02
4.781780e-02
-3.045734e-03
-6.055112e-01
-2.944761e-02
3.088626e-01
-1.951413e-04
1.516268e-01
3.615443e-01
-3.769579e-02
3.556837e-02
1.580273e-01
4.556984e-01
-1.244773e-01
-8.869164e-02
-1.255449e-01
-9.406972e-03
-7.846986e-02
2.289623e-02
1.352766e-02
5.516136e-02
1.875742e-03
-3.537360e-02
-9.477206e-02
-9.830087e-02
-8.313340e-02
-8.234641e-02
-3.971526e-02
-6.489117e-02
6.257653e-03
6.251188e-02
6.804368e-03
-2.481830e-02
3.284776e-03
-4.317709e-02
-6.037033e-02
-1.096964e-01
-4.227045e-02
-1.203240e-01
-5.704208e-02
-8.661839e-02
-3.593936e-02
4.919945e-04
-9.687017e-02
-7.847793e-02
2.984756e-02
-7.522408e-02
-1.353267e-02
2.960068e-02
-9.925845e-02
-8.842683e-02
-8.314687e-02
-3.292059e-02
-3.743028e-04
4.600837e-02
-3.434912e-02
-1.111987e-01
-8.766443e-02
1.562817e-02
-2.148774e-02
-4.083322e-02
-1.007510e-01
3.020898e-02
-3.118282e-02
8.302635e-02
-9.265357e-02
-3.024611e-03
4.490883e-02
2.465322e-02
2.675224e-02
-3.178725e-02
-1.024438e-02
5.479575e-02
1.279596e-02
-9.042675e-02
-9.521612e-02
-8.500207e-02
-3.131609e-02
-4.031399e-02
-4.568831e-02
3.996195e-02
-2.802270e-02
-8.793754e-02
-7.363509e-02
-6.846806e-02
4.474759e-02
-5.256777e-02
3.223892e-02
-4.306523e-02
-1.750853e-02
1.515361e-02
6.223277e-02
-4.507229e-02
-4.373453e-02
2.090222e-02
-8.469910e-02
-1.947738e-02
6.070460e-03
-9.821232e-02
5.397215e-02
-5.953851e-03
4.892842e-02
-1.074834e-02
-6.949664e-02
-1.459528e-01
3.882930e-02
-4.502959e-02
-9.416972e-02
2.204818e-02
-4.040341e-02
4.537192e-02
-6.514863e-02
2.077979e-02
-3.368583e-02
8.544952e-02
-1.105554e-02
1.828314e-03
1.375526e-02
6.483444e-02
-4.289927e-02
-2.591885e-02
-1.111085e-01
8.405528e-02
-5.544965e-03
5.285126e-02
-2.353610e-02
1.292165e-02
-4.381086e-02
2.842980e-02
3.221957e-02
-3.308516e-02
5.819264e-02
-6.031392e-02
-1.150208e-02
-2.798059e-01
4.086110e-02
1.631152e-02
-8.682757e-02
2.739865e-01
1.239380e-02
-6.620779e-02
9.946311e-02
1.451506e-02
-8.725228e-02
1.250922e-01
3.929864e-02
4.160456e-01
-6.112261e-02
5.185833e-02
7.513024e-02
6.873812e-02
-6.789297e-02
2.424013e-02
-2.514218e-01
2.801338e-01
-1.913579e-02
1.634836e-01
3.559417e-02
-1.352648e-01
1.883316e-01
-2.849477e-02
-2.432051e-01
-5.745557e-02
-2.335999e-02
-9.256987e-02
-4.194452e-01
8.389837e-02
-8.346178e-02
-7.204779e-02
9.964695e-03
-2.495795e-01
-1.511277e-01
5.952682e-02
1.773302e-01
-1.483003e-01
-1.139276e-01
-3.515876e-02
2.474378e-01
1.650593e-01
-9.600077e-02
-2.530575e-01
2.717854e-01
-2.249504e-02
1.612921e-01
8.225249e-02
-5.103740e-02
3.084129e-01
-4.818695e-02
-2.570203e-01
-5.330348e-02
-2.763897e-01
-9.008254e-02
9.416316e-02
3.223497e-02
2.575978e-01
-4.593419e-01
1.377594e-01
4.482342e-03
-2.395157e-01
-1.964130e-01
-9.574726e-02
-4.517316e-02
-2.402473e-01
1.091009e-01
3.262855e-01
2.316321e-01
-1.192331e-01
8.855799e-02
-1.064411e-02
2.081557e-01
1.091364e-01
-2.133447e-02
-3.684687e-01
-1.190415e-01
1.531038e-02
-4.468676e-01
1.222588e-02
-1.947695e-01
-2.320562e-01
-1.645367e-02
1.379810e-01
-3.406127e-01
-1.051410e-01
9.762251e-02
2.629388e-01
-9.537286e-03
-2.970037e-01
3.962845e-01
-1.444256e-01
-1.235066e-01
-1.091592e-01
-2.351017e-01
-2.063462e-01
4.676378e-02
-3.240564e-01
6.108306e-02
-1.120616e-01
5.222706e-02
-2.895678e-02
5.983620e-02
2.686151e-02
7.190649e-02
8.797990e-02
2.089023e-01
-5.703329e-02
-4.108028e-01
1.411204e-01
-6.016650e-01
-1.559404e-01
-9.050610e-02
1.412175e-02
-2.140981e-01
2.932605e-01
-5.083069e-01
3.641341e-01
9.707028e-02
8.811190e-03
-1.124849e-01
-1.330168e-01
4.111333e-01
1.965633e-01
-1.046149e-01
-9.089541e-01
-3.829757e-01
7.786550e-02
1.037527e-01
2.114162e-01
7.243454e-02
-6.089171e-03
-3.287905e-02
3.861401e-03
8.990287e-02
-2.820010e-01
-2.848789e-03
-9.164416e-02
1.178676e-01
-2.392996e-01
-9.043287e-02
2.456053e-01
-3.847294e-01
-3.029964e-01
-3.887244e-02
-3.513188e-02
8.469705e-02
-8.352044e-02
-1.833461e-01
-4.084119e-02
9.604064e-02
-2.248080e-01
-3.785845e-02
2.437066e-01
1.585263e-01
-9.206306e-03
-1.458821e-01
1.023400e-01
-1.064044e-01
-3.133793e-01
-3.311966e-01
1.092223e-02
-2.242535e-02
-3.842767e-01
1.038767e-01
3.322236e-02
1.399298e-01
6.744426e-02
3.982077e-03
-2.329007e-01
2.078697e-04
-1.998807e-01
2.783259e-01
-2.654311e-01
2.509694e-01
3.339059e-02
-4.923196e-02
-9.673201e-03
3.408133e-01
-2.248551e-01
1.955710e-02
-2.985765e-01
1.099170e-01
7.065105e-03
3.432448e-01
6.058571e-02
-8.800085e-02
-1.249866e-01
-2.648278e-01
1.906403e-01
-6.338517e-02
2.873098e-02
-1.841212e-01
-1.827626e-01
-1.666389e-02
5.833793e-02
-2.178268e-01
5.175930e-02
1.646890e-01
-3.799731e-01
3.016198e-02
3.792474e-01
1.510046e-02
-1.863994e-01
1.318629e-01
-1.680406e-01
-1.009890e-01
2.531855e-01
-1.660320e-02
-2.815694e-01
-1.725265e-01
-7.678957e-02
1.259466e-01
4.437453e-02
-3.124904e-01
-2.016269e-01
4.681639e-02
-3.413126e-01
1.136699e-01
-6.241672e-02
4.109329e-03
-4.329526e-02
-3.091349e-01
1.421474e-01
-1.307822e-01
-1.173634e-01
-1.656546e-01
-1.156489e-02
-3.272812e-01
2.139033e-01
2.533073e-01
3.020092e-01
-7.337924e-02
8.569598e-02
-9.944040e-02
-6.507178e-01
-2.305714e-01
2.752566e-03
7.994163e-02
-2.614914e-02
1.695377e-01
-8.144065e-02
5.917196e-02
1.297737e-02
-2.180027e-01
-1.799868e-02
1.841370e-01
1.648481e-01
-6.977423e-02
2.134862e-01
1.165092e-01
-1.642983e-01
4.530698e-02
2.979053e-02
-1.559957e-02
1.330110e-01
2.793286e-02
-3.084442e-01
3.128070e-02
-1.314830e-01
-1.094994e-01
9.795564e-02
-9.107135e-02
2.287777e-01
-9.223987e-02
-1.529917e-02
1.404391e-01
-6.194024e-02
1.739243e-01
3.776707e-02
-1.240166e-01
-2.257864e-02
-4.254957e-01
2.149473e-01
4.256827e-01
-3.260126e-01
-1.821234e-01
-9.707177e-02
-4.027124e-01
-1.881133e-02
9.953218e-02
1.776624e-01
-3.577200e-02
-3.275280e-01
2.524876e-01
-7.722341e-02
-2.541745e-01
-8.461168e-02
1.017809e-02
6.130379e-02
8.859250e-03
1.119736e-01
1.226498e-01
-2.643042e-02
8.289361e-02
-4.621281e-02
-2.221421e-02
-1.166538e-02
1.221410e-01
-5.203910e-01
-7.626100e-02
-2.083366e-01
3.879912e-01
-1.402396e-02
2.839798e-01
1.335664e-01
4.603926e-02
-4.152866e-02
-5.113013e-01
9.485944e-02
-6.113064e-02
9.317207e-03
-1.715574e-02
2.876918e-01
-7.233572e-02
-1.744629e-01
-3.329326e-01
8.737268e-02
1.212898e-01
-5.788523e-02
-3.900184e-01
4.787285e-01
5.966362e-02
-4.613022e-03
3.883854e-01
4.104301e-02
-3.676623e-01
2.371075e-01
8.610152e-02
-3.903812e-01
-1.069892e-01
1.455921e-01
1.223904e-01
-6.648850e-02
-1.451929e-01
-3.716170e-01
5.844253e-02
1.461064e-01
-4.710655e-02
1.919721e-01
4.399122e-02
3.098307e-02
5.231093e-02
-6.069818e-02
1.341010e-01
2.771657e-02
-1.387615e-01
1.239741e-03
8.011211e-02
1.060021e-02
-3.908738e-01
-2.105000e-01
3.563314e-02
1.545909e-01
9.585135e-02
-5.753018e-03
4.286808e-02
6.373692e-01
-1.902350e-01
-2.252108e-02
2.398386e-01
-3.718188e-01
-7.823251e-02
-3.532052e-01
4.388869e-02
2.497368e-01
1.165521e-01
-4.446601e-02
-3.767962e-01
-2.246461e-02
-1.474252e-01
1.905989e-01
1.790636e-02
1.899916e-01
2.327302e-01
-7.571284e-02
1.943749e-01
1.439433e-01
-6.230330e-02
-7.766093e-02
2.643858e-02
-4.851026e-01
-7.362879e-02
-4.774722e-01
4.071456e-02
-7.463340e-02
-2.879973e-01
-1.331709e-01
-1.522299e-01
-8.142244e-03
1.890033e-01
3.363066e-03
-2.731529e-01
-5.820011e-02
-2.616678e-01
-2.747446e-02
1.736649e-01
-2.251787e-01
9.116549e-02
-9.842549e-02
4.440761e-02
3.428891e-01
-3.197288e-02
-1.011095e-01
1.663664e-01
-1.982951e-02
-1.200380e-01
7.276611e-02
2.278810e-02
-1.287378e-01
-5.741294e-02
1.053106e-01
-2.281545e-02
7.271763e-02
-1.925597e-01
-3.144660e-03
6.760235e-02
1.923259e-01
-4.164836e-02
1.052734e-01
-5.335935e-02
1.030343e-02
-6.879379e-02
-2.484412e-02
-2.985711e-01
9.952130e-02
-7.212833e-02
1.644232e-01
-1.122589e-01
-2.918719e-01
-8.798642e-02
-5.983433e-02
9.171116e-02
-2.149923e-01
-7.814143e-02
-1.460483e-01
5.554540e-02
-1.282521e-01
-2.335926e-01
-3.592983e-01
-2.086777e-01
1.004438e-01
-8.354163e-02
-8.655100e-02
-1.476309e-02
-2.862992e-01
2.444086e-01
-3.226712e-01
-6.408041e-02
2.823959e-01
-6.067395e-03
1.480253e-01
-3.914376e-01
1.605532e-01
6.752811e-02
1.852174e-01
6.288206e-02
-4.892184e-02
6.612248e-02
-2.933719e-01
5.623080e-02
-1.738697e-02
-3.287961e-01
-2.445759e-01
1.897334e-03
1.031678e-02
3.626960e-02
8.031815e-02
-1.279307e-01
1.068844e-01
2.848591e-01
1.475078e-02
6.347069e-02
-4.704618e-01
6.599203e-02
-8.189888e-02
-4.377044e-02
3.035466e-01
2.678894e-01
7.390554e-02
-2.916205e-01
2.468989e-01
-1.655429e-01
1.390884e-01
8.073106e-02
-5.593003e-02
-3.223515e-01
6.738582e-02
1.398541e-01
-1.988675e-01
-5.573550e-02
-3.132364e-01
-8.598910e-03
-1.505462e-01
-2.107126e-01
-4.515413e-01
-1.453906e-01
2.415902e-01
3.327028e-01
-8.793367e-02
-1.327142e-01
1.580727e-01
2.281048e-02
5.163446e-03
1.740307e-01
1.010620e-01
1.710489e-01
-1.125279e-01
-1.040043e-01
-4.794464e-02
-1.322741e-01
-8.776573e-02
-1.335563e-01
2.911916e-01
-3.222927e-02
1.499697e-01
-1.130988e-01
1.554855e-01
-3.104548e-01
-2.367630e-01
-2.027245e-01
5.703120e-02
-1.265672e-01
1.773889e-01
-9.335130e-02
5.765919e-02
2.721031e-01
-6.997469e-02
3.274138e-02
3.436580e-02
9.059230e-02
-3.203241e-01
8.786367e-02
-1.277465e-01
8.571901e-02
2.420926e-02
-5.588261e-02
-5.789359e-02
-2.311538e-02
3.712570e-01
-7.936054e-02
-3.458131e-01
-2.041637e-01
-1.011429e-01
4.856412e-02
-1.070130e-01
4.322220e-02
-3.004312e-01
-5.051026e-01
1.907739e-01
2.888247e-02
1.235934e-02
-7.312748e-02
-5.590313e-02
-8.471925e-04
1.181391e-01
-2.935741e-01
9.113708e-02
-2.268996e-02
-1.497626e-01
8.120004e-01
7.222834e-02
3.244647e-02
-2.618173e-01
-3.368022e-01
5.785026e-02
8.714525e-02
2.949184e-02
2.977557e-02
1.414173e-01
-5.229399e-02
3.736966e-02
3.060665e-02
2.998163e-02
-2.116913e-01
1.433752e-01
1.118535e-02
1.333124e-01
4.527341e-02
-8.865789e-02
5.670017e-02
1.971619e-02
-5.710763e-02
-5.635161e-02
2.421503e-02
-4.360613e-02
1.403939e-01
3.770424e-02
-1.732501e-01
1.959280e-01
-3.289655e-01
-3.579894e-01
1.775675e-02
3.114710e-02
-3.469622e-01
1.301487e-01
-2.897792e-01
7.415845e-02
4.770944e-02
-6.489987e-03
-2.943341e-01
-4.986724e-03
2.115763e-01
1.305617e-01
3.124726e-01
-2.336642e-01
-1.027093e-01
-2.056141e-01
1.832540e-01
1.173152e-01
-2.417897e-01
1.257089e-02
4.703693e-02
-1.778061e-01
-2.076748e-01
-3.537067e-01
-5.086700e-01
1.682315e-01
2.150815e-01
2.047381e-01
-5.303943e-01
8.678736e-02
8.058042e-02
6.578592e-02
-9.171659e-02
1.156527e-01
-1.324504e-02
-3.828914e-02
-3.606892e-01
9.565331e-03
1.517631e-01
2.681273e-01
1.612586e-01
1.450600e-01
-4.482537e-02
1.109339e-02
3.695518e-02
2.502420e-01
-1.850954e-01
-2.576103e-01
-2.411974e-01
-6.544919e-02
6.176196e-02
2.481960e-01
6.252175e-02
2.534284e-03
-1.302142e-01
-1.722784e-02
-2.292024e-04
1.077305e-01
-8.286771e-03
-3.653081e-01
-3.794031e-02
-1.548434e-01
-5.046182e-03
-2.576605e-02
-4.829721e-02
1.966262e-02
2.840815e-01
9.515239e-02
-6.167789e-02
-2.624877e-01
-4.570230e-01
-5.030836e-02
-1.818705e-01
-2.753076e-02
-3.538650e-02
8.241677e-02
2.521727e-01
1.875345e-01
2.971670e-02
-8.373499e-02
-1.707802e-01
-7.231142e-02
2.312677e-02
1.085373e-01
-4.000612e-01
7.244868e-02
-1.293298e-01
7.520611e-02
4.728986e-02
-1.539031e-01
1.072510e-01
-5.051857e-01
1.110279e-02
3.552518e-01
4.194391e-02
2.971953e-01
5.492491e-02
1.712325e-02
-2.732441e-02
-5.036318e-01
2.009849e-02
4.487628e-02
-8.139434e-02
2.506689e-02
-4.920076e-02
-1.194989e-01
-1.388023e-03
-2.070685e-01
1.481246e-01
2.621713e-02
1.418430e-01
3.182504e-01
3.445208e-02
-3.937108e-02
2.173114e-01
6.055454e-02
-3.127041e-01
1.247163e-01
-5.773169e-02
1.747519e-01
8.728705e-02
-8.862569e-02
-3.676457e-01
3.607300e-01
-9.485279e-02
4.007912e-01
3.171321e-02
8.926959e-02
-2.091701e-01
-3.214460e-01
-3.263596e-02
1.798720e-02
4.016626e-01
-5.477833e-02
-6.763200e-02
-3.003684e-01
-2.227152e-01
3.889067e-01
-3.861445e-02
-9.884779e-02
-3.047555e-02
5.569571e-02
1.799626e-01
-2.810489e-01
-1.167623e-01
-2.507142e-01
6.055206e-02
-4.314781e-01
-2.865344e-01
-1.039227e-01
-1.912834e-02
-3.792565e-01
-3.124180e-02
-4.444255e-02
2.010334e-01
-5.050516e-01
-1.047018e-01
-2.849768e-02
1.116044e-02
5.265590e-01
-2.779827e-01
9.387731e-02
-7.496274e-03
-1.529280e-01
2.402022e-01
1.014649e-01
-2.301916e-01
-2.700824e-01
-8.439150e-02
-6.207704e-02
1.995696e-01
2.286586e-01
6.640199e-02
-6.265628e-02
1.329600e-01
4.268451e-03
3.073039e-02
8.900604e-02
5.738966e-02
-4.342213e-01
-2.427009e-01
-4.499106e-01
-1.949780e-01
-1.300750e-02
-3.156032e-03
1.087093e-01
8.894887e-02
-2.069685e-02
8.415151e-02
-2.030136e-01
2.910894e-02
1.916705e-02
1.362625e-01
-1.113330e-01
-1.984223e-01
5.816048e-02
-7.001832e-02
2.415080e-01
-2.702639e-01
-6.454698e-02
-9.394034e-02
8.153697e-03
5.952731e-02
-1.765507e-01
1.882453e-01
-5.772242e-02
-1.088363e-01
2.272186e-01
2.977798e-01
2.123863e-01
-8.374479e-02
-9.565779e-02
-1.695345e-01
-1.703996e-01
-7.429238e-02
1.815441e-01
-1.697372e-02
-8.013199e-02
6.098269e-02
2.290644e-01
-2.010983e-02
-2.499031e-02
2.857960e-03
-6.615452e-02
-6.655596e-02
-4.016722e-01
1.154158e-02
-2.395173e-01
3.039590e-02
-3.332091e-02
-1.046816e-02
3.234057e-02
-2.690002e-02
3.019411e-02
-1.757887e-01
-8.071938e-02
-3.481257e-01
1.396678e-01
-2.596382e-01
2.082939e-01
1.249607e-02
-2.645174e-01
-2.560323e-01
-4.600433e-01
-6.412195e-02
-2.295257e-01
1.332316e-01
5.879940e-02
6.498920e-02
-3.246147e-01
-8.024352e-02
2.477820e-01
-4.510292e-02
-6.104098e-02
5.649719e-02
1.733480e-01
1.615349e-01
5.003217e-02
1.131161e-01
4.944478e-02
2.893237e-02
-5.015225e-02
-1.203339e-01
3.195211e-01
-2.643138e-01
-1.522598e-01
-1.032011e+00
1.350030e-01
3.486099e-02
-3.079339e-02
-1.205377e-01
1.565656e-01
-2.815966e-01
5.010891e-02
3.940217e-01
1.677972e-01
9.671334e-02
-8.551693e-02
1.915654e-01
-1.752721e-01
-2.554183e-02
1.061334e-01
1.899928e-02
-2.090065e-01
-2.953656e-01
3.366886e-01
5.160826e-02
8.697747e-02
-1.513630e-01
1.611217e-01
4.978595e-02
-1.642377e-01
-1.498431e-01
-9.947774e-03
2.107988e-01
-8.202470e-03
-3.800482e-02
-1.755273e-01
-4.016186e-02
1.636634e-01
2.095235e-01
-2.235922e-01
5.512928e-02
-2.675402e-02
-6.648489e-02
1.093959e-01
-2.362279e-01
7.544152e-02
8.703516e-02
-2.872004e-01
-7.597693e-02
4.139428e-02
-1.769508e-01
-9.506699e-02
2.493237e-01
1.973163e-01
-5.434325e-02
5.160750e-02
1.535365e-01
2.461615e-02
-4.078551e-01
-1.080834e-02
2.779954e-03
-2.324484e-01
-5.801552e-02
-7.751820e-02
-1.442836e-01
-8.163150e-03
2.265758e-01
9.788936e-02
2.829665e-02
2.842861e-01
-1.865568e-01
-4.717442e-01
-4.810718e-03
-4.323169e-01
-9.026147e-02
-3.771117e-01
-1.596515e-01
-3.598171e-02
5.068763e-02
4.359877e-03
-2.500551e-01
-1.646185e-01
-5.893474e-02
-1.243664e-03
5.963065e-02
-2.416212e-01
7.429920e-02
-1.628090e-02
-1.450477e-01
7.097973e-02
3.019109e-01
-8.464585e-03
2.508901e-01
-2.351406e-02
-4.957835e-02
-1.430566e-01
-3.450985e-02
-1.074618e-01
-2.136780e-02
2.455520e-01
-1.880196e-01
4.357306e-02
2.413102e-01
-1.342968e-01
3.715169e-02
2.976955e-02
-1.699048e-01
-1.212474e-01
-2.584168e-01
1.406768e-01
-1.054195e-01
3.094466e-01
-2.005999e-01
-2.332801e-01
1.599477e-01
-8.550093e-02
-1.197395e-01
-2.019431e-01
3.132040e-02
4.791750e-02
8.182868e-02
-3.471906e-01
1.328794e-01
-2.610981e-01
-1.767907e-01
-1.201656e-02
2.317819e-01
-3.873908e-01
-2.843624e-01
-1.900999e-01
2.266424e-01
4.185423e-02
-3.265592e-01
-2.479991e-02
4.271014e-03
8.002764e-02
1.537827e-01
-2.447619e-01
1.788163e-01
-3.835522e-01
-1.104199e-01
2.918372e-01
-1.344778e-01
5.240421e-01
-1.467215e-01
-4.836398e-02
-3.898082e-02
-2.007931e-01
5.984431e-02
6.574462e-02
2.112826e-01
5.028104e-03
1.178656e-01
2.805218e-02
-7.963820e-02
4.071642e-02
-1.772223e-02
-1.799934e-01
-5.081443e-01
-1.089740e-01
-6.383638e-01
-3.511007e-02
5.468657e-02
3.255254e-01
2.385101e-01
-1.107574e-01
-6.361843e-02
-2.940108e-01
-1.340692e-01
-2.122581e-02
-1.760412e-01
-4.131693e-01
7.126652e-02
3.014860e-01
6.219158e-02
1.562132e-01
-1.570740e-01
3.913445e-02
-1.408727e-01
-4.745677e-01
4.971501e-03
3.660576e-01
3.154056e-01
-1.675522e-01
-3.050777e-02
-3.476876e-03
1.315205e-01
-9.546749e-02
-1.277747e-02
-1.108172e-01
3.697838e-01
3.990793e-01
-6.949317e-02
-1.277155e-01
4.730524e-03
1.887341e-01
2.615426e-01
2.241637e-01
1.309396e-01
4.763426e-02
2.540664e-01
-2.815030e-01
3.971483e-02
1.943969e-01
9.868145e-03
-4.653165e-02
-2.398967e-02
-6.481315e-03
8.564167e-02
-3.550634e-01
-2.274358e-02
1.241957e-01
-1.332976e-01
-5.196870e-02
1.882582e-01
-2.487019e-03
-1.219391e-01
1.988989e-01
7.280635e-02
3.509003e-01
-7.504118e-02
1.117093e-01
1.917667e-01
1.789739e-01
2.332890e-01
-9.668630e-02
2.638719e-01
4.511139e-01
1.286929e-01
-1.614161e-01
2.590762e-01
1.993321e-01
-4.411466e-02
2.493625e-01
-1.843178e-01
-1.456714e-01
-2.705058e-01
-1.469390e-01
5.937190e-02
-3.506102e-01
5.111903e-02
-1.053218e-03
-5.598397e-01
3.188681e-01
1.523161e-02
2.249818e-01
-2.511542e-01
-1.612859e-01
2.272595e-01
-1.059208e-02
1.280092e-01
-4.098963e-02
-9.338113e-02
1.289340e-04
-5.334873e-01
3.445176e-02
3.555613e-01
8.955729e-02
1.765385e-01
1.065390e-01
-7.180739e-01
1.648936e-01
2.063771e-01
-3.446686e-01
4.019869e-01
7.225794e-02
-5.336536e-02
-1.906314e-01
1.134877e-02
1.346939e-01
6.356042e-02
-4.058217e-02
-4.026816e-02
-8.617899e-02
-8.196592e-02
1.015211e-01
-1.598201e-02
-4.837440e-01
-2.688345e-01
-4.022309e-02
-3.169641e-01
1.612828e-02
8.176914e-02
2.846567e-01
-3.081781e-01
2.125557e-01
-5.196752e-02
-1.160146e-01
-3.121113e-01
1.355275e-02
2.395122e-01
-1.299889e-01
-2.399035e-01
9.320796e-03
1.217036e-01
-1.190845e-01
1.528701e-01
-7.966686e-02
2.321861e-02
1.894744e-01
-3.472742e-02
1.860792e-01
-3.171464e-02
-1.699305e-01
-3.212950e-01
1.262546e-01
1.314991e-02
-4.948016e-01
-5.908774e-02
-3.812575e-01
-2.503606e-01
2.313462e-01
3.607340e-01
-3.794586e-01
-2.804608e-02
-7.409621e-02
2.380062e-02
2.539950e-01
-6.455944e-02
-7.120657e-02
5.182012e-01
4.802748e-02
-2.642508e-02
4.915745e-01
5.535056e-02
-3.436320e-01
-3.213882e-02
1.102245e-02
9.898954e-03
2.169032e-01
9.203069e-02
4.985863e-02
-1.695889e-02
6.301946e-02
2.245056e-03
-1.474358e-01
1.443061e-01
-3.562185e-02
-4.426803e-04
-4.068158e-01
-2.243759e-01
5.136336e-01
4.251875e-02
9.770101e-02
2.890100e-01
-5.460083e-03
-2.049079e-01
2.561758e-02
-2.111984e-01
-1.508313e-01
-4.588422e-03
-2.340899e-01
1.208402e-01
1.144300e-01
2.965600e-01
-1.587284e-01
-1.580017e-01
2.179329e-02
-9.947791e-03
-1.477814e-01
-2.983882e-01
3.365465e-01
2.014947e-01
-1.806605e-01
-2.005014e-01
-3.082482e-01
-3.576845e-02
3.682612e-03
7.741847e-03
8.034063e-01
-1.787946e-01
-5.077265e-02
1.310723e-01
-2.992164e-01
-1.354540e-01
7.183924e-02
-2.217752e-01
-1.628585e-01
-4.117362e-01
6.877324e-02
1.897727e-01
-1.159801e-03
8.109033e-03
8.583271e-02
-4.903164e-02
-3.127669e-02
1.442384e-01
2.059384e-01
-1.058512e-01
-4.137930e-02
-1.714560e-01
-4.598568e-03
-4.514428e-02
2.953532e-02
1.094732e-01
-8.604195e-02
-6.874217e-02
-5.211839e-02
-9.633829e-02
-8.776108e-02
-1.060226e-01
-5.214778e-02
-1.019647e-02
-9.062587e-02
-4.581559e-01
-1.885956e-01
-7.337705e-02
-1.622538e-01
1.344011e-01
-2.560955e-02
-3.666197e-01
-7.680297e-02
