# Shape: (84,)
# 
-1.233139e-01
1.433467e-01
6.921143e-02
-1.302470e-01
4.207193e-01
-1.456188e-01
-2.911240e-01
-1.376166e-01
1.431463e-01
-3.207907e-01
3.300560e-01
6.746756e-02
-1.898936e-01
1.080713e-01
-2.841323e-02
-2.250611e-01
-1.980653e-01
3.841021e-02
-1.813413e-01
-3.073009e-01
-1.904154e-01
1.157858e-01
-1.770125e-01
2.274769e-01
-6.035873e-02
-3.939974e-02
-1.175397e-01
1.626009e-01
-1.668297e-01
5.438635e-02
1.831768e-01
1.091740e-01
-1.914182e-01
-3.985709e-01
-1.789774e-01
-1.871151e-01
-2.187039e-01
8.875026e-02
-1.140700e-02
2.955670e-01
-3.666768e-01
-2.714016e-03
-1.383197e-01
-1.128955e-01
-1.956485e-01
1.164485e-01
-2.079440e-01
3.639563e-02
-4.308996e-02
-2.320840e-01
4.399674e-04
-5.714158e-02
6.083293e-02
4.135948e-01
-2.041741e-01
-3.191496e-01
-2.976448e-01
-1.473483e-01
4.308760e-02
2.489316e-02
-4.086548e-01
2.531364e-01
1.676291e-01
8.352098e-03
1.631321e-01
1.548857e-01
4.389901e-02
-7.875867e-02
-1.302196e-01
4.114375e-02
2.692509e-02
2.208568e-01
2.843945e-01
-2.203576e-01
1.442393e-01
5.526554e-02
-2.728174e-01
2.420195e-01
-1.083600e-01
-1.552213e-01
-1.757215e-01
-3.529829e-01
3.215166e-01
-2.899306e-01
