# Shape: (10, 84)
# 
4.434894e-02
-5.372879e-02
-7.081382e-01
8.645772e-03
-4.643749e-01
6.580328e-02
-2.375082e-01
-4.470098e-01
-4.877151e-01
1.690517e-01
-4.732246e-01
6.089389e-02
-5.170022e-01
-6.023381e-01
9.058499e-02
8.495837e-02
-2.039340e-01
1.074865e-01
-4.418577e-01
-2.409910e-01
-5.105971e-01
-1.258645e-01
8.168086e-02
-5.531742e-01
-4.916964e-01
1.495274e-01
-6.943887e-01
2.130667e-01
-1.875591e-01
1.647301e-02
3.962646e-02
1.720208e-02
-1.479679e-01
3.730756e-02
7.164456e-02
-2.519029e-01
7.885837e-02
1.128226e-01
-2.374175e-01
1.138582e-01
2.400831e-01
-2.822265e-01
-7.749595e-02
5.260747e-03
-2.909393e-01
3.278930e-02
-1.708018e-01
1.556553e-01
-7.861451e-03
-3.867559e-01
7.478495e-02
-1.114456e-01
-1.846925e-01
-3.002607e-01
2.750383e-01
-7.096676e-01
-4.029914e-01
-4.514082e-01
-5.214542e-01
-3.581843e-01
2.010694e-01
-5.665354e-01
-4.525099e-01
1.007129e-01
-3.174040e-01
-3.222308e-01
-5.095578e-01
-4.495376e-01
1.270350e-01
9.099529e-02
2.275160e-01
3.533214e-02
-5.242787e-02
1.537489e-01
-3.182651e-01
1.203840e-01
-2.707258e-01
-5.809506e-01
1.015823e-01
1.639799e-01
-4.098135e-02
1.104564e-01
-6.058930e-01
-5.540346e-02
-6.210794e-02
-4.635926e-01
-1.280790e+00
-4.604926e-02
-5.343448e-01
-7.226817e-02
-2.841403e-01
1.762774e-01
-2.699631e-02
-1.037560e+00
1.662041e-01
9.891412e-02
1.962297e-01
-7.879613e-02
9.361713e-02
5.691404e-02
-1.367355e-01
1.238211e-02
2.669567e-01
-1.313347e-01
1.891050e-01
-6.609762e-02
-8.184658e-02
-4.888785e-01
-2.235714e-01
-3.743861e-01
2.356172e-01
-6.306607e-01
-5.538645e-01
1.084083e-01
2.724318e-02
-2.585414e-01
-4.518776e-02
-6.380059e-01
-1.842140e-01
-3.552964e-01
8.463411e-02
-3.950021e-01
9.076545e-02
-6.780955e-01
9.772652e-02
-4.564949e-01
-6.447619e-03
7.465889e-02
-3.253160e-01
6.829796e-02
-2.640803e-01
1.070930e-01
-4.909810e-02
1.428713e-01
-3.599415e-02
-3.192954e-01
-2.879482e-01
-3.870029e-02
-5.563486e-01
9.930296e-02
-2.612117e-01
-5.662873e-01
-7.198519e-02
1.391117e-01
2.132325e-02
-1.325316e-01
-2.096345e-01
-5.628810e-01
1.211228e-01
-3.363743e-01
-2.295947e-01
-2.979669e-01
-2.569796e-02
-1.467520e-01
-1.265805e-01
-6.534406e-01
-2.314536e-01
-4.822530e-01
-3.030858e-03
-4.847021e-02
2.258089e-01
-5.544603e-01
-3.600266e-01
9.290318e-02
-8.203759e-02
1.709850e-01
1.189064e-01
1.216061e-01
4.902122e-02
-4.928255e-03
-2.159342e-01
6.349599e-02
2.924101e-03
-2.097110e-01
-3.006450e-01
-6.865970e-02
-4.681266e-01
-2.722623e-01
-5.225723e-01
1.937718e-01
1.589625e-01
1.501419e-01
-4.291677e-01
1.142398e-01
2.032912e-01
-2.222123e-02
-3.803702e-01
1.302804e-01
2.257098e-01
-3.831088e-02
4.278069e-02
2.890088e-01
-2.485809e-02
-8.846347e-02
1.585460e-01
-1.814765e-05
-4.467402e-01
-3.167688e-01
-1.043187e-01
-2.273729e-01
6.658415e-02
-6.864254e-02
1.575911e-01
-5.960678e-01
8.453402e-02
-5.835297e-02
9.081091e-02
5.784132e-02
-3.179329e-02
-2.378256e-01
-8.177412e-02
6.039470e-03
-2.375282e-01
-2.815325e-01
-2.559670e-01
1.919259e-02
-5.030087e-01
1.151778e-01
-1.443472e-01
-5.693802e-01
-1.846634e-01
-3.833251e-01
-6.284133e-02
-1.001332e-01
1.083969e-01
1.035493e-01
-1.638455e-01
-6.336889e-01
-8.216494e-01
-5.172558e-01
-4.666022e-01
4.611444e-03
-8.952623e-02
-2.874985e-01
-1.256614e-01
-1.159580e-01
-1.069849e-01
-2.557985e-01
-2.637058e-01
-2.724311e-01
5.829971e-02
-1.874606e-01
4.199030e-02
-3.088871e-01
-4.796606e-01
2.217643e-02
9.470521e-02
-2.126382e-01
8.058109e-02
-2.643860e-01
1.056274e-01
-3.135829e-01
1.268903e-02
1.656125e-01
2.840811e-02
1.665128e-01
7.228601e-02
-3.831472e-01
-1.795688e-01
-2.255045e-02
2.379680e-01
-3.764598e-01
-1.306187e-01
-1.111166e-01
-7.512000e-01
1.701844e-01
1.590814e-01
-2.857947e-01
-4.696160e-01
2.451391e-02
-2.991538e-02
-3.957824e-01
-5.479712e-02
1.843609e-01
1.376583e-01
1.185749e-01
-2.859589e-01
1.672371e-01
1.555340e-01
-2.821278e-01
-2.371785e-01
1.412891e-01
-3.850012e-01
1.337594e-01
-2.757087e-01
-4.003198e-01
-3.843413e-01
-6.712707e-02
-6.756459e-01
-1.394356e-01
-7.327008e-02
-2.237314e-01
-5.143648e-01
-2.645790e-01
-6.946062e-02
-4.927841e-02
-3.344856e-01
3.058583e-02
-9.625213e-02
-4.820458e-02
-5.445833e-01
-4.876705e-01
-1.216652e-02
-3.788956e-01
1.355889e-01
5.031375e-02
-4.096073e-01
-7.163286e-02
7.264093e-02
1.360048e-01
2.079551e-01
-6.713780e-01
-4.561976e-01
8.920607e-02
-1.707051e-02
8.216795e-02
-3.458327e-01
9.370459e-02
-4.323030e-01
-2.946653e-01
-3.441709e-01
-3.603486e-02
6.045290e-02
-6.477004e-02
-8.954408e-02
-2.043348e-01
-6.896847e-02
2.087734e-01
-1.501171e-01
-6.396551e-01
-3.075523e-02
-2.536441e-02
1.353439e-01
-2.316690e-01
1.222596e-01
-4.810527e-01
-3.785641e-02
-4.228902e-01
4.136656e-01
-4.623623e-01
-3.943916e-02
-1.920514e-01
-3.393148e-01
-3.808133e-01
-1.435896e-01
-3.322887e-01
-3.068616e-02
-2.899949e-01
1.843792e-01
-4.856467e-01
-8.362415e-02
1.182036e-01
4.369375e-02
-4.986883e-01
-2.374437e-01
-5.137213e-01
6.114266e-02
5.203212e-02
6.353237e-02
-3.172409e-02
8.467540e-02
3.055863e-01
-4.579809e-01
1.174550e-03
-1.452732e-02
-8.553134e-02
-8.083985e-01
-4.477446e-01
-4.964488e-02
-3.515932e-01
9.824543e-02
1.258058e-01
9.283224e-02
-5.287867e-01
-7.699942e-02
3.219166e-02
-4.698715e-02
-1.022252e-01
-4.555629e-02
-5.433467e-03
-5.771070e-02
-1.323258e-02
3.973114e-02
-3.230121e-01
-1.130098e-01
-6.730932e-01
1.274398e-02
-2.236880e-01
2.099267e-01
1.101560e-01
-6.485255e-01
-7.068552e-02
-8.171325e-02
7.406458e-02
-1.634534e-01
1.603674e-01
-2.942001e-01
-3.938926e-02
1.024540e-01
-3.846807e-01
-8.618912e-02
-3.719293e-01
1.564013e-01
3.363724e-02
1.886088e-01
1.615238e-01
-5.331002e-02
-4.208754e-02
1.335725e-01
-1.825142e-02
-4.633136e-01
-4.725178e-02
-3.358400e-01
6.250583e-02
-2.021485e-01
-4.361730e-01
-5.530193e-01
8.773459e-02
-3.177716e-01
1.978436e-01
-1.030296e-01
-7.244602e-02
-9.612267e-01
8.682343e-02
1.181271e-01
-2.507054e-01
2.095232e-01
-3.847919e-01
7.901279e-02
-2.545049e-01
-1.589858e-01
-5.897622e-01
-1.523876e-01
1.427791e-01
1.455069e-01
-4.789883e-01
1.102328e-01
8.709656e-02
8.625748e-03
-5.290655e-01
-5.782728e-01
-2.842075e-01
1.511266e-01
-3.422899e-01
2.040244e-02
-9.450135e-02
-2.897241e-01
5.133185e-02
-9.867307e-02
1.386150e-01
-2.148589e-01
1.366912e-01
-3.477298e-01
-1.767059e-01
2.521576e-02
-2.559914e-02
-2.924568e-01
6.924094e-03
1.004184e-01
-2.944491e-02
-1.761428e-01
-3.920981e-01
-3.473935e-02
-8.313516e-02
-6.369853e-02
-5.407216e-02
4.829221e-02
-2.692962e-01
5.855279e-02
-2.909899e-01
8.188660e-02
1.891592e-01
-2.080318e-01
-2.889797e-01
-2.517734e-01
2.207783e-02
1.833897e-01
1.032109e-01
1.392051e-01
-4.298011e-01
4.785695e-02
8.860181e-02
4.880568e-02
-7.093647e-03
7.287470e-03
1.545728e-01
-5.986204e-01
-4.383320e-01
-2.757427e-01
-3.644467e-01
-8.436169e-02
1.052481e-01
-5.411330e-01
-1.187334e-01
-4.196626e-01
-1.583718e-01
1.269752e-02
-5.233550e-02
1.144095e-01
-3.231755e-01
7.011955e-02
1.140094e-01
-1.566029e-01
-5.279714e-03
6.581121e-02
1.466578e-01
-6.732185e-01
-2.518182e-01
-5.951370e-01
-4.047779e-01
-4.297424e-02
-2.483573e-01
-6.993769e-01
-4.450564e-01
-2.106995e-01
3.332167e-02
1.042184e-01
-5.140766e-01
-4.419300e-02
-2.813442e-01
-2.489727e-01
1.108129e-01
-5.015849e-01
-5.401307e-01
-1.157681e-01
3.878552e-02
-2.722698e-01
-5.364073e-01
-1.119051e-01
2.439985e-01
-3.022504e-01
-2.683772e-01
1.045315e-01
7.239105e-02
5.370192e-02
-3.689863e-01
1.158697e-01
-4.059926e-01
-3.505559e-01
1.213676e-01
9.965809e-02
1.136722e-01
-6.207051e-01
-9.566981e-02
6.397773e-02
-5.805926e-01
-4.919600e-02
2.677797e-02
-7.669326e-01
-4.480380e-01
1.806767e-02
-5.304408e-01
1.314854e-01
-3.022343e-01
-6.125383e-03
1.030806e-01
-1.614112e-01
-5.553054e-01
-4.067361e-02
-1.329584e-01
8.019500e-02
-2.528660e-01
-8.714477e-01
2.972766e-03
2.103579e-01
-3.323058e-01
9.797780e-02
1.077056e-01
9.069380e-02
-3.139336e-01
-7.151917e-02
-7.395496e-01
-2.355140e-01
-2.600346e-01
2.098978e-01
-1.479920e-01
-5.550618e-01
-2.011479e-01
-1.463206e-01
-4.449988e-01
1.612517e-01
-1.574989e-02
-3.836587e-01
-5.042623e-01
1.672520e-02
5.873530e-02
2.270814e-03
1.375133e-01
4.929460e-02
-3.198977e-01
-9.205957e-02
3.494241e-02
8.450335e-02
-3.827044e-01
-1.590341e-01
9.828074e-02
-4.293672e-01
1.259229e-01
-2.265132e-01
-4.637774e-02
-1.919131e-01
-1.791815e-01
1.192065e-02
7.565908e-02
-1.427029e-01
-4.829845e-01
1.506648e-01
9.287274e-02
-1.012292e-01
-6.348585e-02
-6.283889e-01
-4.115320e-02
-2.745839e-01
-1.724864e-01
1.529543e-01
-2.944216e-01
3.512270e-02
-6.933641e-01
-1.767004e-01
-3.840069e-01
-5.316230e-02
2.618969e-01
1.474632e-01
5.302614e-02
6.177795e-02
-5.376709e-01
4.954820e-04
-4.870861e-01
7.697383e-02
-1.232471e-01
1.840494e-03
3.944550e-02
9.898240e-02
-9.131615e-02
-1.083140e-01
1.623342e-01
-5.942645e-04
4.574628e-02
-2.676903e-02
-3.206491e-01
2.238061e-01
4.032563e-02
-1.209644e-01
1.052353e-01
2.971112e-02
-3.030199e-01
8.161822e-01
-3.077019e-01
-1.826497e-01
5.270837e-02
-3.250327e-01
-3.603645e-01
1.450013e-01
-1.530110e-01
2.142542e-01
2.262757e-01
-2.421505e-02
-1.297748e-02
-1.586584e-01
6.147531e-02
-4.616909e-01
8.736053e-03
1.072126e-01
5.614200e-02
-4.905020e-02
-2.008095e-01
3.444168e-02
5.460268e-02
-1.558242e-01
-4.801136e-02
-1.206017e-01
-5.876456e-01
-1.086138e-01
5.235442e-02
-2.796743e-01
-2.718326e-01
1.737863e-01
2.719131e-03
-8.285229e-01
5.488040e-02
-3.631338e-02
-2.602942e-02
1.490208e-01
4.763392e-02
-1.839855e-01
-1.951956e-02
-3.059122e-01
-4.437386e-02
-4.534416e-01
1.174475e-01
-2.438959e-01
-1.199126e-01
-1.391815e-01
-2.758934e-01
-3.659179e-01
6.385120e-02
-1.905842e-03
-4.622105e-01
-2.912206e-01
1.390388e-01
-2.334622e-01
1.591991e-01
2.240966e-01
-3.729837e-01
-3.090598e-01
-2.634010e-01
-3.696159e-01
-4.785863e-01
-3.879410e-01
9.450921e-02
-3.394093e-02
1.320834e-01
-5.291504e-01
-1.006483e-03
-9.847660e-02
5.010538e-02
-2.851356e-01
1.157087e-01
-3.164745e-01
5.102449e-02
8.335990e-02
-3.916520e-01
-2.934541e-02
2.813608e-02
-6.635768e-02
2.066712e-01
-1.134685e-01
-1.136177e-01
-1.842704e-01
6.186969e-02
-3.028733e-01
-1.935214e-01
-2.410028e-01
7.550356e-02
1.103114e-01
-7.994839e-02
1.923142e-01
1.106283e-01
-2.472853e-01
-2.026447e-01
-1.088267e-01
5.724332e-02
1.153797e-01
1.908540e-01
1.251931e-01
2.931414e-02
8.555831e-02
-4.069445e-01
1.167832e-01
9.701215e-02
3.673264e-02
1.965383e-03
-2.588034e-01
-2.667726e-01
1.539349e-01
-1.150160e-01
-5.992019e-02
-4.720677e-01
-6.780089e-01
5.723374e-02
1.468634e-01
-3.963387e-02
2.158596e-02
-8.090858e-02
2.862704e-01
5.670211e-02
9.579013e-02
9.127185e-02
-3.745672e-01
-1.068223e-01
-3.027266e-01
1.357827e-01
-2.356542e-01
-3.816943e-01
2.335688e-02
-3.128346e-01
-8.761211e-02
-4.059131e-01
-2.307775e-01
-1.747256e-01
-4.783936e-01
-4.592316e-01
-4.934227e-01
7.657512e-02
-1.846535e-01
-2.897923e-01
-2.366515e-01
1.959195e-01
5.112784e-02
-1.490337e-01
-6.361255e-04
1.466745e-01
-5.523656e-02
-4.211774e-01
-3.466979e-02
2.633488e-01
-2.628708e-01
-2.125541e-01
-1.004654e-04
-3.560696e-02
1.124354e-01
-1.039683e-01
-3.251059e-03
-4.872622e-01
-3.524826e-01
-5.409805e-02
-3.539412e-02
1.062984e-01
-2.544039e-01
5.210134e-02
6.715320e-02
-2.328190e-01
-1.990207e-01
-1.341158e-01
3.455594e-01
2.658468e-01
-1.646270e-01
5.221425e-02
9.355940e-02
-1.898103e-01
-5.415610e-01
1.729763e-01
9.983724e-02
-2.335210e-01
1.196619e-01
7.920212e-02
-8.459144e-01
4.591131e-03
1.038358e-01
-2.170647e-01
1.400062e-01
1.799862e-01
-2.917103e-01
6.743396e-02
-2.586504e-01
1.275305e-01
-5.074764e-01
-9.041303e-02
-5.213254e-01
-1.482806e-02
