/* AUTO-GENERATED: raw weights, biases & quant params */
#ifndef WEIGHTS_BIAS_FLOAT_H
#define WEIGHTS_BIAS_FLOAT_H

static const int   CONV1_BIAS_FP32_SHAPE[] = { 6 };
static const float CONV1_BIAS_FP32_DATA[6] = {
    -2.312072e-02, -9.472244e-02, -2.942648e-01, -3.965004e-01, -4.414086e-01, -7.093956e-02
};

static const int   CONV1_WEIGHT_FP32_SHAPE[] = { 6, 1, 5, 5 };
static const float CONV1_WEIGHT_FP32_DATA[150] = {
    -6.451955e-02, -4.032643e-01, -7.145886e-01, -7.413262e-01, -3.791863e-01, 1.589133e-01, 1.566741e-01, 1.408449e-01, -1.080717e-01, 7.612086e-02, 3.089237e-01, 3.842694e-01, 3.201513e-01, 1.204643e+00, 4.395413e-02, -5.310831e-02,
    2.496648e-02, 1.542627e-01, -4.106208e-02, -9.544127e-02, 2.810818e-02, -2.422707e-01, -1.486390e-01, 6.824784e-03, 1.432672e-02, -3.101982e-01, -1.405824e-01, 6.546188e-02, -3.216339e-02, 1.073192e-01, -5.802657e-02, 2.669645e-01,
    8.863823e-01, 1.877208e-01, 7.785639e-02, 6.069151e-02, 1.033384e-01, 2.216816e-01, 3.690764e-03, 1.492152e-01, -2.646718e-01, -2.002973e-01, -3.606727e-01, -2.134954e-01, 4.295129e-02, -1.812922e-01, -2.500937e-01, -1.088233e-01,
    -2.182311e-01, -1.785521e-01, -4.172485e-02, 1.865003e-01, 7.505905e-02, 7.530945e-02, 5.792591e-03, -9.486811e-03, 2.829116e-01, 1.260589e-01, -1.516304e-01, -1.530400e-01, 4.687126e-02, 4.181753e-01, 2.697521e-01, -8.796220e-01,
    -4.843200e-02, -1.632657e-03, 2.839630e-01, 1.018091e-01, -5.168257e-01, -2.544497e-01, 1.401297e-02, 1.937825e-01, 2.122603e-01, -2.567336e-01, -1.299431e-01, -2.279917e-01, 1.520647e-01, 2.742781e-01, 8.075126e-03, -5.153534e-01,
    -7.214640e-02, 2.731851e-01, 3.733723e-01, 4.211841e-01, -8.167905e-02, -4.642401e-01, -1.000922e-01, 1.398865e-02, 1.260159e+00, 6.344353e-04, -3.411402e-01, -3.950610e-01, -5.480215e-01, 2.641112e-01, -8.507440e-02, 1.518486e-01,
    -2.929056e-01, -6.082621e-01, 1.437146e-01, 2.419985e-01, -1.006254e-01, -2.628869e-01, -2.460295e-01, 3.169594e-01, 3.190698e-02, -1.766335e-01, -1.756673e-01, 1.305201e-01, 3.901666e-01, 1.080247e-01, -9.759532e-01, -1.710055e-01,
    3.883969e-01, 2.312602e-01, 1.837281e-01, -2.422861e-01, 2.164442e-01, 3.977103e-01, 3.431996e-01, -5.255751e-02, -1.577793e-01, 2.678529e-01, 1.216131e-01, -1.419101e-01, -1.781199e-01, 7.083157e-02, 2.389745e-01, -3.330806e-02,
    1.209111e-01, -9.527700e-01, 1.322269e-01, 1.369764e-01, -2.789691e-01, -3.139789e-01, -1.005399e-01, 2.085647e-01, -1.383629e-01, -3.222796e-01, -2.891010e-01, 3.172447e-02, 1.750635e-01, -2.418866e-01, -2.524336e-01, -9.722266e-02,
    1.021066e-01, 1.515940e-01, -2.388822e-01, -3.782611e-01, -2.336378e-01, 3.638967e-01
};

static const int   CONV2_BIAS_FP32_SHAPE[] = { 16 };
static const float CONV2_BIAS_FP32_DATA[16] = {
    -1.273184e-02, 6.552225e-02, -8.815372e-02, 1.520187e-01, -1.529844e-01, -5.047089e-03, 4.791612e-02, -1.533037e-02, -1.240116e-01, -9.004870e-02, -2.864435e-02, -1.311268e-01, 8.990973e-02, -9.845075e-02, 1.028552e-01, 1.223467e-01
};

static const int   CONV2_WEIGHT_FP32_SHAPE[] = { 16, 6, 5, 5 };
static const float CONV2_WEIGHT_FP32_DATA[2400] = {
    -3.249593e-01, 2.256300e-02, -1.290445e-01, -1.454110e-01, 1.489174e-01, -3.010949e-01, -5.325329e-01, -1.941081e-01, 2.333528e-02, 9.441148e-02, 1.842186e-01, -2.872654e-01, -8.477184e-01, -5.773435e-01, -4.272278e-01, 2.276188e-01,
    2.696808e-01, 4.327037e-01, 3.175703e-01, -4.284502e-02, 8.263168e-02, 1.274676e-01, 4.230437e-01, 1.752765e-01, 2.325167e-01, -1.409489e-01, -1.524599e-01, -5.788128e-02, -1.313218e-02, 9.883363e-02, 4.197637e-02, 4.287186e-01,
    3.486876e-01, 2.057337e-01, 2.538190e-01, -4.210113e-01, -5.778893e-01, -1.379321e-01, 1.720278e-01, 9.942500e-02, -1.571026e-01, -3.489667e-01, -6.531474e-01, -6.668602e-01, -3.085145e-01, 9.016953e-02, 1.734512e-01, 1.869832e-01,
    1.737247e-01, 7.641309e-02, -2.477472e-01, 9.627034e-02, 1.991856e-01, 1.894628e-01, 4.726375e-02, -1.003606e-01, -9.998450e-02, -9.103675e-02, 1.319756e-02, 3.475524e-02, -1.099284e-01, -3.788840e-01, -5.075306e-01, -4.370436e-01,
    -2.140746e-01, -1.075226e-01, -2.246500e-01, -2.237202e-01, 4.776888e-02, -9.352727e-02, 2.227191e-01, 5.761979e-02, 2.885481e-01, 3.224734e-01, 2.392799e-01, 1.754472e-02, 7.632954e-02, -2.388901e-02, -3.972991e-02, -1.357090e-01,
    -3.254866e-01, 3.551396e-01, 3.239957e-01, 1.739856e-01, 1.090247e-02, -7.297108e-01, -6.207733e-01, -9.765722e-02, 3.289014e-01, -7.237361e-02, -3.832240e-02, 7.772210e-02, -1.772741e-01, -3.535521e-01, -3.732165e-01, 5.551416e-02,
    5.464965e-02, 2.274779e-01, 2.830208e-01, 1.334284e-01, 1.522570e-01, 3.293687e-01, 2.268271e-01, 2.180940e-01, 2.952340e-01, -8.662584e-02, -2.352639e-01, -1.867066e-01, -4.729407e-02, -3.279186e-02, -6.433480e-01, -6.485376e-01,
    -6.629029e-01, -4.196065e-01, -3.958102e-01, -2.396928e-02, 3.768253e-02, -3.700683e-02, -2.039135e-01, -8.978813e-02, 4.424442e-01, 2.452343e-01, 2.331610e-02, 1.026581e-01, -9.684783e-02, 7.997762e-02, 1.185369e-01, 1.989346e-01,
    1.050263e-01, -4.030149e-02, 1.236385e-01, 1.346455e-01, 9.372717e-02, 4.744867e-03, -8.668966e-02, 4.332821e-02, 1.149051e-01, 3.280407e-02, 1.290290e-02, 1.554235e-01, -9.133670e-02, 1.011597e-02, -4.644438e-02, 1.530415e-01,
    2.108735e-01, -2.649876e-01, -1.360800e-01, -2.030693e-01, -2.714755e-02, 1.049097e-01, -1.066972e-01, -3.879470e-02, 7.537165e-02, 1.089282e-01, 7.714348e-02, -1.222400e-01, -2.827725e-02, 1.338622e-01, 1.777861e-01, 1.736235e-01,
    -1.177955e-01, -1.437915e-02, 1.588349e-01, 1.120852e-01, -1.280112e-02, -1.573718e-01, -6.553502e-02, 5.753620e-02, 2.230050e-01, 1.165922e-01, -3.348412e-01, -4.144578e-02, 2.496354e-02, -6.160439e-02, 3.760308e-02, -4.087401e-02,
    1.093765e-02, -1.443911e-02, -4.406520e-04, -1.879920e-01, -9.844152e-02, -6.443170e-02, 3.632934e-01, -8.645767e-02, -1.962119e-01, -1.027609e-01, -4.477819e-02, -2.457206e-01, -4.227843e-02, -8.314221e-02, 8.782056e-02, 1.927303e-01,
    9.821668e-02, 8.339755e-02, 6.665635e-02, 1.361576e-01, 1.101367e-01, 1.199248e-01, 1.515851e-01, -1.103735e-01, 1.166311e-01, 1.232206e-01, -7.905094e-02, -1.807398e-02, 1.175653e-01, -6.310942e-02, 1.759961e-01, -1.177747e-01,
    -3.959355e-02, 1.414422e-01, -1.898554e-01, 1.114704e-01, -3.753211e-01, -1.147751e-01, 1.857821e-01, -3.201729e-01, -1.318927e-01, -2.945705e-01, -1.388440e-01, 6.488056e-02, -2.273785e-01, -1.382540e-01, -9.648231e-03, -5.762117e-02,
    -2.626908e-01, 1.329831e-01, -2.465264e-02, -3.470999e-01, -6.227350e-02, -2.348214e-01, -6.463350e-02, -1.538521e-01, -1.281908e-01, 1.173393e-01, -1.824116e-01, 3.072350e-01, 1.424202e-01, -1.325859e-01, -1.246541e-01, -2.601689e-01,
    3.205798e-01, 2.474985e-01, 7.855123e-02, -1.035201e-01, -1.711107e-01, 7.341748e-02, 1.084725e-01, 4.074440e-02, -3.387789e-02, -1.702306e-01, -7.062727e-02, 2.074653e-01, -5.257572e-03, -1.578197e-01, -1.042924e-01, 1.658228e-01,
    2.713376e-01, 5.926843e-03, -2.069672e-02, -6.359351e-02, 2.731455e-01, 2.958820e-01, 8.971552e-03, -5.167507e-02, -9.747411e-02, 7.734015e-02, 7.868256e-02, -2.722901e-01, -3.342276e-01, -4.816912e-01, -1.990594e-01, -1.442939e-01,
    -7.595692e-01, -6.878353e-01, -5.445396e-01, 2.519898e-01, 1.446553e-01, -6.041602e-02, -2.137349e-01, -7.906921e-03, 4.237427e-01, 9.246006e-02, -3.932145e-01, -3.887213e-01, -1.157071e-01, 2.538552e-01, -1.686026e-01, -5.592896e-01,
    -4.848701e-01, -3.674984e-02, -1.952280e-01, -6.429334e-01, -5.904546e-01, -2.736215e-01, 1.172318e-01, -2.630446e-02, -2.406951e-01, -1.933862e-01, 2.118257e-01, 2.716400e-01, -1.219011e-01, -1.750366e-01, -2.761783e-04, -1.307619e-01,
    -1.975924e-01, -1.072183e-01, -1.502531e-01, -1.755337e-01, -7.229825e-01, -3.801187e-01, -1.687871e-02, -7.296252e-03, -2.567182e-01, -2.737491e-01, 1.003213e-01, -3.157349e-02, -3.743261e-01, -3.870806e-01, -5.034810e-03, 1.080692e-01,
    -2.236242e-01, -2.052788e-02, 1.706268e-01, 1.094026e-01, -5.399678e-02, 1.380214e-01, 1.971551e-01, 1.582677e-01, 1.368585e-01, -1.345434e-02, -1.371459e-01, 6.994589e-04, 3.626508e-02, -7.051011e-02, -1.617260e-01, -5.418807e-01,
    3.055741e-01, -2.499076e-02, -3.635254e-01, -2.051127e-01, -2.255725e-01, 1.257291e-01, -5.453724e-01, -1.569844e-01, 7.798752e-03, -2.101218e-01, -3.709321e-01, -5.147287e-01, -1.711090e-01, -1.684421e-01, -1.169802e-01, -1.757347e-01,
    -3.188117e-02, -1.244881e-01, 2.570702e-01, -2.181619e-01, -6.420908e-02, 1.361845e-01, 9.451281e-03, -2.370536e-02, -2.092885e-01, 3.259020e-01, 1.869186e-01, -1.767603e-01, -1.343147e-01, 7.737515e-02, 3.213683e-01, -8.063818e-02,
    -2.430593e-01, 2.504577e-01, 2.230685e-01, 4.182686e-02, -7.195761e-01, -3.452625e-02, 1.360616e-01, 2.385769e-01, 1.778661e-01, 1.345484e-01, -3.307557e-02, -1.890170e-01, 2.674120e-01, 1.317663e-01, -1.434160e-01, 1.038518e-01,
    -3.282977e-01, -3.564967e-02, -2.959749e-02, -2.149552e-01, 6.223099e-02, -5.962126e-01, -4.383309e-01, -3.702404e-01, -5.556622e-01, -6.912447e-02, -5.907184e-01, -3.392819e-01, -3.209642e-01, -3.125794e-01, -1.625061e-01, -3.633466e-01,
    -3.930092e-01, -4.063300e-02, 8.346888e-02, 4.535574e-02, -1.296769e-01, -5.782539e-01, 8.344938e-02, -4.981713e-02, -3.455858e-02, 4.887396e-03, -9.610194e-02, 2.352027e-01, -4.817623e-02, -1.339207e-02, 1.355703e-01, 2.301990e-01,
    -2.744315e-02, -1.141248e-01, 6.807718e-02, 1.435371e-01, 2.577060e-01, 1.507815e-01, 4.534123e-02, 2.494354e-01, 1.272601e-01, -1.951938e-02, -8.329061e-02, 1.482604e-01, -2.681130e-02, 8.005389e-02, 3.297770e-02, -2.102793e-01,
    1.169790e-01, 2.950004e-02, 1.721984e-01, -1.657131e-02, -8.916277e-03, 2.976680e-01, 1.471597e-01, 1.791551e-01, -1.010007e-02, 2.306803e-01, 1.588677e-01, -3.092657e-03, 9.860736e-02, 1.741993e-01, 9.048492e-02, -1.579997e-01,
    -4.086225e-02, 1.105282e-01, -3.830488e-02, -5.265975e-02, 7.181651e-02, 5.011230e-02, 7.279179e-02, 4.049767e-02, -8.580775e-02, -1.333320e-01, -9.339537e-02, -6.622171e-02, 7.823896e-02, 2.313709e-01, 6.101903e-01, 2.245927e-01,
    1.688974e-01, -4.466279e-02, 1.023269e-01, -2.140066e-02, 5.548108e-02, 2.158740e-01, -1.453186e-01, -5.419732e-03, 1.745961e-01, -1.143040e-01, -1.775513e-01, -3.423679e-01, -1.437665e-01, -1.607750e-01, 7.899925e-02, 5.522308e-02,
    -1.812466e-01, -2.086422e-01, -4.216662e-01, -3.941093e-01, -2.937712e-01, 1.145219e-01, 2.734075e-01, 2.088499e-01, 1.328850e-01, 4.027614e-02, -1.290709e-02, 1.203354e-01, 2.612658e-01, 2.070687e-01, 1.710423e-01, -1.551062e-01,
    -5.912038e-01, -3.498977e-01, -2.461248e-01, -1.224481e-01, 1.528833e-01, 3.537666e-01, 1.495453e-01, 8.179919e-02, 7.375310e-02, -1.871448e-02, 3.727404e-03, -1.670887e-01, -1.009674e-01, -1.497309e-01, -2.551798e-01, -4.076978e-01,
    -4.599501e-01, -1.991787e-01, 1.261159e-02, 1.495677e-01, 1.296841e-01, -1.791712e-02, -7.839668e-03, 2.314505e-02, 1.500640e-01, 1.581986e-01, -1.214311e-01, -1.321775e-01, -9.614876e-02, -8.971299e-02, -5.176183e-01, -2.584356e-01,
    8.252975e-02, 7.068055e-02, 2.806089e-02, -5.643974e-02, -1.647681e-01, -4.000452e-01, -3.592046e-01, -6.964369e-03, 2.976439e-01, 2.495278e-01, 1.545334e-01, -3.824825e-01, -2.480367e-01, -5.331345e-02, 2.200991e-01, 2.097333e-01,
    -3.884318e-02, 1.305162e-01, -4.386098e-01, -3.168352e-01, -4.227607e-01, -2.264090e-01, 2.285972e-01, 1.316320e-01, -1.448033e-01, 2.242641e-01, 9.683530e-03, 1.418243e-01, -3.652666e-02, -1.633548e-01, 1.461886e-02, 1.262377e-01,
    2.660919e-01, -1.693759e-01, 2.135075e-02, 7.905344e-03, 1.727358e-01, -7.850366e-02, -3.040993e-01, -2.596570e-01, -1.234324e-01, -1.466896e-01, 6.898931e-02, -1.278230e-02, 8.127035e-02, 3.797881e-02, 1.655828e-01, 8.425461e-02,
    2.908628e-01, 1.734899e-01, 1.041512e-01, 1.265058e-01, 2.806898e-02, -1.179402e-01, -3.901384e-01, -1.937521e-01, 8.667965e-02, -3.389093e-01, -6.764419e-01, -1.054798e+00, -2.868864e-01, -1.691427e-01, 1.241550e-01, -8.911508e-02,
    -9.044336e-02, -6.497826e-02, -1.176768e-02, 2.878353e-01, 2.939946e-01, 2.890204e-01, 2.336636e-02, 5.116088e-02, -1.912456e-01, -4.443149e-02, 1.008162e-01, 1.515420e-01, -2.369415e-02, -1.058896e-01, -1.382012e-01, 1.570066e-01,
    3.555449e-02, -1.492585e-01, -4.476671e-01, -3.506009e-01, -3.940434e-01, 5.385359e-02, 1.292908e-01, -1.512473e-01, -5.355325e-01, -5.721553e-02, 3.193106e-01, 1.745808e-01, -2.984491e-01, -3.627004e-01, 1.820250e-01, 1.795412e-01,
    4.298967e-02, -3.456438e-01, -8.563685e-02, 5.582665e-03, 9.846505e-02, 5.648186e-02, -9.755874e-02, -1.688459e-01, -3.994700e-02, 1.773265e-01, 2.651048e-01, -1.581486e-01, -8.362039e-02, -9.414808e-02, -2.431730e-01, 2.762328e-01,
    -5.404150e-02, 1.598737e-01, -4.617273e-02, -1.012824e-01, 3.461565e-01, 1.260096e-02, 1.430624e-01, 9.062624e-02, -6.838957e-02, -8.398661e-02, -3.645730e-01, -1.997731e-01, 2.101272e-02, -1.497224e-01, 1.656956e-01, -5.013924e-01,
    1.502968e-01, 2.112660e-01, 4.566767e-02, -5.174984e-02, -1.636938e-01, 2.604139e-01, 3.142683e-01, -4.951506e-02, -1.530704e-01, 2.224063e-01, 1.838109e-01, 1.366580e-01, -1.843161e-01, -7.997131e-02, -8.377717e-02, -1.423507e-03,
    -4.665988e-02, 1.868193e-01, -5.068654e-02, -1.497065e-01, 1.478736e-01, -4.961981e-01, -2.461217e-01, -1.131120e-01, -5.386046e-02, 2.966525e-01, -6.343774e-01, -1.187103e-01, 2.642083e-01, 1.437576e-02, 9.656120e-02, -4.409294e-01,
    -1.855131e-01, 2.330057e-01, -1.001121e-01, 1.398581e-01, -5.322097e-02, -1.361995e-01, 1.621207e-01, 8.717716e-02, 2.990849e-01, 1.832122e-02, -1.602317e-01, -8.316044e-02, -1.693295e-01, 4.498271e-02, 2.429705e-01, 3.173695e-03,
    -2.119907e-01, -2.415343e-01, 1.894404e-01, 2.719995e-01, -5.059531e-01, -2.236529e-01, -7.883056e-02, 2.418884e-01, 9.833033e-02, -1.133270e+00, -1.624989e-02, 7.640999e-02, 2.681927e-01, -2.055513e-01, -5.789218e-01, -2.069945e-02,
    1.625707e-01, 2.472361e-01, -1.907404e-01, -4.157118e-01, -6.019991e-01, -1.245848e-02, -2.174030e-03, -3.383024e-01, -3.932879e-01, -3.043482e-01, 7.431696e-02, -7.821469e-02, 5.076318e-05, -1.100174e-01, -1.793670e-01, 1.035713e-01,
    -4.163235e-01, 1.187981e-01, -1.413956e-01, -3.382018e-01, 1.001011e-01, -4.387110e-01, -6.230091e-02, -3.517219e-01, -1.809435e-01, -1.094260e-01, -5.310657e-01, -2.373428e-01, -3.589314e-02, 2.232773e-01, -3.749743e-01, 6.816614e-02,
    -6.184662e-02, -6.204943e-02, -1.714615e-02, 1.068071e-02, -3.226978e-01, -4.643979e-01, -5.145660e-02, 6.331971e-02, 2.240672e-01, 2.879043e-03, -4.151458e-01, -1.663688e-01, 4.334709e-02, 2.511720e-02, 1.900495e-01, 6.331792e-02,
    -3.136219e-01, -3.564857e-01, -6.423666e-02, 1.915542e-01, 3.045310e-01, 5.912117e-02, -2.461597e-01, -1.792948e-01, -1.751262e-01, -3.886111e-03, -2.045439e-02, -1.981488e-01, -4.308139e-01, 1.882726e-01, 9.979198e-02, -1.311314e-01,
    -1.103107e-01, -2.987198e-01, -1.057892e-01, -2.983152e-01, 5.110012e-04, -1.197433e-01, 2.164114e-01, -3.319869e-01, -4.749671e-01, 1.289880e-02, -7.887583e-02, 5.964258e-02, 1.014592e-01, 1.166230e-01, 2.013054e-02, -4.292520e-02,
    1.282129e-01, 1.064782e-01, 1.947555e-02, 5.906781e-03, 2.725482e-01, 2.389117e-01, 1.234582e-01, -7.934428e-02, -3.209580e-01, 3.598948e-01, 7.987010e-02, 1.414956e-04, -4.524916e-01, -2.362801e-01, 3.272872e-01, -1.487913e-01,
    -1.711048e-01, -3.773130e-01, 1.537850e-01, 2.247188e-01, -5.278530e-01, -2.251295e-01, 1.276597e-01, -6.643816e-02, -4.017551e-03, 2.632008e-01, -2.684635e-01, -2.693410e-01, -1.699654e-02, 6.030833e-02, -5.076797e-01, -2.032748e-01,
    4.634712e-02, 1.678691e-01, 3.131104e-01, -1.692054e-01, -4.012769e-01, -2.663293e-01, 3.719118e-01, 1.080342e-01, 2.896892e-01, 8.249262e-02, -9.052725e-01, -4.619780e-01, -2.415541e-01, 2.843200e-01, 3.010314e-01, -2.405337e-01,
    -4.416689e-01, -2.728417e-01, -2.210277e-01, 4.737661e-01, 1.721963e-01, -1.146347e-01, -2.671148e-01, 5.987614e-03, 2.335272e-01, -4.709776e-01, 4.335560e-02, -6.359693e-02, 6.136577e-02, -2.605084e-01, -3.595801e-01, 2.370905e-02,
    1.195786e-01, -1.741980e-01, -3.486867e-01, -1.087556e-01, 2.389096e-01, 2.770201e-01, -1.649855e-02, -5.135599e-02, -6.351059e-02, 1.872722e-01, 2.004669e-01, 1.102647e-01, 2.085173e-01, 1.990977e-01, 7.269348e-02, -3.375102e-02,
    -7.792608e-02, 1.870620e-01, 7.451067e-02, -1.802660e-01, -3.705349e-01, -7.015742e-02, -2.413657e-02, 6.595192e-03, -3.053370e-01, 4.204079e-02, -1.643466e-01, -2.317075e-01, -9.417728e-02, 8.190052e-02, 2.871927e-01, -2.660875e-01,
    -5.006070e-01, -2.219493e-01, 2.600417e-01, -6.965476e-02, 3.482966e-01, 2.315839e-02, -3.178330e-01, -8.195193e-01, -3.773819e-01, 2.240220e-01, 3.193047e-01, 3.072160e-01, 7.774413e-02, -4.489067e-01, 7.289556e-02, 1.345890e-01,
    2.045823e-01, 2.637713e-01, 2.496399e-02, 1.039946e-01, -2.398034e-01, -2.495227e-01, 5.048807e-02, 1.664346e-01, 1.250557e-02, -3.072668e-01, -5.519307e-01, -2.660062e-01, 6.870191e-02, 4.277441e-03, -1.161438e-01, -2.861070e-01,
    -1.215045e-01, 2.369054e-01, 1.324443e-01, -1.195575e-02, -4.350458e-01, -1.014201e+00, 9.281760e-02, -6.896758e-02, -2.092336e-01, -4.177066e-01, -5.464479e-01, -8.234086e-01, -1.339868e-01, -1.734343e-02, -1.307608e-02, -4.318532e-02,
    -1.514600e-01, 3.355421e-01, 4.124281e-01, 2.894445e-01, 2.194278e-01, 1.028536e-01, 1.172087e-01, 1.439640e-01, -3.960796e-02, -3.288536e-01, -2.471323e-02, -1.885812e-01, -1.508408e-01, 5.516288e-03, -1.438666e-03, 1.119008e-01,
    -4.682799e-01, -2.902874e-01, 1.748450e-01, 3.496699e-01, 2.912978e-01, -4.532763e-01, -2.275145e-02, 2.259959e-01, 3.342701e-01, 2.091151e-01, 1.307423e-01, -4.140564e-02, -1.825263e-01, -1.003398e-01, 4.126435e-02, -1.660464e-01,
    2.616759e-02, -2.710056e-01, 1.636164e-02, 2.501989e-01, 1.456941e-01, 3.116567e-01, 4.463328e-01, -1.271803e-01, 7.576195e-02, -1.714913e-01, 1.859907e-02, 8.917376e-02, -6.742521e-02, -4.033350e-01, -2.846746e-01, -2.313089e-01,
    -1.618109e-01, 3.521618e-02, 1.307455e-01, 3.454715e-02, -1.169150e-01, 9.819758e-02, 1.592604e-01, 2.258683e-01, 8.068997e-03, -4.577686e-01, -7.914200e-01, -4.463791e-01, 1.252844e-01, -1.523309e-01, -2.672814e-01, -3.453481e-01,
    -3.167518e-01, -5.425561e-02, 1.101666e-03, 2.334440e-01, 3.825549e-01, -1.197962e-01, -2.145581e-02, 1.687017e-01, 3.248399e-01, 2.514924e-01, 2.512536e-01, -4.132457e-02, -5.193405e-02, 2.246657e-02, 7.844532e-02, -3.512708e-02,
    4.007228e-02, -3.107328e-01, -1.528528e-01, 9.724438e-02, -2.450740e-02, 1.009054e-01, -5.446329e-01, -5.539004e-01, -6.240832e-02, -5.648732e-02, 5.965758e-02, -3.342444e-01, -4.235980e-01, 1.000598e-01, 9.099512e-03, 7.164994e-02,
    -1.072686e-01, -4.445318e-02, 1.538820e-01, -9.551216e-02, 3.857253e-03, -1.115330e-01, 2.733780e-01, -2.427792e-02, -1.362144e-01, -1.974060e-01, -1.701867e-01, -5.762389e-02, -4.742986e-02, 1.138792e-01, 2.650681e-02, -4.959854e-02,
    4.750355e-02, 6.136186e-02, -1.932924e-02, -4.287156e-01, -9.983805e-02, -2.959536e-01, -4.154316e-02, 2.872302e-01, 6.537808e-02, 1.404497e-01, -1.285914e-01, -4.054188e-01, 1.699602e-01, 1.857429e-01, 9.330612e-02, 1.085143e-01,
    -2.707211e-01, -2.451516e-01, 2.074145e-02, -1.809962e-01, -3.232670e-01, -3.836495e-01, -2.633853e-02, 2.245634e-01, 2.896042e-02, 5.343833e-03, -1.240382e-01, -3.065478e-01, -1.811905e-01, 8.286930e-02, 8.613244e-02, 7.079979e-02,
    -3.508720e-02, -3.759137e-01, -7.069404e-02, -2.916262e-01, -2.186536e-02, 1.235134e-01, -3.040158e-01, -1.245654e-01, 1.449573e-02, 9.907702e-02, 1.030654e-01, -4.436171e-02, -1.000786e-01, -1.218223e-02, 3.422941e-02, -1.790611e-01,
    -3.709376e-01, -1.250696e-01, -5.717527e-01, 5.896734e-02, 3.635033e-01, -2.328657e-01, -1.859998e-01, -5.106686e-01, 1.525969e-02, 3.289893e-01, 3.371382e-02, -4.329440e-01, -3.746125e-01, -1.371702e-01, 3.596066e-01, 2.074664e-01,
    -2.838539e-01, -2.371576e-01, -7.738955e-02, 6.930594e-02, -7.930654e-02, -1.561984e-01, -1.557247e-01, -2.840165e-01, -5.678542e-01, 2.201422e-01, -3.924248e-01, 1.301084e-01, 3.095867e-01, -1.931396e-01, 1.992076e-01, -3.231612e-01,
    1.228195e-02, 4.140747e-01, 1.000799e+00, -4.852989e-01, -1.294424e-02, -4.210900e-01, 8.129531e-02, 3.899003e-01, -2.893214e-01, -1.525574e-01, -2.205123e-01, -2.200362e-01, -3.928142e-02, 8.005978e-02, 3.551413e-02, 2.193628e-02,
    -2.292600e-03, -2.915725e-01, -1.080021e-01, 1.978215e-01, 1.053228e-01, -1.889371e-01, -2.149765e-01, -2.977599e-01, 4.165218e-02, -1.992071e-02, 6.403273e-02, -6.606340e-02, -3.822807e-01, 8.247677e-03, 8.420122e-02, 1.355508e-01,
    1.942361e-01, -3.226790e-01, 5.428713e-02, 2.561699e-02, 1.281205e-01, 3.806592e-01, -1.528943e-01, 1.444697e-01, -1.456362e-02, 2.496498e-01, -1.194557e-01, -3.819431e-02, -8.695856e-02, -1.202559e-01, -2.716916e-01, -1.402670e-01,
    3.604445e-01, 5.238960e-02, -2.853389e-02, -5.030183e-01, -1.801850e-01, 1.396874e-01, 1.463792e-01, 2.442128e-01, -3.821719e-01, -1.983975e-01, 1.349327e-01, -5.959771e-02, 5.001057e-02, -3.932521e-01, -2.490473e-02, 1.775665e-01,
    4.132102e-01, 2.818229e-02, -2.570087e-01, -3.824091e-01, -2.741359e-01, 1.307388e-01, -1.537280e-01, -4.002067e-01, -3.647618e-01, 4.559831e-03, -1.173514e-01, -2.288201e-01, -1.838519e-01, 6.720942e-02, 9.976934e-02, -5.437913e-01,
    -2.873622e-01, -3.223369e-01, 1.311430e-02, -8.178920e-02, -7.186148e-02, 2.398210e-01, 1.352508e-01, 1.415798e-02, -6.533659e-02, -2.240424e-01, -1.934349e-01, -3.705946e-01, -1.929539e-01, -9.949023e-02, 8.498991e-02, -9.276757e-02,
    -3.640090e-01, -2.552962e-01, -2.543820e-01, 3.778358e-01, 2.572097e-02, -2.896246e-01, -3.015926e-01, -4.587801e-02, 2.742727e-01, -1.519746e-01, -2.150053e-01, -1.450037e-01, 8.178500e-02, -1.887219e-01, -4.191515e-01, -9.840146e-02,
    -2.728800e-02, 1.221016e-01, 3.479747e-01, 4.849640e-02, 1.008667e-01, -4.741817e-02, 3.637468e-02, 4.086310e-01, 2.693738e-01, 1.719428e-01, -1.328728e-01, 2.955516e-02, 2.729581e-01, 2.112506e-01, 6.961861e-02, -4.568839e-01,
    2.095000e-01, 9.830572e-02, 4.649934e-02, -2.607985e-01, 3.217612e-02, 1.959459e-01, -8.396156e-02, -2.554359e-01, -1.037086e-01, 2.370737e-01, 3.568589e-01, 5.025110e-02, 1.802201e-02, -5.053837e-01, -5.416258e-02, 2.690677e-01,
    6.473320e-02, 8.453896e-02, -3.069758e-01, -2.838857e-02, 8.084505e-02, -1.088859e-01, 2.269625e-02, 6.534144e-02, -2.118367e-01, 2.639529e-02, -6.321771e-01, -4.997982e-01, -3.452272e-02, -4.407657e-01, -2.537645e-01, -4.035516e-01,
    -5.290238e-02, -1.887890e-01, -2.548909e-01, 1.752551e-01, 1.884401e-01, -8.920840e-02, -6.450184e-01, -3.365008e-01, -1.868977e-02, 4.830768e-03, -2.593240e-02, -4.331594e-01, 6.888552e-02, 2.158660e-01, 1.964509e-01, -8.430344e-02,
    -5.007756e-02, 9.293146e-03, 1.895973e-01, -6.041478e-02, -2.168154e-01, -2.367238e-03, 1.554564e-01, 2.338189e-01, -8.731985e-02, 4.400980e-02, 2.206301e-01, 2.468204e-01, 6.162154e-02, -1.219004e-01, 2.019418e-02, -2.738153e-02,
    5.959896e-02, -2.582716e-01, -1.388601e-01, 3.926957e-02, 2.820625e-02, 2.943411e-03, -1.056854e-01, -5.338521e-02, 1.717230e-01, 7.573723e-02, -2.211115e-03, -1.375914e-01, 9.456510e-02, 8.976829e-02, -4.737765e-02, -9.098069e-02,
    -6.159239e-02, -4.016127e-02, -1.161265e-01, -1.914865e-01, -1.447323e-01, -7.251935e-02, -3.860806e-02, -1.201004e-01, 4.957301e-02, 1.226381e-01, 2.475319e-01, 7.506344e-02, -2.807291e-02, -5.607873e-02, -1.971310e-01, -2.462927e-01,
    1.546158e-01, -2.483048e-02, -1.341127e-01, -5.012274e-01, -3.750762e-01, 4.487745e-02, -2.825540e-01, -6.218824e-01, -8.507369e-01, -5.018745e-01, 3.753345e-03, -5.621001e-01, -6.673759e-01, -1.236427e-01, 1.210655e-02, 2.282422e-01,
    2.043519e-01, 1.003619e-01, -2.009991e-02, -1.630429e-01, 1.928910e-01, -6.560054e-02, 2.859749e-02, -3.243637e-02, -3.148363e-03, 1.700164e-01, -7.573955e-03, 4.383432e-03, 1.938313e-01, -5.218282e-02, -7.011279e-02, -1.498824e-01,
    8.644452e-03, 2.296577e-02, 4.848900e-02, -3.202311e-01, -2.922474e-01, -1.931653e-01, -2.361429e-01, 2.347658e-02, -4.318761e-02, -5.669829e-02, -2.687089e-01, 1.925458e-01, 2.550692e-01, -2.203794e-02, -1.114311e-01, 3.043922e-03,
    3.422356e-01, 3.881218e-01, 9.102792e-02, -5.195219e-02, 8.264975e-02, 3.593784e-01, 2.403939e-01, 7.546046e-02, -3.163485e-01, 4.068733e-02, 1.579712e-01, 1.792445e-01, 3.570950e-03, -1.817235e-01, -3.431081e-01, -1.283579e-01,
    1.095420e-01, 1.041658e-01, -7.128502e-02, 9.473471e-02, -1.945409e-01, -3.589671e-01, 1.740396e-01, -1.826192e-01, 3.064333e-02, -2.414064e-01, -1.539045e-01, 2.719370e-01, -2.931260e-01, -9.624581e-02, -9.096905e-02, 6.853347e-02,
    -2.662273e-01, -4.998006e-01, -3.548644e-02, 1.179275e-01, 2.523091e-01, -6.263051e-01, -7.118978e-01, -3.185810e-02, 1.797151e-01, 6.936886e-02, 1.548865e-01, -2.003691e-01, -1.191860e-01, 7.895447e-02, 1.459085e-01, -4.194748e-02,
    -1.845372e-02, 1.156115e-01, 1.938145e-01, 1.517364e-01, 7.248829e-02, -1.015628e-01, 2.888480e-01, 7.593899e-02, 7.014056e-02, 1.211783e-01, -3.587523e-01, 4.897089e-02, -2.910604e-01, 9.219154e-02, -8.066804e-02, -3.516147e-01,
    -7.323372e-02, -3.790733e-01, 4.462244e-02, -6.056020e-02, -5.352093e-02, 1.267664e-01, 1.169505e-01, 2.958365e-01, -5.497918e-02, 9.627421e-02, 8.903668e-02, 8.641756e-02, 2.857506e-01, -1.536567e-02, 8.875920e-02, 8.858005e-02,
    7.844688e-02, 4.116451e-01, 2.175515e-01, 9.479154e-02, 5.180595e-02, -9.033895e-03, 8.986763e-02, -1.285079e-02, -1.300890e-01, -2.589950e-02, -2.622644e-01, -1.851164e-01, 3.469706e-01, 1.378337e-01, -3.117416e-02, 5.733003e-02,
    2.193815e-01, 5.023127e-02, -5.309661e-03, -5.833486e-02, 1.511728e-01, 3.902817e-01, -3.434139e-01, -2.926630e-01, -8.760371e-03, -2.119373e-02, -3.089614e-01, -4.161995e-01, -8.554975e-01, -1.104171e+00, -2.967951e-02, -1.293787e-01,
    -3.874721e-01, -4.577894e-01, -6.816162e-01, -5.448512e-02, 2.305022e-01, 2.806192e-02, -2.373774e-01, -5.565339e-01, -4.153450e-01, -5.463770e-02, 2.091747e-01, 3.231116e-01, 2.224400e-01, 1.855821e-01, -1.959653e-02, -6.848808e-02,
    -4.418623e-02, -4.458303e-02, 4.635092e-02, 1.190642e-01, -4.603205e-02, -1.114995e-02, 2.047343e-01, 1.441173e-01, -2.783647e-01, 5.341090e-02, -1.732057e-01, -3.008717e-02, 3.075403e-01, 1.063300e-01, -7.703882e-02, -9.333697e-02,
    -1.508587e-01, -2.953975e-02, 1.394150e-01, -8.008789e-02, -1.902982e-01, -1.889783e-02, 3.305509e-02, -7.126574e-02, 1.980978e-01, -2.722304e-02, -5.333275e-02, 2.480194e-01, -2.030488e-01, 2.461605e-01, 1.005033e-01, -3.792083e-02,
    -1.621711e-02, -3.038923e-01, 1.170873e-01, 6.751562e-01, 1.605222e-01, -1.918722e-01, -3.793117e-01, -6.047325e-03, 4.421582e-03, -2.384100e-01, -8.893540e-01, -3.149047e-01, 2.993230e-01, 2.804496e-01, 3.121420e-01, -3.444009e-01,
    -3.662037e-01, -2.224450e-01, 3.596092e-02, 2.618563e-01, -1.551670e-01, -2.073728e-01, -1.223153e-01, -3.088559e-01, 2.628338e-01, 3.202367e-01, -3.970317e-01, 7.954784e-02, 2.057940e-02, -2.910592e-01, 4.343319e-01, 1.937815e-01,
    5.343589e-02, -3.376542e-03, -4.918062e-02, -1.292182e-01, 1.641888e-01, 2.633947e-02, -2.130483e-01, -1.307801e-01, -1.907519e-02, 3.410051e-01, 2.417392e-02, -1.550736e-01, -7.172451e-02, -1.111372e-01, -1.430709e-01, 2.457501e-01,
    -1.327097e-01, 1.901215e-02, -1.822086e-01, -4.676059e-01, 8.996798e-02, -9.411833e-02, -9.012818e-02, -5.669562e-02, -3.637317e-01, -3.031451e-01, -1.801335e-01, 4.897583e-02, -2.009104e-01, -3.682951e-01, -3.384854e-01, -1.710908e-01,
    -1.851021e-02, -3.367912e-01, -5.521219e-01, 1.146944e-01, -7.317903e-02, -7.519911e-02, -2.582667e-01, -1.039653e-01, 3.513464e-01, 9.059454e-02, -1.565993e-01, -1.327235e-01, -2.564758e-02, 1.928212e-01, 2.063355e-01, -1.738019e-01,
    -8.290008e-02, -8.225820e-02, -2.488689e-01, -5.516415e-02, 3.083229e-02, -1.691538e-02, -5.120492e-02, 1.380827e-02, 1.992586e-02, 1.994163e-02, 9.859193e-02, 3.304708e-03, 1.968698e-01, 1.384016e-01, -2.260239e-02, 5.052678e-02,
    6.512953e-02, 2.985923e-01, 8.740845e-02, -1.630666e-01, -1.351834e-01, -1.801563e-01, -1.444516e-01, -9.254012e-02, -2.192063e-01, -2.923962e-01, -8.946853e-02, -2.191989e-01, 1.096940e-01, 1.899034e-02, -1.235439e-01, -2.477252e-01,
    2.295750e-01, 3.073995e-01, -1.215996e-01, -1.695770e-01, 4.093251e-03, 5.158788e-02, -2.827119e-03, -8.206809e-02, -7.695834e-02, -1.344304e-01, 1.379148e-01, -1.322597e-01, 1.389191e-01, 5.082858e-02, 1.995778e-02, -2.460618e-01,
    -8.048715e-02, 2.857264e-01, -2.416446e-02, -4.186324e-02, -3.374571e-01, -5.450736e-01, 6.647012e-02, 1.434895e-01, 8.764081e-02, -4.772822e-01, -1.169963e+00, -4.222517e-01, 2.380303e-01, 2.398559e-01, -7.261093e-01, -1.653569e+00,
    -1.178274e-01, 4.006878e-01, 1.599033e-01, -9.524789e-01, -8.501636e-01, 2.313417e-01, 2.335488e-01, -2.322835e-04, -9.202137e-01, -1.013372e-01, 3.979757e-01, 4.081571e-02, 2.716911e-02, -6.504754e-02, 2.711647e-01, 1.756001e-01,
    1.561648e-01, 1.950298e-01, 1.965090e-01, 2.661341e-01, 4.208684e-02, 2.957588e-02, 6.484308e-02, -6.436826e-02, 9.833759e-04, -2.953917e-01, -3.194186e-01, -2.810325e-01, 1.025152e-01, 6.497104e-02, -2.638443e-01, -2.852658e-03,
    1.012894e-01, -3.907422e-02, -4.022220e-02, 1.236975e-01, 2.707423e-01, 2.607931e-01, 1.950216e-01, 3.419965e-01, -1.824248e-02, -6.204775e-02, -1.370078e-01, -1.411227e-01, 4.034884e-02, 1.055279e-01, 1.177931e-01, -1.058309e-01,
    -1.561671e-01, -8.703808e-02, 2.478817e-01, 2.406681e-01, -4.636474e-01, -8.121781e-02, 6.925326e-02, 2.277167e-01, -2.265739e-01, -2.584355e-01, 1.398599e-01, 1.568443e-01, -3.018845e-01, -3.856839e-01, 9.899075e-02, -1.331936e-01,
    -1.278072e-01, -3.838404e-01, -6.608038e-02, -8.616464e-02, -3.713621e-01, -5.028691e-01, -4.163199e-01, -2.453177e-01, -2.214357e-01, -4.984345e-01, -3.348220e-01, -6.414288e-01, -1.730076e-01, -3.564044e-02, -1.688518e-01, -2.473917e-01,
    -5.286061e-01, 1.886573e-01, 3.237474e-02, 1.433055e-03, -7.238112e-01, -9.093670e-02, -9.339699e-03, -1.386286e-01, -2.480096e-02, 1.189283e-01, 5.297704e-02, 8.359540e-02, 2.110083e-01, -3.651316e-01, -2.566502e-01, 7.605935e-02,
    2.252773e-01, 3.302117e-02, -6.927847e-02, 1.252250e-01, 2.511576e-01, -4.391254e-01, -9.629825e-01, 1.172885e-01, -3.441061e-02, -3.084100e-01, -4.564100e-01, -2.234234e-01, -5.188576e-01, -5.899071e-01, -2.935274e-01, -5.999709e-02,
    8.096631e-02, -8.948965e-03, 1.646306e-01, 2.006684e-01, 1.885547e-01, -7.870840e-02, -1.564262e-01, -3.075590e-01, -2.997562e-01, 4.087179e-03, 1.984178e-01, -4.927184e-01, -2.037867e-01, 1.957370e-01, 2.040277e-01, -2.240590e-01,
    4.872863e-02, 2.578092e-01, 1.316877e-01, -4.460374e-01, -1.631836e-01, 9.877525e-02, -7.976446e-02, -2.588873e-01, 4.689193e-03, 1.803384e-01, -3.774139e-02, -5.157073e-01, -2.190658e-01, -4.542665e-01, 1.208719e-01, -9.286858e-02,
    -2.367027e-01, -3.879217e-02, -7.372823e-02, 2.416191e-01, -4.734446e-01, -9.244242e-02, 1.091217e-01, 2.287484e-01, -4.105853e-02, -4.146320e-01, -8.613081e-02, 7.566678e-02, 4.496125e-02, -8.899871e-02, -1.229426e-01, -9.436882e-02,
    -7.513791e-02, 1.953881e-02, -1.170598e-01, -9.282811e-03, 2.610933e-01, 2.996162e-01, 1.378338e-01, -4.476631e-02, -4.281326e-02, 1.757706e-01, 1.858173e-02, -1.305745e-01, 1.098921e-01, -1.485318e-01, 1.318054e-01, 1.012988e-02,
    -2.194968e-04, -5.713299e-02, -2.894931e-03, 1.939530e-01, 5.711944e-02, -2.521417e-01, -2.636642e-01, 1.183558e-01, 3.448029e-02, 5.816525e-02, -6.385191e-02, -2.621707e-02, 6.110278e-02, -2.419481e-01, -8.098480e-02, -3.254047e-03,
    -7.638115e-02, -2.018402e-01, -8.213792e-02, 1.613219e-01, 2.452563e-01, -3.476943e-01, -8.823294e-02, 2.413755e-01, 1.940701e-01, -4.255816e-01, -2.182366e-01, -4.335373e-02, -2.346048e-01, -7.135327e-01, 1.939484e-02, 2.430182e-01,
    -5.221974e-01, -3.638769e-01, -2.396928e-01, 2.406108e-01, 6.930692e-02, -1.255804e-01, -4.880452e-01, -3.511147e-01, -4.211356e-01, -3.723029e-01, 2.719104e-01, -1.633821e-01, -5.010481e-01, -2.159992e-01, -5.292320e-02, -3.246232e-02,
    -2.787260e-01, -2.043921e-01, 1.662934e-01, 2.506295e-01, -9.858142e-02, -6.012178e-02, 1.865043e-01, 3.375501e-01, 1.475530e-01, 3.399097e-02, 1.683506e-01, 1.299170e-01, 2.123506e-01, 2.664591e-01, -3.450046e-01, 3.687463e-02,
    -7.524807e-02, -4.682241e-01, -2.176083e-01, -3.502108e-01, -3.772761e-02, 2.747258e-02, -2.416255e-01, -2.963306e-01, -5.550945e-01, -1.264672e-01, 1.142419e-02, -1.969268e-01, 1.729811e-02, -4.460860e-01, -1.338569e-01, 1.450545e-01,
    8.694161e-02, 1.980090e-04, 5.664167e-02, 1.464494e-01, 2.664916e-01, 5.996773e-02, -1.340224e-01, -1.998048e-01, -4.301166e-01, -6.051677e-01, -2.943446e-01, -5.945143e-02, -9.615567e-02, -1.890320e-01, -3.966196e-01, -3.785664e-01,
    -4.867042e-02, -8.390903e-03, -5.142295e-02, -3.750972e-01, -2.857306e-01, -1.240387e-01, -1.454310e-01, 2.756080e-02, -9.731924e-01, -2.842984e-01, -1.572652e-02, -1.122081e-02, 1.375304e-01, 1.159510e-01, 3.162680e-01, -1.566642e-02,
    -2.064143e-01, 1.501883e-01, 1.077429e-01, -1.951986e-01, -2.178503e-02, 7.668366e-02, 1.908192e-01, 2.230739e-01, -2.126232e-01, 2.071142e-01, 4.634627e-02, 2.681869e-01, 4.854355e-01, -3.615195e-01, 2.850872e-01, -1.078810e-02,
    7.129279e-02, 1.124991e-02, -2.739638e-01, 2.950332e-01, -7.084664e-01, -1.099985e-01, -2.539801e-02, 5.408489e-02, 1.632386e-01, -7.623333e-02, -2.377562e-01, -4.194090e-01, 1.603431e-01, -2.659483e-02, 6.584742e-02, -1.550558e-02,
    -1.976725e-01, 1.418827e-01, -9.449082e-02, 1.805176e-01, 1.195353e-01, -3.706210e-01, 7.754158e-02, -2.044573e-01, 8.676839e-02, 2.066682e-01, -5.629544e-01, -4.776041e-01, -4.206768e-02, 9.155852e-02, 3.653320e-01, 1.113532e-02,
    -2.322545e-02, -6.945382e-02, 1.298393e-01, -1.149051e-01, -1.858725e-01, -2.550267e-01, -2.653173e-02, -1.346614e-02, 4.981391e-02, -1.411984e-01, 3.610656e-03, 2.243331e-02, -1.638122e-01, 2.069151e-01, -2.021462e-01, 1.197961e-01,
    1.276530e-01, -1.043835e-01, 1.993233e-01, -1.172474e-01, 1.918664e-01, -3.861150e-02, -2.371025e-02, 1.620533e-01, -2.480160e-01, -1.395552e-01, -5.810269e-01, 1.448501e-01, 1.199156e-01, 1.589412e-02, -1.108843e-01, -2.765282e-01,
    7.320608e-03, -2.266627e-01, 1.826075e-01, -7.487582e-02, -2.738692e-01, 1.109372e-01, -9.972884e-02, 2.545901e-01, -1.276128e-01, -3.789677e-01, -1.129658e-01, -3.795443e-01, 1.130147e-01, -4.660055e-01, -2.449120e-01, -4.028490e-01,
    -4.203784e-01, -2.424893e-01, -3.490045e-01, -2.179965e-01, -6.813259e-02, 1.334246e-01, 2.873726e-01, 3.376294e-01, 1.538437e-01, 3.245881e-02, 1.423291e-01, 1.270247e-01, 1.024708e-02, 1.287369e-01, -8.312696e-02, -1.803558e-01,
    -4.693168e-02, 7.328586e-02, -8.119961e-02, -3.098013e-01, -2.030635e-01, -1.222358e-01, -1.119536e-01, -2.943555e-02, 1.892706e-01, 2.587604e-01, 2.302541e-02, -6.348835e-02, -1.777765e-01, -3.244184e-01, -4.785066e-01, -3.858839e-01,
    -2.927038e-01, -1.193850e-01, -1.626902e-01, 1.045040e-01, 2.222293e-01, 1.036521e-01, 1.166642e-01, 1.735739e-01, 2.149900e-01, 1.550286e-01, 6.115977e-02, -1.321957e-02, 9.182619e-05, -1.394072e-01, -4.358643e-01, -3.446160e-01,
    -2.137394e-01, -3.248309e-01, -2.751562e-02, 4.100920e-03, 8.973435e-02, -1.085716e-01, 3.542989e-02, -1.988079e-01, -1.569259e-02, -9.990126e-02, 5.930826e-04, -2.340287e-01, -6.952824e-02, 1.420565e-01, 1.539250e-01, 1.126901e-02,
    1.448962e-01, 3.435031e-01, 1.063761e-02, -2.047801e-01, -1.942201e-01, -1.609958e-01, 4.874197e-02, -1.676442e-01, -3.360500e-01, -2.653788e-01, -9.610274e-02, -8.257242e-02, -2.837615e-01, 1.391530e-02, -6.268947e-02, -2.435878e-01,
    -3.538460e-01, -5.311343e-01, -3.100884e-01, -2.382226e-01, 2.769335e-02, -2.068695e-01, 8.084395e-02, 1.204260e-01, 1.555712e-01, 1.699982e-01, 3.044084e-01, 2.369695e-01, 6.889468e-02, 8.645028e-02, 2.962713e-01, 2.996025e-01,
    -1.868349e-01, -2.615426e-01, -2.106874e-01, 1.379406e-01, -6.647866e-02, -6.652106e-02, -3.813877e-01, -9.799028e-02, -7.671711e-02, 1.040669e-02, 3.298425e-02, 1.186942e-02, 9.281905e-02, 1.552512e-02, 1.720001e-01, -8.925778e-02,
    -2.042535e-01, -2.489479e-01, 7.901171e-02, -2.538231e-01, -7.823825e-01, -6.048877e-01, -2.113290e-01, -2.950398e-01, -3.665998e-01, -2.448162e-01, -2.031407e-01, -3.144916e-01, -3.751224e-02, 8.552915e-02, -1.101427e-01, -2.656555e-01,
    -4.679771e-01, 9.289026e-02, -4.448356e-01, -3.415399e-01, -1.921238e-01, -1.864865e-01, 3.026033e-02, -4.934332e-01, -2.096764e-01, -1.732611e-01, 6.109311e-02, -2.312957e-01, -4.054467e-02, 1.086494e-01, 7.787310e-02, -1.377554e-01,
    4.643260e-02, 1.437872e-01, 1.381437e-01, 4.996612e-02, 2.855257e-02, -3.601794e-01, 7.247429e-02, 1.652634e-01, -5.665476e-02, 1.044602e+00, -9.586924e-03, 3.807371e-02, -1.220959e-01, -1.587059e-02, 6.653872e-02, 1.525306e-01,
    -3.665349e-01, -4.305315e-01, -5.278277e-02, -2.893419e-02, 1.416984e-02, 1.917234e-01, 2.230887e-01, 2.360427e-01, -1.577280e-01, 2.780419e-01, 1.125641e-01, -1.309625e-01, -5.077275e-02, 1.872038e-01, -6.179244e-02, -1.840806e-01,
    1.697352e-01, 2.112780e-01, 1.264931e-03, 6.588393e-02, 9.925435e-02, 1.174424e-01, -1.475356e-02, -3.237825e-01, 2.082336e-01, 5.678991e-02, -1.752630e-01, -1.482223e-01, 2.409734e-01, -2.515718e-01, -5.997826e-01, 7.325902e-02,
    4.333825e-01, 1.302763e-01, -4.403464e-01, 3.537798e-03, 1.509582e-01, 1.022596e-01, -1.752140e-01, 1.247075e-02, -5.520323e-02, -2.409380e-01, 6.150852e-02, 2.371806e-01, 1.487814e-01, 1.139491e-01, -2.201896e-01, -1.478171e-01,
    -3.851935e-03, -7.592038e-02, -2.920495e-01, -2.833414e-01, -1.376325e-01, 1.379164e-01, -1.806380e-01, -3.283333e-01, 1.496322e-01, 2.208093e-01, 1.688726e-01, -4.519562e-01, 1.435836e-01, 2.726600e-01, -1.342054e-01, -3.523136e-02,
    7.442569e-03, 2.934581e-01, -2.622770e-02, -2.034563e-01, 1.114920e-01, 3.314709e-02, 1.713014e-01, 2.366938e-01, 2.234764e-01, -7.958398e-02, 8.157202e-01, 2.939531e-01, -1.053143e-01, -4.153850e-01, -2.049726e-01, -1.988922e-01,
    -3.964928e-01, -4.975583e-01, -7.722326e-02, 1.794559e-01, -1.867779e-01, -3.287982e-01, 1.165987e-01, 1.553009e-01, -5.169127e-02, -1.709599e-01, 1.577563e-02, -1.316821e-01, -1.308094e-01, 7.309859e-02, 5.617144e-02, 3.095352e-01,
    -1.676201e-01, -3.750085e-02, 1.085328e-01, -2.336402e-01, -4.409464e-01, 8.124571e-02, 3.853459e-01, -1.823006e-03, -3.670170e-01, 2.782904e-01, 4.206110e-01, 5.405819e-02, -5.362807e-01, 1.756989e-01, 2.566520e-01, -2.475892e-01,
    -4.768364e-01, -3.390723e-01, 2.219987e-01, -2.527404e-01, -4.455887e-01, -7.756219e-02, -4.928199e-01, -7.015885e-02, -2.353808e-01, -4.524191e-02, -6.781181e-02, -1.027101e-01, -1.707426e-01, -5.172766e-02, -1.910021e-01, 1.198092e-01,
    -1.422802e-01, 9.471912e-02, -2.779151e-01, 5.277728e-02, -3.667752e-02, -1.543174e-02, -3.111338e-02, -4.462509e-01, -7.586864e-02, -1.444390e-01, -3.191478e-01, -2.374374e-01, 1.395766e-01, -8.095182e-02, -1.844214e-01, 1.221330e-01
};

static const int   FC1_BIAS_FP32_SHAPE[] = { 120 };
static const float FC1_BIAS_FP32_DATA[120] = {
    3.834056e-02, -7.513583e-02, -1.065326e-01, 6.041204e-03, -2.061226e-01, 4.516768e-03, 2.733315e-04, -1.853588e-01, -1.679124e-01, 1.972510e-02, 1.717495e-01, -2.742505e-02, 1.525500e-02, 1.463521e-01, -8.554578e-02, -1.166142e-01,
    -4.330790e-02, 1.463084e-02, -1.465528e-01, 3.673854e-02, 2.185560e-01, -8.316121e-02, -9.367320e-02, -5.231354e-02, -5.457783e-02, -7.017744e-02, -3.424071e-02, 1.059524e-01, -1.180190e-01, -7.351913e-02, -7.161739e-02, -4.270525e-02,
    -5.711328e-02, -5.155062e-02, -3.319530e-02, -8.944593e-02, -1.000551e-01, -1.277000e-01, 2.898968e-01, -1.097185e-01, 1.996251e-01, -9.210584e-02, -4.044510e-02, -8.831351e-02, 7.294288e-02, 9.384441e-02, -8.255576e-02, -1.001240e-01,
    9.012581e-02, -5.038706e-02, 5.901313e-02, 6.127273e-03, 3.229641e-02, 1.247691e-01, -5.854730e-02, 8.777886e-02, -8.428941e-02, -1.315313e-01, -5.551183e-02, 2.913808e-02, -7.670455e-02, 4.565635e-02, 2.283470e-02, -2.568116e-01,
    -3.514158e-02, -3.143404e-01, 2.010766e-01, -1.088538e-01, -7.964578e-02, 8.569256e-02, 1.947435e-02, -1.911369e-01, -2.256189e-01, 3.077246e-03, -9.385353e-03, 2.940300e-02, -1.982712e-01, -5.068329e-03, -2.963221e-02, 2.511327e-02,
    2.808380e-02, 2.402089e-02, 3.098470e-02, -5.913459e-02, -1.219698e-01, 6.379639e-02, 1.719410e-02, -5.340847e-02, -1.703605e-01, 6.458352e-02, -1.948219e-01, 8.956524e-02, 4.571709e-02, -6.060007e-02, 1.464158e-01, -4.076520e-02,
    -2.229620e-01, -5.837871e-02, -9.154206e-02, -2.569161e-01, 2.021555e-02, -2.249382e-01, -9.468248e-02, 1.657049e-01, -7.358225e-02, 2.063057e-02, -5.918177e-03, -9.317236e-02, 3.287699e-02, -7.131741e-02, -5.401741e-02, 4.045182e-02,
    5.849468e-03, -1.139722e-01, -1.374616e-01, -1.720216e-02, 1.672811e-02, -1.330968e-01, 1.439281e-01, -2.181983e-01
};

static const int   FC1_WEIGHT_FP32_SHAPE[] = { 120, 256 };
static const float FC1_WEIGHT_FP32_DATA[30720] = {
    7.298435e-02, 3.306108e-01, 8.714778e-02, -1.830679e-02, 2.700449e-01, 6.305524e-02, -3.541845e-01, -5.385445e-01, -6.622114e-01, -3.198849e-01, -7.020271e-02, -1.594441e-02, -5.050144e-01, -2.825763e-01, -8.191812e-03, 4.468733e-01,
    -6.551838e-02, 3.225518e-01, -1.200011e-01, 8.872573e-02, -2.187199e-01, -2.393389e-01, -1.144951e-01, 1.935582e-02, 1.044981e-02, -3.627288e-01, -5.011792e-01, -3.927077e-01, 1.945836e-02, -1.720230e-01, 1.442721e-01, 2.273040e-01,
    1.794114e-01, 2.621574e-01, 5.533776e-02, 1.305040e-01, 2.219840e-01, -1.737542e-02, -1.329582e-01, 4.931781e-02, 5.878357e-02, 1.399580e-01, 9.723654e-02, -7.354243e-02, -4.821179e-01, -5.169904e-01, -3.956367e-01, -2.740652e-01,
    -1.078845e-01, -3.272785e-01, -7.641594e-02, -1.986313e-01, 3.605839e-02, -2.432058e-01, -5.422818e-01, 5.394304e-03, -3.068891e-01, -2.126287e-01, -4.315104e-01, -8.061735e-02, -2.150341e-02, -8.067983e-02, -1.464095e-02, -1.546509e-01,
    5.056195e-02, 4.921443e-02, -2.614506e-01, 7.586357e-02, -6.481031e-02, 2.212177e-01, -6.348617e-02, 9.220143e-03, -2.375402e-01, -1.020062e-01, 1.295998e-01, -1.751108e-01, 4.029549e-01, -3.238963e-02, -3.011180e-02, -3.673271e-01,
    -2.636131e-01, -2.748226e-02, -6.583679e-03, 8.684765e-02, 8.359948e-02, 1.513688e-01, -1.140358e-01, 1.680739e-01, 1.009558e-01, -7.323498e-02, -1.338538e-02, 2.474358e-01, -6.055123e-01, -2.087937e-02, 1.577035e-01, 2.445596e-01,
    -6.495681e-01, 5.514070e-02, 2.733951e-02, -2.418109e-02, 1.771168e-01, 2.591775e-01, 7.521991e-02, -2.073150e-01, 1.998656e-02, 7.425821e-01, 9.644542e-03, -1.375129e-01, -2.636067e-01, -1.421457e-01, -1.100174e-01, 2.226012e-01,
    -2.305412e-01, 2.155057e-01, 2.182688e-01, -2.038286e-01, 3.890605e-02, 2.889193e-01, 1.073919e-01, 3.733156e-02, 1.818519e-01, 9.467251e-02, 1.747126e-01, 3.159881e-01, -9.517439e-02, 2.392539e-02, -6.494311e-02, 7.647721e-02,
    -1.156677e-01, 2.394193e-01, 5.957495e-03, 1.576774e-01, 2.719114e-02, -3.769090e-03, 2.141637e-01, 1.995248e-01, 1.121398e-01, 7.117630e-02, -1.504122e-01, 4.580103e-02, -5.542804e-02, -2.078617e-01, -1.017231e-01, 1.018632e-01,
    3.852641e-01, 2.825995e-01, 1.811670e-01, -2.639214e-01, 3.550265e-02, -2.382142e-01, 3.235023e-02, -7.873216e-02, 1.181685e-01, -3.405315e-01, -1.853523e-02, -4.855044e-03, 1.998805e-01, 1.975605e-01, -1.609465e-01, -1.022989e-02,
    1.437309e-01, 1.693287e-01, 2.207291e-01, 1.368874e-01, -7.430370e-02, 1.045430e-01, 2.071496e-01, -6.955490e-02, -3.122943e-03, -1.620281e-02, 2.015301e-01, 1.533978e-01, -4.343570e-02, -5.105906e-02, -2.021734e-01, 1.749930e-02,
    -1.399630e-02, 1.491174e-01, -3.679416e-02, -4.266589e-01, -6.580667e-02, 1.035508e-01, -2.548349e-02, -2.344234e-02, 9.604697e-02, 9.635004e-02, -5.054649e-02, 6.052445e-02, -1.979005e-01, -9.867235e-02, -1.705344e-01, 1.740674e-01,
    -1.738798e-01, 5.821431e-03, 1.422199e-01, -2.969055e-01, -1.738532e-01, -3.768343e-02, 1.659859e-01, 1.063650e-01, 6.000159e-02, 2.341117e-01, -1.180227e-01, -1.843044e-01, 4.985292e-03, 5.029517e-02, -2.012096e-01, 2.247798e-01,
    -1.097856e-01, -2.486658e-01, 2.724402e-01, -1.769179e-01, 3.531666e-02, 4.593233e-01, 1.756450e-02, -7.227219e-02, 1.212434e-01, 2.217041e-01, 7.823780e-02, -2.777032e-02, -1.692564e-01, 2.098045e-01, 4.128047e-01, -1.249776e-01,
    -1.576582e-01, 1.176363e-01, 1.530729e-01, -1.135614e-01, 3.110682e-03, 1.398579e-01, 2.064483e-01, 3.424213e-03, -3.686754e-01, 1.738919e-02, -2.485528e-01, 9.569410e-03, 1.497767e-01, 2.100670e-01, -8.062668e-02, -4.237704e-01,
    -8.244287e-02, -1.006776e-02, -6.381147e-02, -1.818720e-01, -5.133471e-01, 8.448125e-02, -8.923543e-02, 3.601629e-02, 1.780189e-01, 1.653102e-01, -1.232594e-01, -3.356137e-01, -3.254544e-02, 9.112578e-02, -2.724315e-02, 2.014408e-01,
    -9.851617e-02, -5.078318e-02, 9.437009e-02, 2.741691e-01, -1.386682e-02, -1.483043e-01, -2.110189e-01, -3.954374e-01, -2.943942e-01, -2.005304e-01, -1.711522e-01, -2.002696e-01, -3.784330e-01, -4.024514e-01, -4.548164e-01, -4.281162e-01,
    1.771531e-01, -1.590229e-01, -9.197123e-03, 1.052247e-01, -9.984420e-02, -1.921638e-01, 1.175215e-01, -3.789405e-01, -8.776656e-02, -1.055452e-01, 1.026833e-01, 1.145899e-01, 7.175176e-02, -1.460688e-01, -1.377939e-01, -5.126074e-01,
    1.730579e-01, 9.500109e-02, 1.472785e-01, -1.808562e-01, 1.306538e-01, 2.193839e-01, 2.001970e-01, 7.662382e-02, -5.782841e-02, 1.335304e-01, 3.256308e-01, -1.694130e-01, -7.560079e-02, 3.005973e-01, 1.676731e-01, 1.565710e-01,
    1.578577e-01, 1.132422e-01, 1.845789e-01, 2.142582e-02, -2.422060e-01, -6.302950e-01, -3.141261e-01, -4.726636e-02, -7.389308e-01, -5.571060e-01, -5.083058e-01, -7.384301e-01, 6.198039e-03, -7.669815e-02, -1.680158e-02, -2.712239e-01,
    -3.566572e-01, 8.712757e-02, -1.639412e-01, -3.674439e-01, -2.469393e-01, 2.935795e-01, -3.104044e-01, 4.773624e-02, 1.610576e-01, 9.444349e-02, -2.714392e-01, -1.433430e-01, 2.139760e-01, -1.192272e-02, -2.308522e-01, -3.903752e-01,
    1.114163e-01, 4.208876e-02, -2.841263e-01, 4.869738e-01, -1.025243e-01, -7.964814e-02, 3.091095e-01, 4.193309e-01, -5.963715e-02, -1.896385e-04, -2.107960e-01, 1.677681e-01, 2.704339e-01, -1.350162e-02, 1.321728e-02, -4.174851e-01,
    -5.765507e-02, 1.372330e-01, 1.118227e-01, 1.839299e-01, -2.338000e-01, -8.069091e-02, -1.770805e-02, 6.387673e-02, 1.480604e-01, -2.542172e-01, -4.271661e-01, -1.835238e-01, 9.653686e-02, -2.808356e-01, -8.494817e-01, -3.286874e-01,
    -1.248261e-01, 3.712085e-01, 3.883582e-02, 8.146360e-03, 5.462756e-02, -9.367659e-02, 6.169893e-03, 3.970486e-02, 1.076137e-01, -1.806336e-01, -2.382190e-01, -1.520120e-01, -2.940246e-02, -3.018263e-01, -5.662141e-01, -3.075426e-01,
    1.064805e-01, 1.658646e-01, -3.589402e-01, -4.645264e-01, 1.889074e-01, 2.481255e-01, 3.160840e-01, -1.237657e-01, -7.549890e-02, 1.201722e-01, 2.825106e-01, 8.629884e-02, -7.366852e-02, 7.566075e-02, 8.077677e-02, 1.079159e-02,
    -1.676560e-03, -6.960866e-01, -4.437849e-01, -6.727178e-01, -9.549923e-02, -1.773698e-01, 2.074036e-02, -1.647404e-01, 2.603508e-01, -7.584929e-02, 1.153912e-01, 1.377865e-01, -2.066521e-01, -3.393474e-02, 2.741060e-01, 2.977384e-01,
    7.143431e-02, -9.341735e-02, 3.090565e-01, 1.799878e-01, 1.631351e-01, 9.259739e-02, 4.108866e-01, 2.220854e-01, -3.771732e-01, -4.107068e-01, -5.451306e-01, -5.183247e-01, -2.186946e-01, -7.746541e-02, -3.521855e-01, -3.045173e-01,
    -2.616762e-01, 2.242840e-01, -1.761366e-01, 2.346185e-01, 3.498275e-01, 2.001782e-01, -6.901687e-02, -3.170055e-02, 6.239432e-02, 3.367063e-02, -4.072028e-01, 1.180932e-02, 1.547047e-01, -1.637177e-01, -3.680550e-01, -2.474599e-01,
    -4.069839e-01, -1.855084e-01, -1.873322e-01, 3.035427e-01, 9.157183e-02, 1.992698e-01, 3.121319e-01, 1.173915e-02, 1.400257e-01, -3.169775e-01, 1.154465e-01, -4.758298e-02, -2.047945e-02, 1.336704e-02, 8.675322e-02, 2.024200e-01,
    1.833252e-01, -1.960399e-01, -4.508900e-02, -5.955043e-02, 1.497670e-01, 1.916992e-02, -3.935984e-01, -6.265569e-02, -8.046205e-02, 2.142624e-01, -6.642941e-02, 1.587177e-02, 4.509184e-02, -1.294525e-02, -5.997785e-01, -3.006056e-01,
    -2.927350e-02, 1.261515e-01, -9.259709e-02, -2.901239e-01, -2.028205e-01, 2.906300e-02, -5.745709e-02, -3.707768e-02, 2.589446e-01, 2.275773e-01, -5.297019e-01, -2.448390e-02, -2.387853e-01, 1.716712e-01, 2.145453e-01, 3.514711e-03,
    -3.832110e-01, -3.484586e-01, -1.105969e-01, 1.279167e-01, 9.541024e-02, 2.460705e-01, -1.138585e-02, 4.197961e-02, 1.490456e-01, 5.134569e-02, -3.563867e-02, 4.635071e-02, 2.790013e-01, -1.012081e-01, 7.126727e-02, 5.225889e-02,
    -1.131244e-01, -2.700535e-01, -6.554949e-02, 9.731446e-02, -4.909658e-02, -1.477365e-01, 1.721372e-02, -2.455213e-01, -5.635165e-02, -2.123760e-01, -2.803187e-01, 1.588052e-01, 1.968202e-01, 8.298036e-02, -2.892238e-01, -2.718577e-01,
    -1.039628e-03, -3.839764e-02, -3.493956e-02, -1.628935e-01, -1.996981e-01, -4.603563e-01, -3.783082e-02, -1.814467e-01, -3.920591e-01, -5.023573e-02, 5.023806e-01, -1.072614e-01, 2.544111e-02, -9.245874e-02, -1.350544e-01, -6.830819e-01,
    -9.328274e-02, -3.991133e-02, 8.578333e-02, -1.437754e-01, 1.781723e-01, 9.209780e-02, 2.379096e-01, -1.525079e-01, -1.626366e-01, -4.894309e-02, -1.144968e-01, -5.510760e-02, -2.187440e-02, -4.243518e-01, -1.677917e-01, 1.695887e-01,
    -5.571513e-02, -9.948255e-02, -6.231786e-02, -9.069435e-02, -7.247815e-02, -2.109949e-01, -5.353128e-02, 2.923565e-01, -2.480478e-02, -1.911642e-02, 5.459723e-02, -4.538423e-01, 3.142066e-02, -7.942205e-02, -2.740969e-01, -5.588238e-01,
    -9.133260e-02, 6.382361e-03, -8.550295e-02, 2.859258e-01, -1.181876e-01, -2.191601e-01, 1.580438e-02, 1.619743e-02, 1.318706e-01, 7.707193e-02, -2.718121e-01, -1.123673e-01, -2.237220e-01, -5.630820e-01, -1.673351e-01, -1.123881e-01,
    6.831849e-02, 4.207572e-02, 6.857602e-02, 2.854435e-01, -7.199011e-02, -1.401054e-02, 2.852725e-02, -3.926330e-02, 4.085055e-02, -8.778401e-02, 1.118425e-01, 1.653627e-01, 5.619165e-01, -1.228227e-03, -1.344716e-01, -5.464473e-01,
    1.509072e-02, 2.688421e-02, -2.349097e-02, 1.419717e-03, -8.139220e-02, -1.154335e-02, 3.072708e-02, 3.117024e-01, -4.391582e-02, 2.537480e-02, -2.460419e-01, 2.014286e-01, -1.296748e-01, -1.762873e-01, 1.162796e-01, 3.042940e-01,
    1.787420e-01, 1.769534e-01, 6.482396e-02, -1.230224e-01, -2.508508e-01, -9.801834e-02, 8.843482e-02, 1.875283e-01, -2.941241e-02, 1.371914e-01, -2.667765e-02, -1.397363e-01, -3.583690e-01, -5.992062e-02, 5.642102e-02, -8.633488e-02,
    -8.765371e-02, -5.240615e-02, 6.856084e-02, -5.098873e-02, -5.487919e-02, 8.062696e-02, -9.869972e-02, -1.314449e-01, -1.227359e-01, 2.446149e-01, 1.085626e-02, -4.425035e-01, -2.452928e-02, 6.687184e-02, -9.674223e-02, 1.902393e-01,
    -1.488992e-01, -1.338343e-01, 2.497863e-01, -1.378704e-01, -9.345652e-02, -1.521235e-01, -3.783135e-02, -2.394855e-01, 2.768381e-01, 1.564945e-01, -4.733422e-01, -1.872731e-01, 5.150979e-03, -2.913302e-01, -4.362195e-02, 6.901260e-02,
    1.196646e-01, 2.828200e-02, 2.131319e-01, -1.180677e-01, -1.447823e-01, 1.121498e-01, 6.609711e-02, 1.600811e-01, -4.048052e-01, 5.860667e-02, -3.653159e-01, -3.214468e-01, -3.108476e-01, -4.400423e-01, -2.048913e-01, -1.093984e-01,
    3.381212e-01, 9.190001e-02, 4.766513e-02, -7.511932e-02, 7.995890e-03, -2.359190e-01, -3.023182e-02, 5.301661e-02, -4.119753e-02, -1.537168e-01, 5.573324e-02, -3.032249e-01, -2.082001e-01, 1.105188e-01, -2.601454e-02, 1.452350e-02,
    1.564694e-01, 2.789530e-02, 6.493061e-02, 2.909870e-01, 1.448008e-01, 1.112516e-01, 1.055629e-01, 8.564605e-03, -9.508070e-02, -1.304683e-01, 8.966215e-02, 4.492405e-01, -1.903586e-01, -1.181402e-02, 6.126562e-02, -1.730715e-01,
    1.020241e-01, -2.034440e-02, -8.170679e-04, -4.066668e-02, -7.243694e-02, 1.129529e-01, -1.907229e-01, -1.412770e-01, 1.765340e-01, -8.982758e-02, -5.719137e-02, -2.826637e-01, 2.752907e-01, -4.920845e-01, -2.833189e-01, -5.267433e-01,
    -1.292366e-01, -1.562321e-02, -1.738996e-01, 5.261018e-02, -2.528438e-02, -2.601259e-02, -2.071628e-01, 1.196285e-01, -1.935686e-01, -1.117808e-01, -2.179419e-01, -1.663266e-02, -3.430274e-01, -4.290815e-02, 8.467209e-02, -1.293138e-02,
    -8.820952e-02, -1.032660e-01, -1.112345e-02, 6.005192e-02, -8.594357e-02, -2.043008e-01, -2.570409e-02, 1.674200e-01, -2.076651e-01, -1.434361e-01, 6.183938e-02, 8.688246e-02, 2.325455e-01, -5.495205e-02, -2.221566e-02, -1.959745e-01,
    -9.134234e-02, 2.551255e-02, -2.159621e-02, -7.705702e-02, -7.047735e-02, -7.149845e-02, 2.536077e-02, -5.078373e-02, 3.168725e-02, -2.016775e-02, 3.518140e-02, -9.024893e-02, -1.897156e-02, 3.535258e-02, 1.355467e-02, -1.140923e-01,
    -5.240181e-02, 1.529204e-02, -3.336608e-02, -3.004984e-02, 8.831590e-02, -2.595794e-02, -7.442193e-03, -3.302142e-02, -5.405413e-02, -7.875141e-04, -2.468996e-02, -5.156647e-02, -3.569647e-02, -9.302179e-02, -1.545547e-02, 1.130814e-02,
    -6.305685e-03, -5.084325e-02, -4.299687e-03, -4.305157e-02, -8.920339e-02, -6.557330e-02, -6.544049e-04, -1.763159e-02, -6.576693e-02, -1.370404e-02, -2.962536e-02, 3.998461e-03, 2.938267e-02, -6.017803e-02, -2.920663e-02, -4.393565e-02,
    4.833750e-03, -6.042884e-02, -9.215019e-02, -4.978670e-02, 3.061894e-02, 1.035651e-02, -5.204036e-02, 6.791363e-02, -2.240576e-02, 1.319966e-02, 4.440159e-03, -1.196364e-02, -7.533297e-02, 9.137020e-03, 6.356135e-02, -1.851823e-02,
    2.740355e-02, -3.289888e-02, 2.018681e-02, -6.511624e-02, 1.506788e-02, 4.042156e-02, 1.556517e-02, -7.862113e-03, -6.048642e-02, -4.295006e-02, -6.479006e-02, -5.882686e-02, 4.612420e-02, -7.122749e-02, -6.126549e-02, -3.877151e-03,
    -3.865847e-02, -4.023333e-02, -1.741772e-02, -4.549921e-02, 1.917495e-02, 6.166233e-02, -3.677524e-02, -5.559433e-02, -7.653867e-02, -5.191383e-02, 1.421195e-02, 3.159189e-02, -4.069062e-02, 3.129846e-02, 1.453969e-02, -2.756829e-02,
    -1.308826e-02, 1.161212e-02, 2.524116e-02, 1.056106e-02, -5.782471e-02, -8.225104e-03, -5.360488e-02, -1.661768e-05, 2.261321e-02, 4.114804e-02, -4.697801e-03, 2.550402e-02, -2.346275e-02, -6.769083e-02, -4.050461e-02, -3.263700e-02,
    4.744077e-02, -6.095210e-02, 1.476113e-02, -8.715142e-02, -7.705552e-02, -4.684075e-02, -9.913412e-03, 1.079110e-02, 4.716344e-04, -1.227487e-02, -4.724844e-02, 2.789176e-02, -6.320373e-03, 3.118036e-02, -6.397361e-02, -8.337360e-02,
    1.359864e-02, -5.424315e-02, -1.242165e-02, 6.282363e-02, 1.978455e-02, -4.817200e-02, -3.740148e-02, -5.331531e-02, -3.898175e-02, 1.993923e-03, 2.693937e-03, -6.460625e-03, -5.284752e-02, 8.531953e-03, -4.939913e-02, 4.639469e-02,
    6.503792e-02, 2.373749e-02, 1.668474e-02, -6.895004e-02, -6.546374e-02, 2.221151e-02, -6.971623e-02, -7.887927e-03, 1.508026e-02, 1.186305e-02, -6.103744e-02, 1.702739e-02, -1.165541e-02, -1.216818e-02, -8.154120e-02, -5.516008e-02,
    -2.170046e-03, -5.751869e-02, -5.556152e-02, -8.411417e-02, -6.770349e-02, -3.104343e-02, 2.073184e-02, -4.716345e-02, -4.409673e-02, 4.638212e-03, -5.306284e-03, -6.945406e-02, 4.380552e-02, -6.280281e-02, -3.942850e-03, -2.894968e-02,
    -5.685290e-02, 8.649928e-05, -3.645561e-02, -8.839826e-02, -4.622146e-02, -3.124102e-02, -5.864894e-02, 6.907409e-03, -2.181906e-02, -1.112653e-02, -3.260933e-02, -1.819651e-02, -8.614799e-02, -6.126639e-03, 8.796713e-03, -2.974676e-02,
    8.010210e-02, -4.315250e-02, -4.844835e-02, -7.313856e-03, 1.985891e-02, 2.827591e-02, -4.007773e-02, -8.316102e-03, -5.866644e-02, -2.063291e-02, -8.165761e-03, -4.807338e-02, 5.678736e-03, -3.616256e-02, 6.398788e-02, -3.632933e-02,
    -1.011960e-02, -2.163114e-02, 1.141413e-02, 4.890768e-03, -6.568486e-02, 8.780113e-03, -7.943023e-02, -2.493138e-03, 1.304498e-02, -4.337170e-02, -4.295792e-02, -4.857318e-02, -7.683583e-02, -6.339400e-03, -5.179585e-02, 1.495447e-02,
    3.386370e-02, -3.281528e-02, -4.902802e-02, -6.620607e-03, -4.943396e-02, 2.341448e-02, -1.155715e-02, 2.660806e-04, 1.086619e-02, -4.372900e-02, 2.048468e-02, -4.724253e-03, 4.258038e-02, 2.817724e-02, 8.565380e-02, -9.294690e-02,
    4.467327e-02, 1.327692e-02, -7.616010e-03, -4.220114e-02, -5.068333e-02, -7.597150e-02, -6.687652e-02, -6.489869e-02, -3.345679e-02, -5.797459e-02, 1.669442e-02, -8.965287e-03, -2.877195e-04, 1.385146e-02, -5.215678e-02, -5.810089e-02,
    -3.095172e-02, 1.333065e-01, -1.252718e-01, -1.132323e-01, -8.431983e-02, -1.941167e-01, 5.827487e-02, -9.861876e-02, -2.756663e-01, -7.049408e-02, -2.469184e-01, -2.455670e-01, -3.140295e-01, -1.625924e-01, -6.094895e-02, 1.661439e-01,
    -3.304575e-02, -5.227701e-02, -2.857362e-01, -3.859993e-02, -1.329435e-01, -1.561285e-01, -1.648915e-01, -1.006537e-01, -2.116977e-02, 1.548403e-01, -6.650169e-03, -3.028597e-02, -3.009914e-01, -3.180347e-01, -8.330183e-02, 1.125004e-01,
    -1.069543e-01, 1.217249e-01, 7.775361e-02, -1.448246e-01, -6.852363e-03, 1.338801e-01, 1.802475e-01, -5.050176e-02, -1.419769e-01, -6.228343e-02, 2.545096e-01, 3.330106e-02, 2.042945e-02, 1.353974e-01, 3.574611e-01, -1.579890e-02,
    2.504633e-01, 1.704583e-03, 1.110856e-01, 1.292620e-01, -5.780506e-02, 9.635711e-02, -2.057167e-01, -3.940482e-01, -4.222402e-01, -1.878295e-01, -1.375801e-01, -2.204120e-01, -4.211279e-01, -9.501486e-02, -1.095975e-01, -1.634869e-01,
    1.418560e-01, 2.757480e-02, -5.598557e-02, -1.072818e-01, 8.975150e-02, -2.316386e-02, -2.758824e-01, -8.971093e-02, 1.978260e-01, -9.851221e-02, -7.742591e-02, -1.538614e-02, 1.536975e-01, -4.283911e-02, -2.000866e-01, 5.743607e-02,
    3.551093e-03, -5.754654e-02, -2.243249e-01, 2.430903e-02, 7.550512e-02, -1.713126e-01, -1.020385e-01, -1.648621e-01, 4.694977e-02, -2.074773e-02, 9.707589e-02, -3.985664e-02, 2.058530e-01, 2.663762e-02, 3.464135e-01, 2.248149e-01,
    -2.231480e-01, -3.498178e-01, -7.678778e-02, 4.910684e-02, -3.731173e-02, 3.107328e-01, 4.475271e-02, 2.365514e-02, -2.047947e-01, -2.973410e-01, 2.439028e-01, -1.421402e-01, 3.152982e-01, 3.683130e-01, -1.477665e-02, -4.902232e-02,
    2.032334e-01, -1.135805e-01, 1.181090e-01, 2.367925e-01, -6.504950e-03, 4.245737e-02, -3.494230e-01, 2.268111e-01, -3.014988e-02, -7.319206e-02, -8.402543e-02, 1.456822e-01, 1.556886e-01, 3.169078e-01, -2.436641e-02, 1.512257e-01,
    -2.589992e-01, -2.024575e-02, 1.500536e-02, -1.975104e-01, -3.718773e-01, 6.250091e-02, 1.632390e-02, -2.010576e-01, -8.076892e-03, -4.664458e-03, 5.021342e-03, -7.716766e-02, -1.925860e-02, 3.174233e-01, 2.982951e-01, -1.459170e-01,
    -1.065496e-02, -1.259585e-01, 1.146290e-01, -5.857176e-02, -1.009179e-01, 9.993053e-03, 1.433906e-02, 1.104927e-01, -1.147942e-01, 4.497198e-02, 1.940593e-01, 2.036433e-01, -3.723312e-01, -6.788363e-02, -3.171647e-02, -1.829599e-01,
    1.181928e-01, 1.294192e-01, 1.483161e-01, 1.760244e-01, -2.024868e-01, -1.748762e-01, -4.269652e-01, 6.446759e-02, 2.190523e-01, 2.085000e-01, 1.507092e-02, -1.031793e-01, 6.596228e-04, 1.230405e-01, -1.889521e-02, -9.648427e-02,
    1.888795e-01, -3.900693e-02, -1.603223e-02, -3.565438e-02, 4.471699e-02, -3.480011e-02, -1.315077e-01, 2.570437e-02, -1.226123e-01, 1.420622e-01, -3.428887e-01, 9.041411e-02, -7.063439e-02, -1.396229e-02, -1.082608e-01, 1.470683e-01,
    1.040699e-01, -8.736165e-02, -2.463614e-02, -3.202854e-01, -2.776215e-01, 1.205198e-01, 2.070473e-01, 3.139139e-01, -1.056695e-01, -9.385814e-02, -8.958790e-02, -1.680295e-01, -1.672193e-01, -1.951783e-02, -3.056930e-01, 6.292019e-02,
    -2.475607e-01, -1.183128e-01, -1.407025e-01, -1.972141e-01, -1.954848e-01, 8.948160e-02, -6.291837e-02, -1.053331e-01, 1.323536e-01, 6.673113e-02, -2.355662e-01, 1.472264e-02, 9.618626e-02, 1.091988e-02, 3.420135e-01, -1.424388e-01,
    5.070199e-02, 3.600277e-01, 1.583750e-01, -6.128480e-02, 9.789784e-02, -1.724559e-01, -2.002811e-01, -3.955866e-01, 5.042594e-02, 1.221402e-01, -7.111331e-02, 6.033703e-02, -2.179685e-01, -3.101884e-01, -3.332911e-01, -1.846520e-01,
    2.133971e-02, -2.250747e-01, -1.947411e-01, -3.294138e-01, -2.118775e-01, -1.881013e-01, 1.748398e-01, 1.173546e-01, -1.579883e-01, -1.832032e-01, -1.691613e-01, -1.207319e-01, -4.082167e-02, -4.746203e-01, -2.572882e-01, 5.426670e-01,
    -2.774516e-01, -1.496324e-01, 3.249122e-01, 7.130036e-01, 1.427659e-02, -1.923234e-01, -1.896410e-01, 4.338460e-02, 9.941510e-02, -1.041719e-01, -7.671012e-02, -7.659713e-02, -1.369244e-01, 1.660340e-02, 2.081600e-01, 7.697969e-02,
    -2.134757e-01, -1.517307e-01, 9.552621e-02, -3.529750e-01, 8.743250e-03, 1.107190e-02, 1.202489e-01, 2.869270e-01, -1.863234e-01, -1.129145e-01, 4.161670e-01, 9.378514e-02, 5.932291e-02, 2.288901e-01, 1.174740e-01, 2.204333e-02,
    3.289383e-02, 1.176255e-01, 2.058819e-01, 1.505313e-01, -5.583104e-02, -1.874858e-02, -1.001198e-01, -7.778171e-01, 2.512269e-01, 2.656753e-01, -1.082887e-01, 3.619223e-02, -1.296384e-01, -1.843443e-01, -1.195359e-01, 5.339054e-02,
    -5.602052e-02, -2.355745e-01, -2.383341e-01, -9.238652e-02, 1.712268e-02, -1.616054e-01, 1.816154e-01, 1.669448e-01, -1.454376e-01, -3.132832e-02, -1.476947e-02, -2.122472e-01, 8.751417e-02, 1.724449e-01, 1.076443e-01, -2.521056e-01,
    3.472241e-01, 2.764934e-01, 2.769632e-01, -1.559229e-01, -1.175478e-01, -9.288197e-02, 8.126533e-02, -2.109378e-01, -1.237805e-01, -2.235045e-01, 1.121699e-01, -3.475576e-02, -2.783089e-01, -1.220072e-01, -3.136954e-01, -1.181954e-01,
    -2.896192e-01, 2.840157e-02, 2.292626e-01, -1.624138e-02, 1.695681e-01, -7.452071e-02, -4.341006e-02, 2.645445e-02, 1.145763e-01, -1.403881e-01, 2.100011e-02, 1.316226e-02, -1.987521e-02, -5.697075e-02, -1.581202e-01, 1.612769e-01,
    -1.033848e-01, -6.802720e-01, -6.940502e-01, -2.225419e-01, 2.809089e-01, 2.613656e-01, 1.323286e-01, 1.596816e-01, 3.988613e-02, -1.195001e-02, -4.243579e-02, 1.859204e-01, 2.275040e-01, 1.500692e-01, -2.920300e-02, 8.272086e-02,
    1.453182e-01, -3.500777e-01, -4.132512e-01, -3.096470e-01, 1.118697e-01, 1.543523e-01, 8.324681e-02, 1.440447e-01, -3.084450e-02, -1.464485e-01, 5.037293e-02, -2.120854e-02, 1.115941e-01, 6.478149e-02, -9.872143e-02, -3.326794e-01,
    -9.238908e-03, 1.204272e-01, 3.158844e-01, 1.927921e-01, -2.370279e-01, 1.772847e-01, -1.271728e-01, -3.710005e-01, -1.249119e-02, -6.164167e-02, -1.479162e-01, -3.418791e-01, 1.680408e-01, -1.174959e-01, -5.501527e-01, -9.670641e-03,
    2.045786e-01, 2.769000e-01, 2.965326e-02, -2.284775e-01, 6.327190e-02, -1.760220e-01, -6.372134e-01, -3.328331e-01, -1.056686e-01, -2.310668e-01, -2.352865e-01, 6.913062e-02, -2.201896e-02, -2.815424e-01, 7.689033e-02, 1.233458e-01,
    3.460693e-03, 3.423832e-02, -4.116559e-01, 1.505092e-01, 1.030889e-02, 2.359383e-01, -1.720267e-01, 1.856396e-01, 6.773270e-02, -5.405352e-02, 9.065949e-02, -1.703372e-01, 3.685709e-02, 1.209245e-02, -4.491421e-02, -3.909142e-01,
    -1.665519e-02, -2.083519e-01, -3.348817e-01, -5.033966e-01, -2.966532e-02, -1.725685e-01, -4.127207e-01, -4.125835e-01, -2.092611e-02, -1.386592e-01, 1.396085e-01, -2.541924e-01, -3.002067e-02, -9.552559e-02, -1.930599e-01, -1.128097e-01,
    2.799806e-01, 2.423121e-01, 2.376199e-01, -2.639712e-01, -1.872511e-01, -3.824298e-01, -3.856945e-01, -3.312899e-01, 1.977979e-01, -1.917802e-01, -7.692619e-02, 3.399350e-01, -2.623159e-01, -1.648972e-01, 3.579122e-01, -5.459707e-03,
    1.238558e-01, 2.879420e-01, -1.399423e-01, -5.863744e-02, 7.191727e-02, 1.547025e-01, 2.755307e-01, -2.280314e-01, -7.977599e-03, 1.326481e-01, -2.333565e-01, 6.058032e-03, -1.365116e-02, 2.004025e-01, -9.995668e-02, -4.991436e-01,
    5.339984e-01, 1.710928e-01, -4.674523e-03, 2.906099e-02, -7.877517e-02, -1.959327e-01, -1.204928e-01, 6.504907e-02, 2.742944e-01, 6.895404e-02, -3.227929e-02, 7.703427e-02, -1.091677e-01, -2.208000e-01, -3.804261e-03, 2.215978e-01,
    1.035117e-01, 4.354211e-02, 1.559625e-01, 4.152406e-02, 5.137844e-03, -3.488577e-01, 2.022241e-02, 1.060919e-01, 8.015138e-02, 5.635466e-02, -2.512142e-01, -2.874600e-02, 1.204669e-01, 4.502653e-02, -1.188318e-01, -2.002224e-01,
    7.431290e-02, 2.082097e-01, 3.614330e-01, 1.420745e-01, -2.336299e-01, 4.750995e-02, 4.513463e-03, -1.874604e-01, -3.486118e-01, -4.756726e-01, 5.119569e-03, 7.140515e-02, -2.406662e-01, -1.103836e-01, -1.401543e-01, -3.563731e-01,
    4.019877e-02, -8.194774e-02, -5.021223e-02, 3.118194e-01, -1.962828e-01, -4.097362e-01, 9.722546e-02, -4.668878e-02, -3.828395e-01, -3.536358e-01, -8.832684e-02, -2.107747e-01, -2.861813e-01, -1.399774e-01, 2.355211e-02, -1.276357e-01,
    -1.124263e-01, 2.477697e-01, 2.208879e-01, -1.839122e-01, 2.621405e-03, -2.154395e-01, 2.205446e-01, 3.987366e-02, -2.279922e-01, 8.762915e-02, 1.416435e-01, 4.675054e-02, 1.949854e-02, -2.267814e-03, -1.273376e-01, 3.621342e-01,
    2.015793e-01, 2.608469e-01, 2.284789e-01, 2.247361e-01, -3.685288e-01, -5.341359e-01, 1.881814e-01, 1.353977e-01, -4.908412e-01, -2.359275e-01, 1.539764e-01, 1.621412e-01, -6.144816e-01, -5.150095e-01, -1.230001e-01, -4.007842e-01,
    2.592624e-01, 4.303507e-02, 1.718806e-01, -1.090553e-01, 1.166184e-01, 1.156761e-01, 1.016510e-01, 1.225666e-01, 3.840242e-02, 2.918473e-01, 6.151234e-02, -8.293601e-02, 7.198113e-01, 4.638228e-02, 1.478345e-01, -6.789028e-02,
    -3.893181e-01, 2.832768e-01, 1.410987e-01, 1.890734e-01, -2.099034e-01, -1.882954e-01, -3.129566e-02, 1.608386e-01, -1.409081e-01, -2.665301e-01, -4.151213e-02, -1.128330e-02, 8.622438e-02, 3.114657e-01, 1.631297e-01, -9.047984e-02,
    3.603401e-01, 1.031254e-01, -5.468776e-02, 5.750046e-02, -3.696306e-01, 7.672027e-02, 8.085871e-02, 9.377846e-02, 7.932551e-02, 4.601803e-01, -3.292987e-01, 7.919090e-02, -7.982813e-02, 2.685279e-02, -2.493809e-01, 3.208661e-01,
    2.707001e-01, -9.259689e-02, -3.252559e-02, -2.701497e-02, 1.013327e-01, -9.043024e-02, 7.100772e-02, 5.321319e-02, 1.548400e-01, 2.305315e-02, 1.088370e-01, 5.470351e-02, -1.962275e-01, 4.594581e-01, -1.242285e-01, 2.079841e-01,
    -1.101479e-01, 1.281691e-01, -9.091760e-02, 2.037801e-01, 1.383252e-01, 1.967250e-01, -9.148586e-02, -8.944188e-02, -6.568832e-02, 2.046843e-01, 1.760956e-01, -2.115363e-01, 1.090741e-01, 9.764348e-02, 3.675606e-03, 5.097864e-02,
    -1.592167e-01, 2.413673e-01, -4.307762e-03, -1.867958e-01, 2.646444e-01, 2.320431e-01, 3.954403e-01, 1.695440e-01, 1.588233e-01, 5.306631e-02, 7.656471e-02, 1.349908e-02, 2.912810e-01, -9.998494e-02, -2.862848e-01, 3.325507e-02,
    -2.399841e-01, -2.325313e-01, 2.285994e-02, 1.944167e-01, 8.820236e-02, 5.452370e-02, 2.573131e-01, 2.296296e-01, -3.519518e-01, -4.031355e-01, -6.354132e-02, 1.341311e-02, -4.926692e-01, 9.349640e-03, -5.608412e-01, -5.988671e-02,
    1.069502e-01, 1.715522e-01, -5.747940e-02, 2.272273e-02, 2.679603e-01, 6.481680e-02, -1.654430e-01, -3.869449e-02, 3.510485e-01, 2.032272e-01, -6.625364e-02, -1.394396e-01, 6.180372e-02, 3.038589e-01, -1.241492e-01, 6.326795e-02,
    -2.282988e-02, 1.314354e-01, 1.242682e-01, -3.495747e-02, 1.129702e-01, 1.914302e-02, -4.948801e-02, 3.012055e-01, -1.599514e-01, -1.419538e-01, 7.391056e-02, -1.143144e-01, -2.786144e-01, -1.571309e-01, -2.008665e-01, -1.512751e-02,
    -5.043639e-03, 1.073943e-01, 2.825263e-01, -4.567726e-04, -4.241468e-01, -1.250716e-02, -4.629708e-02, 8.158878e-02, -1.331047e-01, 2.846842e-02, -3.248737e-02, -3.656983e-02, 1.268296e-01, 9.728127e-02, 2.219758e-01, -7.893494e-02,
    -2.704689e-01, -7.080410e-02, 3.930828e-02, -1.072588e-01, -1.529093e-01, 2.063223e-01, 8.898578e-02, 1.577794e-01, -3.838637e-01, 2.022726e-01, 1.177824e-01, 3.534509e-02, -2.664277e-01, 2.818303e-02, 7.151774e-02, -2.043283e-02,
    -1.824233e-01, 5.073684e-02, 3.240095e-02, 1.234209e-01, -1.245835e-01, 3.095129e-01, 1.407864e-02, 1.376430e-01, 3.301435e-01, 3.375083e-01, 6.124538e-02, -1.692656e-01, 6.445707e-02, -1.985459e-01, -1.777574e-01, -8.011469e-03,
    7.100756e-02, -1.061340e-01, -1.123918e-01, -4.199917e-02, -1.328053e-01, -1.271885e-01, -6.150553e-02, 1.357052e-02, -7.352316e-02, 1.871978e-01, 1.139122e-01, -2.819601e-01, 1.004506e-01, 8.067570e-02, -2.900431e-01, -5.694276e-01,
    1.806708e-01, 1.416429e-01, -2.678673e-02, -1.118142e-01, 1.225760e-01, 1.781791e-01, 3.527293e-01, -4.547277e-02, 8.420765e-02, 1.763447e-01, -1.676351e-02, -1.347520e-01, -6.182140e-01, -3.883436e-01, -6.025436e-01, -4.064102e-01,
    -5.875095e-02, 2.817024e-01, -2.281816e-01, 9.201408e-03, 1.182089e-01, -6.359132e-02, 2.887042e-01, -4.342749e-01, -3.724745e-01, -8.123000e-02, -4.854733e-01, 3.539348e-03, -4.715635e-02, 2.649629e-01, 4.697831e-01, 6.758860e-02,
    6.802674e-02, -1.230193e-01, -1.157885e-01, -2.755251e-01, -8.991199e-02, 1.578794e-01, 3.115436e-02, -2.236155e-01, -1.687322e-02, 7.460402e-02, -1.516058e-02, 3.336918e-02, -7.167735e-02, -7.609246e-02, -6.180143e-01, -4.312964e-01,
    -3.134230e-02, -4.823446e-02, 1.449724e-04, -3.373726e-01, -5.341152e-02, 1.072888e-01, 3.170840e-01, -1.188437e-01, 1.481908e-02, -4.287867e-02, -1.642337e-01, -4.483732e-02, -1.381391e-01, -2.703437e-01, 1.220891e-01, 3.562099e-01,
    -9.929861e-03, 3.982399e-01, -6.163366e-02, 7.110871e-02, -6.024228e-02, -9.264724e-02, 5.482633e-02, -1.353681e-01, -6.220317e-02, 2.901855e-01, 1.351735e-01, -5.284256e-01, -2.225037e-01, -1.007189e-01, -4.703040e-01, -1.805827e-01,
    2.278340e-01, 2.540074e-01, 3.825181e-02, -6.473048e-02, -1.036130e-01, -2.025089e-02, 7.143917e-02, 1.431314e-01, 4.089004e-02, -2.026159e-01, -1.218413e-01, 2.727859e-02, -1.953072e-01, -5.089130e-01, -1.152772e-01, -6.803705e-01,
    1.938605e-01, -5.127822e-02, -1.496358e-02, 1.987004e-01, 1.335678e-01, -1.333241e-01, 3.014294e-01, 2.814502e-01, 1.643604e-01, -8.983565e-02, -9.342625e-02, -3.215407e-01, 2.808609e-02, 1.339404e-02, 1.287193e-01, 5.874681e-02,
    -8.262693e-02, 1.436891e-01, -2.805507e-01, -1.597028e-02, -1.464274e-01, -3.126836e-01, 2.654112e-01, 1.827659e-02, -1.813898e-01, -2.555922e-01, 6.983855e-02, -2.708293e-02, -4.053435e-01, 2.227825e-01, 1.154627e-01, 2.753999e-01,
    4.114471e-02, -3.522787e-01, -2.459134e-01, -1.270390e-01, -1.625269e-01, 5.532370e-02, 3.653634e-01, -1.953108e-01, -1.799427e-01, -1.727796e-01, -2.790583e-02, -7.401609e-02, -2.246365e-01, 4.390754e-02, -2.450667e-03, 5.332374e-02,
    1.847019e-01, -2.546058e-01, -2.133258e-01, -1.547097e-01, 1.381002e-01, 1.264858e-01, -1.592786e-02, -3.592305e-04, 8.144103e-02, -1.134894e-01, 1.325131e-01, 1.342527e-01, -4.771034e-02, 9.142181e-02, 3.016451e-01, 3.095128e-01,
    -3.310765e-01, -7.988039e-02, 9.461882e-03, 3.899421e-02, -2.011824e-01, -6.627252e-02, -3.394043e-01, 1.768367e-01, 3.036940e-02, -5.084892e-01, 2.315103e-01, 1.579257e-01, -2.624162e-01, 1.984349e-02, 3.254887e-01, 1.178905e-01,
    -2.683499e-02, -1.773209e-01, -1.479275e-02, -1.633906e-01, 1.455048e-02, -1.643796e-01, -3.591516e-01, -1.932139e-03, -9.245452e-02, 7.489209e-03, -2.205860e-01, -1.006742e-01, 1.685179e-01, -2.619591e-02, 5.322410e-02, -4.847113e-01,
    7.436598e-02, 1.533123e-01, 9.261866e-02, -1.524742e-01, -2.415942e-01, 3.614204e-02, 1.712638e-02, 1.423845e-01, 7.253002e-03, 3.088824e-01, 9.468917e-02, -3.987581e-01, -2.604353e-01, -1.923495e-01, -5.750295e-02, 5.602815e-02,
    -4.413554e-02, 1.032320e-01, -1.359044e-01, -2.752174e-01, 6.076104e-03, 1.009862e-01, 1.131909e-01, -2.383432e-01, -1.061720e-01, -1.090373e-01, -3.849821e-01, -1.281755e-02, 2.141370e-01, -2.297708e-01, -2.898884e-01, 1.059779e-01,
    9.737324e-02, -3.159191e-02, 1.410593e-01, -2.416756e-01, -1.737666e-01, 2.873029e-02, -6.468187e-01, -6.036322e-02, 1.618447e-01, -1.557935e-01, -6.949911e-02, -1.350773e-01, -3.610814e-01, 1.643762e-01, 6.972820e-02, -1.829361e-01,
    9.801107e-02, 3.174361e-01, 3.052892e-01, 5.284179e-02, -4.419917e-01, -1.677298e-01, 7.853375e-02, -1.295137e-01, 9.424404e-03, 2.328148e-03, 8.364810e-02, 5.303331e-02, 1.249935e-01, 2.251334e-01, 3.610624e-02, -3.608465e-01,
    -3.824806e-01, -5.111676e-02, -6.980570e-02, 1.005126e-01, -3.777061e-01, 5.021696e-02, -8.337671e-02, 1.152952e-01, 1.885057e-01, 2.638419e-01, -2.796236e-01, -1.141085e-01, -3.009240e-02, -1.674807e-01, -2.583489e-01, -3.075550e-01,
    2.409271e-02, 1.653627e-01, -3.463648e-01, -1.088508e-01, 3.242794e-01, 3.413642e-01, -3.365874e-01, -9.575593e-02, -1.142474e-01, -3.945985e-01, 2.119350e-01, -1.325380e-02, -3.336181e-01, -2.756991e-01, -1.834354e-01, 4.417851e-01,
    -3.771154e-01, 2.735456e-02, 3.758156e-01, 8.456204e-02, 7.023532e-02, 7.810868e-02, -5.929144e-02, 1.156815e-01, 5.740241e-02, 1.008568e-01, 1.312715e-01, 5.501898e-03, -2.266334e-01, -1.795852e-01, 1.117791e-02, -1.459467e-01,
    -1.848275e-02, 7.023370e-02, -4.543372e-01, -1.589183e-01, 2.609414e-02, 3.472705e-02, -5.410673e-01, -3.663458e-01, 1.486936e-01, 7.262245e-02, -5.138658e-01, -3.082969e-01, -4.404010e-01, -2.153642e-01, -9.903812e-02, -2.433518e-01,
    1.696319e-01, -7.742617e-02, -2.402102e-01, -1.402497e-01, 1.178232e-01, 8.719753e-02, -2.207730e-01, -3.051371e-02, -5.788811e-01, 3.567807e-02, 7.336395e-03, 4.885470e-02, -9.870069e-02, 2.640506e-01, 1.054433e-01, -3.054560e-01,
    -2.066079e-01, 2.955732e-02, 2.189784e-02, -2.169739e-01, 4.276479e-01, -2.838773e-01, -6.582100e-01, -5.660005e-01, 1.884890e-02, 3.506779e-01, 9.078240e-02, -1.267624e-01, 5.765373e-02, -1.906447e-01, 9.292600e-02, 2.026050e-01,
    4.654645e-01, 4.566256e-01, -2.662966e-01, -4.675617e-01, 3.699327e-02, -1.670909e-01, -5.384350e-01, -5.250567e-01, 1.763172e-01, -1.621185e-01, -4.213512e-02, -8.979142e-02, -4.872688e-02, 2.483204e-01, -5.923323e-02, 6.873235e-02,
    4.032888e-02, 4.903531e-02, -4.671428e-01, 1.377596e-01, 2.346900e-01, 2.064134e-02, -1.470242e-01, -1.762240e-01, -2.957070e-01, -3.779891e-01, -3.457223e-01, -3.669886e-01, -6.363642e-01, -3.671225e-01, 1.179715e-02, -2.088254e-01,
    -8.786663e-02, -4.163137e-01, 1.080798e-01, 1.228676e-01, 3.634843e-02, -5.060313e-01, 2.280557e-01, 2.070850e-01, -5.211607e-02, -3.438722e-01, -1.745035e-01, 1.641895e-01, -2.987089e-01, -2.166963e-01, -4.537411e-01, -2.310563e-01,
    -2.506281e-01, 3.394124e-01, 1.679317e-01, -2.629853e-03, -5.112557e-02, -3.538103e-01, -2.351066e-01, 2.110797e-01, 2.717263e-02, -9.990901e-02, -9.204745e-02, -5.104195e-02, 4.453140e-03, 2.210476e-02, 3.560634e-02, 1.299289e-01,
    -7.566591e-02, -2.790450e-02, -6.648139e-01, -8.689921e-02, 1.045617e-01, -7.242290e-02, -5.349525e-01, -7.220617e-01, -2.915133e-01, -2.630233e-01, -3.645117e-01, -6.437711e-01, 2.570703e-02, -2.015042e-01, -1.662319e-01, 1.128470e-01,
    -3.740602e-01, 2.677121e-01, -7.522681e-02, 1.309154e-01, -4.578753e-01, 4.219633e-01, -3.333148e-01, -3.132433e-02, -2.632983e-01, 7.731245e-02, -1.481999e-01, -3.460022e-01, 1.138540e-01, -2.716949e-02, -1.982704e-01, 9.190596e-02,
    -2.694975e-01, 8.808731e-02, -1.642785e-01, 1.111203e-01, 1.038685e-01, 2.521423e-01, -1.937678e-01, -2.516520e-01, -3.045327e-01, -2.226180e-01, -4.840979e-01, 1.371990e-01, -3.962029e-01, -1.337586e-01, -6.011183e-01, -1.209699e-02,
    -4.839539e-01, 1.041846e-01, 1.044178e-01, -1.453222e-01, -7.718219e-01, -8.427782e-02, 2.433085e-02, -1.016544e-02, -1.207725e-01, -2.414561e-01, -6.167391e-02, -2.750143e-01, 2.682099e-02, 1.555795e-01, -5.887557e-02, -3.549007e-01,
    -4.771582e-01, -3.563102e-02, -1.350199e-01, 1.938528e-02, 2.231041e-02, -2.273048e-02, -4.013594e-01, -2.402615e-01, -2.442396e-01, -1.648925e-01, -3.471534e-02, -7.238501e-01, -9.574768e-02, -6.983202e-02, 1.307408e-01, 9.822875e-02,
    1.014866e-01, -1.653474e-01, -3.577605e-02, -7.655038e-02, -4.016755e-01, -3.429799e-01, -8.662805e-02, -1.585282e-02, -5.816902e-01, -2.659151e-01, -4.225781e-01, 6.303247e-02, -6.797909e-02, -1.119065e-01, 4.736453e-02, -9.974866e-02,
    -1.417264e-01, -8.810831e-02, 1.674654e-01, 2.142138e-01, -1.423207e-01, 1.632980e-01, -7.160795e-02, -8.040115e-02, -1.247183e-02, 2.277597e-01, -8.537346e-04, -3.709187e-01, 5.676185e-02, -1.009601e-01, -1.246471e-01, 1.418435e-01,
    2.082849e-01, 1.066553e-01, 4.249111e-02, -3.052067e-01, 5.177714e-01, -1.876576e-02, 4.082342e-01, -2.038880e-02, 1.920422e-01, 1.764633e-01, 3.457586e-01, 1.824276e-01, -1.029516e-01, -1.348629e-01, 1.166121e-01, 1.221348e-01,
    -4.028208e-01, -1.818256e-01, 1.096758e-01, 3.592206e-01, -7.342189e-02, 7.062874e-02, -3.815812e-01, -3.867287e-01, -7.739944e-02, 3.090332e-02, -2.951866e-01, -3.653460e-01, 1.707854e-01, -1.962408e-01, -2.864484e-01, -4.031992e-01,
    -2.372424e-01, -5.967026e-01, -1.006593e-01, -1.318837e-01, 5.869357e-02, 9.570850e-02, -1.300888e-01, 1.322085e-01, 3.534904e-01, 8.922374e-02, -2.445445e-02, -2.862110e-02, 2.426331e-01, 1.808196e-01, -1.040352e-01, 8.220815e-02,
    -1.617610e-01, -1.502522e-03, -1.142913e-01, 2.235886e-01, -7.883668e-03, 8.071398e-02, 1.125713e-01, 1.652092e-01, 5.822702e-02, -1.536449e-01, -2.729107e-01, 8.706234e-02, -1.010026e-01, -1.662489e-01, 6.337155e-02, 2.107384e-01,
    -2.840696e-01, -5.115018e-01, -8.355442e-02, 1.706496e-01, 3.092112e-01, -3.839161e-01, -2.042525e-02, 1.328413e-01, -4.021005e-01, -7.214876e-01, -1.792434e-01, -1.854623e-01, -4.387588e-01, -2.574949e-01, -7.740414e-02, 3.414882e-02,
    -8.439859e-01, -7.521992e-01, -3.809280e-02, 2.544791e-01, -3.771854e-01, -3.200402e-01, -2.204958e-02, -5.137067e-02, -8.605222e-02, -1.946447e-01, -1.611102e-01, -2.349729e-01, -1.761362e-02, 4.848444e-02, -2.947328e-01, -3.180728e-01,
    9.568419e-02, 2.697002e-01, 1.180430e-01, -2.569045e-01, -7.912119e-02, 1.578921e-01, 4.184594e-01, 2.501301e-01, -7.161377e-03, 1.329938e-01, 3.739711e-01, 2.406738e-01, 1.788725e-01, -2.228406e-01, -8.807302e-02, -7.804160e-03,
    1.193636e-01, 3.177784e-01, -1.929401e-01, -1.894827e-01, 7.848393e-02, 2.102997e-01, -1.885336e-01, 1.049268e-01, 1.050457e-01, 9.194304e-02, 7.693480e-02, 2.703621e-01, 1.390555e-03, 5.176039e-02, -1.564671e-01, 8.549695e-02,
    5.238803e-02, -1.035885e-01, -3.717783e-01, 1.915444e-01, 2.084165e-01, -3.004948e-01, -3.356669e-02, -1.749921e-01, 8.603056e-02, 3.164500e-03, -4.312872e-02, -1.772844e-01, -7.699107e-02, 2.150332e-02, -2.179385e-01, -2.740349e-01,
    -3.789119e-01, -2.816472e-02, 2.187003e-01, -3.745534e-03, 2.930622e-02, -1.527343e-01, 4.999912e-01, 1.702735e-02, -1.394510e-01, -1.572189e-04, 8.058354e-02, -1.790458e-01, -3.683197e-01, -9.774131e-02, -2.322856e-01, -5.923991e-02,
    -5.157261e-01, 1.484013e-01, 2.504266e-01, -1.710466e-01, -1.908117e-01, -1.568968e-01, 2.123234e-01, -2.065850e-01, 9.515520e-02, -5.118794e-02, 2.185794e-01, -2.500055e-02, 4.067299e-02, 1.221339e-01, -2.558252e-02, 4.555541e-02,
    1.960475e-02, -5.013672e-02, 2.048038e-02, -3.837110e-01, 2.325547e-02, -1.954175e-01, -2.724317e-01, -5.331773e-02, 1.013372e-01, 4.591484e-02, -7.620654e-02, -1.046088e-01, 5.453859e-02, 2.543021e-01, 9.864520e-02, -8.643711e-02,
    -1.866514e-01, -2.502684e-01, 1.502461e-01, 3.676419e-01, 2.161018e-01, 6.336556e-02, 4.793379e-02, -3.614767e-03, -2.254653e-01, 9.947880e-02, 7.149074e-02, 2.781848e-01, -6.419074e-02, -1.761217e-01, -1.186446e-02, -2.142777e-01,
    7.163722e-02, 4.909959e-01, 2.764920e-01, -2.825214e-01, 3.924737e-02, -1.708250e-01, 3.288505e-02, -1.288176e-01, -1.949937e-01, 3.453442e-02, -3.174084e-04, -5.631003e-02, -3.788206e-01, -3.988877e-03, 1.497420e-01, 5.286416e-02,
    -3.615994e-01, -3.611775e-01, -1.771206e-01, 1.097576e-01, -5.563938e-02, -3.542239e-01, -2.081290e-01, -1.074914e-01, 1.148276e-01, -2.672311e-01, -9.562971e-02, 2.483754e-01, 9.895265e-02, -2.174052e-01, -3.978063e-01, -1.168931e-01,
    1.264469e-01, 2.798673e-01, 1.449816e-01, -1.583966e-01, 2.612868e-02, 1.217810e-01, -2.078415e-01, -2.852473e-01, 9.618025e-02, -2.361159e-02, -1.805812e-01, -3.251242e-01, -3.363529e-01, -1.468684e-01, -4.416301e-02, -1.822666e-01,
    -4.678854e-02, -1.809590e-01, 1.171803e-02, 2.783397e-01, -6.761102e-02, -2.030366e-01, -2.069581e-01, -1.162667e-01, 8.102256e-02, -4.835019e-02, -1.040256e-01, -2.923092e-01, 2.834911e-02, 2.246602e-01, 3.307887e-01, 4.589465e-01,
    1.181214e-02, 2.537895e-01, -1.017561e-02, -2.881424e-02, 2.484066e-01, 1.987709e-01, -1.187025e-01, -2.484877e-01, 3.391931e-01, 3.310973e-02, -3.440697e-02, 4.248273e-02, -5.418309e-01, -4.054486e-03, 1.754820e-02, -2.265005e-01,
    -4.688174e-02, -2.964757e-01, -1.285728e-01, -9.853872e-02, 2.880670e-01, -2.483808e-01, 3.173088e-01, 1.057873e-01, -1.669117e-01, 1.701441e-01, -1.119912e-01, 7.893518e-02, -4.045975e-01, -3.499640e-03, -3.570240e-01, 5.459185e-02,
    -8.519732e-01, -2.981365e-01, -2.207140e-01, -3.242746e-01, 1.633750e-01, 9.774573e-02, -2.980098e-01, 1.563273e-01, -9.089904e-02, -4.008071e-01, 4.504220e-02, 2.337960e-01, -7.358791e-03, 4.583742e-01, 2.157533e-01, 4.207585e-02,
    -1.611438e-01, -5.094599e-02, 9.220961e-02, -1.543656e-01, -6.365151e-01, 1.506416e-02, 1.096746e-01, -7.252243e-02, -5.673731e-02, -1.344167e-01, -9.137973e-02, -1.698561e-02, -1.500513e-01, -3.555301e-01, 1.946943e-01, 3.759917e-01,
    -4.009945e-01, 1.247606e-01, -8.474309e-02, -3.437908e-01, 1.019728e-01, 1.205431e-01, -9.382448e-02, -1.347880e-01, 3.480343e-02, 1.917958e-01, 1.764831e-01, -5.736665e-02, 3.409223e-02, -7.440282e-02, 9.512839e-02, 3.321932e-01,
    1.784117e-01, -3.062019e-01, 9.517778e-02, -2.668000e-02, -1.935005e-01, -6.601690e-02, 1.376140e-02, 1.435981e-01, 1.737290e-01, -3.146062e-01, -6.881292e-02, -2.294489e-01, -2.066467e-01, 2.967690e-01, -3.964838e-01, 9.966351e-02,
    1.567345e-02, -3.736482e-01, -6.799054e-01, 2.688439e-01, 3.035546e-01, 8.049379e-02, -4.723968e-01, 1.873672e-01, -1.315129e-01, 4.514802e-01, -2.041065e-01, -3.085518e-01, 3.259170e-01, 5.126606e-02, -1.350989e-01, -9.506893e-02,
    3.752159e-01, 9.016493e-02, -5.299024e-02, 3.108939e-02, 2.987925e-01, -1.023343e-01, -1.599084e-01, 2.878145e-02, 1.307896e-02, 3.970108e-02, -7.097194e-03, 5.935497e-02, 3.154784e-01, 6.024303e-02, -3.138578e-01, -3.127952e-01,
    1.594999e-01, -4.379269e-03, 7.043772e-02, -3.361291e-01, -3.074632e-01, 2.592316e-01, -4.455233e-02, -1.460400e-01, 9.179755e-02, 2.990420e-01, -3.348815e-01, -3.489169e-01, -7.621675e-02, -4.109401e-01, 7.624525e-02, -9.764702e-02,
    3.991927e-01, -5.952828e-02, -2.770455e-01, 2.253161e-02, 3.702782e-02, 2.475692e-02, 7.028108e-02, -5.366939e-02, 2.403007e-01, 3.005820e-01, 1.774323e-01, 3.728664e-02, -8.681220e-03, 1.101077e-01, -1.727555e-01, 1.921077e-02,
    -4.325833e-02, -2.600469e-01, -2.350638e-02, -1.695051e-01, -1.643273e-01, -3.568376e-02, 2.302804e-02, -2.984636e-01, -1.452565e-01, -3.645330e-01, 2.421111e-01, 8.610585e-02, -3.995119e-01, 3.718840e-01, 1.358367e-01, -1.191806e-02,
    1.951577e-01, 1.820913e-01, -5.498831e-02, -7.117902e-02, 1.167682e-01, 8.631981e-03, 1.271258e-01, 3.447949e-01, -1.158285e-01, -1.121087e-01, -1.701218e-01, -3.795089e-01, 1.755065e-01, -1.022681e-02, -4.000545e-01, -3.932653e-01,
    2.226299e-01, 1.425206e-01, -9.520987e-02, 2.036209e-01, 8.352496e-02, -1.198260e-01, 1.755480e-01, -2.995161e-02, -1.992616e-01, 2.041569e-01, 8.517107e-02, 2.700855e-01, 1.515979e-01, -2.350391e-01, 5.304599e-02, -4.730746e-02,
    -1.619884e-01, 1.441378e-01, 1.014189e-01, 5.388175e-02, 1.687240e-02, 1.007427e-01, -7.452697e-02, -4.295463e-01, 9.358048e-02, 1.338630e-01, -1.656187e-01, 2.676876e-02, 3.189066e-01, 2.092600e-01, 8.186362e-03, -2.591894e-01,
    1.356478e-01, -1.528912e-01, 2.184575e-01, -1.881330e-01, -3.053318e-01, -3.157770e-01, 3.762673e-01, 1.066522e-01, -3.088036e-01, -5.778804e-02, 4.225248e-01, -2.388327e-02, -7.149697e-02, 2.050336e-01, 1.008509e-01, -3.226892e-01,
    -7.825355e-02, -5.820277e-01, -1.320885e-01, -1.434512e-01, -4.771551e-01, 5.871358e-02, -3.800986e-01, -5.630806e-02, -5.644845e-01, -1.110439e-01, -8.586527e-02, -1.584070e-01, 1.169068e-01, 5.441514e-02, -2.239638e-01, 8.862247e-02,
    1.893689e-01, 1.453562e-01, -7.627777e-02, -6.886239e-02, 8.756100e-03, -2.485576e-01, 2.409457e-01, 1.111506e-01, 1.223970e-01, -1.794889e-02, -1.130019e-01, -2.643473e-01, 2.286160e-01, 1.293251e-01, 5.988172e-02, -4.066240e-01,
    6.234018e-02, -6.890380e-01, 3.204739e-02, 5.752987e-02, -3.724218e-01, -2.616600e-01, -1.149727e-01, -2.579628e-02, -9.409678e-02, -9.559581e-02, -1.050286e-01, -2.484780e-01, 6.322537e-02, -4.830895e-01, -1.806277e-01, -1.053268e-01,
    6.755108e-02, 1.135406e-01, -8.086219e-02, 2.489428e-01, -2.387130e-01, -1.567493e-01, -5.075952e-02, -1.166612e-01, 1.538427e-01, 7.805865e-02, -2.495418e-02, 1.647736e-01, 3.117542e-01, 2.424805e-01, 1.510372e-01, -2.420553e-01,
    4.079387e-02, -3.406276e-03, 1.074571e-01, 4.730655e-02, 7.730456e-02, 5.160222e-02, 9.315690e-02, 1.965999e-01, 2.982179e-01, -1.341611e-01, -3.285556e-01, 8.611885e-02, 3.968396e-01, -4.970182e-02, 5.399524e-02, 1.812057e-01,
    1.398291e-01, -4.208784e-01, -1.774270e-02, 2.499962e-01, -2.424804e-01, -2.099992e-01, 1.589154e-01, 9.080850e-02, -9.517361e-02, 5.518255e-02, 1.772074e-01, 1.465507e-01, 2.172216e-01, 2.645878e-01, 6.865290e-02, -9.971739e-02,
    -1.709274e-02, -5.640829e-01, -3.417343e-01, 4.395325e-02, -2.563769e-01, 8.246483e-04, -5.080373e-01, -1.429627e-01, -4.116510e-01, 1.081100e-01, 4.514429e-02, -7.480236e-02, 3.790504e-02, 9.071714e-02, -1.353741e-01, 2.486783e-01,
    -3.527660e-01, -8.069251e-02, -1.633179e-02, -1.939266e-01, 3.308524e-03, 1.337390e-02, -8.215035e-02, -2.854891e-01, 1.306329e-01, 2.127542e-01, -3.531739e-01, 4.354364e-02, -2.600102e-01, 1.710218e-02, 2.234065e-02, 4.420538e-02,
    -2.588681e-01, 5.196932e-02, 9.338005e-02, -1.552052e-01, 2.977537e-02, 1.625761e-01, -1.536810e-01, -1.304661e-01, -4.514940e-01, 3.045097e-02, -2.362257e-01, -3.775888e-01, 2.305543e-02, -1.052353e-01, -3.535723e-02, -1.179660e-01,
    1.756307e-01, 1.692761e-01, 2.921156e-01, 2.939735e-01, 2.749248e-02, -2.504122e-01, 1.285085e-02, 9.087152e-02, -1.724004e-01, -3.864240e-01, 7.062477e-02, 1.110531e-01, -2.479087e-01, -3.082227e-03, 1.424190e-01, 2.345203e-01,
    2.650006e-01, 1.817032e-02, -2.719305e-02, 2.724079e-01, 8.016769e-02, 1.958015e-01, -1.050168e-02, 1.420270e-01, -4.856477e-01, -2.452954e-01, 2.591611e-01, -2.175884e-01, -9.328369e-02, -5.140858e-02, 1.229311e-01, 2.226372e-01,
    7.765274e-02, -4.875507e-03, -1.668223e-01, 8.376416e-02, -1.846037e-01, -2.708583e-01, -2.536392e-01, 9.762727e-03, -3.270947e-02, -2.223959e-01, -3.828326e-01, -9.521689e-02, 4.383226e-01, 1.309022e-02, -2.419332e-01, -4.245316e-01,
    -1.555651e-01, -1.686579e-01, -1.408534e-01, -2.369932e-01, -2.098721e-02, -1.308032e-01, -2.554244e-02, 6.367816e-02, 1.336911e-01, -9.487157e-03, 2.258016e-01, 1.164819e-02, -9.698359e-02, -2.488028e-01, -1.399248e-01, -4.639665e-02,
    -2.428516e-01, 1.367723e-01, 2.506600e-03, -9.161860e-02, 1.484161e-01, 6.763166e-02, 1.283953e-01, 2.672010e-01, -3.408565e-01, -1.328071e-01, 2.344375e-02, -1.332658e-01, -2.491031e-01, -1.991683e-01, 3.302153e-01, 1.651190e-01,
    -2.053699e-01, -6.804781e-02, 1.411542e-01, 1.570769e-01, 3.674198e-02, 1.861686e-02, 9.496167e-02, -4.954754e-03, 1.177717e-01, -1.856521e-01, -8.560050e-02, -1.255006e-01, 6.577766e-02, 3.121820e-01, -3.016333e-01, -8.877688e-02,
    -1.828956e-01, 8.839773e-04, -8.623398e-02, -8.066262e-02, 1.782576e-01, 1.359367e-01, -1.551661e-01, -5.244534e-02, -1.058332e-01, -3.063915e-02, 9.667611e-02, -1.673237e-01, -6.545969e-02, -2.211930e-01, -6.698755e-01, -4.421663e-01,
    -4.219771e-02, 2.975568e-01, -3.510036e-01, -6.489058e-02, 1.052864e-01, 1.505836e-01, 9.496840e-02, -4.316109e-03, -7.579552e-02, 9.761633e-02, 2.576503e-01, -1.000670e-01, 2.060782e-02, -1.149649e-01, 9.451966e-02, -6.373835e-02,
    -1.484424e-01, -3.057376e-01, -1.779888e-01, 2.823268e-02, 8.614703e-02, 7.771460e-02, -5.926744e-02, -1.577038e-01, 1.902537e-01, 1.887315e-01, -1.536264e-01, -2.882390e-01, -1.048583e-01, -1.831025e-01, -1.927372e-01, -3.107066e-01,
    3.699319e-02, -3.803402e-02, -3.233973e-01, -1.140700e-01, 2.428994e-01, 2.547967e-04, 1.464428e-01, -2.334090e-01, -3.279497e-01, -1.304687e-01, 1.689967e-01, -1.168258e-01, -3.564990e-01, -1.829340e-02, 1.620144e-01, -1.465980e-01,
    -6.778039e-01, -3.863659e-01, -4.564682e-02, 1.515040e-01, -1.984721e-01, 1.038039e-01, 2.743941e-02, 1.446331e-01, 3.296081e-01, -1.973836e-01, -2.770739e-01, -8.025124e-02, 1.451841e-01, -4.245582e-02, -1.377851e-01, -4.015183e-01,
    -3.715721e-01, 7.974871e-02, 9.570945e-02, 1.433333e-01, -3.789481e-02, -1.731823e-02, 1.914696e-01, 2.553008e-01, -5.227872e-01, -2.008803e-01, -1.340828e-01, -1.822102e-01, 1.617610e-01, -1.416365e-01, -1.792167e-01, -8.076735e-02,
    -2.196300e-01, 8.367845e-02, 5.743417e-03, -2.699347e-02, 5.413757e-02, 1.816986e-01, 9.110984e-02, 3.092111e-01, 1.671446e-01, 4.501083e-02, -2.891998e-01, -1.123377e-01, -3.853424e-01, 1.425401e-01, -9.185483e-02, 2.215476e-01,
    -2.164422e-01, 4.763674e-01, -1.338042e-01, -4.234712e-01, -7.093830e-02, 4.934780e-02, -3.330862e-01, 2.142650e-01, 3.817560e-02, -1.006503e-01, 1.032764e-01, 4.051979e-01, -6.419872e-02, 1.543013e-01, 1.651714e-01, 2.324783e-02,
    2.086852e-01, -1.813283e-01, -4.936441e-02, 1.141898e-01, 4.946309e-02, -2.277277e-01, -1.568370e-01, 1.423647e-01, -1.659852e-01, 9.573367e-04, -4.595934e-02, 3.733450e-01, -1.702277e-01, 1.317787e-01, 2.170685e-02, 2.612045e-01,
    2.561362e-01, 3.256014e-01, -1.729426e-02, 3.507723e-03, -4.201638e-02, -1.750032e-01, 3.741626e-02, -3.698008e-03, 1.232174e-01, -2.942491e-01, -2.056881e-02, -1.813233e-01, -4.322081e-01, -7.782429e-02, 5.533262e-02, 1.009076e-01,
    6.885040e-02, -1.345623e-03, -1.486426e-01, -3.090452e-01, -4.057541e-01, -2.672149e-01, 5.028827e-02, -7.026956e-03, -9.494980e-02, 2.552449e-01, 1.091699e-01, 1.221968e-01, 3.467985e-01, 1.860624e-01, -1.830138e-01, 3.318426e-01,
    -7.973573e-02, 8.613530e-02, -9.910151e-02, -1.178937e-01, -1.656018e-01, -7.521221e-02, 2.516386e-01, 6.580217e-02, -2.303965e-01, 1.704328e-01, -3.251436e-02, 5.827493e-01, -1.315460e-01, 5.326623e-02, 2.744935e-02, -9.125302e-02,
    -3.742557e-01, 3.927727e-02, -3.160202e-01, 8.045358e-02, -1.713969e-02, 2.809622e-01, -2.434021e-02, -1.666937e-01, 4.306809e-01, 1.078521e-01, 5.738408e-02, 7.989567e-02, 6.670732e-02, -4.362084e-02, -1.394419e-02, 9.818652e-02,
    -2.242881e-01, 6.077088e-02, -5.138911e-02, -4.738143e-02, -1.683111e-01, -2.786424e-01, -2.907072e-01, 1.581721e-01, -3.185865e-02, 1.262655e-01, 2.055390e-01, -1.141014e-01, -3.748013e-01, -9.801390e-02, 1.981655e-01, -1.442138e-01,
    -5.593826e-02, -2.884716e-01, 5.648760e-02, -1.245278e-01, -3.898264e-01, -1.074666e-01, 1.262295e-01, -9.123802e-02, -5.460565e-01, 4.371598e-02, 2.426005e-01, 3.224880e-02, 2.606461e-01, 8.023015e-02, 8.992882e-03, -2.760059e-01,
    4.747511e-01, 4.235107e-01, -6.416577e-03, -2.328648e-01, -3.803290e-01, 2.219471e-02, 8.481028e-02, 1.295610e-02, -7.564054e-02, -1.864990e-01, -1.251019e-01, -3.834242e-01, 3.356142e-03, -3.466720e-02, -9.693003e-02, -4.070278e-02,
    -2.740613e-01, -1.019454e-01, -1.489766e-01, -9.476038e-02, 1.907744e-01, -8.503630e-02, 2.260874e-02, 1.682313e-01, 7.340065e-02, -4.237625e-03, 3.420182e-02, 2.410829e-02, -9.839068e-02, -2.348972e-02, -2.196250e-01, -3.928187e-01,
    9.856473e-02, 2.483461e-01, 6.847242e-02, 2.660549e-01, 8.415385e-03, -2.802132e-01, 8.812494e-02, 1.058870e-02, -1.042175e-01, -1.618041e-01, -1.421589e-01, 5.977462e-02, -7.256179e-02, 6.366526e-02, 3.339407e-01, 2.047740e-01,
    -5.275692e-01, -7.936673e-02, -2.054447e-01, -6.992190e-02, -2.798246e-02, -2.506461e-01, -2.937169e-01, 1.171503e-01, 2.374198e-01, 2.392042e-01, 1.173080e-01, 8.716303e-02, -6.762245e-03, -1.863773e-01, -9.140616e-02, -3.424154e-01,
    -4.070115e-01, -1.198097e-01, -1.790226e-01, 1.069501e-01, 1.650219e-01, 4.965320e-02, 5.997476e-02, 1.237399e-01, -1.580681e-01, -7.203082e-02, -2.381809e-01, 2.644569e-01, -3.803612e-01, 3.470336e-02, 2.201304e-01, 5.800033e-02,
    7.663755e-02, -1.069652e-01, 9.858355e-02, -4.428921e-02, 4.384157e-02, 1.358940e-01, -2.205737e-01, -4.364934e-02, 3.372784e-02, -1.601571e-01, 2.239349e-01, -3.229252e-01, 3.935647e-02, 2.395068e-01, -2.229798e-01, -2.976690e-01,
    -1.149734e-01, 7.672003e-02, -3.232648e-01, -4.304633e-01, 7.376671e-01, 5.412140e-02, -1.278389e-01, -2.725377e-01, 1.789420e-01, 1.069232e-01, -3.035391e-02, 2.383476e-02, 2.262155e-01, 4.225744e-01, -3.111277e-02, -1.646014e-02,
    1.587418e-01, -9.368993e-02, -2.020880e-01, -2.639272e-01, 2.663994e-01, -1.855522e-01, -6.130008e-03, -3.724385e-01, 3.973979e-01, 1.189601e-01, -1.739454e-02, 1.595545e-01, -4.640574e-02, -2.680489e-02, -4.735351e-01, 3.096826e-01,
    2.003768e-02, -1.543724e-03, -1.556014e-01, 9.471735e-02, 8.707719e-02, -2.990001e-01, -8.605108e-02, -6.936458e-02, -2.299592e-01, -4.023258e-02, -5.194117e-01, 1.417712e-01, -7.573077e-02, 7.410005e-02, 9.386899e-02, 2.632983e-01,
    5.942199e-02, 7.824288e-02, 4.527065e-01, -1.841182e-02, -1.016642e-02, -4.279957e-01, 3.379548e-01, -1.449856e-01, -4.510647e-02, -4.225616e-01, -9.610647e-02, 2.692746e-02, 1.067238e-01, 3.854083e-02, 1.323723e-01, 1.424521e-01,
    -1.358091e-01, 1.862697e-01, -7.765928e-02, -4.121505e-01, 1.455488e-01, -1.224258e-01, 1.100375e-01, -3.147057e-02, 1.399845e-01, -1.575586e-01, -1.460434e-01, -3.299964e-01, 6.814643e-02, -1.104852e-01, -1.212933e-01, 2.095461e-01,
    8.352799e-03, -2.650293e-01, -1.597040e-01, -3.904721e-01, -1.346186e-01, -3.454785e-01, -1.463786e-01, -4.192204e-01, 1.753871e-01, 3.061338e-02, 1.757080e-02, -9.868896e-03, 3.371264e-01, 2.409157e-01, -8.352353e-02, 4.595134e-02,
    -2.730823e-02, -2.361010e-01, 3.635392e-01, 4.549691e-01, 1.061542e-02, -8.149806e-02, -2.347964e-01, -2.658722e-03, -3.093396e-01, -5.397080e-01, -1.806303e-01, 1.617860e-01, 1.160847e-01, 1.761235e-01, 4.297450e-01, -9.821817e-02,
    7.695343e-02, 6.522676e-02, 6.044412e-02, 2.756814e-03, 5.531236e-02, 3.224573e-01, -7.198902e-02, 1.787626e-01, -2.756573e-01, -1.317565e-01, -3.720340e-01, -1.486435e-02, -2.356352e-01, -2.153659e-01, -4.190625e-01, -3.052118e-01,
    -8.277074e-02, 9.756020e-02, -1.310384e-01, 1.504288e-01, -1.529215e-01, 1.459561e-01, 8.159046e-02, 2.139799e-01, 8.943086e-02, -1.393344e-01, 9.118416e-03, 2.414443e-01, -1.522084e-02, -1.568387e-01, 1.354387e-01, -1.171415e-01,
    -8.410927e-02, 4.711269e-02, 9.386009e-02, 3.423082e-01, 1.052876e-01, -1.305989e-01, -2.956335e-01, 3.382449e-01, -1.666218e-03, -1.909317e-01, 1.440696e-01, -5.908050e-02, 2.059685e-01, -7.644392e-02, -1.051159e-01, -2.720090e-01,
    -9.647939e-02, -1.827766e-02, 1.215735e-02, -1.991683e-01, 1.637979e-01, 8.646453e-02, 9.325869e-02, -7.695825e-02, 1.582229e-01, 2.745514e-01, 1.209083e-01, -2.690795e-01, 7.992699e-02, -3.154647e-02, -1.928514e-01, 7.499685e-02,
    1.884634e-01, 1.846368e-02, -1.264659e-01, 2.650327e-01, 2.858019e-01, 8.297095e-02, 4.543133e-02, -1.086599e-01, 1.432548e-04, -9.208115e-02, -1.492650e-02, -3.097791e-01, 7.365257e-02, -2.132862e-01, -3.389731e-01, 1.236115e-01,
    1.148256e-01, 1.086558e-01, -2.865808e-01, 1.062043e-01, 2.587433e-02, 6.118993e-02, 1.501357e-01, 2.239378e-01, -2.868674e-02, 2.535339e-01, -6.341497e-02, 1.892352e-01, 2.451237e-02, 2.256050e-01, 3.324180e-01, -5.977053e-02,
    -2.540585e-01, 1.464347e-01, 1.800334e-01, -1.416920e-02, -3.347730e-02, -1.050083e-01, -3.210367e-01, -4.834754e-01, -1.331423e-01, 1.177501e-02, 5.183566e-02, 6.512477e-02, -6.072324e-03, 1.879519e-02, 1.420295e-02, 1.680225e-01,
    -2.480803e-01, -1.178161e-02, -5.227027e-01, -6.940688e-02, 3.862629e-02, -1.305207e-01, -6.342394e-03, 8.083940e-02, -1.867205e-01, 1.665601e-02, -1.138981e-01, 2.500228e-01, 1.878591e-01, 3.461593e-02, 8.450953e-02, 3.207373e-01,
    3.230454e-02, -2.809358e-01, -2.062195e-01, 2.135004e-01, -2.461630e-01, 6.465324e-02, 9.927692e-02, 1.470306e-01, -1.683242e-01, -2.787649e-02, 7.617462e-02, 4.766957e-02, -2.686462e-01, -2.626598e-01, 1.357163e-01, 3.457730e-01,
    -3.092202e-01, -1.859795e-01, -2.302019e-02, 1.006936e-01, -4.286199e-02, -1.755004e-01, -9.768731e-02, -1.958847e-01, 2.908728e-01, 8.496045e-02, 1.423799e-01, -1.957706e-01, 3.110287e-01, 5.677944e-01, -2.669233e-01, -2.480860e-01,
    -7.886109e-01, -2.767042e-01, 2.200418e-01, 3.279694e-01, -5.469415e-03, -3.169205e-01, -2.458569e-01, -1.057149e-01, -5.214683e-02, -2.550248e-04, -4.789702e-01, -2.144146e-01, -1.480953e-01, 3.224469e-02, 1.176797e-01, 9.065511e-02,
    -6.431906e-02, 6.036163e-02, -7.437611e-01, -1.215972e-01, -4.180348e-02, 7.252138e-02, 2.015959e-01, -4.919433e-02, 1.259501e-01, -1.760543e-01, 3.031280e-01, -7.083228e-03, 6.485359e-02, -2.351853e-01, 5.283440e-02, 4.233579e-02,
    3.231898e-01, -1.172372e-02, -1.263724e-01, 1.829050e-03, 3.393529e-01, 1.369750e-01, 1.411432e-01, 1.482565e-02, 1.425664e-01, -4.630973e-01, -6.924821e-02, 1.312263e-01, 1.475208e-01, -1.546529e-02, 3.706373e-02, -2.470170e-02,
    6.270643e-02, -2.436224e-02, 5.759973e-02, 1.616470e-01, -1.734552e-01, 5.130901e-04, -6.658397e-02, -1.760435e-02, 1.552546e-01, -1.194190e-01, 1.710260e-01, -2.894874e-01, -3.161308e-01, -1.919664e-02, 2.494286e-01, 2.904011e-01,
    1.506659e-03, -1.457928e-01, -9.883733e-02, 5.063023e-02, -1.513370e-01, -8.142781e-02, -2.650464e-01, 5.105199e-02, 2.725546e-03, -1.286223e-02, -1.198321e-01, 1.874710e-01, 1.621484e-01, 2.506060e-02, -3.622576e-02, 8.545612e-02,
    7.263737e-02, 1.505425e-01, 2.731865e-01, 3.761113e-02, -1.866914e-01, 1.675498e-01, -3.093805e-02, 2.060467e-01, -1.148356e-01, 1.152595e-01, -7.883108e-02, -1.649710e-01, 7.740382e-02, 1.446124e-02, -1.691192e-03, -1.312413e-01,
    5.197206e-02, -2.083144e-01, -1.714819e-01, 5.451590e-02, -3.508927e-02, -1.726009e-01, 1.492538e-01, -6.178720e-02, 4.578612e-02, 1.092705e-01, -1.586810e-01, -4.816436e-02, 8.600262e-02, -4.197436e-02, -2.454774e-01, 3.147635e-01,
    -1.587418e-01, 4.720339e-02, 4.126756e-02, -1.465654e-02, 2.988929e-02, 5.388890e-02, 6.407370e-02, -2.971922e-01, -1.932829e-02, 1.125099e-01, -1.046334e-02, 2.266112e-01, 4.871583e-02, 1.017636e-01, -1.290388e-01, -4.729869e-02,
    -2.947324e-03, -5.381875e-02, 1.656576e-01, -8.003789e-02, -8.362737e-02, 1.470253e-02, -4.434173e-01, 1.194744e-01, -1.252207e-01, 2.969071e-01, -9.036329e-02, 2.770938e-01, 2.052893e-01, -1.531195e-01, -1.339983e-02, -2.684015e-01,
    -3.844902e-02, 2.470314e-01, 1.314586e-01, 8.672126e-02, 1.506817e-01, 2.071441e-01, -6.524704e-02, 3.909840e-02, -2.058600e-02, 1.693477e-02, -7.366192e-02, -1.978355e-02, -4.952208e-01, -1.844359e-01, -1.494877e-02, -2.783022e-02,
    7.281866e-02, -5.684499e-02, 6.724260e-02, -1.992033e-01, 2.258272e-01, -2.360081e-01, -2.586818e-01, -1.190045e-01, 2.405967e-01, -4.774464e-02, -4.647332e-01, -9.321611e-02, 1.070734e-01, -1.900270e-02, 6.290777e-02, -4.516421e-02,
    -3.315010e-01, -7.663555e-01, -5.600021e-01, 2.269471e-01, -5.064457e-02, 1.174964e-01, -1.220491e-01, 2.074866e-01, 1.103377e-01, 3.628986e-01, 1.964631e-01, 1.407832e-02, -5.679398e-02, -5.978354e-02, 2.978421e-01, -3.432927e-01,
    -2.975704e-02, 8.299966e-02, 1.640668e-01, -6.853419e-02, 1.166650e-01, 3.099180e-01, 8.594277e-02, -3.099459e-01, -3.163210e-01, 1.642280e-02, -6.620713e-02, 3.089271e-02, 5.013680e-02, 5.026365e-03, -1.023776e-04, 1.489258e-01,
    2.199399e-01, 1.955587e-01, -5.689213e-01, -1.461113e-01, 4.107900e-01, 6.035129e-02, -1.171117e-01, 5.048692e-02, 1.915742e-02, 4.921221e-02, -6.659689e-02, 9.580555e-02, 5.308468e-02, 2.461543e-01, 1.789275e-01, 4.935415e-02,
    7.655029e-02, -4.487141e-01, -1.183551e-01, 2.898698e-01, -2.893872e-01, 2.536341e-01, 6.994320e-02, 1.052335e-01, -3.238600e-01, 1.007495e-01, -2.071132e-01, -2.290481e-01, -4.234062e-01, -1.617196e-01, -3.330860e-01, 3.781343e-02,
    -1.902087e-01, 3.516880e-03, -1.429551e-02, 1.577349e-01, -2.346727e-01, 1.918693e-01, 1.599836e-01, 5.671897e-02, 1.291894e-01, -1.851709e-01, 8.272170e-02, -1.630705e-01, -3.170888e-02, 2.527763e-02, -5.713707e-02, -2.765002e-01,
    -3.814755e-01, -1.731160e-01, 1.099705e-01, 7.677922e-02, 7.626983e-01, 4.726222e-02, 5.413606e-03, 1.202392e-01, -4.453128e-02, -3.946883e-01, -3.022852e-01, 1.909167e-02, -1.439119e-01, -3.637370e-01, 4.291585e-02, 4.869834e-02,
    1.377667e-01, -2.982621e-01, -2.958172e-01, -5.644652e-01, -6.471060e-02, -7.097070e-03, 1.583440e-01, 1.666618e-01, 1.429515e-01, 1.465681e-01, -3.286767e-02, 1.346435e-01, 2.169829e-01, -4.638385e-03, 1.488241e-01, -1.475252e-01,
    1.134247e-02, -4.829787e-01, -7.143416e-01, -3.445447e-01, 1.556309e-01, -4.909692e-02, 1.916226e-01, 3.550300e-01, -1.006398e-01, -1.822421e-01, 8.128905e-02, 1.514216e-01, 1.755677e-01, 1.855032e-01, -1.001216e-01, -3.237374e-01,
