// Auto-generated weights & biases
#ifndef WEIGHTS_BIAS_FLOAT_H
#define WEIGHTS_BIAS_FLOAT_H

static const float CONV1_BIAS_FP32_DATA[6] = {
  -0.27565148,  -0.055678368,  -0.13342263,  -0.1842813,  -0.29423353,  -0.22541328,
};
static const int CONV1_BIAS_FP32_SHAPE[] = { 6 };

static const float CONV1_WEIGHT_FP32_DATA[150] = {
  -0.36890802,  -0.20058458,  0.3210356,  0.051638376,  0.05976145,  0.03923682,  0.3096869,  0.4001094,  0.09001623,  0.0070676263,
  0.39464763,  0.39619216,  -0.1227204,  -0.32684103,  -0.33007875,  0.07987922,  -0.050282344,  -0.40076536,  -0.21227296,  0.019642623,
  -0.17480679,  -0.48898518,  -0.2768532,  0.27658918,  0.124360666,  -0.07361264,  -0.34352344,  -0.37559116,  -0.08455109,  -0.036992673,
  0.187636,  -0.040217556,  -0.3364113,  -0.5148938,  -0.28095713,  0.38730192,  0.31671187,  -0.040594816,  0.23310183,  -0.1654341,
  0.059251554,  0.29280818,  0.102581084,  0.19938459,  0.0026028675,  -0.009753265,  0.082485,  0.27683973,  0.054652084,  0.32823056,
  0.048747458,  0.061893877,  -0.20944203,  -0.3218541,  0.009611158,  0.18237054,  -0.4613841,  -0.30070305,  -0.20305309,  0.29156792,
  -0.19711673,  -0.4737662,  -0.29071575,  0.04361664,  0.41985568,  -0.17165884,  -0.08518438,  0.07451051,  0.42768246,  0.28984678,
  -0.1208139,  -0.08202872,  0.13128488,  0.10839163,  0.21459565,  -0.08114216,  0.13320293,  0.026032628,  -0.10657641,  -0.0794659,
  0.077753596,  0.2242148,  -0.120365456,  -0.35567886,  -0.1413679,  -0.082150824,  0.28341404,  0.016160684,  -0.028725622,  -0.2101919,
  0.063755356,  0.1755885,  0.21708699,  -0.17053537,  -0.029993704,  -0.072426535,  0.18160312,  0.2877649,  -0.08602583,  -0.020451361,
  -0.04599098,  -0.0024244736,  0.080656715,  0.12235606,  0.024704171,  -0.35034952,  0.109083,  0.22730216,  0.16892104,  0.27979496,
  -0.34572265,  -0.2102041,  -0.19656324,  -0.025875023,  0.24776497,  -0.322854,  -0.1713526,  -0.22607435,  -0.20795996,  -0.21307139,
  0.087154485,  -0.21942817,  -0.2946077,  -0.43228206,  -0.4045394,  -0.084239185,  -0.06952551,  -0.28817996,  -0.39446512,  -0.17044339,
  0.0155083705,  -0.01731511,  0.23480587,  0.11095901,  0.22728495,  0.02094569,  0.30772159,  0.5048678,  0.53573054,  0.18062547,
  -0.06733936,  -0.108283676,  -0.20703812,  0.084378734,  0.2188444,  -0.14453185,  -0.45875084,  -0.61559176,  -0.6161723,  -0.21424095,

};
static const int CONV1_WEIGHT_FP32_SHAPE[] = { 6, 1, 5, 5 };

static const float CONV2_BIAS_FP32_DATA[16] = {
  0.04258349,  0.020767014,  0.1498563,  0.009467741,  -0.16025187,  0.020986991,  0.18791588,  -0.03346866,  0.0061309217,  0.09693419,
  0.08064843,  0.027179746,  -0.06323597,  -0.070468836,  0.10430132,  -0.18574093,
};
static const int CONV2_BIAS_FP32_SHAPE[] = { 16 };

static const float CONV2_WEIGHT_FP32_DATA[2400] = {
  0.07146808,  0.076984815,  0.020230608,  0.06649661,  -0.09175444,  0.08872654,  0.17085078,  0.093247876,  -0.08694232,  -0.30657828,
  -0.11005186,  -0.19007142,  -0.16371773,  -0.018145714,  0.16014796,  -0.27028602,  -0.12438087,  0.0826631,  0.31673214,  0.28991118,
  -0.17331606,  0.09691553,  0.16323529,  0.16589145,  -0.28590682,  0.030590164,  0.07227416,  0.07219166,  0.060216982,  -0.053642605,
  0.06121767,  0.11002304,  0.15378152,  0.06663328,  0.041230068,  0.03016343,  0.07047147,  0.2154132,  0.15374874,  0.14903873,
  0.012224187,  0.004993848,  -0.08539879,  -0.12776113,  -0.059476733,  -0.10801763,  -0.16796501,  -0.20615925,  -0.1771255,  -0.04871686,
  0.0441791,  -0.022845658,  0.09212782,  -0.025251023,  -0.119431965,  0.07499273,  0.06966155,  0.02954636,  -0.07465197,  -0.22161692,
  -0.13233134,  -0.060547978,  0.104966946,  0.112207256,  -0.35947362,  -0.15626651,  -0.18360487,  -0.13778318,  -0.22790569,  -0.30017912,
  -0.16646834,  -0.5907224,  -0.49788797,  -0.10916694,  0.32957885,  -0.048092272,  -0.10567312,  -0.09936973,  -0.11733115,  -0.1860946,
  -0.02377208,  -0.04677229,  0.0025989597,  0.055551656,  0.02737679,  0.04692816,  0.008197669,  0.12179658,  0.15502092,  0.25589755,
  0.056171503,  -0.0054367417,  0.0575679,  0.0070518027,  0.00437077,  -0.16916385,  -0.03458337,  -0.045051284,  -0.1229613,  -0.11221955,
  0.0002536208,  -0.07614693,  0.027449021,  0.21158119,  0.25975597,  -0.39587736,  -0.4097163,  -0.40768424,  -0.12201438,  0.019391563,
  -0.17405649,  -0.21953243,  -0.53463817,  -0.45297566,  -0.03198306,  0.05326601,  -0.031644434,  -0.14218049,  -0.027061015,  0.030299176,
  0.084893495,  0.09298754,  0.033292517,  0.09682585,  0.2006666,  -0.16298102,  -0.03850931,  0.18298878,  0.24907357,  0.23251945,
  -0.19143283,  -0.074061185,  -0.00972409,  -0.23509233,  -0.0051170476,  0.033852223,  -0.041621123,  0.117256515,  0.087364025,  -0.06376824,
  0.18359704,  0.2350858,  0.15302289,  0.11371472,  0.07451901,  0.28576934,  0.25587532,  -0.017428892,  -0.47138754,  -0.27732274,
  0.24915718,  -0.10290059,  -0.5146153,  -0.05321919,  0.21990785,  0.051281363,  -0.28129157,  -0.08531887,  0.022554114,  0.09988535,
  0.33401588,  -0.415505,  -0.1660986,  0.02413231,  0.19424462,  -0.099670716,  -0.21058092,  -0.23378457,  -0.13159947,  0.044521786,
  -0.21920538,  -0.034524553,  -0.22831509,  -0.117447115,  0.00720757,  0.10794972,  -0.28515816,  0.07138679,  0.22684057,  0.17795804,
  0.17177002,  -0.13408205,  0.08492103,  0.12886494,  0.12222717,  0.037949387,  -0.113642044,  -0.0022137733,  0.02151835,  0.04290012,
  -0.24373472,  -0.40683,  -0.29355696,  -0.14249556,  0.078005634,  -0.16075529,  -0.5147741,  -0.03835957,  0.23048556,  0.029213456,
  0.1348347,  0.11685383,  -0.119675696,  0.017142404,  -0.07754875,  0.13313025,  0.12268874,  0.06690282,  0.10609828,  -0.08424199,
  0.13193677,  0.0067605134,  0.05761354,  -0.33774626,  -0.4195798,  0.15232654,  -0.050414156,  -0.1099516,  -0.4740255,  -0.40419024,
  0.01405288,  -0.19129114,  -0.13287354,  -0.38782495,  -0.36938125,  -0.16222245,  -0.3272179,  -0.024906542,  -0.021437228,  0.099263184,
  -0.122106425,  -0.42231676,  -0.021313054,  0.08723231,  -0.029654754,  -0.30064717,  -0.15383233,  0.060511768,  0.17457052,  0.097633615,
  -0.52140653,  0.09858002,  0.090604074,  0.16632238,  -0.0868161,  -0.12690376,  0.25399023,  0.14201522,  0.22372063,  -0.08876599,
  0.050800364,  0.25705606,  -0.08037697,  -0.26922306,  -0.3262633,  -0.10212865,  0.15045193,  -0.52641,  -0.43139327,  -0.292313,
  -0.030336022,  -0.04432768,  -0.5492415,  -0.31180847,  -0.1536209,  0.05452027,  -0.18164374,  -0.2546496,  -0.069504224,  -0.037910067,
  0.11509267,  -0.09773637,  -0.106281035,  0.12898648,  0.16484374,  -0.13431114,  -0.30545315,  -0.22495542,  0.04608183,  0.19121508,
  0.21863489,  -0.2439472,  -0.47996023,  0.17930381,  0.42173493,  0.31152582,  -0.3303252,  -0.24505733,  0.13234173,  0.25562873,
  0.22943038,  -0.13273044,  -0.094064616,  0.31810668,  0.40318394,  -0.107362516,  -0.05920989,  -0.060094483,  0.088897206,  0.056801658,
  -0.17580031,  -0.2694938,  -0.107678875,  0.2158886,  0.12733942,  0.16772541,  -0.09684928,  -0.2244104,  -0.107324444,  0.2790542,
  0.15925297,  -0.011120781,  -0.23332047,  -0.07638741,  0.15257882,  0.23045366,  0.22164516,  0.08310937,  0.03423255,  0.0019145875,
  0.104840875,  0.19190632,  0.08602819,  0.050781757,  0.018024756,  -0.11815316,  -0.07361874,  -0.016064217,  0.035608042,  -0.0053658076,
  -0.0212467,  0.15433769,  0.1634139,  0.2226217,  -0.1350443,  -0.045617312,  0.11143475,  0.23413342,  0.2784513,  0.18958534,
  -0.3725444,  -0.6072627,  -0.33136886,  0.054268405,  0.12444344,  -0.11690705,  0.022949765,  -0.1309796,  -0.1977718,  -0.053228833,
  -0.07272294,  -0.08783317,  -0.0872911,  0.07237499,  0.217137,  -0.1862988,  -0.06922015,  -0.25508377,  -0.2645289,  0.23002538,
  -0.08180203,  -0.027509138,  -0.32670173,  -0.3557912,  0.090279475,  -0.05881688,  -0.021434303,  -0.14312464,  -0.47920367,  -0.42882064,
  0.08188007,  0.22654372,  0.34991995,  0.04570277,  -0.2954325,  0.03724105,  0.04367635,  0.03478131,  0.11445637,  -0.16639355,
  -0.18121539,  -0.007728778,  0.124710694,  0.20760436,  -0.14533207,  -0.31689292,  -0.04447633,  -0.023004686,  0.20177788,  0.1563247,
  -0.12929398,  -0.15664764,  -0.1459045,  0.020348066,  0.23119538,  0.13712293,  -0.017591318,  0.045708474,  0.03721314,  0.13945065,
  -0.019952442,  -0.084870264,  -0.3602403,  -0.0759389,  -0.14280549,  0.16791493,  0.11851736,  -0.38491598,  -0.26982555,  -0.3157979,
  0.10948048,  0.10408663,  0.13401434,  -0.2094972,  -0.30649474,  -0.112191424,  -0.016411155,  0.03222474,  -0.08446754,  -0.2166175,
  -0.19488373,  -0.17573865,  -0.16568847,  -0.08795145,  -0.11408022,  0.06697916,  0.072637044,  -0.19106308,  0.04444642,  0.0890804,
  0.32589695,  0.24914335,  -0.0025464569,  -0.14614362,  0.009227999,  -0.030845407,  0.142932,  0.27271193,  0.23417105,  0.1356176,
  -0.40170848,  -0.18736783,  0.049783394,  0.06695038,  0.044267688,  -0.21385506,  -0.13155973,  0.0090480745,  0.04855546,  0.0019892505,
  -0.38542044,  -0.11300853,  -0.029733263,  0.083942816,  0.04699669,  -0.025338698,  -0.102472566,  0.0180335,  0.13395843,  0.08058694,
  0.0077928393,  0.08442808,  0.22525632,  0.21161039,  0.10268116,  -0.05346285,  -0.33513457,  -0.24083817,  -0.0868774,  0.012714848,
  0.08940415,  -0.06808344,  -0.014193607,  0.09399034,  0.026788203,  0.016691277,  0.05629523,  0.119960204,  0.13955729,  0.074621096,
  0.05063742,  0.23267144,  0.118544154,  0.047093656,  0.059464477,  -0.16881192,  -0.13066207,  -0.4063997,  -0.40962163,  -0.3524004,
  -0.008067219,  0.08392391,  0.046230413,  -0.19205675,  -0.35706753,  -0.10796184,  -0.020506458,  0.1039419,  0.009386499,  -0.11649858,
  -0.068808116,  -0.12551877,  -0.034770973,  -0.064212635,  0.059118014,  -0.098862104,  -0.07887086,  -0.054173812,  -0.08273926,  -0.10395788,
  -0.3662776,  -0.47734848,  -0.3971598,  -0.37829587,  -0.15838547,  -0.15130787,  0.055902176,  0.12122238,  0.18059383,  0.2111799,
  0.3197397,  0.22025518,  0.113582894,  0.04931294,  -0.17096414,  0.0379947,  0.024158208,  0.017497256,  0.0071323197,  0.03391757,
  0.07081797,  -0.019825362,  0.093665704,  0.17877497,  -0.010176808,  0.031183178,  -0.21112725,  -0.26096818,  -0.108976,  -0.08636303,
  0.110906765,  0.041710805,  -0.12866195,  -0.062349036,  0.003254344,  -0.19795255,  0.11561492,  0.06632086,  0.07858332,  0.06269349,
  -0.004341002,  -0.2710113,  -0.5032025,  -0.34839848,  -0.010497772,  0.003356255,  -0.10361361,  -0.18426582,  -0.27566108,  0.017243896,
  0.09480079,  0.2990844,  0.15066421,  -0.08024812,  -0.09478168,  -0.08247776,  -0.06515203,  -0.020116733,  -0.16625558,  -0.21597362,
  -0.030846609,  -0.115058646,  0.07643789,  0.10001998,  0.27352947,  0.12108818,  0.3513111,  0.15424132,  -0.15800102,  -0.27738822,
  0.24394263,  0.48253936,  0.34358853,  0.25185063,  0.19504349,  0.0967694,  0.52332723,  0.45483056,  0.10345303,  0.004536836,
  -0.45023695,  -0.68749696,  -0.46618274,  -0.29598773,  0.16391508,  -0.13446024,  -0.12195495,  0.26022422,  0.31491274,  0.32101676,
  0.26205292,  0.19485298,  -0.17973192,  -0.18367445,  0.07835896,  0.2639743,  0.15389901,  -0.23416397,  -0.13696015,  0.3101479,
  0.3374649,  0.06696946,  0.022731584,  0.23963676,  0.0968675,  0.05176166,  0.003664273,  0.19020869,  0.17799416,  -0.06314137,
  -0.3885283,  -0.28274617,  -0.0942475,  -0.16663015,  0.20578673,  -0.26440713,  -0.503538,  -0.44992638,  -0.29129043,  -0.16310714,
  0.09894047,  0.012623268,  0.06629953,  0.055394292,  -0.0014217453,  0.16534807,  0.27230778,  0.27582648,  0.097936325,  -0.12688813,
  -0.01806331,  -0.223489,  -0.17076172,  -0.028513007,  -0.047097653,  0.060339857,  0.016741386,  0.06828191,  -0.015311672,  -0.09773888,
  -0.30018932,  -0.55428153,  -0.18064845,  0.07020435,  0.098137476,  -0.4381798,  -0.08723274,  0.1265013,  0.10801615,  -0.006448033,
  0.0536508,  0.33053023,  0.14183156,  -0.22617042,  -0.2568675,  0.20357138,  0.058466163,  -0.15734728,  -0.2207439,  -0.050997492,
  -0.14842224,  -0.2413211,  0.00198939,  0.08042997,  -0.15958908,  -0.051924247,  -0.044397295,  -0.4328707,  -0.5896927,  0.048061453,
  -0.016815975,  -0.1416467,  -0.3134827,  -0.37009203,  -0.0049506687,  -0.109414086,  -0.10808495,  -0.08462801,  -0.2901136,  -0.2281282,
  -0.24003655,  -0.23479255,  -0.112938605,  -0.16400574,  -0.078236744,  0.011707762,  0.17321254,  0.100228764,  -0.18775976,  0.031269208,
  -0.028411957,  0.16019163,  0.16261952,  0.10604527,  0.10188101,  0.099580385,  -0.025711246,  -0.025263103,  0.088115215,  0.048391182,
  -0.11109581,  -0.1549689,  -0.07084322,  -0.14617735,  -0.25606835,  -0.18491863,  0.0920388,  -0.081284136,  -0.33191052,  -0.22802755,
  -0.2212811,  -0.11704143,  -0.17526755,  -0.33993688,  -0.0031170086,  -0.03488498,  -0.050914954,  -0.013029191,  0.15009369,  0.29242414,
  0.044852678,  -0.3156782,  0.101373225,  0.54415953,  0.5890623,  0.064563714,  0.10437993,  0.24185747,  0.30518648,  0.33533484,
  -0.3526178,  -0.09263974,  0.18056595,  0.15001239,  0.22672781,  0.14473048,  -0.024449978,  0.08542339,  0.013347703,  -0.06364973,
  0.16111855,  -0.04426421,  -0.019375892,  0.33852282,  0.058060385,  0.1589658,  0.009028726,  -0.12069813,  -0.080848895,  0.046199247,
  -0.25800776,  -0.3494529,  -0.04111164,  0.053591114,  -0.15293491,  -0.23562777,  -0.33662605,  -0.38001394,  -0.2099649,  -0.257779,
  -0.03511531,  -0.07700848,  -0.028879633,  -0.114852056,  -0.32487914,  0.018451227,  0.11765854,  -0.11673492,  -0.10758763,  0.21319851,
  0.053577833,  0.040089045,  -0.055014975,  -0.2666863,  -0.44056517,  -0.2592268,  -0.25336894,  -0.08682771,  -0.0832653,  -0.051700775,
  -0.09366559,  -0.1746094,  -0.22315355,  0.107999206,  0.20348942,  0.2340431,  0.1299578,  0.10761845,  -0.07355004,  0.13560995,
  -0.13138342,  -0.15791403,  -0.0922338,  0.15368882,  0.26749605,  0.06604229,  0.009904108,  -0.099304244,  -0.062251933,  -0.16848204,
  -0.3248738,  -0.25046825,  -0.18589182,  -0.08233005,  -0.44616073,  -0.4317795,  -0.2086049,  -0.1707975,  -0.09924249,  -0.22079231,
  -0.1670651,  -0.16060865,  -0.146452,  0.104262285,  -0.16735055,  0.1588225,  0.08983544,  -0.16622812,  -0.09592452,  0.17955393,
  -0.09131197,  -0.055238478,  0.1058184,  -0.038392205,  -0.07396249,  -0.1496597,  -0.21746996,  -0.00935503,  0.2875828,  0.1950361,
  0.04901701,  0.06760446,  -0.044489056,  0.32266372,  0.2572534,  0.039766535,  0.13677856,  0.0287553,  0.12012515,  0.18152606,
  0.08836354,  -0.09132816,  0.028769236,  -0.18946877,  -0.29352123,  0.041970372,  0.048990075,  -0.2591746,  -0.5301113,  -0.272972,
  0.07779706,  0.14627324,  -0.14941788,  -0.32309484,  -0.20617872,  -0.13285542,  0.19582322,  0.13841955,  0.008392242,  0.10417539,
  -0.011171816,  0.06272878,  0.15445665,  0.10425904,  0.08801624,  0.04926214,  0.16976255,  0.19188914,  0.039588384,  0.058642432,
  0.13119893,  0.09607399,  0.0016242154,  0.0073474157,  0.2514703,  -0.040706143,  0.3608933,  0.39491394,  0.2616411,  0.124140486,
  -0.16671516,  -0.14451964,  0.2943925,  0.26407138,  0.23615645,  0.24748987,  0.1611609,  0.07862249,  0.20613013,  0.07551262,
  -0.266816,  -0.17231713,  0.14246589,  0.321625,  -0.12434559,  0.15076599,  0.08239634,  -0.21511829,  -0.45051157,  -0.72689486,
  -0.12999623,  -0.10626669,  -0.061372276,  -0.28827026,  -0.3727661,  -0.1486157,  0.0662514,  0.14068209,  -0.06941035,  -0.08939748,
  0.1817935,  0.42593268,  0.5045219,  0.5050334,  0.028409848,  -0.13996786,  0.058117606,  -0.041927673,  -0.18929163,  -0.23138861,
  -0.1606208,  0.21249895,  0.33642775,  0.3336747,  0.061163686,  0.102548674,  -0.0992013,  0.032244135,  0.18705408,  0.01687006,
  0.27077356,  -0.071965344,  -0.1542214,  -0.16096887,  -0.17235196,  0.14137249,  -0.18142137,  -0.49746615,  -0.60676485,  -0.31805977,
  0.1042563,  -0.04695285,  -0.22347344,  -0.19002001,  0.051743295,  0.037111737,  -0.10942065,  -0.24284925,  -0.20084232,  -0.07003104,
  0.011050372,  -0.3653304,  -0.17300396,  -0.05072126,  0.053792056,  -0.003247366,  0.15009671,  0.16374855,  0.2634033,  0.15567018,
  0.13546051,  0.13025525,  0.15558742,  0.25262272,  -0.015461029,  -0.32926112,  -0.08030567,  0.0025090917,  -0.13007769,  -0.047492485,
  -0.32466894,  0.0820765,  0.2404842,  0.22516152,  -0.057042554,  -0.16634266,  -0.04601745,  0.103238314,  0.25204057,  0.020717507,
  -0.025079142,  -0.15428194,  -0.029534655,  0.060019206,  0.12405977,  0.035848886,  -0.12635496,  -0.17558801,  -0.15794064,  -0.05209547,
  0.082872465,  0.13449381,  0.0833774,  -0.12976457,  0.22535984,  0.17990406,  0.28405315,  0.27604598,  0.15485834,  0.29242033,
  0.30245456,  0.34538275,  0.39062464,  0.13488217,  0.2305158,  0.08672572,  0.03880677,  -0.21584353,  -0.32058433,  -0.092860565,
  -0.11855288,  0.0332736,  -0.059262972,  -0.11751736,  -0.1344475,  -0.07927462,  0.16724914,  0.2762609,  0.020523008,  -0.36390087,
  0.24469313,  0.15526672,  0.19542606,  -0.30962175,  -0.542348,  0.20137388,  0.15422347,  -0.1752711,  -0.49941042,  -0.47201273,
  -0.00795036,  -0.36189365,  -0.64074826,  -0.5719286,  -0.56181353,  -0.03767345,  -0.24054015,  -0.104244865,  -0.3495237,  -0.5030806,
  -0.19252263,  0.006147904,  -0.0490886,  0.07195737,  0.30131182,  -0.053850852,  -0.2529732,  -0.09583131,  -0.11790407,  0.18467498,
  -0.24713793,  -0.25920758,  -0.29612842,  -0.13866739,  -0.1216272,  -0.39781824,  -0.16170841,  -0.37692496,  -0.48946288,  -0.30537933,
  -0.029014405,  -0.055716712,  -0.13419132,  0.20829439,  0.41196066,  0.014804252,  -0.3847827,  -0.31896815,  -0.30556977,  -0.20369881,
  0.28110978,  0.09288603,  -0.035189785,  0.10380191,  0.0771527,  -0.043870125,  0.07567646,  0.21422939,  0.03496809,  0.22576363,
  -0.06024089,  0.21753705,  0.1937644,  -0.0021600632,  0.002982013,  -0.083733745,  0.2867579,  0.23476571,  -0.101398066,  -0.22095577,
  0.16197678,  0.19317353,  0.30154368,  0.3064237,  -0.4694678,  -0.08382471,  -0.081716746,  -0.099297434,  -0.26998147,  -0.10403084,
  -0.054112293,  -0.37570643,  -0.16389799,  -0.2201712,  0.024853578,  -0.022577198,  -0.2489117,  -0.11661225,  0.0681934,  0.010983693,
  -0.026787395,  0.19167659,  0.19554588,  0.20656826,  -0.2309663,  0.102507524,  -0.07981563,  -0.16734698,  -0.12693983,  -0.069598414,
  0.04482564,  -0.079457566,  -0.04998898,  0.037892677,  -0.04565726,  0.09269469,  0.09080261,  -0.00014508677,  0.03231497,  0.026422746,
  0.02717411,  0.10366758,  -0.030007007,  -0.08964439,  -0.016399916,  -0.082562685,  -0.02255817,  -0.07730023,  -0.3175967,  -0.013232259,
  0.14622952,  0.09883502,  -0.16816872,  -0.27417538,  -0.08434939,  0.082751095,  0.25716802,  0.26608315,  0.11560475,  -0.07316608,
  -0.031846557,  -0.0048091686,  0.2261389,  0.14905514,  0.012069441,  0.053207647,  -0.20719919,  -0.09919906,  -0.23367317,  -0.29885283,
  0.18239504,  0.007711466,  -0.13088194,  -0.1599801,  -0.10032805,  0.13071337,  -0.0054579685,  -0.024461694,  -0.070197955,  -0.06940922,
  -0.22214551,  0.0016835748,  0.18307203,  0.20552786,  0.00527758,  -0.022972886,  -0.32822707,  0.30440825,  0.19945672,  -0.66551363,
  0.13665774,  -0.061363954,  -0.45548725,  -0.43741044,  -0.2415065,  0.38091257,  0.14071552,  0.072779015,  -0.025447238,  0.0145325195,
  -0.06330339,  -0.23494764,  -0.06926943,  0.1367993,  0.10248489,  -0.23057462,  -0.37349382,  -0.0744415,  -0.148856,  -0.39672035,
  -0.29262578,  -0.040396597,  -0.06730472,  -0.25791672,  0.07966505,  -0.25201637,  0.047753926,  -0.10783406,  0.12276783,  0.14436877,
  0.02839166,  -0.121446475,  -0.23956016,  -0.08777953,  0.14679475,  0.18728824,  0.18679431,  -0.0005575712,  -0.40259454,  -0.4611297,
  -0.20374276,  0.031619728,  0.09261194,  -0.19142613,  0.09711268,  -0.4787932,  -0.13937916,  0.16129574,  -0.1365544,  0.02081668,
  -0.5356046,  -0.051335625,  0.17710519,  -0.07900577,  -0.09750422,  -0.35068056,  0.14744271,  0.18409021,  0.25145456,  -0.06927718,
  0.112675965,  0.043346684,  -0.1961925,  -0.10741197,  -0.08927198,  0.19079028,  -0.038286056,  -0.5278201,  0.26487327,  0.053929977,
  0.24726535,  -0.21225756,  -0.33080757,  0.22436659,  0.037060007,  0.2663853,  -0.052458186,  -0.051748578,  0.07132139,  0.1619237,
  -9.357096e-06,  -0.15724614,  -0.061042566,  -0.0039460375,  0.091860786,  0.02484372,  0.12250032,  0.051947784,  0.004054345,  -0.3237574,
  -0.114674844,  0.28130567,  0.13182203,  -0.08263206,  -0.122696154,  -0.030794742,  0.30569202,  0.09150346,  -0.1811688,  -0.01606834,
  0.0787675,  0.22605456,  -0.056884132,  -0.2716739,  -0.095874414,  0.10452537,  0.1949592,  -0.033110507,  -0.095101185,  -0.12819189,
  -0.18290333,  -0.19514507,  -0.13219573,  0.09517651,  -0.08643592,  -0.21708001,  -0.32574493,  0.005214864,  0.18599142,  -0.060610022,
  -0.13676737,  -0.31396908,  0.053060435,  0.28983393,  -0.005625846,  -0.087790065,  -0.15565412,  0.16025837,  0.19213794,  -0.061457008,
  -0.007252896,  0.09620782,  0.19407958,  -0.0042869677,  -0.11395886,  -0.2522675,  -0.4193516,  -0.55386376,  -0.184585,  -0.037644487,
  -0.20592815,  -0.5320479,  -0.484221,  -0.11316251,  -0.2394526,  -0.4415663,  -0.5069034,  -0.22709717,  0.26382044,  0.028624233,
  -0.2669466,  -0.09974228,  0.18095972,  0.38950557,  0.17874572,  0.06775158,  0.13552755,  0.27297637,  0.027651161,  -0.13150927,
  0.26222208,  0.20895204,  -0.07394919,  -0.60751677,  -0.42437786,  0.19198439,  0.21722676,  -0.13380553,  -0.5155264,  -0.4370413,
  -0.019983832,  -0.15073892,  -0.23866801,  -0.15083992,  -0.011181964,  -0.1667397,  0.097035944,  0.1301744,  0.24979025,  -0.014342883,
  0.021453414,  0.09610806,  0.021802625,  0.1325398,  -0.093336105,  -0.1327775,  -0.13463229,  0.069771476,  0.27336943,  0.2268531,
  0.054383036,  -0.0005696165,  0.052931752,  0.2985874,  0.19153115,  -0.10273402,  -0.33311087,  -0.46169737,  -0.381694,  -0.0013095693,
  0.08820711,  -0.21159205,  -0.54454666,  -0.45215273,  0.106942594,  0.17315611,  -0.23861735,  -0.28202838,  -0.26048043,  -0.07332286,
  0.046248745,  -0.13452947,  0.047177065,  0.23422953,  0.011365598,  -0.032304194,  -0.0052700066,  0.020055281,  0.10204545,  0.0732412,
  -0.06558459,  -0.11002483,  -0.059934754,  0.043932553,  -0.12377205,  0.074863546,  -0.2842276,  -0.060618743,  0.022956904,  -0.24110124,
  -0.29063246,  -0.5289696,  -0.19555011,  -0.090045385,  -0.13134113,  -0.24156043,  -0.015254987,  0.1622022,  0.17608796,  0.05862218,
  -0.055115066,  -0.20768642,  -0.1045108,  0.16870683,  0.20425639,  0.0033922112,  -0.16825575,  -0.20882726,  0.12249611,  0.027793545,
  0.05368325,  0.089452505,  -0.11131248,  -0.05095484,  0.058833294,  0.1084105,  0.14718983,  -0.043545134,  -0.25447005,  -0.23831259,
  0.15903637,  0.089026585,  -0.03973753,  -0.40816617,  -0.40721527,  0.13103105,  0.12743291,  0.026513696,  -0.69147587,  -0.5716878,
  -0.10612978,  0.040769886,  -0.021748293,  -0.21295926,  -0.45910603,  0.07161051,  -0.036993034,  -0.07709084,  0.025139837,  0.12939548,
  0.09720735,  -0.018464247,  0.111558385,  0.21338637,  0.16726165,  0.18426502,  -0.012038075,  -0.21953115,  -0.14314537,  -0.26619694,
  0.15171018,  0.10573778,  -0.030086137,  -0.41246414,  -0.4088534,  0.21577233,  -0.18147153,  -0.20527151,  -0.27728587,  -0.1930819,
  0.20780952,  0.0462575,  0.13405426,  0.14203656,  -0.086513735,  0.20675217,  0.030980408,  0.092374235,  0.109425,  0.0747161,
  -0.06553722,  0.011017112,  -0.021576876,  -0.1194098,  -0.16947143,  0.15284905,  -0.22371987,  -0.30852067,  -0.28380537,  -0.41814524,
  -0.21590452,  -0.3581392,  -0.27386987,  -0.59469306,  -0.5245257,  -0.139623,  0.059191786,  0.2572543,  -0.08393281,  -0.019767575,
  -0.21516928,  0.39505827,  0.39685205,  0.26369634,  0.12310843,  0.07143347,  -0.08119153,  -0.2718242,  -0.02425158,  0.043688186,
  0.16338263,  0.35349923,  0.10605831,  -0.118401796,  -0.02811119,  -0.086946025,  0.032257035,  0.27575678,  0.16783127,  -0.03291948,
  0.014212129,  -0.03217213,  -0.023964925,  -0.058986284,  0.08203845,  0.19859186,  0.11523228,  -0.10894918,  -0.45621097,  -0.33705106,
  -0.08603516,  -0.22565572,  0.066547625,  0.17381397,  -0.08529257,  -0.1673904,  -0.20461336,  -0.23329931,  -0.054069977,  -0.2495972,
  -0.074370354,  -0.20754814,  -0.15184577,  0.008591293,  -0.011892983,  0.09396284,  0.057078104,  0.10970854,  0.00015664051,  -0.010471542,
  0.24160719,  0.113400266,  0.040526383,  -0.2313196,  -0.07331848,  0.17604162,  -0.10735151,  -0.19708768,  0.08116735,  0.030493552,
  0.039446037,  0.081668146,  0.071421444,  0.20961523,  0.19805117,  -0.17676187,  -0.011687084,  0.08925627,  0.16713576,  0.09388866,
  -0.19682874,  -0.18938792,  0.0036071618,  -0.036012772,  0.099760085,  -0.028505957,  -0.06536521,  -0.21582668,  -0.30735746,  -0.24450429,
  0.068792254,  0.034941107,  0.016710034,  -0.20051552,  -0.10612357,  -0.0946064,  0.20933752,  0.18765819,  0.038322162,  -0.04680796,
  -0.009914309,  0.12497337,  -0.12725876,  -0.05437822,  0.00026195816,  -0.27718982,  -0.37155935,  -0.5854138,  -0.38543102,  0.017981362,
  -0.02055621,  -0.16111526,  4.3576016e-05,  0.15491058,  0.036961008,  -0.03732915,  0.021920385,  0.17849496,  -0.0010460827,  -0.0031275873,
  0.03747025,  0.1467643,  0.32446507,  0.3117808,  0.048254225,  -0.21798828,  0.1397017,  0.019401673,  -0.44965488,  -0.06699368,
  -0.12903918,  -0.2370776,  0.0054949815,  0.044343326,  0.10837183,  0.06773058,  0.02963727,  0.11877994,  0.054321174,  0.25581142,
  -0.29871088,  -0.0907665,  0.20550245,  0.3256558,  0.18544486,  -0.26676348,  0.0882827,  0.1394598,  0.27870315,  0.20297444,
  0.09353111,  -0.05816211,  0.048655134,  0.03702426,  -0.17353335,  -0.22082558,  -0.01928334,  0.055302884,  -0.06208781,  -0.080306575,
  -0.45897937,  -0.21669567,  -0.5251009,  -0.7484492,  -0.47946414,  -0.00031478997,  0.08251196,  0.010315357,  -0.1275486,  -0.09774221,
  0.111033335,  -0.062424045,  0.016238704,  -0.12491621,  -0.18157716,  0.15683764,  0.0023583958,  0.06834588,  0.082879834,  -0.018686462,
  0.09691593,  -0.104562715,  -0.52156866,  -0.53096837,  -0.64830184,  0.027770746,  0.11604851,  0.16276808,  0.07432244,  -0.48283747,
  0.092036545,  0.23466651,  0.030336354,  -0.114785135,  0.15586217,  0.24545155,  0.16686419,  -0.33244976,  -0.17060061,  0.110711865,
  0.41987526,  -0.28840157,  -0.66783655,  0.0008541465,  0.03301463,  0.011931327,  -0.8937892,  -0.6783438,  -0.23017596,  0.021366762,
  -0.023650063,  -0.45582137,  -0.21827966,  -0.040271252,  -0.07865037,  -0.03344712,  -0.036246113,  -0.066645615,  -0.028122947,  -0.005074075,
  0.031729177,  -0.12111817,  -0.06729117,  -0.0130884,  -0.021107767,  -0.050219495,  -0.06741007,  -0.04312417,  0.041785087,  0.06228435,
  -0.17958063,  0.08551379,  -0.46695492,  -0.43854657,  -0.2638238,  0.105624944,  0.16971864,  -0.23677167,  0.16326267,  -0.069698095,
  -0.050096307,  -0.19278067,  -0.26772696,  -0.34999192,  -0.16550836,  -0.06656375,  -0.35971546,  -0.49309728,  -0.23615368,  -0.13599926,
  0.15406671,  -0.10754018,  -0.122831255,  0.111720964,  0.04227015,  0.12966904,  0.18407139,  0.098466426,  0.2122037,  0.14084667,
  0.015703565,  0.09779086,  0.09158149,  0.17957586,  0.12588936,  -0.7461973,  -0.3651601,  -0.009425785,  -0.27682242,  -0.33272102,
  0.13381784,  0.020073308,  0.08529671,  0.2507289,  0.026540607,  0.099438615,  0.0047983755,  0.12510952,  0.27698445,  0.17025185,
  -0.1918015,  -0.06378895,  0.14508322,  0.061399315,  0.2482675,  -0.13610715,  -0.018285109,  0.056405228,  -0.107019804,  0.048104636,
  0.015444862,  0.15660255,  0.27626503,  0.1358518,  0.27114573,  0.028538516,  0.09621844,  0.26372394,  0.16734321,  0.21198191,
  -0.061962698,  -0.031145377,  0.13346583,  0.22812401,  0.091488965,  -0.2652351,  0.003255004,  0.0076440633,  -0.01271444,  0.02135988,
  -0.17233004,  -0.036756646,  -0.04442319,  -0.22653404,  -0.47594625,  -0.039043617,  -0.21820955,  -0.04360546,  -0.15129167,  -0.30225968,
  0.09902014,  -0.2235213,  -0.119201556,  -0.08343441,  -0.11563776,  0.32439658,  0.002547839,  -0.21716315,  -0.091153786,  0.14313565,
  0.4075909,  0.21600752,  0.04807523,  0.002497995,  -0.017635645,  0.24483919,  0.29330102,  0.30051258,  0.19264202,  0.40354183,
  -0.15920809,  0.027500743,  0.23290473,  -0.025121704,  -0.15880623,  -0.1330783,  -0.08848605,  0.12869842,  -0.08103975,  -0.06487719,
  -0.6962147,  -0.5656632,  -0.2243617,  -0.35054442,  -0.12902515,  -0.46164414,  -0.13414136,  -0.23250198,  -0.71267974,  -0.42342657,
  0.10455193,  0.058323704,  0.15383193,  -0.35258245,  -0.18743384,  -0.14633696,  0.017904108,  0.16584039,  -0.08034738,  -0.3228528,
  0.1186535,  -0.14897147,  -0.098718695,  -0.026195353,  -0.30530387,  0.20577867,  -0.07825223,  -0.35375944,  -0.23789936,  -0.16613285,
  0.0002660802,  -0.101472974,  -0.24406694,  -0.2134946,  -0.4607623,  -0.002658659,  -0.043863017,  0.095328085,  -0.026773104,  -0.22195336,
  -0.03431775,  -0.13812649,  -0.30924314,  -0.21460272,  -0.1070547,  0.05040433,  0.19814904,  0.033115752,  -0.039594736,  0.028512241,
  0.08180122,  0.320171,  0.1889896,  0.18747102,  0.21600722,  -0.08653602,  0.07187173,  0.09408588,  0.10923681,  0.21638998,
  -0.10392597,  -0.12259858,  -0.29532218,  0.00030782557,  0.15880321,  -0.04741207,  0.07165227,  0.046639513,  -0.05738302,  0.07924892,
  -0.076070696,  0.2133725,  0.16379723,  0.1212643,  0.18037479,  -0.032600977,  0.29793388,  0.24726532,  0.16042216,  0.34349754,
  0.14257067,  0.22922015,  0.14242777,  0.3757614,  0.41632608,  0.17204614,  0.19235781,  0.21444605,  -0.029418707,  0.1788631,
  0.021068508,  0.048886947,  0.123399764,  0.16484106,  0.0621081,  0.22157227,  -0.075922094,  -0.023886703,  -0.051763847,  0.28918546,
  0.27146578,  -0.015640985,  -0.022526292,  0.16885485,  0.30597734,  0.06974819,  0.039235253,  0.10871286,  -0.009009982,  -0.10374967,
  0.0933134,  0.17268816,  -0.045327492,  -0.1767321,  -0.21509928,  -0.34153932,  0.08013499,  0.20002109,  -0.07006224,  0.07039849,
  -0.23620498,  -0.19301306,  0.11614739,  0.06718424,  -0.13117994,  -0.25080967,  -0.31865105,  0.0360013,  -0.1402727,  -0.20396873,
  -0.1026982,  -0.3298525,  -0.28544024,  -0.4934697,  -0.29578376,  -0.4309851,  -0.7870913,  -0.28576633,  -0.054663293,  -0.08953309,
  -0.013116534,  -0.10812879,  -0.026762282,  -0.014479671,  0.019797493,  0.020116456,  -0.043348476,  0.036526963,  0.23244998,  0.10088306,
  0.09609417,  0.2269205,  0.40119848,  0.18737441,  -0.2174197,  0.21118958,  0.24932574,  0.26065207,  -0.565751,  -0.06067746,
  0.0047201146,  0.09295942,  0.016653648,  -0.075602755,  0.40949145,  -0.37784073,  0.01714647,  0.023078544,  -0.09013547,  0.115447775,
  -0.541819,  -0.25297058,  0.17161164,  -0.12326774,  -0.18151182,  -0.47278342,  -0.13358194,  0.18403347,  -0.019950021,  -0.26899615,
  -0.71906054,  -0.0561269,  0.2702874,  0.1253029,  -0.20300604,  -0.7581473,  -0.021677563,  0.3348794,  0.23700692,  -0.2626624,
  0.048607413,  -0.14687736,  -0.1958318,  -0.16063637,  -0.1794151,  0.13512059,  0.091765694,  -0.61566675,  -0.39323416,  -0.123603955,
  0.0971518,  -0.16594797,  -0.9809199,  -0.24823621,  0.061860397,  0.027971463,  -0.16753213,  -0.5644399,  -0.0069596744,  0.2498006,
  0.14108054,  0.050751016,  -0.35627586,  -0.06774822,  0.035859656,  0.1239474,  0.12555201,  -0.14215198,  -0.18062341,  -0.06288958,
  0.19900492,  0.1067711,  -0.52996266,  -0.055904772,  0.2688741,  0.16647847,  0.08100062,  -0.5283281,  -0.08799621,  0.028929066,
  0.15213674,  0.019893354,  -0.3065388,  -0.15871482,  0.037327453,  0.1518257,  -0.033068933,  -0.072019234,  -0.13411497,  0.20674638,
  0.2687558,  0.20032686,  0.3219327,  0.2864253,  0.20133698,  -0.22068661,  0.07726809,  0.25188187,  0.3530434,  -0.065885276,
  -0.20077288,  0.03745579,  0.01134027,  -0.05775848,  -0.057848793,  -0.050942212,  -0.1996985,  -0.17689514,  0.21970917,  0.22385402,
  -0.003744397,  0.1516469,  0.18832392,  0.21816267,  0.05807378,  -0.12745392,  -0.0062450846,  -0.0488511,  -0.0074016275,  -0.001794449,
  -0.22063516,  -0.100475654,  -0.4224666,  -0.2869502,  0.115362406,  -0.28367612,  -0.22688615,  -0.099653594,  -0.12793785,  -0.33166766,
  0.15546213,  0.11625222,  0.3271032,  0.18842067,  -0.03696159,  0.2367155,  0.20444864,  0.08563806,  -0.09231221,  -0.08692112,
  0.053012088,  0.09459198,  0.16036296,  0.10991211,  -0.32260236,  0.07472132,  0.02113658,  -0.26697665,  -0.25968155,  -0.30046868,
  0.034106944,  -0.27067906,  -0.3148818,  -0.1740976,  -0.374099,  -0.13755132,  -0.035018567,  -0.067681774,  -0.18258248,  -0.17720559,
  0.17248532,  0.18688779,  -0.018818932,  -0.14317302,  -0.22354764,  -0.0816955,  0.0022730369,  -0.0752838,  -0.029878315,  -0.04372581,
  -0.15050833,  -0.023946859,  -0.16803512,  -0.10074994,  0.13332094,  -0.08705727,  0.08580589,  -0.014962849,  -0.16056307,  0.016961886,
  0.09040196,  0.11017571,  0.004909548,  -0.021965975,  0.032251015,  -0.08764123,  -0.18909863,  -0.018621553,  0.10746697,  -0.110845834,
  -0.048573755,  -0.47493598,  -0.47426608,  -0.15030603,  0.06339734,  -0.09875413,  -0.40584522,  -0.13583542,  0.0586538,  0.22740178,
  0.13302381,  -0.07651387,  -0.16085194,  -0.12327685,  0.060997114,  0.11686343,  0.058037505,  -0.07624686,  -0.21336123,  -0.012690971,
  -0.18246299,  -0.1921789,  -0.3015339,  -0.27652395,  0.032980014,  0.14694469,  -0.18431982,  0.1850001,  0.28408113,  0.26097026,
  -0.05678358,  -0.24796107,  0.10960492,  0.056734327,  -0.17968138,  0.047602955,  0.24108492,  0.39842674,  0.2037858,  0.05524106,
  0.20497526,  0.37459168,  0.4769923,  0.0942557,  -0.15611963,  0.013638983,  0.1258578,  0.1362689,  0.057857912,  -0.017837172,
  0.069245376,  -0.10973659,  0.03519683,  0.03607114,  0.09281105,  0.17608972,  0.10596722,  0.1491065,  0.32964438,  0.2647609,
  -0.14259371,  -0.09356906,  0.0063855494,  -0.25466704,  -0.27132666,  0.13430007,  -0.1328959,  -0.21659116,  -0.22939652,  0.073377565,
  0.09903255,  0.098509885,  -0.04988377,  -0.06655839,  -0.11611311,  -0.118039615,  -0.3235464,  -0.1390111,  -0.30839995,  -0.43771935,
  -0.7109691,  -0.38710767,  -0.29636234,  -0.45788258,  -0.4990977,  0.09195117,  0.026046582,  0.09716705,  0.25375947,  0.23736893,
  0.21638513,  0.14905939,  0.257143,  0.18765731,  0.33411252,  0.118895166,  0.09386535,  0.10606595,  0.058412667,  0.27804205,
  -0.3592242,  -0.12857176,  -0.016415112,  -0.0069563026,  0.09340055,  -0.53366077,  -0.38382602,  -0.25242925,  -0.08940293,  0.06747931,
  -0.01140466,  -0.073491044,  0.10409318,  0.2186067,  0.027857624,  0.27152708,  0.21924445,  0.09746825,  0.021040557,  -0.15088278,
  0.24504402,  -0.006578678,  -0.25660595,  -0.20083138,  -0.20584458,  0.041807022,  -0.014574927,  0.0788159,  -0.21783164,  -0.19148295,
  -0.45204827,  -0.49122968,  -0.46076334,  -0.6601372,  -0.44553337,  -0.4662747,  -0.3063061,  -0.34025127,  -0.2750152,  -0.07030101,
  -0.14152816,  -0.01081138,  0.010313361,  0.043023705,  0.11021277,  0.016633902,  0.078013614,  0.058700986,  0.039984383,  0.10077602,
  -0.03927744,  0.08129253,  0.013702725,  0.11187532,  0.104995325,  0.29373637,  0.287497,  0.10052314,  0.21559902,  0.28533375,
  0.16270576,  0.10168375,  -0.005060719,  -0.009458832,  0.0683062,  -0.20399003,  -0.22099672,  -0.100359716,  0.16002215,  0.18647425,
  -0.2104553,  -0.24488649,  0.0063872207,  0.04170241,  -0.07511707,  0.092878334,  0.044218753,  0.0025407195,  0.028209448,  0.16719472,
  0.2972995,  0.33285832,  0.3956414,  0.07883351,  0.26159272,  -0.35806122,  -0.6193238,  -0.16925357,  -0.116656624,  0.083481774,
  0.11889743,  0.19351909,  0.06910185,  0.23450646,  0.17515554,  0.08178449,  0.13505596,  0.06212236,  -0.094343714,  0.004620238,

};
static const int CONV2_WEIGHT_FP32_SHAPE[] = { 16, 6, 5, 5 };

static const float FC1_BIAS_FP32_DATA[120] = {
  0.13398708,  0.02236585,  -0.06556624,  -0.15441439,  -0.059503,  -0.10841172,  -0.0059611453,  -0.06045068,  0.21719894,  0.021583311,
  0.0046567805,  0.054343514,  0.08292372,  0.049392868,  -0.093574114,  0.27478927,  0.009320594,  0.07042702,  -0.09909246,  0.23587064,
  -0.0842205,  0.06786987,  0.10357919,  -0.124006346,  0.056642126,  -0.101736724,  -0.021848055,  -0.04211669,  -0.23968121,  -0.028942477,
  -0.096917756,  0.009466804,  -0.049464528,  0.09776674,  0.18919891,  0.14647612,  -0.122883044,  -0.06770675,  -0.14996673,  -0.031869654,
  0.023226606,  0.11090394,  0.19416247,  0.060620464,  0.01791471,  0.0032183407,  0.07850407,  -0.053473722,  0.09243664,  -0.1361151,
  0.06648572,  0.17152138,  -0.0715677,  -0.0523288,  -0.070894115,  -0.07105013,  -0.21742329,  -0.004740837,  -0.01997235,  0.31764215,
  -0.075201474,  -0.11263218,  -0.08351968,  0.018914223,  -0.08088416,  0.052346945,  0.04516482,  0.011907044,  0.057641506,  -0.09148766,
  -0.03499043,  -0.08648116,  -0.2606992,  0.022699676,  -0.023109037,  -0.085479334,  0.19920154,  0.026368191,  -0.06825534,  0.1702116,
  -0.09990627,  0.0008156291,  -0.12863082,  -0.08361177,  -0.08422993,  -0.0059224227,  0.16748363,  -0.10269482,  0.025241,  -0.18603337,
  -0.030376798,  0.06660935,  -0.041328557,  -0.11838104,  0.21686015,  0.002174019,  0.016051937,  -0.07311866,  0.07423858,  0.045711704,
  0.07073532,  0.12492802,  0.087602675,  0.11179761,  -0.18435507,  0.14703707,  0.032402504,  0.054234464,  -0.034977112,  -0.00016570483,
  0.107208535,  -0.09669173,  -0.019921703,  0.10302818,  -0.07348981,  0.1199331,  0.108388,  -0.0941825,  0.023506898,  -0.017903723,

};
static const int FC1_BIAS_FP32_SHAPE[] = { 120 };

static const float FC1_WEIGHT_FP32_DATA[30720] = {
  -0.30006805,  -0.36476365,  -0.3470451,  -0.07268707,  0.057313323,  0.014125707,  0.04263412,  0.12404349,  -0.010089183,  0.07132258,
  0.2371519,  0.044194832,  0.16894464,  -0.092298225,  -0.05546785,  0.030567503,  -0.22530088,  0.0066875764,  0.06476721,  0.30939057,
  0.018566363,  0.18298973,  0.09603837,  0.16235393,  0.056015998,  0.13341409,  0.27799994,  0.16911648,  -0.06145586,  0.1433366,
  0.111774586,  0.04382918,  0.0052144234,  -0.26802012,  -0.23159312,  -0.5697935,  -0.0227005,  -0.08031138,  -0.06289645,  -0.25734517,
  0.06941938,  0.14374007,  0.028950782,  -0.03683045,  0.14556196,  0.12944168,  0.035420917,  0.058716733,  -0.38317826,  -0.88476473,
  -0.742251,  -0.24207118,  -0.44133422,  -0.3320919,  -0.35596436,  -0.27225336,  0.14811519,  0.1409243,  0.051748097,  -0.0011641084,
  0.21803993,  0.11046991,  0.12178722,  -0.059154216,  -0.3408506,  -0.5672524,  -0.16382354,  0.6030558,  -0.049383953,  0.020290306,
  0.19254953,  0.4593073,  0.004301319,  -0.027544782,  0.21409303,  -0.15837342,  0.075254716,  0.18702511,  -0.2916726,  -0.2955225,
  0.1185586,  -0.366407,  -0.15234129,  -0.18750195,  -0.051072977,  -0.69680727,  -0.01008598,  0.15717101,  -0.18014362,  -0.0586906,
  -0.029784475,  -0.079576336,  0.00064902555,  0.2093197,  0.06594939,  -0.016768107,  0.12611401,  0.16963589,  0.1601442,  -0.28599918,
  0.28763312,  -0.18541406,  -0.1187877,  0.0015572153,  0.12745062,  -0.07346475,  -0.24013108,  -0.22983521,  -0.038531154,  0.04645687,
  0.102365986,  -0.015841074,  0.045043256,  0.08652767,  0.01984638,  -0.08841708,  -0.034084328,  -0.048543017,  0.30008116,  -0.16636157,
  0.19676368,  -0.101391904,  -0.09811533,  -0.17475893,  0.034079194,  -0.08988436,  -0.09400404,  -0.04468072,  0.07816261,  0.41146842,
  0.361624,  -0.018092202,  -0.035845067,  0.13031077,  -0.09154394,  0.2063538,  0.047038294,  0.19931373,  0.013312754,  0.090322435,
  -0.3938989,  0.098015025,  -0.07436334,  -0.013357251,  0.0739442,  -0.16748466,  -0.1375257,  0.27122748,  0.12752518,  -0.03991607,
  -0.14836246,  -0.48532796,  0.05040113,  0.012109223,  -0.027639939,  -0.1130903,  0.12419588,  0.24915938,  0.07085183,  0.307115,
  -0.13541299,  0.06950353,  0.091803744,  0.06948534,  0.10660411,  -0.26434204,  -0.109081425,  0.17782019,  0.012307753,  -0.1588426,
  -0.12096073,  -0.25319654,  0.05499313,  -0.10819412,  -0.02515607,  -0.10742138,  0.08435278,  -0.6198509,  0.21416448,  0.32817277,
  -0.31483564,  -0.15379831,  -0.01625807,  0.22583577,  -0.051042877,  0.26896402,  -0.055360265,  0.11817511,  0.15515587,  0.16475785,
  -0.021109562,  -0.29891446,  -0.1790582,  -0.2695966,  -0.40759113,  -0.12940814,  -0.41298792,  -0.03361683,  0.16635035,  -0.12786965,
  0.08008243,  0.2842078,  -0.05266164,  -0.020004597,  0.11256881,  0.0029258088,  -0.010888726,  0.006928718,  -0.0026356895,  0.024153553,
  -0.0060392907,  0.28088987,  0.102861986,  0.18269801,  -0.012229888,  -0.0040261494,  -0.115364045,  0.118680544,  0.01783544,  -0.031563465,
  0.20167653,  0.23607886,  0.18420151,  -0.12144807,  -0.40523115,  -0.07567332,  0.13991483,  -0.0070845243,  -0.3421199,  -0.15249574,
  -0.14046875,  0.33994025,  0.13834675,  0.06274006,  -0.047997028,  0.028437935,  0.10127189,  0.13982627,  0.1373821,  -0.09506144,
  -0.1555758,  0.03942744,  0.023542875,  0.10077176,  0.14221627,  -0.24538855,  0.004580986,  -0.22437826,  -0.42661133,  -0.14605384,
  -0.3184438,  -0.22086352,  0.03673524,  0.0060344776,  -0.34512895,  -0.101832636,  -0.0518518,  -0.1396033,  -0.024659446,  -0.006480134,
  0.13444744,  0.06060614,  0.1916994,  0.19467351,  -0.012525722,  0.03601185,  0.08495513,  -0.0725327,  -0.09851845,  -0.202557,
  -0.28296214,  -0.3926017,  0.20421976,  0.025363514,  0.15996952,  -0.030524665,  0.012367812,  0.2874375,  0.2603151,  0.18999252,
  -0.20591418,  0.11683998,  0.31055185,  0.47029686,  -0.43864468,  -0.12573949,  0.20282939,  0.399661,  -0.020308914,  0.06302312,
  0.028564595,  -0.13840282,  0.10860192,  0.038187012,  0.12234938,  0.12856872,  0.065761566,  -0.21269825,  0.019600334,  -0.053063873,
  0.01798935,  -0.103877105,  0.12834154,  0.008336453,  -0.11585735,  0.04144809,  0.0681033,  0.11968741,  -0.22778577,  -0.0672376,
  0.093840286,  -0.047991008,  -0.049898908,  -0.12443286,  0.0353954,  -0.12188797,  0.17068467,  0.07434748,  0.047135137,  -0.17064314,
  0.19161591,  0.06901055,  0.06232934,  0.018971274,  -0.10443216,  0.07015038,  0.26296607,  -0.17790654,  -0.251252,  0.103339225,
  -0.055680547,  -0.18719104,  0.024978578,  0.18453299,  -0.15949632,  -0.022044802,  -0.3399781,  0.079969026,  -0.039939184,  -0.09640956,
  0.030725293,  -0.059307702,  -0.15019645,  -0.10593853,  0.04946467,  0.15648232,  0.14930822,  -0.15238293,  -0.046592806,  0.08716036,
  0.18724,  0.14510927,  0.15958486,  -0.02491034,  0.04261949,  0.08673414,  0.26817027,  -0.10745332,  0.10288229,  0.37695676,
  -0.14906816,  -0.07524038,  -0.04665287,  -0.2878589,  0.3165239,  0.022190286,  -0.122482054,  -0.21292791,  -0.05319497,  -0.005194636,
  0.24489354,  0.18632567,  -0.14462315,  -0.18676318,  0.22211932,  0.014338542,  -0.09303386,  -0.08879961,  -0.29158282,  -0.10326402,
  -0.04549928,  -0.1323701,  -0.40943685,  -0.16272826,  0.22627558,  0.10126914,  0.10699355,  -0.0038440349,  0.3247342,  0.17414515,
  0.03021332,  0.106412865,  0.4294999,  -0.083908096,  0.002174592,  0.21424168,  -0.015859073,  -0.06568856,  0.08252375,  0.09722913,
  0.18503268,  -0.17862862,  -0.2904888,  -0.047287688,  0.10745716,  0.14427407,  -0.033109486,  -0.05267224,  0.25402743,  0.16060235,
  0.29626295,  0.32146975,  -0.18245658,  0.03918294,  -0.005225635,  -0.08779963,  0.0016732331,  0.00996459,  0.08611148,  0.17039934,
  -0.18368758,  -0.35502127,  0.012518377,  0.15174569,  -0.18982752,  -0.17595975,  -0.18771824,  -0.25197467,  0.030790603,  -0.19699608,
  -0.08605946,  -0.35011408,  -0.12488255,  -0.08766641,  0.2971043,  -0.17305833,  -0.03047319,  0.006926945,  -0.15072596,  -0.15532273,
  -0.09932145,  0.063562736,  -0.22222097,  -0.113343164,  0.15576646,  0.1351463,  0.13071513,  -0.0768435,  -0.1451686,  0.1529513,
  0.15847912,  0.18353611,  -0.07750201,  0.016941518,  -0.0388318,  0.09424229,  0.14389333,  0.099767126,  -0.57944965,  -0.22800551,
  0.14369147,  0.0014418007,  -0.074331135,  0.044360965,  0.18101515,  0.121613055,  -0.19013745,  -0.20018598,  0.049609452,  0.08506727,
  0.046735357,  -0.019189073,  -0.16189915,  -0.30876768,  0.21431024,  0.008170193,  0.15327974,  0.096223846,  0.21514033,  0.07151386,
  0.19641405,  -0.10212384,  0.35578266,  0.18988597,  0.22261107,  -0.24966606,  -0.08220586,  -0.32448465,  0.056244384,  -0.15310195,
  -0.055546626,  -0.07260701,  -0.23098487,  -0.115438856,  -0.09365099,  0.14429715,  -0.2098696,  -0.05809726,  -0.036532342,  0.118903115,
  -0.39852345,  -0.09752134,  -0.1788747,  0.2286375,  -0.38701883,  -0.04118513,  -0.063062064,  -0.33464938,  -0.010750255,  0.27534524,
  0.16533934,  -0.4089784,  -0.04836836,  -0.05825003,  0.024659067,  -0.0021501833,  -0.025227182,  -0.029574385,  -0.07035844,  0.040482428,
  0.0022167943,  -0.042645473,  0.015181902,  0.014733969,  -0.042616144,  -0.041265182,  0.03345178,  -0.04027687,  0.031328965,  0.03825916,
  -0.00064005953,  0.03130734,  -0.07043912,  0.037844613,  -0.0212003,  0.028208826,  -0.025979975,  -0.03435226,  -0.009484968,  0.011094804,
  -0.064964466,  0.00857688,  0.04227047,  0.013836377,  -0.015826015,  -0.036546335,  -0.0013046048,  0.027385915,  -0.04875781,  0.008720194,
  0.0074452483,  0.026128674,  -0.019892057,  0.04970181,  0.002698347,  -0.022408124,  -0.041289724,  -0.019241888,  0.03105792,  0.017883332,
  -0.03043409,  -0.003361057,  -0.005951802,  -0.024745952,  -0.0081743505,  -0.060399078,  -0.04663853,  0.043801915,  0.023758722,  -0.00011579369,
  -0.061570607,  0.0508133,  0.04030759,  0.014383845,  -0.006607567,  -0.037907794,  -0.030817563,  -0.042270884,  -0.07258056,  -0.014471862,
  0.034696,  -0.07185543,  0.014272099,  0.025003547,  -0.042655203,  -0.04111775,  0.014032847,  -0.06605412,  -0.021813057,  0.01958129,
  0.0027043894,  0.03432095,  -0.06840935,  -0.060726307,  -0.034913123,  -0.029647792,  -0.07752546,  -0.07289066,  1.5435218e-05,  0.01223829,
  -0.047920458,  -0.04005831,  -0.016274745,  -0.05718677,  -0.009518567,  -0.05021533,  0.02635463,  -0.030206578,  -0.05223275,  0.028152764,
  -0.033779383,  0.0016625752,  -0.03971637,  -0.010783156,  -0.018462595,  -0.032420423,  -0.07026644,  -0.064997636,  0.022676121,  0.035341416,
  0.03608268,  -0.010510407,  0.02205985,  0.04409896,  -0.044112768,  -0.05749825,  -0.06382664,  -0.044652496,  0.011309004,  -0.023758985,
  -0.06876681,  0.0218977,  -0.044177845,  0.028370429,  0.028772997,  -0.040309995,  0.02686552,  -0.0310863,  -0.01993901,  -0.04282227,
  0.009232156,  0.052919958,  -0.0763452,  -0.014892148,  0.050994657,  -0.039214984,  -0.028338142,  -0.006772713,  -0.03729171,  -0.03121109,
  0.0058570295,  0.019950425,  -0.008809335,  -0.007828736,  0.0012360297,  -0.00932589,  -0.008513851,  0.019445406,  -0.012000344,  0.0427924,
  0.03824233,  0.021144694,  -0.044592325,  -0.011211108,  0.017639222,  0.035603933,  -0.042535957,  0.035907306,  -0.015039156,  -0.04505542,
  0.03706087,  -0.05214134,  -0.01733955,  0.0063664503,  -0.042222906,  -0.048196226,  -0.0086527,  -0.066336505,  -0.02862416,  0.020556375,
  0.031822734,  -0.051896308,  0.0067153187,  0.0029163714,  0.00833857,  -0.008206179,  0.0065059704,  -0.06269224,  -0.005801134,  -0.024000404,
  -0.008506436,  0.0358483,  -0.011224339,  0.023115383,  0.044234052,  0.016742008,  0.032957494,  -0.004863463,  -0.024124784,  -0.039929874,
  0.029691625,  -0.023614332,  -0.068139866,  -0.01440973,  -0.002947717,  -0.010588885,  -0.047134764,  0.003856172,  0.022057902,  0.026384884,
  -0.01906432,  0.002994788,  -0.022745062,  0.016784739,  -0.036836866,  -0.038245406,  -0.04099979,  -0.027425043,  -0.011400572,  -0.036958586,
  -0.06320524,  -0.06476593,  0.009309134,  -0.019306358,  0.016767,  -0.05927997,  -0.024747021,  -0.06307923,  0.01054382,  -0.01637728,
  -0.04303775,  -0.009847032,  -0.030902162,  -0.068538964,  0.034082282,  -0.0073397835,  0.040469684,  -0.034545448,  -0.041496377,  -0.0207895,
  -0.0010811994,  0.02808989,  -0.015479944,  0.038968462,  -0.03338156,  -0.069786355,  -0.053212237,  -0.022220418,  -0.025747817,  -0.031358045,
  -0.031355698,  0.03161871,  0.034451153,  0.0006547411,  0.0017572711,  -0.035086665,  0.0122428555,  -0.024736201,  0.038489737,  -0.067916155,
  -0.009058486,  -0.048261866,  -0.06984657,  -0.06617241,  -0.037134,  0.029626712,  -0.028363615,  0.04963821,  0.30621335,  -0.001401146,
  -0.39787093,  -0.40316635,  -0.05454677,  0.06126098,  0.018135652,  0.046011508,  -0.23818408,  -0.046746023,  -0.033724267,  0.025299085,
  0.14373617,  -0.021877658,  0.1056768,  0.29688326,  0.07467018,  -0.09019647,  0.009171553,  0.028768314,  -0.24315597,  -0.05416667,
  0.110615075,  0.073731735,  -0.2892687,  0.044477303,  0.09650401,  -0.034692224,  -0.117003866,  -0.22838408,  0.22977877,  0.38866025,
  0.18230447,  -0.14864777,  0.0073342435,  -0.2532112,  0.004940092,  -0.07897495,  -0.023215428,  -0.51327676,  -0.4366643,  -0.15284221,
  -0.008435253,  0.13455787,  0.21055667,  0.018311692,  0.14951581,  0.044705898,  0.105480924,  0.2002226,  0.16154206,  -0.06328604,
  0.20706737,  -0.21379423,  -0.36394626,  -0.7436119,  0.025218586,  -0.10000543,  -0.0064097513,  0.00019258345,  -0.022400146,  0.057996042,
  -0.11420217,  0.10654735,  -0.016389536,  0.25501376,  -0.025114883,  0.0981753,  -0.15055092,  0.11462905,  0.18030883,  0.029827094,
  -0.21789151,  0.12888665,  -0.25078076,  -0.047584943,  0.1507106,  0.14712827,  -0.17940831,  0.01992778,  -0.20650168,  -0.033711173,
  -0.07130989,  -0.123470426,  -0.06345156,  -0.08122348,  -0.2288472,  -0.4007474,  -0.025514785,  0.25934955,  0.13190103,  0.050855283,
  -0.12611602,  0.060239524,  -0.26815882,  -0.029905993,  0.25762016,  -0.49652675,  0.22559084,  0.12844905,  -0.078015275,  -0.16772956,
  -0.00838901,  -0.35642284,  -0.6749055,  -0.2938917,  -0.072201885,  -0.1360961,  -0.31887686,  0.21483201,  -0.032564543,  0.15031171,
  0.1897462,  -0.27386788,  -0.023446398,  -0.114118375,  -0.27650502,  -0.05968035,  -0.08492637,  0.054462038,  -0.19597496,  0.07427021,
  -0.016179426,  0.2494766,  -0.42050552,  0.010038814,  0.07873841,  -0.18708697,  -0.062126845,  -0.3039938,  0.18576632,  -0.19212876,
  0.111370474,  0.07022895,  -0.05098971,  0.029782014,  0.12752225,  -0.12095093,  -0.087359674,  0.26901072,  -0.056543045,  -0.0147380605,
  -0.0895275,  0.27255073,  -0.006691669,  -0.27847576,  -0.36722142,  -0.17112061,  0.12474483,  0.2767553,  0.019115316,  0.038343124,
  -0.07713344,  -0.026130386,  0.16180782,  -0.29636943,  -0.32536614,  -0.10762903,  0.046886735,  0.04637021,  -0.101828575,  0.017758043,
  -0.20782042,  0.13213976,  -0.4164863,  -0.06304927,  -0.010266701,  -0.08378904,  -0.08047932,  -0.083403036,  -0.27687714,  0.14190204,
  -0.1101678,  0.11819886,  0.095295236,  -0.04235391,  0.011104373,  0.06872656,  0.025806876,  -0.08644084,  0.18085167,  -0.1457824,
  -0.2746595,  0.057933386,  -0.0015304727,  -0.20728469,  0.34889603,  0.039819248,  0.09676712,  0.11734508,  -0.10067639,  -0.15275878,
  -0.16654323,  0.08227262,  -0.12227512,  0.16641127,  0.11542861,  -0.48260108,  -0.29180974,  0.022207113,  0.33403024,  0.06732481,
  -0.11927237,  0.11823074,  0.13643554,  -0.15451182,  -0.27125874,  -0.051185776,  0.24987826,  0.14712566,  0.047940943,  0.07648217,
  0.2690178,  -0.17061041,  0.27676117,  0.025655175,  -0.3212059,  -0.11480678,  -0.043714978,  -0.028849559,  -0.35911435,  -0.49085188,
  0.031066176,  0.28313088,  0.089994766,  -0.083615415,  -0.022197815,  0.12846859,  -0.015404464,  -0.04909,  -0.067946404,  -0.054148592,
  -0.03072575,  0.16491908,  0.12725227,  0.44617876,  -0.17912972,  -0.05339588,  0.0690136,  0.32182497,  0.08156185,  0.30226588,
  0.05895135,  -0.08039178,  -0.24407257,  0.05640584,  0.08697846,  0.21466483,  0.10323478,  -0.08409882,  -0.1763455,  -0.026575956,
  0.13073166,  0.08451627,  -0.10037383,  -0.017883182,  0.059925336,  -0.12159347,  -0.4244967,  -0.2519976,  0.08333365,  0.12839848,
  -0.050736908,  0.0787378,  -0.11349159,  -0.00035940364,  0.06152805,  0.09858167,  -0.08062916,  0.19281295,  0.1391128,  -0.110622086,
  -0.25777978,  -0.1705177,  -0.07252401,  0.053873084,  -0.13606463,  0.011933256,  0.0154248215,  0.24263765,  -0.12241564,  0.16697393,
  -0.183968,  -0.028059307,  0.057425648,  0.03194277,  -0.05902844,  -0.080372214,  0.026725052,  -0.36496016,  -0.58486307,  -0.25092494,
  -0.14770785,  -0.23821655,  0.058738917,  0.017273847,  -0.26632836,  -0.07447934,  -0.0431368,  -0.03668968,  0.0838736,  0.073957495,
  0.08473592,  0.15835267,  -0.019101277,  -0.33451706,  -0.42921823,  -0.16488355,  0.12198445,  0.11009458,  -0.0061360155,  -0.09231642,
  -0.0763967,  0.09175651,  0.047020335,  -0.012117492,  -0.07147114,  0.02647132,  0.17545044,  0.025086299,  -0.10668296,  -0.14385964,
  -0.23893772,  0.049809624,  0.03253948,  -0.03967294,  0.3493817,  0.0174087,  -0.29413104,  0.08835383,  0.09877478,  0.063593894,
  -0.06754724,  0.2635715,  -0.037506476,  -0.17551282,  -0.4803758,  -0.2530335,  -0.4547393,  -0.08121307,  -0.14465614,  -0.16785152,
  -0.31038764,  -0.11072801,  -0.10947279,  0.10603886,  0.08951217,  0.15490839,  0.015591723,  0.023573324,  0.0962815,  0.04100086,
  -0.19481671,  0.10317419,  -0.13138337,  0.13774826,  0.030367346,  0.3456196,  0.06272757,  -0.042889837,  0.029695744,  0.008180657,
  0.025104256,  0.088177636,  -0.023159921,  0.037078843,  -0.022543635,  -0.10865611,  -0.11172011,  -0.08957089,  0.03466777,  0.0351531,
  0.0042189253,  -0.14035979,  -0.05606075,  0.04431123,  0.08612231,  0.23483929,  0.20567004,  0.22794786,  0.083641246,  0.016222326,
  -0.15205874,  -0.12971725,  0.17993128,  0.43032593,  0.27136347,  -0.09249674,  0.028163845,  0.02372857,  -0.06449844,  -0.14064807,
  0.020218972,  0.09714736,  -0.0593708,  -0.16044308,  -0.0076422472,  0.19965255,  -0.16136815,  -0.36774775,  -0.5020728,  -0.19809265,
  -0.036364038,  0.14331506,  -0.002173567,  -0.0069120517,  -0.014257024,  -0.14644682,  0.07020222,  0.0025754715,  0.11776946,  -0.0070240335,
  0.0955291,  -0.07787466,  -0.006696208,  -0.3455957,  0.072833836,  -0.103631385,  -0.021681888,  -0.08309248,  -0.079595394,  0.09633236,
  0.020608585,  0.23232141,  0.029273244,  0.12342048,  0.10384543,  -0.081918575,  0.102633975,  0.17904216,  -0.029241372,  0.10760188,
  -0.1361966,  0.10605544,  0.035385583,  -0.046472967,  -0.014094433,  0.18701746,  0.24018806,  0.16630334,  -0.10720387,  0.15478238,
  0.034791842,  0.1262958,  -0.06148278,  0.19364755,  0.32590318,  0.14317979,  0.15444164,  -0.06806865,  -0.107725896,  0.016792372,
  -0.09466165,  -0.28539068,  0.1540033,  -0.11147,  -0.08049111,  -0.16297151,  0.057997238,  0.011563126,  0.012749596,  0.17459601,
  0.18681808,  -0.069901295,  -0.09374485,  -0.074043445,  0.24975537,  0.237294,  0.10271592,  0.07710767,  0.090577066,  -0.06313087,
  0.12937102,  0.046685793,  0.03927541,  0.033910107,  -0.09303091,  0.026341535,  0.054482095,  -0.41172084,  -0.05239753,  -0.18723279,
  0.16527858,  0.2775856,  -0.2373275,  -0.06667913,  -0.11523443,  0.078746036,  -0.044166345,  -0.038041312,  0.15824151,  -0.10681817,
  -0.10011055,  0.047086686,  -0.04466594,  0.198725,  0.021692555,  -0.16406932,  0.10727531,  0.40984443,  0.052616477,  0.15684053,
  0.1140297,  0.14945538,  -0.18714014,  0.2237313,  -0.04062036,  0.30162874,  -0.07392256,  0.22125074,  0.056563947,  0.19353433,
  -0.34500325,  -0.00318825,  0.27072597,  -0.06947237,  -0.15910871,  0.075371884,  0.13190925,  -0.17484763,  0.17618263,  0.28185803,
  -0.05845612,  -0.5261346,  0.043221135,  -0.00023750844,  -0.21756329,  0.15399875,  0.12070675,  0.10655892,  0.05661645,  -0.35968742,
  0.11102209,  -0.026208272,  -0.19456123,  -0.20452738,  0.08351969,  -0.13889408,  -0.27499592,  -0.09004631,  -0.0034425803,  -0.087760516,
  -0.15597947,  -0.07513651,  -0.52150804,  0.0045363996,  -0.057668924,  0.2557268,  0.021162163,  0.04786515,  -0.0360711,  -0.10907569,
  0.30155614,  0.15332161,  0.0803275,  -0.1667118,  0.036619756,  -0.10779397,  -0.06365556,  0.33822793,  -0.036153402,  0.009543106,
  -0.13751827,  0.04303251,  -0.2212293,  0.07170853,  -0.04077243,  -0.039583325,  0.07533642,  0.075766884,  0.033449627,  -0.37397754,
  0.10690375,  0.1776155,  -0.2515833,  -0.38262996,  0.13069573,  0.25638023,  0.300798,  -0.36323425,  0.12305635,  -0.0299587,
  -0.30480593,  -0.37697068,  -0.06263505,  -0.02368315,  0.21763025,  0.24496633,  -0.06852706,  -0.18444762,  0.2002793,  0.16284168,
  0.004484035,  -0.031060876,  -0.1945459,  0.00048080774,  0.20721838,  0.12517613,  -0.37967286,  -0.58312464,  0.03838188,  0.17622545,
  -0.03932337,  0.13878739,  -0.12188118,  0.0041373326,  0.003941714,  0.22801656,  0.0546606,  0.110600464,  -0.11054636,  0.15401702,
  -0.09195627,  0.012451464,  0.20080519,  0.12482083,  -0.2279944,  -0.018021787,  -0.048130114,  -0.52044106,  -0.08058404,  0.18443698,
  -0.009731806,  -0.17643018,  -0.026118733,  -0.22478339,  0.014341987,  -0.032630052,  0.002142852,  0.20892657,  -0.12160377,  0.09637613,
  -0.16663006,  0.020580204,  -0.055879854,  0.039202407,  -0.018490948,  0.1522296,  -0.21002397,  0.2393927,  -0.2950449,  -0.3473829,
  -0.5257014,  0.0409223,  -0.025546102,  -0.0679621,  0.06874028,  0.10937332,  -0.017219448,  -0.4237657,  0.19874528,  0.05285669,
  0.22989115,  -0.10849151,  0.20192684,  0.03359303,  -0.046267796,  0.07228053,  0.22826244,  -0.38871843,  -0.17848869,  0.04529053,
  0.11342377,  0.21195522,  0.06851356,  -0.066771224,  0.052032154,  -0.31051105,  -0.20822796,  -0.13060668,  0.014291831,  0.13105012,
  -0.05191818,  -0.039388843,  0.08021714,  0.06630726,  -0.45490694,  -0.2955288,  0.17967165,  -0.10653951,  -0.06484851,  0.054937597,
  -0.11590683,  -0.20500688,  -0.0031715257,  0.21254998,  0.0575147,  0.061482612,  0.1318116,  -0.054544095,  0.06672365,  -0.5204097,
  0.13172974,  -0.0036522928,  -0.38775796,  -0.14329478,  0.06165395,  0.11280931,  -0.085455924,  -0.10806929,  0.006732481,  0.01622314,
  0.099893354,  -0.23123656,  -0.119368136,  -0.3036651,  0.12914824,  0.18302602,  0.2759649,  0.11956999,  -0.19263348,  -0.06077621,
  0.057164665,  0.24466592,  -0.21439172,  -0.056822382,  -0.07906783,  0.29747725,  0.2510413,  0.14539295,  0.022618452,  -0.10477887,
  -0.24576445,  -0.19804114,  -0.16538802,  -0.35462806,  0.04469336,  0.0999876,  -0.093146786,  -0.17513123,  0.051223796,  -0.059402537,
  -0.28528538,  0.05169125,  -0.16862497,  -0.10810915,  0.4134911,  0.0965944,  -0.08340602,  -0.25452822,  0.19491874,  0.21996683,
  0.23067676,  -0.5771162,  0.11573561,  -0.047266126,  -0.2007463,  -0.2041841,  0.1558075,  -0.08855358,  -0.01141894,  0.12194794,
  0.017101634,  0.24435239,  0.08590725,  -0.10317977,  -0.48739418,  -0.1217861,  0.066469796,  -0.018289907,  -0.23879169,  0.110689275,
  0.0855273,  0.22061925,  0.012916581,  0.31063312,  0.011620724,  0.49408233,  -0.018257862,  0.010121176,  -0.037810717,  -0.025186896,
  -0.050610017,  -0.048817754,  -0.02252154,  -0.025164314,  0.040290557,  0.00967257,  -0.06000404,  0.0009506107,  -0.025955863,  -0.0027597642,
  -0.042110555,  0.047313794,  0.008101022,  -0.077774666,  -0.00654419,  0.018300803,  -0.073622994,  -0.047395177,  0.03247931,  0.010448153,
  0.033874325,  0.013472107,  -0.044682924,  -0.00642655,  -0.01746151,  0.033031948,  -0.009034751,  0.017877882,  0.056993566,  -0.06155707,
  0.019773869,  -0.062989235,  -0.057426162,  -0.05948165,  -0.05865676,  -0.047710914,  -0.08283948,  -0.012504408,  -0.07246831,  -0.051530164,
  0.040507104,  0.046187636,  -0.07107192,  0.042578816,  -0.017910426,  -0.06260568,  -0.006460287,  0.011747257,  0.009839106,  0.027059413,
  0.019516721,  -0.04947967,  -0.036517512,  -0.06925365,  -0.03511498,  0.031510465,  0.03531281,  0.0016409209,  0.026680578,  0.044782773,
  0.029403271,  -0.016658792,  0.011157865,  0.010521426,  0.0069633494,  -0.076762706,  -0.04454205,  0.0023746858,  0.03562941,  -0.083377495,
  0.035986945,  0.013029363,  -0.0032913834,  -0.04840349,  -0.07364255,  0.003601722,  -0.036160074,  -0.016102554,  -0.014194103,  -0.054897293,
  0.017446697,  -0.06463934,  -0.055573713,  0.012880077,  0.018043917,  0.0028042246,  -0.05586004,  -0.051880542,  -0.0025334724,  -0.08433854,
  0.019329127,  -0.041188538,  -0.006136136,  -0.02325179,  -0.032672424,  0.024403993,  -0.028886281,  -0.07979921,  -0.056349516,  -0.06522289,
  0.009037243,  -0.05668761,  0.01775202,  -0.026475115,  0.035598036,  -0.065300696,  -0.03436854,  0.03171965,  -0.028609088,  -0.042855233,
  0.0074842256,  -0.08679156,  0.030313566,  -0.024224639,  -0.03855617,  0.038200244,  -0.04811721,  -0.04422788,  -0.029702893,  -0.021486294,
  -0.064704835,  0.031849585,  -0.049095035,  -0.025870292,  -0.050227504,  0.04337863,  0.03042464,  -0.07716951,  -0.044298187,  -0.03416072,
  0.03382601,  -0.07404534,  -0.026912386,  0.03860304,  0.027798962,  0.032327764,  0.031464793,  -0.019542882,  -0.039181754,  0.0023362807,
  -0.019609204,  -0.04091583,  -0.0661361,  -0.06233356,  0.04015939,  -0.036503457,  -0.07318847,  -0.015001462,  0.025137253,  -0.07971918,
  -0.06851585,  -0.022445366,  0.008286507,  -0.08599453,  -0.034630667,  -0.013890783,  -0.052854087,  -0.034630306,  0.014259123,  -0.053691503,
  0.031535514,  0.0044212295,  -0.060688403,  -0.058416925,  0.029170105,  0.01686607,  0.0008851641,  -0.079953104,  -0.0052550533,  -0.02053738,
  0.001047693,  -0.015807845,  -0.08240785,  -0.06181745,  0.040082555,  -0.017017407,  0.0040735556,  0.015794437,  -0.0355941,  -0.0018332825,
  -0.009755271,  0.01570905,  0.036076486,  -0.07881849,  0.008591024,  -0.021949466,  -0.026742788,  -0.08393612,  -0.019800767,  -0.072749086,
  -0.051520683,  -0.016310787,  -0.022733953,  -0.03116438,  -0.017207524,  0.038198248,  -0.061676644,  -0.056396212,  -0.07282664,  -0.0022351395,
  -0.05137378,  -0.02792063,  -0.07584085,  -0.04495955,  0.026032027,  0.024441604,  0.031742066,  -0.07054626,  0.037776608,  -0.051017918,
  0.040090717,  -0.035510585,  -0.02396722,  -0.06356713,  -0.048496936,  0.005023401,  0.028349811,  -0.014377696,  0.024259344,  0.01900572,
  -0.07038537,  0.023348738,  0.031089447,  -0.006470868,  0.02130625,  -0.045777295,  -0.080166526,  -0.009189753,  0.022801114,  -0.009859943,
  0.036960497,  -0.054810915,  -0.049966965,  -0.044572525,  -0.05555019,  0.0116556045,  -0.04437867,  -0.009125402,  0.016520698,  -0.023177436,
  -0.00026234242,  0.0006194362,  -0.054211464,  0.015913917,  -0.049238626,  0.051593203,  0.015542269,  -0.0021969692,  -0.030324016,  -0.028743,
  -0.038446452,  0.039979327,  -0.044656992,  -0.031097114,  -0.02963599,  -0.0021901533,  -0.015589692,  -0.0077223266,  0.029556183,  -0.06349865,
  -0.057307333,  0.025918638,  0.020728353,  -0.027346961,  0.021811092,  -0.07089351,  0.02990286,  -0.06561471,  -0.0045667165,  0.041796274,
  -0.022469467,  -0.028179303,  0.023556579,  0.0247432,  0.02209885,  0.0038050802,  -0.0036242227,  -0.06528946,  0.04728331,  0.04396871,
  0.032634843,  0.027692571,  -0.026854202,  -0.047069836,  -0.026790364,  0.045087583,  0.040701363,  -0.071673065,  -0.010243647,  -0.02972865,
  0.042697616,  -0.063883945,  -0.06465522,  -0.07139483,  -0.010369755,  -0.0084638,  -0.002778034,  -0.06734728,  0.001958462,  0.008849393,
  0.048816938,  -0.045928203,  -0.023795716,  -0.06988407,  0.038190946,  0.0013978713,  -0.042209893,  0.046015907,  0.02331267,  -0.04767575,
  -0.067806765,  0.009441046,  -0.0294046,  -0.0009659741,  0.022358775,  0.03652223,  -0.04567923,  -6.8549816e-05,  -0.056073964,  0.014548299,
  -0.037831645,  -0.0721971,  -0.045164797,  -0.050620046,  -0.0056107156,  0.0037409065,  -0.06964607,  -0.043380838,  -0.033735696,  -0.0024638395,
  0.022494925,  -0.030051077,  -0.052687827,  0.005381894,  -0.065203115,  0.020904573,  -0.0010023436,  -0.017856741,  -0.06659164,  -0.0014613898,
  -0.07250183,  0.02613536,  0.011494329,  -0.01682517,  0.041901495,  -0.048447717,  0.0058256793,  -0.05528285,  0.020342695,  -0.015518626,
  0.017072277,  0.04116013,  -0.07342495,  -0.031633265,  0.0029487128,  -0.011867388,  0.027680751,  -0.014095079,  -0.07293121,  0.043005142,
  -0.044462748,  -0.06821031,  -0.06822263,  0.0030482993,  -0.06707574,  0.0082263155,  -0.019704249,  -0.07414879,  0.01155495,  -0.07533389,
  0.0026595215,  -0.062036324,  0.012885368,  0.018069733,  0.023608083,  -0.014834441,  0.020080876,  -0.013918518,  -0.02178538,  -0.058666028,
  -0.07374055,  0.0034566093,  0.0024950735,  0.008462886,  0.009486074,  -0.006476739,  0.01971766,  -0.007304795,  0.029211082,  -0.007026672,
  0.009276414,  0.022551885,  0.016777936,  -0.03883503,  -0.056718852,  -0.04955737,  -0.027318226,  -0.07107856,  0.0092466995,  -0.04110138,
  0.039156154,  -0.037845157,  0.0015839493,  0.0022339912,  -0.0452591,  -0.06663518,  -0.047183707,  0.009736582,  -0.048989996,  -0.06958472,
  0.03668149,  0.0008102745,  -0.05171945,  -0.06355566,  -0.06708097,  0.0012310403,  -0.059815876,  0.044134002,  -0.038318545,  0.006291328,
  -0.06609009,  -0.053448934,  0.042551484,  -0.06131125,  0.047637083,  -0.026645485,  -0.046272017,  0.04284282,  -0.032499887,  -0.029462324,
  0.015863003,  -0.002483325,  0.02294597,  -0.06609569,  0.044000596,  0.02760454,  -0.053337716,  -0.004675925,  -0.05641286,  -0.05500766,
  0.024957506,  -0.06620516,  -0.008079751,  -0.042910334,  -0.07173489,  0.00877485,  -0.03164209,  -0.042418543,  -0.030255312,  -0.0019977496,
  0.04334376,  -0.036358677,  -0.0123489695,  0.026421301,  -0.014785261,  -0.0019396713,  -0.05560943,  0.039512984,  0.008102619,  0.009098489,
  -0.054342967,  -0.046734564,  -0.043999024,  0.0312233,  0.032016553,  -0.07350376,  -0.029914094,  0.02154627,  0.0059453915,  -0.008381218,
  -0.06484557,  -0.05956002,  -0.027679646,  -0.06516136,  -0.024961488,  0.024530254,  -0.03799705,  -0.03272284,  0.03912967,  -0.020747727,
  -0.0234771,  -0.03249765,  -0.012721259,  0.030155737,  -0.04122251,  -0.03987039,  0.041644078,  -0.030316966,  -0.07258084,  0.010624938,
  0.01900134,  -0.05535681,  -0.07300935,  -0.018431604,  0.018733323,  -0.063910455,  0.028470421,  0.0036674803,  0.024127746,  -0.021164834,
  -0.061290894,  -0.023009084,  -0.021658313,  -0.048572004,  -0.05695056,  -0.014991017,  -0.045899335,  -0.06221343,  -0.10694335,  -0.20067412,
  -0.09543114,  0.040023733,  -0.07213839,  -0.06026167,  -0.23066579,  -0.23056099,  -0.06774859,  -0.26360872,  -0.13412148,  -0.19847813,
  -0.086471796,  0.117391676,  -0.04749128,  -0.42606315,  -0.06360477,  0.07370199,  0.19651498,  0.2401708,  -0.04191991,  -0.12269258,
  0.04103575,  -0.16119751,  -0.2791971,  0.04876728,  0.020036813,  -0.33846414,  0.0639365,  0.045486804,  0.076631,  0.13218611,
  -0.08880763,  0.055910334,  0.027407188,  0.078785576,  -0.05283581,  0.1946214,  0.07322678,  -0.24930242,  -0.0045654257,  0.13054942,
  -0.02834878,  -0.16402492,  -0.5085754,  -0.16263099,  -0.52679485,  -0.21089236,  -0.43560538,  -0.27279046,  0.17347273,  0.19320422,
  0.0628764,  -0.14727278,  -0.38680756,  -0.13683535,  0.029152144,  0.08965674,  -0.18560478,  -0.34120247,  -0.06576919,  -0.34661385,
  -0.1402384,  -0.34548205,  0.042304877,  0.19604106,  0.3182254,  -0.07427334,  -0.067416504,  0.14619389,  0.05417597,  -0.037281897,
  0.03016445,  0.04383299,  -0.21523765,  -0.4751748,  0.22275637,  -0.21190208,  0.08977295,  -0.40715382,  0.040925063,  -0.12308106,
  0.16494718,  0.00804273,  0.06242612,  0.11262603,  -0.11364918,  -0.16538602,  -0.21039845,  -0.121046305,  -0.06287583,  0.028017087,
  0.10619667,  0.037903618,  -0.25757375,  -0.2133887,  0.087856926,  0.018319089,  0.2050212,  0.013330664,  0.13656229,  0.10431758,
  0.018703075,  -0.18591748,  0.09131524,  -0.04551631,  0.16191001,  0.3402568,  -0.4373045,  0.20960167,  0.23101592,  0.0018262782,
  0.021149976,  0.15613678,  0.087607816,  -0.027450839,  0.032547493,  -0.06756195,  -0.38794014,  -0.3010917,  -0.0571503,  -0.44592375,
  0.07131442,  -0.21114136,  0.17056759,  0.012439638,  -0.026022602,  -0.28035057,  0.18061861,  -0.044581283,  -0.08696573,  -0.049178816,
  0.07652409,  0.10873354,  0.14912155,  -0.0025573205,  -0.10690206,  -0.0061956877,  0.08489566,  0.060376372,  0.07812278,  -0.07369394,
  -0.07842442,  0.24077973,  -0.23060724,  0.10675544,  0.10604014,  -0.09363533,  -0.21913788,  -0.13658299,  -0.1215288,  -0.0592134,
  -0.16628253,  -0.01988398,  -0.12340718,  -0.22741735,  0.045266792,  0.1953817,  0.011194019,  -0.06152059,  -0.15073225,  -0.1194919,
  0.07655913,  -0.052058198,  0.1921439,  0.22491153,  0.13000812,  -0.24991074,  0.087029725,  0.1916792,  0.16693409,  0.08120733,
  -0.111945756,  -0.1043888,  -0.16270702,  -0.07121737,  -0.23934531,  -0.25309923,  -0.2047787,  -0.11267605,  0.013727051,  -0.30840322,
  0.019482858,  0.04099881,  -0.1839583,  -0.04475801,  -0.10447966,  0.040671773,  0.017984435,  -0.06127806,  -0.38869083,  -0.20120558,
  -0.16903128,  0.1254536,  0.2273008,  0.07406306,  -0.12473937,  -0.19623418,  0.19603178,  -0.05606047,  -0.4988021,  0.14250955,
  0.09795034,  0.13072044,  -0.30488068,  0.3064163,  -0.4369305,  -0.09962349,  -0.105341166,  0.14698869,  0.1354281,  0.25551552,
  -0.21264626,  0.18471192,  0.048059765,  0.08703609,  0.24203952,  0.19208938,  0.0018149912,  0.25049436,  0.09589041,  -0.062289104,
  0.13064687,  0.29722905,  -0.23299782,  0.12761845,  0.17675874,  0.069333054,  -0.15686703,  -0.04789156,  -0.03692741,  -0.07170115,
  -0.44463527,  -0.20894343,  0.20665339,  -0.24967097,  0.15572256,  0.18816753,  -0.00042449078,  -0.56101465,  0.21174282,  -0.0020626793,
  0.03996053,  -0.15503119,  0.15240836,  -0.0043508695,  -0.06488293,  -0.08646052,  -0.010129784,  -0.3904807,  -0.28214434,  -0.066776335,
  -0.061686393,  -0.06279586,  -0.26585984,  -0.3517359,  -0.015393578,  -0.071823105,  -0.023095286,  -0.06292548,  -0.045483746,  0.043944336,
  -0.062157474,  0.007346502,  0.027714463,  -0.047864377,  0.0038787525,  -0.008276631,  0.040403042,  0.019791644,  -0.0493936,  -0.039073158,
  -0.03517788,  -0.076614775,  -0.07029347,  -0.021994218,  0.014657552,  -0.06932122,  -0.075937666,  0.039094537,  -0.009640686,  -0.0696509,
  0.02636966,  -0.06716696,  -0.001265805,  -0.024164291,  0.028510865,  -0.024163513,  -0.04176163,  -0.006459022,  -0.06941109,  -0.04856793,
  -0.025129143,  0.037547946,  -0.019964745,  -0.07110193,  -0.025627548,  -0.012580403,  -0.06091532,  -0.06774582,  -0.006686943,  0.036863137,
  0.019308293,  0.019446129,  0.058500383,  0.025198625,  -0.07327881,  0.038126115,  0.0033280246,  0.008469978,  0.030632833,  -0.073337615,
  0.011580525,  0.0506174,  0.03212121,  0.034002427,  -0.012575811,  -0.048454687,  -0.034218404,  0.007317668,  0.009132176,  -0.0041685305,
  0.051505096,  -0.060915977,  -0.062353034,  3.7637717e-06,  -0.01970999,  -0.044400215,  -0.050154947,  -0.060454644,  -0.04402733,  -0.033720113,
  -0.08567171,  -0.04673383,  -0.0050883773,  0.019213254,  -0.01606769,  0.040141266,  -0.042804305,  -0.039169163,  -0.02192256,  -0.07714749,
  -0.08461679,  -0.014322521,  0.033785403,  -0.018284285,  0.008650829,  -0.0078111,  -0.037163902,  -0.049380142,  0.008476413,  -0.06728061,
  0.021742173,  -0.07446805,  -0.074189946,  -0.0076904753,  -0.03180466,  0.011316364,  -0.025729582,  -0.045195997,  -0.04819252,  -0.022916803,
  -0.011536521,  -0.045435574,  0.010965565,  0.01558126,  -0.06874311,  0.026954656,  -0.03255364,  0.009679114,  -0.007613047,  0.0127285225,
  -0.023061316,  -0.046354435,  -0.01613529,  -0.05836214,  0.0070390385,  -0.07015335,  -0.032461878,  0.04203285,  0.0001676978,  0.0058447155,
  -0.021142544,  -0.05707972,  0.040786106,  0.04192126,  -0.0014482525,  -0.069077685,  -0.00091191684,  -0.06421475,  0.0048371493,  0.023359649,
  -0.07806503,  -0.02116142,  0.010126174,  -0.0029730797,  -0.0672707,  -0.04419259,  0.017252294,  -0.08074422,  -0.03867515,  -0.01965914,
  -0.0388465,  0.046668477,  -0.025049465,  -0.085383035,  -0.0074696126,  -0.0628053,  -0.025683679,  -0.05055892,  -0.007235868,  -0.0007244622,
  -0.040411532,  -0.030103784,  0.02010652,  0.03662934,  0.008821882,  -0.042022113,  -0.04039401,  -0.04467028,  0.04099361,  -0.06922,
  0.029878156,  -0.043475162,  -0.028418694,  -0.058140192,  -0.0045546875,  -0.006210193,  0.01648232,  -0.05599795,  -0.051174633,  -0.08232576,
  0.043197367,  -0.06352515,  -0.06855914,  -0.06406685,  -0.03131251,  0.04125668,  -0.06035919,  -0.06423608,  0.026550202,  -0.07831682,
  -0.04498471,  -0.045627434,  -0.051730007,  -0.002802749,  -0.030263672,  -0.051370133,  0.044274937,  0.03865369,  -0.031402852,  -0.0070485123,
  -0.007238741,  0.0023602594,  -0.053045742,  -0.062226545,  -0.024264893,  -0.05292304,  -0.011952065,  -0.075941466,  0.002449955,  0.050635207,
  0.06303251,  0.0070943837,  -0.028075095,  -0.052887842,  0.023762122,  -0.047489487,  -0.005047874,  -0.00328085,  0.03051146,  -0.012337672,
  0.0044446276,  -0.07078116,  0.050179504,  -0.0029642058,  0.054387268,  0.03667324,  -0.064261,  -0.025972463,  0.015413382,  0.006510375,
  -0.060547095,  0.000667476,  0.024696104,  -0.0011031531,  0.004034091,  -0.001757791,  -0.0064048334,  0.002199655,  0.016282192,  -0.034333717,
  -0.037676774,  -0.020973437,  -0.041659698,  -0.011168932,  -0.018146817,  0.026358567,  -0.044405356,  -0.071426354,  0.04837751,  -0.046829447,
  0.016921824,  -0.00964558,  -0.029563695,  -0.04532003,  0.013849603,  -0.06372698,  -0.008968192,  0.042406175,  -0.00977485,  -0.05969686,
  0.1540024,  0.036294453,  0.00094833015,  -0.04455698,  0.072946616,  -0.09291729,  -0.012414617,  0.062101603,  -0.004697963,  0.2262987,
  0.13027509,  0.10593066,  -0.073859446,  -0.215707,  -0.096824735,  -0.17682055,  0.15099612,  -0.19942643,  0.09014149,  -0.2444764,
  0.07683564,  0.06612322,  0.07054745,  -0.04920865,  -0.045948196,  0.113536075,  0.04448553,  0.3656942,  0.040799122,  0.13731506,
  0.25084496,  0.15204039,  0.03719245,  0.02578813,  0.025644906,  0.009869198,  0.03697124,  -0.026469741,  0.0024424999,  0.053598925,
  -0.22047788,  0.0727861,  0.17670879,  0.00635469,  -0.112378314,  -0.058201276,  -0.19804533,  -0.2754682,  0.2176884,  0.24724913,
  0.19959597,  -0.008836648,  0.09734397,  -0.05610902,  0.113999054,  0.14786254,  -0.15554975,  -0.013893751,  -0.023984047,  0.22902061,
  -0.208691,  0.10881096,  0.108806774,  0.2870664,  0.096784815,  -0.040926993,  -0.06644584,  -0.14892003,  -0.09791314,  -0.080332644,
  -0.11509227,  -0.16091754,  -0.0040054005,  0.033548843,  0.10707662,  0.17231926,  -0.14183873,  0.05252954,  -0.37334883,  -0.24066375,
  -0.017943626,  0.11840846,  0.40216154,  0.03007871,  0.019931043,  0.1184484,  -0.00086996634,  0.06082078,  0.2731406,  -0.13755332,
  -0.14631996,  -0.08270782,  0.0966783,  0.07814816,  -0.032148533,  0.14893834,  -0.021882059,  -0.041097604,  -0.039034292,  0.12063417,
  0.23181231,  0.25287434,  -0.08068057,  -0.0037815021,  0.16153044,  -0.10354256,  -0.011550643,  -0.30365053,  0.00044712055,  0.084601834,
  -0.43118697,  -0.014503096,  0.09710408,  0.04705173,  0.13834943,  0.17877758,  0.14059474,  -0.034986515,  0.14262508,  0.2268567,
  -0.1619202,  -0.03135371,  -0.092145294,  0.004555341,  -0.16452993,  -0.41695744,  -0.12046287,  -0.28985173,  -0.15387595,  0.1742942,
  -0.024140708,  0.082268536,  -0.37421227,  -0.21299954,  -0.08751403,  0.14425297,  -0.17290242,  0.08515333,  -0.07292861,  0.05282846,
  0.17284779,  -0.14856476,  0.005527699,  0.12354398,  0.1272831,  -0.30521157,  -0.33395255,  -0.09693908,  0.24053328,  0.06842377,
  0.14234436,  -0.23790419,  -0.060745344,  0.050548162,  -0.05476667,  -0.05442501,  0.18876155,  0.06410477,  -0.10755232,  -0.41517013,
  0.18522874,  0.1201208,  -0.113599144,  -0.103273064,  0.12600651,  0.14529742,  -0.031417575,  0.15377423,  -0.0071647386,  -0.09701576,
  0.14475271,  -0.05612967,  -0.37633687,  -0.3954532,  -0.537855,  -0.4912567,  -0.07025767,  0.25895506,  0.07662938,  -0.029688884,
  0.02340072,  0.008550467,  0.07127917,  -0.0033625972,  0.059247162,  -0.014919638,  -0.0130630005,  0.36088914,  -0.19732708,  -0.17587942,
  -0.015621627,  0.18424429,  0.37085232,  0.34568188,  0.22718523,  -0.086365655,  -0.0959553,  -0.03475758,  0.08112972,  0.022471923,
  0.1562956,  -0.28499,  -0.23961478,  -0.113320775,  0.074611805,  -0.2838276,  0.22650571,  0.08667546,  -0.30508912,  -0.22255565,
  -0.009426846,  -0.07337087,  0.062354878,  0.015990281,  -0.13602725,  -0.032630138,  -0.017031912,  -0.074643195,  0.018502668,  0.07844833,
  0.0029011532,  0.020873789,  0.0557272,  -0.013362359,  0.3075119,  0.08663305,  -0.12450322,  -0.16440165,  0.023248725,  -0.22262095,
  0.010734365,  0.15099615,  0.16152002,  0.040786598,  -0.33088964,  -0.08473645,  -0.27339596,  -0.093783624,  -0.13492899,  0.12987804,
  0.13114318,  0.19717273,  0.21694888,  0.2977976,  0.20078655,  -0.021452306,  -0.020899432,  -0.106681496,  -0.030097634,  -0.04178426,
  0.14691657,  -0.2283376,  -0.27707624,  -0.41763312,  -0.19181962,  -0.1025819,  -0.016508613,  0.15008363,  0.049133666,  -0.12572642,
  -0.10861423,  -0.09231853,  0.29493645,  0.1020435,  -0.12452926,  -0.08497002,  0.048364945,  -0.05562405,  -0.13438971,  0.15662482,
  -0.0005283736,  -0.19587536,  0.06425721,  -0.05427708,  -0.068356365,  -0.4897419,  -0.06696506,  -0.02451309,  -0.056623593,  -0.3032671,
  0.03467981,  0.36732635,  -0.03745644,  -0.40806594,  -0.17913848,  -0.0367796,  -0.25419334,  -0.20242241,  0.016757058,  0.08636808,
  0.09252825,  0.11543307,  -0.10750603,  -0.0665831,  0.045027047,  0.16112325,  0.044465728,  0.1597215,  -0.20708719,  -0.26310194,
  0.14743386,  0.1791981,  0.11726752,  -0.30235633,  -0.0021710088,  -0.0019428037,  0.07394392,  0.17706314,  -0.28535008,  0.005474793,
  0.045258902,  0.0055977236,  -0.3903489,  -0.3311699,  0.033295013,  -0.0638157,  -0.04343624,  -0.0008472904,  0.09468548,  0.013868117,
  -0.024768068,  0.060777377,  -0.018856306,  -0.06827705,  0.0645622,  -0.07687999,  0.16649282,  0.055926472,  -0.32078525,  -0.23427299,
  0.1648543,  0.3372825,  -0.06240698,  -0.21017991,  0.05326762,  0.21806203,  0.052671816,  -0.15727462,  -0.15799367,  0.24959894,
  0.17437883,  0.056522544,  -0.30102158,  -0.2534448,  0.075378545,  0.2703274,  0.02735592,  0.1385853,  0.09714058,  0.12594867,
  0.037772853,  -0.14254694,  0.012011023,  -0.122855544,  -0.083728835,  0.036483034,  0.051368352,  -0.033666953,  0.22704935,  0.20532607,
  -0.16662247,  -0.22266726,  -0.42054608,  0.29879528,  -0.5778998,  0.07378737,  0.4198121,  0.003742457,  -0.034183465,  -0.17968242,
  -0.19603421,  0.2555132,  -0.10214013,  0.1609461,  -0.07337472,  0.006295205,  -0.26031488,  0.06170579,  -0.06557198,  -0.3349691,
  -0.035931326,  0.45695436,  0.29871637,  0.018496659,  0.08023372,  -0.22400114,  -0.015945688,  -0.092272475,  -0.035175268,  0.0379955,
  -0.14972956,  -0.11010846,  0.1738635,  -0.20600209,  -0.08669843,  0.041086044,  0.057942174,  -0.17496039,  0.2586217,  -0.05890152,
  -0.13197318,  -0.09841171,  0.016538361,  0.14637488,  -0.1593764,  -0.19144593,  -0.048300035,  0.24596849,  0.11946299,  0.07591048,
  0.17271383,  0.28987357,  -0.061294146,  0.22005324,  -0.23933284,  -0.1582949,  0.0174341,  -0.046085667,  0.030905703,  0.01298952,
  -0.14192787,  -0.19175236,  0.21851271,  0.21357612,  -0.24515377,  -0.29477996,  -0.19823961,  0.15216832,  0.065630846,  0.35788772,
  0.23678374,  0.4526615,  0.076977514,  -0.012426722,  0.02156182,  -0.402359,  -0.021692075,  -0.33320984,  0.0076349694,  -0.21331903,
  -0.11318142,  0.117084205,  0.08235507,  0.23984066,  -0.054245085,  0.009552945,  0.008998375,  0.33110884,  0.088229544,  -0.11962331,
  0.088029504,  0.19859684,  -0.24155085,  -0.10221775,  -0.21456668,  -0.35919923,  -0.08057657,  -0.16568375,  0.12056233,  -0.09350936,
  0.0030743154,  0.2100933,  0.18267739,  0.34771168,  0.022169156,  -0.06275465,  -0.21172222,  -0.47701734,  0.01594363,  -0.04313452,
  -0.0058864946,  0.007798719,  -0.1657785,  0.22014493,  0.013751813,  -0.17427501,  -0.59259033,  -0.3163826,  -0.11821383,  -0.38446817,
  0.15181276,  -0.032579876,  0.02216003,  -0.015065919,  -0.0854355,  -0.00404988,  -0.13995972,  -0.36523136,  0.052548707,  -0.1866885,
  0.048744675,  -0.07294467,  0.27889338,  0.18385623,  0.23590586,  0.2608586,  0.09704105,  0.012230598,  0.035093077,  0.03271978,
  0.07255417,  -0.12026773,  0.1059403,  0.028124956,  -0.43335527,  -0.21810551,  -0.101045825,  -0.039427765,  -0.16392605,  -0.06616809,
  -0.017035756,  0.30818048,  0.070584044,  0.07326673,  -0.2451171,  -0.33617672,  0.18330514,  0.06335444,  -0.07618421,  -0.018388242,
  0.14076075,  0.032759808,  0.097150706,  0.07768666,  0.0010498974,  -0.1467324,  -0.122669086,  -0.04193366,  0.0039838064,  -0.30281413,
  -0.25233704,  0.14979741,  -0.011588034,  -0.17746206,  -0.026415873,  0.12090806,  0.04370721,  -0.24837226,  -0.08978332,  0.5168656,
  -0.15658729,  -0.3224302,  0.069730416,  0.33415803,  0.28160042,  -0.028848479,  -0.12555636,  -0.092972554,  0.35508707,  0.013946571,
  -0.0083017815,  -0.06441625,  -0.19199418,  0.0026705205,  0.0052410443,  0.0662727,  0.110989206,  -0.09182191,  0.013904655,  -0.033840567,
  0.116553254,  0.18800837,  0.025194474,  -0.27450618,  0.06895285,  -0.08128822,  -0.013796851,  0.024777794,  -0.07990576,  0.028142778,
  0.03377864,  0.117608756,  0.2038133,  0.044074155,  -0.06489706,  0.07966784,  0.061719008,  -0.10661148,  -0.0030533404,  -0.10218149,
  -0.08413408,  0.014858373,  -0.06720201,  0.008942522,  0.18702039,  -0.030879196,  0.20471618,  -0.47253218,  -0.19652656,  0.18189812,
  -0.36582282,  0.0012353021,  -0.057369176,  0.09788396,  0.13242929,  -0.023705766,  -0.020514164,  0.04092163,  -0.022789316,  0.022576898,
  -0.07723808,  -0.22847581,  0.029445099,  -0.15082726,  0.027216777,  -0.1045159,  0.059463844,  0.11558645,  0.100978695,  0.045141198,
  0.14782006,  -0.030900043,  0.26253065,  -0.01023597,  0.011793469,  -0.09150195,  0.045021128,  -0.014840717,  0.031239577,  -0.13074711,
  0.1450322,  0.1284068,  -0.31448352,  -0.23371409,  0.08755831,  0.09764585,  0.09681326,  0.051583778,  0.067328125,  -0.078582846,
  0.15068743,  0.059911128,  -0.18873039,  -0.08140203,  -0.16455571,  0.039538823,  -0.038996506,  -0.4092164,  -0.22165133,  -0.38048372,
  0.08435484,  0.14690015,  0.23470183,  0.007576742,  -0.19795914,  0.08112857,  -0.04346654,  0.13595408,  -0.04379371,  0.12565789,
  -0.14230992,  0.15196595,  0.07864326,  -0.4037647,  -0.06809244,  0.01736511,  -0.029108532,  -0.04368388,  -0.021912515,  0.19631688,
  0.093796216,  0.03584768,  -0.03084007,  0.036401697,  0.04560146,  0.010052618,  -0.032691263,  -0.12524702,  -0.1629483,  -0.12340215,
  0.084017545,  0.037352994,  0.12066736,  0.042888463,  -0.12107188,  -0.08794104,  0.3965705,  -0.017020898,  0.059091147,  -0.090841405,
  -0.03603671,  0.040150933,  0.009689975,  -0.08945197,  -0.25639716,  -0.2794729,  -0.31679326,  -0.43769965,  0.15802549,  -0.06148761,
  0.0021150839,  -0.17072797,  0.055914022,  0.043248825,  -0.059224837,  0.06393177,  0.01224339,  -0.01161641,  -0.19186288,  0.26307198,
  0.1433245,  -0.10747038,  -0.13407455,  0.013015746,  0.21291491,  0.4025334,  0.08394152,  0.02295387,  0.081927076,  0.0075558685,
  -0.077488266,  -0.13715975,  -0.12420318,  0.06983887,  -0.3029216,  -0.34611142,  0.07116711,  -0.28761792,  -0.19450971,  -0.13934833,
  -0.06456896,  -0.031989075,  0.044273652,  0.2131129,  0.20780668,  -0.119714946,  -0.2521544,  0.19882399,  0.22884215,  -0.4922177,
  -0.1253036,  0.029835936,  -0.010577736,  0.17685644,  0.17193335,  0.1482887,  -0.113803856,  -0.05922529,  -0.25076628,  -0.11829702,
  -0.01955932,  -0.11913628,  -0.13798203,  -0.1454966,  0.23683041,  0.020265393,  -0.39149266,  0.17411742,  0.12886468,  -0.21590462,
  -0.38691145,  -0.221031,  -0.057367507,  -0.05675776,  -0.10650052,  -0.06762646,  0.16471325,  -0.017435895,  0.15899658,  -0.33422232,
  -0.040070836,  0.11261986,  0.00047564207,  -0.268865,  -0.10231111,  -0.24855599,  -0.08260032,  -0.6070381,  -0.13644184,  -0.40019464,
  -0.59863293,  -0.13130492,  -0.088276304,  0.07375328,  -0.06505682,  -0.03266057,  0.19537069,  0.1467528,  -0.14432104,  -0.12831575,
  -0.008982039,  -0.10065992,  -0.11470288,  -0.0043942393,  -0.3226959,  -0.18402594,  -0.18609546,  0.2377858,  -0.14333063,  0.006985258,
  -0.09139073,  0.10097003,  -0.06082291,  0.096643694,  -0.116183236,  -0.054621477,  -0.17698525,  0.053888895,  -0.019586785,  -0.14640671,
  0.22995338,  -0.24284233,  -0.68511766,  -0.36327332,  0.03290018,  -0.28447485,  -0.067599274,  -0.041455716,  0.01822373,  0.047363028,
  -0.024418166,  0.056410477,  0.088536,  -0.060229193,  -0.05079302,  -0.0018735377,  0.17221089,  -0.17172952,  -0.2744737,  -0.21563469,
  0.034897216,  -0.20703457,  -0.09568521,  -0.1352618,  0.077975675,  0.08308022,  0.056393176,  0.05634348,  0.17816614,  0.06380299,
  -0.04609276,  -0.24410903,  -0.29583392,  -0.3338382,  -0.57701415,  0.1396161,  -0.059213277,  0.068344995,  0.22120045,  0.066037945,
  0.1763697,  0.18194613,  0.11596972,  -0.34733838,  0.15493031,  0.1872122,  0.13444261,  -0.039468057,  -0.12852538,  0.061553836,
  -0.16227749,  -0.029445749,  -0.05365299,  -0.19456598,  -0.28019756,  0.13791326,  0.07721522,  -0.17288281,  -0.15819564,  -0.00634008,
  -0.036071584,  0.066724166,  -0.019692285,  -0.0015684613,  -0.03323641,  -0.030122884,  -0.12614378,  0.062504105,  0.15838106,  -0.1418763,
  0.024329605,  0.10060411,  -0.0407856,  0.1450202,  0.10752322,  0.18598898,  0.28255686,  0.22460955,  -0.05613343,  -0.1538008,
  -0.23769371,  -0.0013202593,  0.101571776,  -0.15890375,  0.037505455,  0.08587025,  0.1772959,  -0.056370918,  0.23668778,  0.028513601,
  -0.07253483,  0.099977694,  0.32173395,  -0.08651583,  -0.097591,  -0.14063331,  0.3155297,  0.32366452,  0.5457193,  -0.019055473,
  0.3916705,  0.1274313,  -0.015254663,  -0.27156612,  0.20028839,  0.15336087,  -0.08921474,  0.056802586,  -0.58876145,  -0.05258429,
  -0.11609971,  -0.03022002,  -0.1360192,  0.014796397,  -0.09565365,  0.027972741,  0.2301722,  -0.024682805,  -0.1265665,  -0.34298122,
  0.05546239,  -0.008035081,  -0.1867423,  -0.1278365,  0.23324779,  0.07405594,  0.022937164,  0.11562244,  -0.2653174,  -0.167476,
  -0.1983148,  -0.18223797,  0.09654548,  0.28262836,  0.05188287,  -0.044214603,  0.02266186,  -0.003175123,  0.017218102,  -0.04975683,
  0.11514744,  0.10688414,  0.0007743647,  0.14895168,  0.14957432,  -0.21302147,  0.1567568,  0.19137488,  -0.09592011,  -0.10604566,
  0.27326548,  0.3189915,  0.045736905,  0.17598681,  0.40103674,  0.057182502,  -0.30606082,  -0.0062781773,  0.040176205,  -0.13356112,
  -0.14760081,  -0.1195191,  0.0887639,  -0.00045708407,  0.029607857,  0.48472333,  0.26909876,  0.030742802,  0.26360226,  0.011901004,
  -0.049191907,  0.051298805,  0.18280788,  -0.0853319,  -0.053388968,  -0.14623703,  -0.27858067,  -0.03448173,  0.20631664,  0.59905463,
  -0.17425561,  0.22207652,  -0.058007833,  -0.13252492,  -0.14370613,  -0.043331508,  0.13402799,  0.14536685,  0.25189778,  0.20422222,
  0.30741763,  -0.12352645,  -0.19444087,  -0.12054191,  0.195003,  0.21413106,  -0.15405783,  -0.16198461,  -0.058212075,  0.17101336,
  -0.048443247,  -0.13251448,  -0.06333322,  -0.21985006,  -0.13719232,  -0.05993507,  0.0010238274,  -0.23993362,  -0.1371445,  -0.38553149,
  -0.07970951,  0.16372289,  0.13820681,  0.12657015,  0.26940244,  0.36654374,  0.087742716,  0.09082586,  0.0007829931,  0.1640853,
  0.16270113,  0.09683944,  -0.035301607,  0.00053782685,  -0.05976284,  -0.25459638,  -0.09171524,  0.033722665,  0.20988512,  -0.10128945,
  0.14845228,  0.28212526,  0.18581186,  0.038598295,  0.08911965,  0.124501444,  -0.30738923,  -0.41356018,  -0.30293074,  0.0015071246,
  -0.41961566,  -0.27587864,  0.022868184,  0.24697568,  -0.17233267,  0.025796797,  0.27690613,  0.33449605,  -0.08079645,  0.33957094,
  0.2724055,  0.3995489,  -0.008500977,  0.19312756,  0.1566459,  -0.02405499,  0.05268379,  -0.117846064,  -0.053120956,  -0.3637289,
  0.30162743,  0.25794056,  0.047393125,  0.38235304,  -0.17736204,  -0.07541192,  0.14556862,  0.19700526,  -0.33348694,  -0.11342391,
  0.29096276,  0.05555946,  -0.2666258,  -0.24636598,  -0.17760298,  -0.32471806,  0.059600048,  0.02163259,  -0.14184898,  0.018369244,
  -0.04905767,  -0.060820736,  0.027121797,  0.4314465,  0.15492305,  0.081789054,  0.06825162,  0.07295285,  -0.22258355,  -0.343182,
  -0.35396522,  -0.019814663,  0.032387525,  0.18742137,  -0.04807765,  0.05610662,  0.1707059,  0.13728344,  -0.10935541,  -0.3328339,
  -0.16915013,  -0.36304936,  -0.20801489,  0.072868824,  0.17819527,  0.039622556,  -0.2869768,  -0.2952441,  -0.23185521,  -0.07414785,
  -0.11646604,  0.26667908,  0.074672595,  -0.058492016,  0.113984555,  -0.08980524,  -0.058925483,  0.026861997,  0.21944483,  0.17123811,
  -0.11590623,  0.15024047,  -0.10548465,  -0.06827503,  0.16200657,  -0.03912977,  -0.08755282,  0.11520849,  -0.0020850103,  0.047862787,
  0.09080892,  -0.1425923,  0.22569023,  -0.06002525,  -0.030447034,  -0.17339654,  -0.076814674,  0.37613913,  0.028692847,  0.01726554,
  0.22074096,  -0.018399715,  0.17975262,  0.110928185,  0.13151473,  0.014271708,  -0.023579419,  0.16243404,  -0.14582106,  -0.4651302,
  -0.2520999,  -0.07727626,  0.08747582,  0.32735232,  0.2963958,  0.34635705,  0.22775812,  -0.00802657,  0.016805714,  0.0745102,
  0.0295363,  0.07959904,  -0.12360234,  -0.114693545,  -0.2632975,  0.021401856,  0.05710965,  -0.05238154,  0.09096565,  0.20172001,
  -0.1249148,  -0.4303171,  0.2520003,  0.06548867,  0.19467965,  -0.4798092,  0.13648455,  0.38949993,  0.026741952,  0.11404229,
  0.19998841,  -0.06181688,  0.053786226,  -0.24497038,  0.21698458,  0.1454836,  -0.06311669,  -0.08057455,  0.04376795,  0.17363939,
  0.10971756,  0.08257636,  -0.05621406,  -0.367364,  0.14549065,  -0.23063518,  -0.2749684,  -0.34113026,  -0.22317564,  -0.028614886,
  -0.121333405,  -0.14962673,  -0.20962912,  0.24560936,  0.114914745,  0.16768083,  0.14617698,  -0.14065625,  -0.021285696,  0.15131037,
  -0.0242425,  0.32322657,  -0.05070969,  0.10590791,  -0.047758352,  -0.058876768,  0.013109746,  0.07895875,  0.13229366,  0.07888319,
  0.024884425,  -0.16577582,  0.092675336,  0.11443811,  -0.05682605,  -0.14557794,  -0.26441157,  -0.0401026,  0.19947964,  -0.101298735,
  0.07478226,  -0.06677093,  -0.5711915,  -0.100836076,  0.15596132,  0.10609124,  -0.2605686,  0.2652833,  -0.11005541,  -0.120874695,
  -0.039337326,  0.10070714,  0.117272794,  0.071731254,  0.122010544,  0.07003243,  0.18237372,  -0.08085975,  -0.13741463,  -0.07165854,
  0.07438533,  0.01599292,  -0.19966878,  -0.114866845,  -0.09593108,  0.22180772,  0.035853602,  -0.1575183,  -0.1602575,  0.117319256,
  -0.27615044,  -0.031112721,  -0.1536669,  0.3475926,  0.14607325,  -0.0118883345,  0.06926299,  -0.0634184,  0.28762445,  0.26571563,
  0.043454148,  0.404076,  -0.121062,  -0.19275373,  0.051509313,  -0.14495173,  -0.04926291,  0.056205157,  0.30386075,  -0.0010823832,
  -0.65570027,  -0.24327682,  0.13081354,  0.07142475,  -0.06432326,  0.058508325,  0.20533289,  0.37746665,  -0.18390107,  -0.19482549,
  0.009334297,  0.0151661765,  0.025188487,  0.16037524,  0.0009049602,  -0.19874616,  -0.030397454,  0.14971127,  -0.078808725,  -0.37383226,
  0.056983866,  0.024442535,  -0.026394926,  -0.21220188,  0.13220382,  0.07006011,  -0.09606906,  -0.7411809,  0.19757037,  0.03905667,
  -0.25682217,  -0.3039813,  -0.21662366,  0.16294338,  -0.087210074,  -0.14110559,  0.24990544,  0.2773872,  0.28335172,  -0.080709405,
  0.086094804,  0.13547511,  0.15679164,  -0.05958829,  -0.17669679,  -0.12802114,  -0.3461583,  -0.202553,  -0.14425611,  -0.016608821,
  -0.10086092,  0.06246748,  -0.15384518,  -0.14034322,  0.12716123,  0.010928369,  0.045424275,  0.08678778,  0.16647726,  0.18391053,
  -0.115960784,  -0.2973044,  0.33262655,  0.3504673,  -0.019284599,  0.09899872,  -0.07511135,  0.17639492,  -0.17215237,  -0.21728283,
  -0.08409486,  0.026249193,  0.20884503,  -0.1029736,  -0.06347515,  0.006137015,  0.23173481,  -0.02719785,  0.0953788,  0.07869768,
  0.2226476,  0.23629673,  -0.0576683,  -0.14414373,  0.18167402,  -0.118380815,  0.23177265,  -0.17944987,  -0.3123592,  0.055093583,
  0.15703367,  0.20634642,  0.17255543,  -0.02575936,  0.20883903,  0.23286892,  0.009140309,  -0.22563922,  -0.0050421716,  -0.01831162,
  0.058872912,  0.015932728,  -0.18050304,  -0.062272582,  0.27098435,  -0.16417219,  -0.23094831,  0.053128384,  -0.014821525,  -0.4160234,
  0.10135968,  0.13747866,  -0.22372265,  -0.108151674,  0.04392997,  0.006831053,  0.14756407,  0.18687828,  -0.051180173,  -0.20222832,
  0.062090952,  -0.19067302,  -0.15973696,  -0.09136406,  -0.11604604,  -0.027894191,  -0.058487583,  0.01602727,  -0.23911574,  -0.14974876,
  -0.05962095,  0.0005224968,  -0.14921242,  -0.032058116,  -0.0727211,  0.025684305,  -0.358532,  0.20802325,  0.03216713,  -0.018188251,
  -0.12950154,  0.14211905,  0.12714897,  -0.029120175,  0.2042754,  0.3599475,  -0.17072506,  -0.019129636,  -0.05132256,  0.11875503,
  0.14832407,  0.30478415,  -0.2795147,  0.06628583,  0.0635522,  -0.07041291,  0.051552072,  -0.07513484,  -0.17433396,  0.0002078881,
  -0.18253146,  -0.040251188,  -0.0024002742,  0.13331519,  0.37242487,  0.20955412,  0.110309355,  -0.053420834,  0.35513404,  0.12867479,
  0.028201668,  -0.019207995,  0.013215549,  -0.27550358,  0.1042288,  -0.06716254,  -0.002744681,  -0.27299237,  -0.28303182,  0.021978922,
  -0.029049823,  -0.06720126,  -0.020592598,  -0.049513184,  -0.0445608,  0.0067935716,  0.17203607,  0.16181104,  0.04993325,  0.06208305,
  -0.071887195,  -0.049242236,  -0.36354473,  0.04377843,  -0.10013948,  -0.2981704,  -0.15960003,  -0.14427334,  -0.14371502,  0.08855529,
  -0.65681416,  -0.17597206,  0.1455421,  0.24145783,  0.0028521589,  0.23868275,  0.23849572,  0.1774262,  0.04115984,  -0.076039836,
  -0.322535,  -0.412069,  -0.3693696,  -0.025078353,  0.19496882,  -0.19539277,  0.3732879,  0.20324954,  0.062128477,  0.05226932,
  0.29186982,  0.06290896,  -0.07015498,  -0.038509957,  0.10561833,  0.10519729,  0.087640084,  -0.038892794,  0.09812257,  0.011817253,
  -0.03140216,  0.104363054,  0.09037953,  -0.16593306,  0.1793322,  0.014173613,  0.23990284,  0.3142012,  0.06471778,  -0.17929235,
  -0.1791905,  -0.3031496,  -0.10939734,  -0.09748163,  0.03094008,  -0.30074447,  -0.041345652,  -0.6220697,  0.2341684,  -0.20658109,
  0.16006231,  -0.09557554,  -0.28593418,  -0.1631395,  0.113290854,  -0.06445463,  -0.045716923,  -0.10830652,  0.20498095,  0.1443716,
  -0.35529834,  -0.20140277,  0.047581133,  0.1871382,  0.038018648,  0.07987164,  -0.02679157,  -0.036381315,  -0.0031605815,  -0.022974012,
  -0.26792493,  -0.05917178,  -0.25127128,  -0.103624485,  -0.06922332,  -0.3183729,  0.028493056,  0.034409694,  0.14112808,  -0.17054175,
  -0.110603556,  0.017843438,  -0.21854573,  -0.12586574,  -0.15790878,  -0.07384756,  0.11161994,  0.33167303,  -0.32687494,  -0.11278441,
  0.035836674,  0.06716009,  -0.3559911,  -0.01376879,  -0.06461756,  0.03987204,  0.26817313,  0.020545378,  0.030960059,  -0.068713576,
  -0.17788537,  0.15772276,  -0.028090997,  0.11746067,  -0.0034916871,  -0.010730562,  0.09653833,  0.018278172,  -0.4171666,  -0.052450176,
  0.1223936,  0.09707428,  0.055664375,  0.04175957,  -0.07980985,  -0.13190867,  0.13817872,  0.0010709121,  -0.04645095,  -0.2811081,
  0.10586881,  0.33816287,  0.31905413,  -0.07772795,  0.056446105,  0.07710876,  0.07767025,  -0.13359806,  -0.09059004,  -0.055694826,
  -0.20775533,  0.066429876,  0.17317583,  -0.05608875,  -0.14787038,  -0.28638932,  -0.0852544,  -0.1788256,  -0.19672354,  -0.23267356,
  0.15769932,  0.060713053,  0.10409813,  -0.27744982,  0.07945581,  3.5013574e-05,  -0.03737878,  0.0035424943,  -0.22182396,  0.026637657,
  0.06661382,  -0.1882325,  0.12128802,  -0.17040248,  -0.021449877,  0.06639464,  -0.1797378,  -0.101006605,  -0.022733722,  -0.017096737,
  -0.11617039,  -0.10090228,  0.02948331,  0.081391566,  0.098813556,  0.30425248,  -0.07006262,  -0.0027309768,  0.07715963,  -0.18275626,
  -0.14066605,  -0.13126507,  -0.13968867,  -0.052867454,  -0.07212005,  -0.019776462,  0.048483588,  0.12265685,  0.10883868,  0.007900862,
  -0.12043123,  -0.30087626,  -0.28966218,  -0.0816838,  -0.22703375,  -0.46129656,  -0.5456187,  0.12080882,  0.11695402,  -0.12061785,
  -0.36364767,  -0.1605768,  0.07416917,  -0.016123967,  -0.14014408,  -0.27134773,  -0.025217475,  -0.26268858,  0.07084685,  0.019116867,
  -0.14403984,  -0.017489936,  0.10809232,  -0.17881025,  -0.03246465,  -0.1229638,  -0.05464751,  0.0014465039,  -0.06836278,  0.0158946,
  -0.029755464,  -0.25051823,  -0.1226266,  -0.10361192,  0.054384563,  0.14678918,  0.04053446,  -0.039675143,  -0.02729257,  0.06580684,
  -0.34879148,  -0.18571705,  0.27602068,  -0.028409615,  -0.023101816,  -0.03445572,  -0.02179629,  -0.07654183,  -0.015007344,  -0.36025035,
  -0.4738364,  -0.11828389,  -0.24250105,  0.079097494,  -0.20678669,  -0.23128323,  -0.02777846,  0.026361356,  0.118244335,  0.12281801,
  0.12939589,  -0.21005504,  -0.03402296,  -0.27197236,  -0.059876252,  0.13881369,  -0.08341022,  -0.33198294,  0.052274663,  -0.26215443,
  -0.13070919,  -0.13194586,  0.12032066,  0.019675972,  -0.11281363,  0.086163305,  -0.0049106837,  -0.123150826,  0.043753233,  0.026878688,
  0.089856334,  0.20837589,  -0.31618878,  -0.20438568,  0.07808242,  -0.10489517,  -0.18003453,  -0.16274372,  -0.008700905,  -0.24402596,
  0.09630958,  -0.101666644,  -0.21583383,  -0.10064264,  0.04555036,  0.15892167,  0.018462941,  0.08725945,  0.11589686,  0.17260379,
  0.19608697,  -0.043749478,  -0.16336012,  0.014231732,  0.025072232,  0.13429114,  0.21394764,  0.041665748,  -0.094230756,  0.043445155,
  0.18008569,  -0.26707417,  -0.16538928,  -0.06469663,  -0.027098602,  -0.4428092,  0.093327984,  0.16783294,  0.065260805,  -0.15792091,
  -0.30733848,  -0.26802623,  0.10194895,  0.062089346,  -0.016836243,  -0.118285395,  -0.045320455,  -0.10435764,  0.047893893,  -0.2732542,
  -0.47739837,  -0.3845274,  -0.18822685,  0.034152612,  0.08694921,  0.13656016,  0.4383869,  0.14590403,  0.024592593,  -0.13985266,
  0.09498252,  -0.19147323,  -0.10121389,  -0.08969999,  0.0014486131,  0.09410912,  -0.008444246,  -0.029784119,  0.14975223,  0.07589562,
  0.12936826,  -0.061050236,  0.0028055948,  0.08794061,  0.11520439,  -0.27624083,  -0.09590905,  -0.07709715,  -0.12232542,  -0.11828918,
  0.026088348,  -0.03859051,  -0.3458344,  -0.1012846,  0.0066370023,  0.008969597,  -0.30244756,  -0.20436504,  0.48003566,  0.097801805,
  0.028644979,  0.0841907,  0.14109674,  -0.1458645,  -0.09335247,  -0.00044144658,  0.018034572,  0.08580598,  0.061894577,  0.09318198,
  -0.50696176,  -0.14588608,  0.09041402,  0.19975443,  -0.083053574,  -0.22242342,  0.0961785,  0.27151862,  0.22236767,  -0.017455367,
  0.029939625,  -0.07548511,  0.09155211,  -0.15025322,  -0.14923796,  -0.3227283,  -0.29785424,  -0.043795027,  0.1936123,  0.6168123,
  -0.15270826,  -0.062975086,  0.0010972614,  0.28539154,  0.08294397,  -0.20488793,  -0.115993835,  -0.17449538,  0.06646892,  -0.027543303,
  0.00492893,  -0.30427778,  -0.038779408,  0.12794293,  0.11791495,  0.21047339,  -0.041512717,  -0.28289583,  -0.10630266,  0.31307834,
  0.1516769,  -0.06358269,  -0.052978322,  0.18796307,  0.26579472,  -0.101243876,  -0.11647016,  -0.07116822,  0.052685175,  -0.33339587,
  -0.51053953,  -0.3931466,  0.1751132,  0.05917138,  -0.15141423,  0.10177866,  0.33830237,  -0.13430966,  0.0008910159,  0.12383572,
